abordant,-3.0654892115021997,3.5115344586220245,3.0382779159468076,-1.850430730288457,-2.1509379350419424,-5.9367934951234655,1.841699035624649,-0.4900014777026437,-0.2086913146064326,-0.4171175795865943
aborde,-9.208339920229257,-8.165748781812887,0.5214603104413763,-1.1296822635223616,-0.1615778451492771,-3.561037749308625,-0.07374498481676445,-0.34424022236418345,-0.7994851489362853,-0.30437259737287986
aborder,-7.375015265781196,-7.307155004650523,-1.217379659966936,1.9657167805718603,-1.3988665439015266,-5.082833427830735,-1.5332123459608085,-2.9116265540962214,-1.2289242412816306,-0.6585386614279182
abordons,4.5190227278386805,-8.15951768044028,4.987332144461477,-0.4016219234210528,-0.8542239734044337,-1.6067608505720365,1.3960576048919056,-0.05886389229862628,-0.6082130324767122,-2.6382087842035458
abordé,4.35361932883731,-1.7937738916399095,-0.38349772599646786,-2.369216530747086,0.6054870761687674,-1.7998489313215023,-3.5664242437144686,-2.585527148587857,-2.5791873924700197,0.9684793995776911
aboutir,-7.78078939781724,2.6218886943017385,-0.7193159678575272,3.5176769708299136,-3.143446718080631,-0.01778209581516684,-3.216476394391727,0.7812022192092869,-0.16145204213759773,-2.0749781109954806
aboutit,-9.493048326971625,-3.2768765470443326,-0.1376261586284772,-6.299195959604044,4.201400585811667,0.09036966375707432,-0.755997915299052,2.690678539599241,-2.825170499965419,-2.9456618459646484
absence,2.7376154100184573,3.785908552741532,2.106196951299637,-1.7534629169625071,7.570077065254055,-0.7149422686326551,-3.8808141567909122,0.8479078473065977,0.9470195379782709,-0.43413387730406966
absolue,-7.230017835800466,-5.334958037361046,7.732154353367773,-5.19690862203343,1.6707578004934223,-1.3959507743701693,-0.5137052993406582,2.719992125963817,2.306400418961252,-0.742474068707825
absorption,21.66949626043037,-1.9362141287006283,-13.152975043482728,-6.563980121575209,-10.270357086502594,5.777881134217533,3.67284798981219,-0.8023445613044818,2.1179330515730896,-0.30333958888394574
académique,-5.499242603508763,5.269207513688965,2.3867355983858034,-2.3278208353609764,-4.60892197096162,-3.7620222323073915,-0.8175392054601973,-0.49078296716598035,0.27062303120260206,-2.0921780475553167
accent,-5.334299129982539,3.602091059164703,3.8579614113259266,-3.852313817117687,0.5631806531529717,-6.110932890359058,-1.9391519229486787,2.4832162350217772,9.154121451520199,-1.1371857884787966
accompagne,1.865738772266763,-1.8311449082546192,-3.7668382245550376,0.9021549215362069,-4.226614839791303,3.7069128626674424,-0.12180205412964569,0.9022416941990946,0.29327401554225546,-0.6805600593417777
accompagnement,-5.059313866011542,7.536028273544256,0.17735180567418266,2.6140971611928348,1.0431650480391186,1.079982299887495,2.8156854304221395,-4.22114975353333,-3.4856636353222785,-3.432715379279477
accomplir,-11.865783778099404,-10.761085954552211,-1.7913119256125198,0.5426676446400217,1.9674558132905644,-2.119851382508419,5.275875574471417,1.4714948266466281,0.19697363373516444,-4.871315222235514
accord,12.928741322142644,3.7155865332497604,-4.257449241335007,-2.0720187868305184,-7.8054959561193655,0.43541857592435224,2.0011156504838006,-0.6970946259991426,3.621325769844838,3.2262746901018438
accords,-0.7146286810500128,13.000245215883545,7.190694754441577,-2.2455696306420627,-2.544492468394832,-4.848614750449021,0.7331334685836135,0.5015193858808072,2.9842309149956234,-0.7611509471308754
accordée,0.8365677484875529,-1.0924627801668585,-2.645264536312595,2.8360365139497854,-2.616003664441282,0.1226681693718681,0.5172215590234308,-0.7134584866063547,-0.1531854518281251,-1.343516862877807
accrue,-0.48065859517725007,12.080742966807252,-3.0173568545271525,-7.541121029406454,7.764727236077315,0.8356158700523971,-8.644541137937999,1.509612951215637,14.083381874069932,-5.951890134487422
accueil,-8.134715802927403,5.983512920076094,1.5917812515350427,5.473406029628292,-1.271917280193413,0.41957327309873044,0.04174272780965957,0.8182664580461726,-1.2981959128767255,-5.2552429013114965
accumulation,9.221692297788579,8.576972993354701,-9.848107067071686,-3.206819727319388,10.461743739121308,-0.5803998845334655,-4.636708524242063,1.8937702796399265,-1.3602717900256662,-0.12724604377593127
accès,-3.385813274845829,7.838387134065822,0.9430253311871226,1.5955480393756563,1.0845568717686258,2.3132858334854665,1.6973006438952296,8.030013784522382,-5.614284970986663,3.674259978223237
accéder,-3.89518684732063,-1.6263416783597326,-5.673371558500426,-0.9940953321512563,-2.635659321734755,-1.658633113892295,1.472726265723088,-0.2687168173579528,-2.9300414309055296,-2.7262430433793825
accélération,7.1015822109496485,1.3262335489580424,-7.738846808123165,-5.746992829797305,-2.876956012426741,3.218580083156376,2.549162961608198,2.34554961744708,0.7394229452404449,0.15821959124632295
acoustique,12.523084266198216,-1.669126222684662,-6.547751040110852,4.681518601645344,-4.166960055955783,3.609291114845832,3.6480185358349844,0.3597398131092563,-0.06657160661662803,-2.3919359478594466
acoustiques,12.972621491624462,-1.9188098598645724,-5.875434281027905,2.036714808627361,-4.626071511165763,3.4724836083856303,3.6598563081524,-0.007198962176499503,-0.5158200299523402,-0.8835517887014444
acquis,-7.235322067067605,3.523869438818246,-2.563191791419307,13.985776875838193,-4.000611363941563,2.6469567812373813,-4.450214095203903,4.282761215716684,-6.358815787205942,-8.57179305926764
acquisition,7.333063964414091,-0.6051046126494024,-5.28453711635897,12.799993384322043,0.3018469814524548,0.6510377768150362,0.20553203345146173,1.1879837201205428,6.174662462153658,9.394423247549042
acte,-14.593950368909768,-8.072565261949013,-3.4536376643482165,-2.3791286050270988,0.47314541488206924,-0.43515166552539153,3.4145803658360605,-1.7507028920753016,-0.18620150824187198,-0.33094572385028187
actes,-11.097540251010656,-2.1269726825055595,-1.8127305272140486,4.0969045165452735,-0.021646468595225093,1.1874189359510805,0.023600058545769777,0.15042941291189238,-0.6408857841264929,-0.6561365545827093
acteur,-12.053864568474982,0.9306455612894157,0.986468167568378,-3.719202434184828,-4.069421322754352,0.6860846651987118,-2.18409667850499,0.6084317268681818,3.4045243836375603,-1.9362091495993727
acteurs,-7.754346479945587,14.693189987925297,5.762832012292267,-1.7421626194309343,-2.92279987276155,6.593195013106779,-1.1360526057345375,-5.458657115604068,-4.358585328425427,-1.037415717895961
actif,5.253171760144105,6.140219763317804,-2.9120551953480636,-4.9771907946864635,-5.946628938782245,-3.7477870400417697,0.5111924848502206,-1.2252519090636724,-1.538246839686021,-0.863149511035275
actifs,12.169077455764713,8.504198896514307,4.015732567638402,-0.7714622212980862,0.2923877434069973,-17.01019997549797,7.990858991945178,3.14295675625341,10.118481504392355,9.913890466713047
action,-5.882053132407466,5.6052060023694175,7.20618999912611,-2.15499177944743,3.098084332787896,8.045713502420067,4.4712455543959,-8.558939564722468,-2.729520332709391,-3.5454446531473813
actions,-1.639921248382764,7.541803656188544,5.461187711876084,-0.23785611109422305,3.1827640778682325,-0.12203332735101907,7.9123567426084085,-5.811018479759344,-2.295651111166864,-2.4709250896492336
activation,8.469443109166866,8.369490942965234,-11.38137560298508,-4.937180205158863,21.496096783640695,3.655317846270135,-6.901101353679461,-1.3323367768932861,-3.406999357460147,-4.146471070365048
active,1.6629104640652772,1.8096668248258139,-7.550242030226946,-6.860704659883893,3.098269744156124,2.9054142418035283,-3.4474820032955606,4.097830848973496,11.862345887691061,-7.055006302376123
activité,2.417703170915369,5.973206811304382,-5.130224951173119,0.22780199444376464,8.186255177326007,-4.23584396359845,-0.09815370401359653,-0.23960185052896937,-1.4456641797904197,-2.6956826543517165
activités,-4.522333645397042,9.304489563987824,-1.152324476352015,13.970483403955852,-3.595112288943497,-2.4215923243346635,-1.1111244278189336,1.466078103699203,-4.654525970592247,-3.693909757833046
actualité,-7.504289548990925,-0.7526888435982679,-4.747580910088129,1.0467733383004887,1.9982128647282917,-1.8818926226339843,-0.37045424324037285,-0.4755522579565813,-4.124515857428878,0.08411370544531942
actuel,-2.301431911541158,-1.0750724231839217,-5.187720938483438,1.682579437886564,-3.0094015473852513,-2.694712588963409,1.9074553362575697,-0.32619209771203267,-1.730108633982585,-3.5232419121543526
actuelle,-1.9264699597830166,2.838783605755743,-3.019785646319832,3.9392067264761863,-3.7637095215209437,-2.2102792782716936,-2.537630822255262,-1.7078265999773243,-4.011563187454948,0.3260064495692703
actuellement,7.561450251177211,2.535658868890088,-8.15976659970238,3.708539715108453,-0.7780173763313545,-0.5048889424045077,0.4100083918946877,-0.8017614023049082,0.33606789526865116,-1.2622360349919304
actuelles,-3.318398482101407,3.580741089326094,-2.8811731986894364,-2.7136950829474493,-4.068385038152002,0.8116822770450033,-5.3535028154469835,0.793830949707826,-0.9110247636560664,3.6304851226670634
actuels,-2.696834350938705,3.7315733113514584,-0.8046504309176253,-2.872089682492908,1.9307594380023527,-5.682509264159663,1.1275861260118414,0.38683164027009626,-0.16581456649452175,-2.7146671781023013
adaptation,3.550014447618666,10.020888689360795,-3.809310404775952,-0.4029601394968406,13.284085921297976,5.048270066609275,5.634342707381112,-7.141731461959052,-1.3269866728010817,0.5970737516921669
adapter,-2.9297966268650564,4.852930594026493,0.9223914907088773,0.03493865364631699,0.559426714238622,0.46208179979464925,-4.066500023664741,-2.652411081685173,-1.3685046233245985,-2.7398223547016767
adapté,7.624672746486213,-0.47236295867948014,-2.593286974658596,1.5547161287950517,-2.1635274276860788,5.695011971810016,-1.3219526653165803,-2.4643907386835586,-0.01146406216313148,-0.36038313441678216
adaptée,10.124675868062976,-1.5540369872385615,-2.5506931582520287,0.8169934886382111,0.8843402818370012,2.2584240368370105,1.020963331945408,-1.0755575751560422,-2.643452984543974,-1.171320324146244
adaptées,8.676671771329165,-0.08842326295248444,-0.4757634012203186,4.137272614026914,1.4788616705925117,1.4021731449984203,1.593288810296526,2.288577768888134,-0.8392890011906031,-5.936023943252892
adaptés,7.043812380001919,3.7517100406536046,2.2787856187938473,0.8478354074966683,-3.5475904599695323,-2.888146798559526,-0.227020670753344,-4.166929151586174,-4.779522432441792,0.5959633603613239
additive,7.953531041784711,-0.9589100515238878,-2.4629515585758917,9.510253364208934,-5.1052136432380895,0.9735459620712874,-0.41104279066690397,2.9117507308675434,-4.736587034649887,-4.763717237083979
adhésion,0.5829332401976879,5.260418351155997,-2.0607183140309377,-0.6434221299538765,-0.8719501524805084,2.8219522141866396,-2.516131869863706,-0.6537268315477064,-1.7203879760217118,-0.7306993752481851
admet,9.746235291972843,-15.981053813819221,18.360570041926874,0.6465708588871875,6.847235718736556,1.5967649006801086,-6.37631706504019,0.9856696351313196,-0.9990159131779776,-0.32639371683723245
administratif,-6.747271633109926,8.536783231127597,5.843049459962851,-2.110796435217877,-3.745071998647596,3.6960542644935135,-9.67773767163524,-8.537331292881941,-0.5134697062553291,-2.007918499398048
administration,-8.734809597547484,10.514495631962212,1.3855425819729354,-3.935182632420168,-2.7834320401854584,2.637062382942506,-8.249177311867149,-5.64364047402414,-4.056852640576771,-0.7829992508587413
administratives,-6.96718807895188,8.822181644055103,3.918273758537281,-1.1760497636493126,-1.3573130574824628,1.2267741834976609,-2.8400070779226056,-3.882518484266223,-2.705843431163405,-1.2868696689137076
adn,7.710079511433692,6.530019556879434,-7.80174546995355,0.04284256587777932,16.686566099764306,0.6881682475380665,-2.765923392000825,0.8679548921738502,0.8131828357845318,-2.270447929654059
adoptant,-9.509078635844224,1.7556730549057866,0.7419581991883792,-0.7925695374007592,-1.6339135476201925,-4.6196645908731355,1.2296113927716943,0.5985054454841128,-2.671095149659555,-0.9258440653120164
adopte,-5.000028616671442,-2.012960767664592,-0.02488906715178611,-0.9827700916217913,-1.2602389806540926,-4.952393318681608,0.027757305007943135,1.1142700012817637,-3.8702202431140504,-0.9096003753277936
adopter,-4.1530759264383015,6.724167591241702,-0.9493658899077412,4.928021993353109,1.8991070026422032,3.2810217132140993,-3.5037290091000597,8.750620533199852,4.289994003450271,-0.23289303953264337
adoption,-1.824802680346167,12.912172479072934,5.131818082401907,-2.557562155614867,-1.4493252787166564,-2.157893681671875,4.599494043424398,-1.4681502417251708,-3.670616664934647,1.3146743867077535
adopté,-6.717474189980824,4.722560063231888,0.10276698645361294,0.350893067511496,-0.7610925627506141,6.247822537798357,-4.516305098650555,2.7446409684655544,21.196772295638763,-7.428435391761173
adoptée,-3.0395407929604996,4.546018203552125,-1.1092793890558112,7.29786984562763,-4.022412592213481,1.2592023563678183,0.25511441454824046,2.2918379493939947,-4.642364569393758,-3.9221362519186607
adulte,-0.6505407626592159,1.8085439755930681,-4.246947137052542,8.186916682577627,10.655576465418239,0.18236105318694062,-1.1446478839668628,1.90174669297311,5.4110164031896995,11.757816904514382
adultes,-2.2648984331607576,3.5456939738395805,-2.5329151411064865,16.871823410053064,6.050674377271589,3.6974646124241644,3.9012494792363936,1.0322304513424747,6.4624345446708364,8.735452094984236
adéquation,1.7640058406259855,0.12278410675916594,-0.15888413799546114,2.4019451379684518,-1.707012519960773,0.19893544983794928,4.320579583869239,1.2484073576674377,-1.9165002072709851,-0.759026225769277
affaires,-12.199398336146393,5.953309887490437,2.9652895306893834,-3.454248027617273,-3.039446309571978,2.3381429740614212,-3.0229608957506366,-5.972134686640689,1.1513805812978428,-0.6484680064391505
affecte,9.382383397480021,11.768556765183234,1.3899285009543387,-1.372948807784222,1.4317007172623828,-10.730102893956978,5.009880060188433,2.6044759899164487,0.10953866733581669,0.18684793433055596
affectent,1.6574225694275335,13.18459675307782,0.3933734419607009,-3.6300866456813625,0.16825780347603986,-0.2647806588462215,1.812231074369511,-2.0629389616421134,-7.105324149406112,0.3914003631644166
affecter,6.368274242463971,11.819058007692808,1.7597383370606883,-2.280581988045231,0.9816865988427985,-4.7038167384559495,2.2918522053609123,-0.3858648877491899,0.1787613276239105,-3.1188580734179476
affecté,-4.339167693598101,7.552758128910174,-0.840026374555929,-7.847055913109476,5.29697689398942,11.355064976613972,-2.5296372081636616,21.032187923133414,-5.577549074726469,11.170045603384235
affine,12.516524466244801,-9.522404693161073,18.6476650362158,2.7435051423927685,6.240150303607667,-0.6774291475888302,-6.05494247068868,0.6277323268712998,0.5463059013880845,-0.00604214494388252
affirmation,-10.618106472062141,0.5900852563502182,0.3866327251401587,-3.0824159001706364,-1.623300215636187,-0.7558183638414486,0.9169946486737054,2.614265777107187,-2.062759317084823,1.0316967479656458
affirme,-11.397580604362412,-9.38523061356046,2.100965307274071,-3.139084331016881,0.9089625666466362,-2.8764336102689927,-2.0110096094706926,0.7315479494251149,0.9772033718307891,1.0731893682905438
affirment,-11.848109711744812,-2.4802120676002537,-0.38321395342927966,-1.591642254038188,-1.0290934216622096,1.3265089063237838,-3.024319659820685,4.2972817757783766,-2.122433912619029,2.4727284936982055
affirmer,-9.994746396168026,-5.172825349558968,2.9535091641848243,-5.383979709741979,-1.303481750762417,4.042233719152613,-6.427728867845959,3.2599196599879003,6.144855911623839,1.409496118439468
africain,-5.132911325475921,13.8803614619703,9.120193685565232,-4.007996139901716,-3.621884703687602,-1.8224393411954725,-5.265916485169684,-3.1435992368457772,1.562544894986627,-4.139623390874533
africains,-5.000796619430276,13.689174209605754,5.929714791692233,0.35576682870259074,-4.779872514714393,-0.37966965799341473,-2.5014408028563824,0.10442811085373115,1.6529969173909307,-3.250209533898729
afrique,-4.97095606672816,14.778255131470207,6.801460752677412,-1.895874272977438,-2.9445585738214826,-4.005960868740588,-4.292035734795555,-0.2689841085268212,2.923521589988688,-5.201181931714635
agent,-1.6533648888074306,-1.0518565997501204,1.0092058124507308,-2.9623453319192654,2.1503018493587356,-6.976587696570067,1.709538981607576,0.18562183563313306,0.6989141062918832,0.8648515490191524
agents,2.543642341231031,11.801857534418556,0.6964607272138749,-2.893297000023472,3.332638454705225,-4.876212990175662,0.6461136805913531,-1.5228986131043756,-2.094526344299385,-1.9954292608711943
agir,-10.476614098544399,-2.448533720840833,-0.01723613240098192,1.916234688356309,1.4774731804453165,-0.9024241101647502,1.8985268504786679,2.796045183248044,-0.9550442403234076,-1.956507529023496
agira,-10.33420992839286,-3.793708276823658,-2.351931490726749,-3.3898291917343655,-1.9332244341679652,-0.5255079360452087,-0.5417842311203982,-4.352377051143161,-0.9938284829408263,-3.297801000975272
agissant,7.201891982785872,2.6557887722660216,9.62801730299816,-2.156945074770338,17.83061492573737,12.929762617956635,14.569552520101801,-11.315927607739914,-0.40177182441107306,-3.070582085031796
agissent,9.54200534084904,2.574280933707838,-3.41165812436412,-2.395763558134669,4.915245887635277,2.746843017299769,-4.003505035175447,-1.1839561794179672,-1.869534587647617,0.9666232871793365
agit,-7.6420062636318775,-4.188163182705282,0.9031216732290914,0.9885173172656097,2.6669841424276743,2.324343309597546,1.4945909660112637,-3.369058708579252,1.1179700388731886,-0.35773687197286624
agricole,0.5258062798327527,13.092650959195351,2.591789010228723,-1.9406593009211097,4.2471977028548356,-2.671697031637184,-0.9388945823254002,-1.6665159477388558,-5.133834709563824,2.7780929557803202
agricoles,-0.03267973377363189,12.448748597633491,2.883618436289,0.44546857217397395,2.332912636978122,-3.3284322514412543,1.5712286061505176,-3.9223023067708747,-4.332949415629965,2.204769224916999
agriculture,-3.489235154135731,12.91913903083882,3.545871977645363,-1.8592338389888254,-1.6594025273942887,-1.5284092386755952,-3.0354998169043204,-3.023064717256477,-6.597879766531261,5.041166722145789
agrégats,12.341844221627749,-0.36605947438121966,-9.695963859326632,-1.045347798623875,2.0471955601410987,4.181475164127919,0.9217809421804626,-0.06036149283163158,1.973824891297939,1.4063885349649459
aide,8.670650008703413,2.059879916519897,3.410671594561893,4.308991518616278,-1.7937669470082862,-0.9943947093763001,1.4035220558917842,-0.8367228936231803,1.126281873833564,1.1796492811177293
aider,4.719310251171223,4.978856194549677,-1.0904813255862633,7.07160908738113,-1.9688022539902998,-2.201657195545338,2.1550914854664502,2.4364264828366986,0.8335940931579101,-4.742485218538109
air,16.491787400800582,1.2461646525992192,-9.090841865097303,-3.2401531988085748,5.231292760043911,0.49948476021808974,0.2198867011025239,1.4017910785418233,1.145940565553945,-1.1802946621044388
aires,-1.526395546444228,7.9072684555443775,-3.107045870144842,8.08549789383095,-0.8270527446843179,-4.278067455858366,-3.6763066889368172,0.946315613332258,-7.398936342353197,-1.1172025872341438
al,10.863109876875233,-0.7113157710848836,3.150003331503851,9.50981563547111,9.729304764610724,-1.3138544477949368,-3.6927359170458396,0.646300343122801,9.499203565957544,9.215076054828346
algorithme,21.01174377582985,-9.645788249042502,3.9080099306367235,0.21254830964298538,-6.808408099782537,2.402035030927853,0.09158266060753331,0.26247924447043375,0.5698725983938836,-0.5616451651637272
algorithmes,18.82905544382122,-6.096668784459538,4.829906467927813,0.5694313253672739,-5.294318345123585,0.20548909222433476,-0.868961910230084,-0.08675255572753054,-1.6617702318670666,-0.882990277454691
algèbre,16.108020565816823,-15.877173639917537,22.322900944741225,2.7588037635925917,6.273210665771817,3.6919721089014104,-8.824773224345202,-2.7133849620156347,-1.1670555302182157,0.8557722596389146
algèbres,10.231444027654739,-10.314498908000722,17.77573095579505,3.38856370653038,7.360913746903177,2.8991386716110914,-5.64775108861448,-3.879339673673346,-0.5067503320218643,1.2448878540263157
algébrique,12.352668457539554,-15.06716631761896,21.89976338639825,3.5157770288330967,8.179861787222498,3.5088697147460524,-10.369860474549984,-1.3009549807801253,0.21323641647989353,0.17908554783590946
algérie,-7.34287349879415,8.495197656793465,4.085718183801237,-2.914549211546098,-3.1697971460919683,0.5370897660807455,-3.973929328913569,3.0458655587169923,1.8515896810279475,-2.609900505971619
alimentaire,3.6743038445150997,6.354073842216108,-5.88379860917216,-0.345597758661336,7.018203570995685,-3.575940910330779,1.3134692231048948,0.37065751543121195,-0.7722249760955644,-2.127524314384978
alimentaires,4.892491660031977,8.601232177049138,-5.949273944693424,-0.372505016177378,5.1066583382229735,0.40246541444880896,-0.8905419023484638,-2.993689852418455,-1.1602819617669045,1.6483760137880823
alimenter,1.3721787105291734,0.7370420302029813,-4.490260389551802,-2.1222012461158535,-0.0703607964295223,2.8359235758917056,1.1431160065283357,2.9077033301613686,0.19229607864085696,3.3533599802702496
allant,-0.10593071838883271,3.101169906138532,0.38523771439543053,-2.3041173363572476,-1.1865605356629179,-3.8254056409984933,1.432649442575355,0.8851826945526621,2.039959915646436,-0.09452596750085929
allemagne,-10.182669106881695,3.417038672530704,2.493044393454023,-5.586135003139045,-0.8052495947509551,-3.314630775176626,0.14037437799394628,-3.0496452715729756,1.5775985793698017,-0.45297335072325023
allemand,-10.620241093620727,-5.179346128184455,3.497048896570366,-0.5756623875950513,1.5533785237552495,0.3968993283925019,9.548960323911091,-7.003525101957886,4.9458178989838855,6.763506604000463
allemande,-9.465841912471467,-3.6168018229853405,3.4557678407642953,0.669193861899127,2.8818144960186194,3.2983162153325285,11.076527949003609,-4.960421397962483,4.7513601522124285,3.921053665806947
allemands,-9.301890811638637,-1.0071725417994497,4.319852539156047,-0.526508141082559,2.311383961017452,4.1071393261021845,10.437858877744725,-5.635884793473087,6.61846818603373,5.257969476257713
aller,-8.515882123835414,-3.747103299108432,0.0011621293136278388,-2.672052817172655,0.451920659025396,-5.554978546271909,-0.08303687641722023,-1.5284499763417239,-0.7795200878586278,2.3805704269551886
alliance,-5.582025551498419,8.09562308720701,1.4338479170143776,-5.0002667125805695,-1.7275667333634703,1.5609905515566773,-1.8567419426051788,-1.8997136435753714,2.5635582933214485,-2.3153597966971007
allocation,11.902851188468567,10.138236683852769,3.8031664642012126,-3.2086161996820883,1.1106562077686761,-15.172689190449816,6.063059430853645,4.207904619906222,-0.5119636013775679,0.912652779955892
alternance,-2.872262775824689,3.1886094111656553,-1.704722317988433,11.726930509832476,-1.642300932682478,4.191839037314104,2.602336877771025,3.6110103396581654,1.9668327919117752,0.014853823199281298
alternative,4.782648259932466,-0.46489404068935924,1.8454954885955017,-3.91216259741409,-0.6007622836490344,0.0634967529570988,1.1180829009717073,0.6948444433406145,-2.8839360507734515,-1.6398165966533633
alternatives,4.432266794020123,-0.3896642196133093,0.8724785549580724,-0.22602686326398752,-1.421301842002591,-4.7209085477240835,5.305442064356756,1.4969932623768452,-0.3302122812533015,-2.5600974258855866
altérité,-13.65101403605608,-9.424685030602623,-1.6087816651957865,-4.600404120733954,1.4494317743499432,-2.6761329002028775,1.8297120658254382,1.3166708220232608,1.41525964603137,-5.513350997573192
aléatoire,14.878135323458691,-5.495873385978989,11.86631541450244,0.08799328250702385,1.1019229133943396,0.2541765769263858,-1.1562184854272173,-1.088212059126385,-2.429793600281765,-2.645363288507845
aléatoires,19.123127739579314,-8.564349758089072,14.847561165236156,0.5397697540922651,0.5137577478399991,-1.5645669097617771,-1.2699288417390662,-0.2713675812336736,-0.17479375294495614,-3.7792372728601995
ambigu,-8.15734668803299,-0.03194166631781054,1.4788073424558332,-4.532557259122036,1.8130286769610617,3.7038389652623263,5.869150803405369,1.1119302698252322,7.630498852875406,3.1636078825399077
ambition,-10.556895840183605,3.4800459376728,0.7335224799448268,-2.3853777690672286,-2.5263320539224567,-2.4746271204361925,-3.335034034623523,-1.3021280432090592,-2.0631532474416043,-0.23007415501742295
ambitions,-12.43691593707851,3.808542020261387,2.9209083293388654,-8.220765498818801,-3.7746341528920793,3.2077359560652035,-6.886564190034814,-1.8354872170926453,0.6598148222311967,0.4680191220248498
amené,-3.674645234394906,4.266150437514562,0.7604965083098931,3.7894141977444615,-1.0623879910748086,-5.006413190431614,-1.0391961504873708,0.38579627223914775,-0.7584440124946596,-2.937179393891389
amis,-10.454174224424415,-0.09566503108515143,0.6594586240726688,-3.8818972806353416,-0.4146181798410712,2.1874810859764953,0.2900503732839817,-3.6122614541990425,-0.4896560453732625,2.3522594640758765
amour,-15.135749649087364,-12.060533170850892,-3.0206137477300787,-5.9691947457036285,1.8946019716721454,-4.120346972929469,2.520009140157175,-1.4095966466961931,0.6900585797916098,1.3978020322915299
ampleur,-2.7448638440149282,9.836742810377814,1.6672716355817805,-1.1826310283701724,-3.7893339591873905,-5.171887368375214,-0.4859697811504767,-1.6874146572803796,1.2806078827796241,2.5937858892547454
amplitude,16.437104523959636,-2.832917686913779,-0.3702973092223319,-3.6789534965783814,0.19908648295065381,1.4142222413784766,-3.004813269213721,0.38331526921659015,-1.9776833319567344,2.7421882903125714
amène,-8.766600727090664,0.4567848600284551,-3.445354696725562,11.194873511100663,-4.921164567916716,-1.9930322638627784,-0.18541225285900523,1.3152465119586882,-6.389548166242069,-7.952842748200387
amélioration,7.214021672274212,9.145062058846966,-1.4177431922169124,0.4665914323407939,3.9187834451157975,0.19349489964971628,1.3965538772706447,11.843624368685253,-5.617074709609483,2.5999735376601687
améliorer,8.810391543676038,6.189839723281186,-3.4243684977088504,5.962360131171083,-4.267604197839758,0.16083741335683252,3.2201575762858012,1.1980134219747745,-2.6258467087824573,-3.4568377932532424
aménagement,-6.527030023061359,5.671849224044065,-3.250948288857325,7.9089605146223345,-7.449748249191634,-0.23257438910701114,-6.924813747985038,-2.83599624583164,-8.95159451827545,0.31831421932559156
américain,-4.932170630716779,6.356326846222615,4.342226258850321,-2.042305818845396,-1.095002119990091,-6.13633189569136,0.04905239726061953,2.918571814338109,4.802744617535571,0.21383528340364744
américaine,2.2208854592761234,11.191586500750326,6.104069709721428,-3.498953643452803,-1.2013573664427495,-10.179758709561433,3.8425147332300487,3.391440915238494,2.4836032712759497,-2.3821241719436057
américains,-2.524659137847184,6.759988221029611,4.755829851039108,-2.7617564145617215,-0.7261946881011324,-6.961830387088091,2.811048146870934,3.01751916822972,5.358868502513903,-0.8216390852507819
an,-1.3953781734516282,-6.151708148210357,8.610054492279426,-1.7996176558215242,4.154185858923321,1.1063254818504458,-2.5575193581158526,-0.8926020649698945,-0.46507835722899765,-3.2171248130117003
analogue,16.58817495627219,-13.537416162877696,17.230717474237952,-1.3262513260568454,5.828723533498556,2.0529290272510297,-8.823822283164972,-2.3414004291697967,-2.648577150182511,-0.8957145801059644
analysant,-2.772509529477269,4.731691694590164,-0.5677841010283519,-1.7749933198603236,-2.2489544658717646,-2.864623421267052,-0.38902714683288525,-3.5211024607047414,-2.72154563854679,-0.4573329057597308
analyse,-1.629235999825502,3.3865478874896366,0.6328204418147914,6.268629652524431,1.4960150826672536,0.011942823075688952,1.3426255420366313,-1.1111365989944118,0.5966744730179342,0.7078493908162268
analyser,-6.020678968443115,1.2832850534802143,-1.3043531306409446,4.42537431611389,-1.2369915391693047,2.0095121323867065,-2.3844902769472913,-2.1111518468206154,0.4158713007017033,3.6646718498185313
analyses,-0.937803338305284,3.8884117961902227,-3.0153533205046243,14.078643819301737,2.400038320068727,-1.2682036136623775,-0.051713628063367593,0.5993531635110974,3.420324567948908,4.163139817719588
analysons,1.6521305560274968,4.826568493315406,4.996756713020202,3.4013403160909794,-2.7085515282824995,-4.457389819890507,-0.5108881368508974,0.1661296866355577,2.12382362415178,2.6756811529628597
analysé,3.7054783680635826,5.32785675422738,-5.315808887360053,1.4523828854081764,2.9976790322769986,2.105080970926423,-3.387650850998272,-0.3546771823412377,-0.3105649795186833,-2.6716956310134754
analysée,-1.2768172805644944,-2.633692879310467,-2.862568327193324,0.8184694774478584,-1.3198290758631277,0.3408063716565881,0.3172227345830159,-0.8591573260057721,-1.9275483453290572,1.148362978335763
analysées,-1.0187619166024686,3.1617030242955235,-2.7784752591949546,3.8288063307243716,-1.9691578900024012,2.92463144939306,1.65824685311953,-3.532525142885282,-0.6686152762332596,-0.5895439911456885
analysés,-4.4965583657137715,4.232367444810907,1.0993509207144612,-0.46463551924523555,-0.9058910324897874,0.32269214403837,1.5159022197646037,1.1438439688313753,1.8656715890444533,-0.3240389228395496
analytique,10.29473072653364,-10.109067053838013,8.969386990364884,-1.3769556129548028,1.1062226469037364,-0.3627219398907562,-4.31333360297026,-1.0311027996680682,-1.1265786532844109,-1.2506517014589122
analytiques,17.958875813018814,-13.322945511812916,8.635974228350943,-2.5742540837274976,-0.16571641144353513,0.9006296553207408,-4.499047859940024,-1.2736238308862806,0.1055288744525635,2.0135069440604565
ancien,-10.213554445939478,-2.1441183083219677,0.7689185743175143,-2.34531315057636,-1.2519183212711213,2.0160870053112827,0.7210666262513241,-6.723891640414469,3.3008583302436785,7.656346092290205
ancienne,-11.76088895075698,-3.6609327061194823,-3.4422641616159657,-3.0729760587999504,0.2815429548919075,-2.492087225496694,-6.541749212894312,-1.1858684400254151,0.9678165192792326,3.0945226591358255
anciennes,-11.256483408715319,1.2193707825599776,-1.8718464250337967,-2.3526705858446033,-2.0784170415570755,0.3258190542097043,-4.404407208635622,-2.4348782328862577,-3.886415824897632,5.393561682865285
anciens,-14.848662324091084,-1.292552765231942,-3.0543366153144524,-1.624762958525083,-3.8809831058627497,-1.7601377123230513,-7.035908663486335,-2.402376377586493,-1.457882249625098,1.6495424329854056
ancrage,-11.022004509588555,-2.4998920913720095,-0.4113470754107938,-1.3067185407864517,-1.097751094283802,-1.2320490808382294,-1.6538884749945146,-5.823586376176291,-2.130361121628992,0.20973984067386844
ancrée,-8.900877382338326,4.99767084287411,3.6882833243611977,-3.95177768008702,-0.959184231336063,0.3501232801554869,-0.25561034293685775,1.5642292521231327,-2.7682507481188217,-4.608080168124841
and,8.140752669329677,6.343536001284413,1.348559479301106,-3.1538248010043186,5.548361652213845,-7.22311063256908,3.7271946686843527,1.2283539853228467,0.3004657691236475,-1.4462516072289244
andré,-8.179006302363192,-12.325536473699104,4.757557546585294,-6.626896516021123,1.2569398435061658,-2.8881620432171125,-3.2175140791042254,0.016962984513650352,-0.29423164063919355,-0.08374385968646224
anglais,-2.4771979507678026,-0.4809122674581499,-3.3439508063427525,13.485911298187627,-0.9123471942943905,-1.4705340533810487,-0.4954509082484251,2.243455790745199,0.544100460168327,-2.0266497761965114
angle,0.9377684161688132,-1.6904683098452271,-3.1931842966875976,-1.340762740941041,-3.1241431701822,-1.597973436895344,1.3942416123563566,-0.3429310561770485,-0.7427021442129911,0.6477418227856672
animal,-5.138781343468671,-7.038650279462429,-1.5888576450842107,-1.0766396330635972,3.2332345356502095,-0.7629471314206733,1.3073050086482545,0.3949448881543641,0.11020320317085867,-1.7673829817693751
anneau,11.323344576750712,-8.920093749050803,9.031563158148712,1.0292519022490267,1.6414636092061998,4.741627169842993,-3.7546142511586504,-0.2515681394897385,2.4788853185693656,-0.5986525477878729
annotation,4.0639501056920535,0.5733438446323958,-2.854294818990256,9.01387017969928,6.465658582948127,0.05784609671168387,1.745994594857166,-1.0498363061598828,4.033174853733521,6.052768687223304
année,-6.743906642945527,10.95952240415077,-0.7546386226807278,1.0799896054856324,-0.7164602354979939,5.080523875015317,-7.191547400560676,5.753899019950302,19.176074260939977,-11.730686160797728
années,-9.259503921804047,4.885149933288874,1.5444434731556451,-3.0329749772410186,-2.181703783832908,1.6624161402980433,-2.7106530564120614,-3.072105768677513,0.17282768417422092,-0.6478969939639514
ans,-3.9739424746280116,4.33410373639635,-0.12085534635620532,11.914021014359616,0.7148386567311542,2.961311913364505,-3.0295044997607925,0.47483762577637467,17.228346001487477,13.87434877975185
anthropologique,-12.946514289701707,-7.940120301066036,-1.457901534827718,0.11238922705834078,1.8966580286649748,-2.092971982993235,2.604593193305704,2.509795251839251,-2.286916921909535,-2.4411664288625996
antique,-15.472505261386196,-10.440851046931053,-1.9067900730491554,-8.675634951004273,0.5051503790935749,-2.393421153917202,-4.3322716479187635,0.5409091954445772,4.723825353553695,6.103932894952785
antiques,-11.5648984729161,-8.75605448170361,-3.476413705302916,-3.055587487841175,1.3173746983452168,-6.1015563041386995,0.7010766205335698,-0.17354315352467747,-0.2652299608707408,2.854636881832713
antiquité,-15.696030487737195,-8.46051787742435,-4.4175237717212905,-6.558033527619768,-3.1601452899807274,-5.249146630093421,-8.20229031342678,-5.819255069862818,-0.9971002951175798,10.697873408968794
aot,-8.574163173846243,11.75032478712771,9.896486992994333,-6.4460421347820445,7.445825768167104,22.899009942310993,15.321651727965598,-10.430333581276427,15.280481329351485,-7.456411299978191
aperçu,-0.7742165106305328,4.476702396408454,3.975594890715562,6.82808847264456,0.6347758022510184,-4.941019709753926,3.9321839025996996,0.7528087437974862,7.39701610011787,3.9711761725001753
apparaissent,4.682425586242992,-2.6744283889619096,7.460739945746211,5.335656192592979,4.603074122775386,0.08881610081942824,-5.487779181014743,-4.0379365417428605,6.0204055333431254,17.264111809151675
apparait,1.8922235141599457,6.669575154338812,2.0553201372895065,-0.8877497016938182,-2.109081335568042,-8.11669789760039,2.3856063153093916,0.5218271339527113,-0.36381497198982604,1.207554081052579
apparat,-10.738071826749875,-4.472439338565962,-1.9294769389146258,-3.899769812106995,1.6315612240265187,-0.17042617854500478,2.687802912788087,6.69150039034705,-3.715807759172472,1.666184821189523
apparatre,-1.8914743949696418,-1.6159271654984413,-0.9266094077885666,2.7408684996130774,-1.2048820355357313,1.0934219064025859,-3.984474384442094,-1.1734384007176093,-2.081953322969465,-1.977554210951317
appareil,-10.008107912253195,0.12002529154222932,-2.283512064124462,-4.256276993775854,-2.8712656759382957,1.4351538628944494,-0.2174271027128842,-4.338703672502807,-3.211239019876036,-2.6209052569212923
apparence,-8.568093247850554,-7.156859029896117,2.404858440736882,-5.470288283833446,1.6768956677926339,1.1061001534665234,3.773112983784624,0.19900437397792778,0.9636398515755593,-3.941752964942565
apparition,-6.275697697927996,-2.6358841414123786,-3.3059916241317064,-3.405056309480019,0.39192233042385843,0.8291587156397034,-3.5020657701522953,0.6160487790199873,7.446611542787794,-3.339435794415312
appartenance,-10.263702226599216,-0.4643867938203272,0.680056377377598,-1.2221329369899685,0.08954409776248394,0.25556539542610063,-2.168748318816639,-3.1095750476744026,1.6422865655113372,1.8530085136332324
appartenant,4.380226984589323,0.6198924796243163,-4.326962556285717,2.493708222450208,5.705921200882921,-0.3453418640129481,-7.914900116575199,-3.0431437652050457,1.1005042814946189,-1.0488488517262466
apparu,-6.691730503978156,-0.42614640222123473,-1.0398342197981698,-2.4907012817809564,-0.01628165804521874,-2.0894499971344196,1.7246525376906034,0.4013689880267684,-1.6927466303217604,-3.6655328990773732
appel,-4.1734375200539,-3.574950235495048,2.575506814007362,2.745871757344261,0.9315047177046999,-4.279278085598501,4.129197640283948,1.165012174622485,1.2474876198041724,-0.7035186679678024
appelle,-3.2770231166569266,-12.014309189278613,1.6276894011231016,-3.8927595197989366,0.6296589348379404,-1.5874301451422281,0.751031076629473,2.0748436108337933,2.53746418632974,-5.59223732820722
appelons,5.300731739204507,-5.80648186386498,4.057116074721268,10.228118214965477,-3.0463310546777524,0.825252533721545,0.4069379214276632,2.4826182164859802,1.9783614528893416,-3.4429809877024633
appelé,6.787710028153311,-3.7698087709001697,-5.636650088186935,0.05935162263472865,3.6384152965460776,-0.013272963514926881,-3.4531283266961337,-0.4154009480562858,-0.9527205439367207,-2.8236528899790914
appelée,20.28367228153857,-10.347105628329844,9.880917323046916,-1.9291186155256415,0.6583184335318774,2.41195809807518,-4.416577535985845,-0.7977305484471898,-2.299981940029195,-2.5873885301624364
appelés,7.759816032680493,-3.487807795899435,-1.9027603339450432,2.4879630853445986,2.254850175823509,3.308813543048345,-4.76923987037797,-0.8542195787386532,1.0791488146152184,1.986939136033639
application,10.355845308623472,-1.4406163549389763,7.18848684009694,1.9054638827353945,-1.3331694257331697,1.1028820036039748,1.9061664276221952,-1.095258866133479,-0.5264900086966069,-1.6873473808477477
applications,23.616550573497385,-8.827536112672986,2.6471907803342836,0.24544323374930113,-6.286521919735776,2.4852153808249096,-0.5759978449078362,-0.5949200428730154,0.47535283697079794,-0.5438677896620542
applique,8.025277385142426,-4.016204948582249,4.4361269416332085,-3.0328294829255853,-1.4977934306851157,-0.07318099832373601,1.8748351369664578,1.3591630678810738,-0.2122802949143173,-1.717968068265146
appliquer,6.165135324748413,-1.5674619611448601,1.3246947940569762,0.750421219195049,0.9886786847487946,-1.2180195624952517,-2.107820533952723,-1.0929946021560686,-1.4627315687534599,-2.8168788493743637
appliquons,17.263850366934577,-6.124558869428741,10.34615799662471,-0.0938070556006794,-2.286455422477792,0.324078323056185,-0.019313472162877463,-0.9615149723869425,-0.7809936097119935,-0.5595434992971625
appliqué,12.11293537560288,0.16663709663019052,-2.013176449331856,-1.567174161772499,-3.2204674592142783,0.15975506107335383,1.4857030126974464,-0.32457272825949146,-1.0188738758639653,-0.8193602121771687
appliquée,10.165805770155725,0.7003995637275584,-4.107497604995211,-1.9009618774055894,-6.161449629127182,1.344120265153263,3.2244139798044547,0.003116502685255062,-0.07420330887271279,-2.367634380945465
appliquées,12.837897717083138,-1.4663431502876245,-0.4058470463187253,-2.1725314267571516,-2.420375734182985,-4.644272856906611,0.22448291454495586,0.008037582446583588,1.752679296807046,1.1540677872947256
apport,-6.126250366351576,0.3876463355113887,-4.824604698847727,4.0904564807230495,-1.9113942487746367,-1.9742539330749884,-2.5996438240154975,-0.7866778136542942,-1.8151070507296068,2.5982746435301154
apporte,-4.804847334397793,-0.17103042753900255,-5.274731718287397,0.678832564400148,1.7443932905371629,-3.077543844499701,-3.7437731330480344,-7.113248625768423,-1.4554740987745518,5.6417993490255345
apporter,-4.761694294837165,2.0720627900447965,-5.3214499957661925,1.2203187033491658,-2.416399278466461,-2.1794850997963247,-1.7194742171255246,-2.7553684383701365,-2.20407682883368,-0.037666207639483903
apports,-6.981316059209217,1.4830208449654454,-2.718348597805802,13.408075785147417,-1.61684704433119,-0.7121111983920144,-1.3886941205764318,1.498070935658287,-0.24855120544304,2.359811526284805
apprenant,-2.858680781705856,2.2255721110109525,-5.008006919883102,22.089447824454705,0.018516507540512164,3.704691703440654,3.211506244464455,2.2253202971617676,2.0264697803231035,-2.450143167105214
apprenants,-5.399556585965016,4.491742913448166,-5.254856919670765,27.44758230015902,-3.655299590371561,4.734998225829531,-1.4312037045447923,6.588066118877651,-0.945045664436426,-10.430001243351471
apprendre,-5.31652425454017,1.9803879897099805,-1.9240737016924523,15.972629350558579,-1.3413092345689306,3.9963391981197645,1.624375176776068,1.9281526328685166,-1.9726467465803794,-5.582804109492761
apprentissage,0.04944486368020564,1.8576325668639284,-1.506704125462026,22.930031354977764,-2.1144860806960573,0.7804797624651141,0.667267973797913,4.353160032181209,0.8710287239859976,-6.819202584057756
apprentissages,-4.464649308586839,3.40901860263244,-1.8616459958701848,18.314130400817607,-1.8502615140091954,1.753088807462567,-0.3484356939046551,4.125643760962963,-2.1926595886004883,-7.6727665058969645
approche,2.012742311597777,-0.09232121264694863,-1.2481724012116235,2.8827589594722514,1.5126734116194458,-0.7129414431058766,0.34730654649778236,-0.9404019816850191,-0.37331884443883806,-0.8482593069954872
approches,3.7962019310406965,2.3914009564394627,-1.973155807636246,3.3955645723936816,3.088449387940345,-2.297010247934297,-3.4118963745486552,-1.3178294449822103,-0.9263433080528084,-1.2791519318977895
approfondie,4.57992093098117,-0.9058553236888355,-3.795966990953219,2.0989473673667565,-2.6604282707969262,0.43826726330310567,-3.3964154977633494,-1.6471632158885208,-0.32956326602721026,2.4662610689967726
approfondir,-2.162324005880838,-0.783082104656771,-3.6914701627492694,-1.8275615166591448,0.8754706526682947,-1.5720444884788862,2.780963426732058,-1.303749787657008,1.4432434273041759,-3.3792331275687584
appropriation,-10.733919058652504,-2.417405237117116,-1.4854038137617602,1.9724799530812414,-1.343571435277617,-1.3833901545137741,0.7315489772261703,-0.3251927627677529,-2.3117628394886287,-3.172557603435998
approvisionnement,1.445640307631707,10.640881810305117,0.3781989093848229,-1.9247077894573585,-3.614024654268153,-7.2108934661083985,-1.6663593179593315,-4.146373036954405,-1.777852317883896,4.721103560225956
approximation,21.810535444272723,-9.656969261721564,6.596957451002494,-3.043787185011934,-4.3474257218995085,2.9038446442857375,0.00538709013247351,-0.981294651367132,-1.1471400235566271,-2.0690954972450193
appréhender,-7.497835748303867,2.604558691050519,-0.9143155140394587,-3.168617685476629,-3.7645831258992,-2.6900910083753677,-1.8410292898166114,-5.282768619932107,-2.0941771640038627,1.2968960980998239
appui,-9.027739687477728,-3.4046106402984395,1.4770615268217213,0.30888670118273226,-1.031376917920549,-6.789127744675193,0.40917490635891307,-3.2414119223340534,-2.7070477770424426,-1.7094284580714645
appuie,-9.077586548026703,1.1286162036413512,2.0161878052703237,3.038506429767364,-2.4317077997278225,1.289101079836612,0.07261207187301628,-4.3374273659319345,-0.569165196235468,1.3760709942952574
appuient,0.4063100528753882,2.936818934030949,-2.640356331351549,-0.9611716809400979,-3.083092078380207,-2.6863732660075934,1.9454793990116297,-1.9080656498856634,-0.17920543713711135,2.779030065798515
appuyant,-4.180883026744117,3.5502428906169876,2.746190339757714,3.039154476282486,-3.8722632964536015,-2.364892434317771,0.256234324670856,-3.2586050375302387,-2.4526740935044575,1.0760526728800077
appuyons,2.1373090502644234,5.369954640027822,2.302933865305636,6.3981440760112696,-1.7003763460536174,-6.705839587816117,1.3285374934919434,-0.6981809201986741,0.534657361336702,7.811358145197493
aprèsguerre,-11.944390384088772,5.029001143543084,2.306243859034144,-6.539393428440456,-3.4985236444525256,2.3638771317765115,-6.625573875355101,-2.8032141823825114,2.127488624997951,-0.5325066939938956
arabe,-6.377892595441053,-1.2749848009699325,-0.7754266552021143,13.303052686968153,0.6834395620723548,2.1933234066439744,-0.4407126409532712,3.703983081788852,5.012271240432655,1.8972281613035886
arabidopsis,10.487574579017906,7.600405691135993,-14.597219658892891,-2.2548283927490878,25.82861590766914,0.8887901113404526,-5.247128497138958,0.29036900997616255,-0.9472931372226682,-3.1264424024589554
arbre,11.849805499604416,1.749924847889699,-0.7924720157063989,-1.0721210198743945,6.135257904710395,-1.9029807639506235,0.6769991686460343,0.11830570332634698,1.6016359777345452,-0.09380151830603374
arbres,11.358273903969495,2.900740742545763,1.3152579512481402,-0.4140760609577091,8.271221456503635,-2.3098766281126455,-1.9811475318936185,-0.20098961617909553,-0.5000612455622184,0.39625461458497196
architecte,-10.872638762392722,-7.0089937283898,-2.6644489444391195,-2.3190058361264856,-1.7891295897997128,-3.8483520457988307,-1.014541588710256,-8.578054326748045,-1.1242050904745466,7.075370921322054
architectes,-8.681692275546624,-1.1768257910056317,-3.3398441740019633,-0.4314087267682826,-4.425851021541293,-2.6817483906795174,-5.831656906079186,-9.040366369627971,-6.566557710566713,5.3614380817063925
architectural,-10.774843228271038,-5.5621887446394265,-3.5484492135688295,-0.8355959035935803,-3.0482429736682293,-3.011491433726701,-4.257555872906703,-6.152508952321587,-2.248175366360045,6.393697297277468
architecturale,-8.935248669710253,-8.565459307180781,-3.011440095514406,0.17648046700316652,-1.2104206153839687,-3.7783587770815603,0.2587798932163286,-4.366909984195881,-3.1963149263731827,5.271384363335156
architecture,-4.836077918935661,-2.833421410324395,-6.248687686169777,-0.5681751979012887,0.23448551784660787,-3.551965803165145,-3.650386311557934,-4.648385117194562,-3.9439869356913695,5.5264903364719045
archives,-14.314731515578787,2.364182296717762,-2.308779897235961,-2.6492266780214226,-4.316079887077552,-0.6151993382374629,-5.6548316894708694,-8.062584572214226,0.18667317940529576,-0.283327385061845
archéologie,-12.29369187523239,-3.7929426767518124,-4.615136567227212,-1.9809567808434756,-4.6974087556584,-2.3066052051435664,-6.278103212984437,-7.415741569609179,-3.551066084827944,6.324730347951277
archéologiques,-9.671825055886966,0.6089503090303245,-2.1753359986368936,-1.569717995288856,-5.276226983780996,-1.5395935539548735,-9.971659280759303,-9.218384501882662,-3.233643630990875,10.34950646665773
argent,2.3467582903058832,5.550261187934366,-2.0117843015527535,-3.6633316392302904,-2.7028046050355825,-0.5615443473901666,0.31280322190000276,-0.8467383231456661,0.33796301608864254,2.6131397424872027
argument,7.562005415775601,-5.506277129023007,14.231200163671634,-1.9482068595374111,2.834970120904219,-1.3170670275224197,-0.9915248944806125,1.1878136758542153,-4.172164537609944,-2.0345353292689503
arguments,1.2217752406246345,-10.710446415490445,9.489631664837333,-0.037638690028963494,3.431325030869562,-2.7504415031477736,-0.08700546589817988,3.7736059102421713,-1.3487048584276184,-1.1890100979524212
aristote,-10.164567195921947,-9.618194243695397,-1.0014179645545809,1.4804662299088,4.652453129112446,-3.515123835640013,5.703136855690469,2.900096653820457,1.9649717185586062,-1.1800890807954725
armée,-11.859622928212081,10.24542081943058,5.420990662740337,-11.722607709235142,-4.156323984906826,9.404238058649858,-8.897918228163986,1.3036906456437893,18.41057597938259,-2.4064518361237677
arn,9.959936539928842,6.787406301517293,-15.789045036288845,-2.297256707267632,30.39731679258877,0.8464237906726616,-7.576483808319758,-0.7800077648896344,1.0940959087483773,-4.095648360854918
arrive,-8.927373326181094,-0.022629168045920914,0.2007086297659744,6.1148102144925245,-1.226937690190656,-0.0357253193586972,-1.04454399551887,3.327738893422476,-0.6031030322349722,-5.021443584213833
arriver,-5.863364420053058,-1.7333481480744384,0.1780031729528089,-0.789347166682035,-0.18099299610061703,-3.7748091110866553,0.10616449226273887,2.115801070775776,-1.4851780166808384,-1.1992856206140121
arrivée,-3.819287767008444,3.4327270577629454,-0.36388695292536216,1.2462805565118595,-4.88595294061561,1.8405745386758439,-3.6775033606672993,0.07534840009598204,4.96078762278525,0.6183741656791272
arrêt,7.91393662489504,2.4827960525656314,-3.2292076925476856,0.05117629033653934,-2.169946384431021,1.7926206561091391,1.6268039544450983,-1.947401008334095,1.510824093972874,0.8397098308372336
art,-16.35605318087004,-10.169806998166917,-4.8400773234668115,-3.5341926943347297,-1.4446308029077193,-5.321426130967848,-1.0967344780545005,-3.921314149858886,-2.764413867130331,-0.688033974358643
article,3.289331147545796,4.003874871166109,7.400167582308763,3.0126549804555154,-1.2917085541733015,-9.029115709285703,6.5850295307298445,-1.1882362164991809,0.6319659421074748,1.6167268031411213
articles,1.3848883860896677,3.674435585214352,6.0895214159053355,0.6840085225849907,0.8279457262819861,-11.783173284792811,2.4635931066609675,1.9002467456832395,2.5555699107825505,2.5228024156586635
articulation,-10.26584936241691,3.1647975679264717,4.564723286916559,1.116981402439139,6.163004725421772,11.538454313180308,15.556125362747196,-9.146780710519582,-0.8883155899694735,-2.622992429475072
articule,-4.770798739916251,2.0997691641478884,-1.337076440972007,1.2079695602425315,-1.9527965447171083,-5.62409294714615,-1.7641653408798892,-2.1452186521946874,-4.3987007944938705,-0.937669152640371
articulent,-8.31334809791305,3.956743108762848,-0.5352963690493396,-1.9168745045506557,-3.556863957225611,-0.047778898741067395,-2.5487242495194344,-4.453184514331612,-4.326048812970379,-1.5009376181607956
artificielle,5.144746752473164,-7.552511649132009,-0.4462504170277069,-1.4136015258123675,-1.6140332809666118,2.5350872461576035,2.2236633284330716,2.2306164380613622,-2.1947003089371977,-1.819917101421187
artiste,-15.298910394204531,-11.584749269220302,-4.615466588011158,-3.0069675961769193,-1.1473278030591767,-4.758597871085172,2.0861319682757142,-3.3825562272480942,-3.259021103523286,-0.47931986787046993
artistes,-16.94485608858662,-8.90714339351556,-4.345330368870111,-2.9376281025821047,-2.3137556663376393,-4.4836896626000975,-2.8379185463010166,-4.704816322344316,-3.901233697736929,0.6465144849828766
artistique,-16.137367300477482,-7.14115694821456,-5.175391388965682,-4.689294759988307,-2.3300151142503744,-3.5694099966568285,-5.125541817957999,-4.723593722611719,-3.92419430758082,1.4309352837404228
artistiques,-14.702299394282251,-6.3525785802397,-3.6844407755362054,-1.8958513217181931,-3.726144358460802,-3.8376628711149228,-2.870093686832963,-3.8867928794657236,-4.752546811620334,0.3468385835977812
arts,-15.569290696104144,-9.940672838378957,-4.977800249152819,-2.115814781657723,-1.820436267286018,-3.8612883987945623,0.003561773227746026,-0.3035614071382328,-1.3014052115772425,-1.8186494358586018
aspect,-3.734959729411178,-4.504018588497866,-1.7060076730018918,1.1701625433809577,-1.9937230643374808,-2.7833163537837153,-0.5589520467286969,-1.3121780328907955,-0.089849139521757,-0.2267050838764694
aspects,-4.996475954788557,-4.222584037312896,0.181203740932273,2.299607573331635,0.4469207803428326,-1.6364001664880883,-2.1309544404315077,-1.5755126437442235,-1.0600909882011404,-0.2754875882473059
aspiration,-0.5554062863559263,-1.4167818507604295,-0.9354825423160648,-0.1670855304376136,2.2487603542530428,3.1152195128364397,1.9087042268805865,1.5116256998396862,2.170812217193282,-0.5758290288673835
assiste,-8.46766122158843,7.08322948253785,5.843934609587056,-3.3241591161993513,5.783416151278392,13.60680754626878,15.614010732486559,-14.82239280882801,-1.4028628241728256,-1.6399431239877555
association,-5.2976337817586625,5.203810707178248,-1.4717891863420944,-2.9523853271337868,1.5560789015110241,10.429311418090167,7.603210156600209,-9.63381035660869,-1.6471277665222668,-0.45432638007115994
associations,-7.4580883669124,9.212236252174185,1.8217438182401173,-3.549047049827017,2.2258600619639193,9.846312389172311,-0.9998560314081745,13.405910044670044,-10.459044302453062,10.690647286746737
associé,11.685931209784432,-4.04961418971876,1.8598268938383937,1.458488689998325,6.471861846770884,-0.5198349175366941,-2.868341734796236,0.9231272464749045,-2.478950496983842,-2.7898712232691563
associée,5.814258981509398,-3.9889408121222045,0.9287914999532413,0.869806759248299,4.32162392347634,-2.193578322687493,-3.557583859632684,0.13685542106821422,0.10246799670290022,-2.982904135239932
associées,13.31355428189521,-5.9743062790887445,9.612332808030542,0.4358694367793951,1.6513803867003147,-0.5184241532927635,-6.010553251621903,-2.375667724813391,-3.8520173803815685,-0.5470567541537624
associés,11.601787698306639,3.532424916699181,2.1770441229623905,0.7903618823276164,7.975057708586363,-2.821248187181274,-4.817463170699048,-1.7845322148647536,-3.4263406639265983,0.00908271604885825
assurance,4.8290672771090515,11.913416565386328,4.656856449023985,-1.2157654116532157,1.0299912411345409,-9.186882317792204,4.367156708729546,0.837162402379881,-0.5670102853323248,0.2567438155797111
assurer,-5.699887454031899,9.148605169518467,-1.6002198505147127,0.9432576899372507,0.09607388007445529,-0.5025797527513843,-2.5126213618090114,-3.106848823993368,-5.922784996323927,-2.2382158258868454
asymptotique,18.86942536966934,-11.638211329812062,16.1481513411201,-1.3491740702215054,3.805767993416321,2.3526531111756976,-4.649322089623059,1.3756312070087795,-2.189057020293902,-1.0990259227159904
asymptotiques,17.12891429190961,-6.256322120378189,6.403699450204788,-1.4777494703500114,1.0918929384757927,1.7643740110439634,-0.8398576882322081,0.6438575509324038,-1.9019790885362515,-2.686398374826184
asymétrique,8.452260860945378,4.783457620675085,-0.7554075220922183,-5.959087304796454,2.6402314451047744,0.4093604895133634,-0.2500388995697972,6.3850351946136295,7.790395539612985,-0.17030025722684727
ateliers,-9.440875713633039,-0.7730909804957612,-3.561619434449744,5.134981379420683,-3.392521132399445,0.3986827157335993,-4.950817918794166,-3.1295823065661845,-3.58151774176065,0.11292697301299394
atil,-8.229692350560125,-2.0698528360695696,-0.31580393532875256,-2.9883020172054873,0.700393819036799,-3.9483107854177115,3.4146559902118025,-1.496550457053296,-1.4262200059051249,-0.004767478731054852
atomes,19.387983484353068,-4.286403858403717,-6.694765570818179,-3.750466690663071,-8.014287817870308,4.37190647597666,3.083780924138992,0.7094955816282218,4.137842827301524,3.066431915892495
attache,-12.385178434850825,2.732117587329656,2.1465055222075495,-2.8867885134949263,-2.4604017584150326,5.2413534304969644,-0.7542407997887378,-2.7860138559859218,13.706896669349693,-3.0571796046413207
attachement,-8.219969265379202,-1.8571695251154423,-2.793343841026225,-3.795152415943272,5.851013691195385,1.234005505321931,-4.163830362096184,-0.20331686490122866,-1.5232715206813472,-0.11634524874213693
atteindre,11.567786791018584,-2.9343527523153967,-6.613115687584284,-2.129497726371317,-8.681579464299691,0.22725037318875974,2.307618561870206,0.3683712453647857,-1.8094346938366501,-1.420648058682284
atteint,6.267367110638673,-0.3382741897287655,-6.102783008957764,-4.405247562958092,-4.136135374213153,0.13790273145701537,0.09157130794665208,-0.5227097234618067,-4.186526153513573,2.0811390027542007
atteinte,3.1647702771856543,3.8367334960637813,-2.7013620389638233,-1.9211102474309876,-4.346243052759418,3.9140581217168133,2.8090734728890596,2.0214825012325885,-1.0418664679640732,0.8213965077825414
attentes,-5.991831210246737,4.845566654112563,-1.7523762035185944,7.915610440015282,-1.162742065430824,2.6503688800326333,-2.719330267416344,-0.19047895594105732,0.35571873064724,-0.7342794423766604
attention,-9.712002886522079,-1.71257806102643,-1.7358537654967545,-2.7615424221006033,-1.6633031732156462,-2.9101406450886826,-0.7779378768252585,-3.2998119007018145,-0.27787783091121215,1.2106448994976002
attitude,-10.797136272782875,-1.414324717153642,-1.2412009546876435,1.2398469847496425,-0.8304217491450995,2.8522686005696354,-1.7648035041190593,8.737724182684815,5.722290331100244,0.8733090882137136
attitudes,-5.340855008400092,6.444098096969296,0.689383934396721,10.657126755406322,-1.750270181699835,4.56520956867666,-0.4539790014678759,0.8752714019860005,-2.381320657764278,-4.314076181406082
audelà,-7.280406865779758,0.11538777890932213,-0.4644237285223524,-3.78233216938288,-1.1694607906255576,1.9405537558775763,0.8355526030658974,6.958690479909981,-3.8510841856829385,4.18204273163984
augmentation,14.924396106167205,12.710333819577729,-4.769986356628218,-5.141637232843345,3.9538061992448004,-10.87537926681646,2.9414552418187156,1.8440772448095104,1.015291377399944,-1.43621725107493
augmente,13.724726506898529,10.000397185609494,1.4447928608471634,-5.932661389741716,-0.5365014559552054,-11.077654069539301,4.853411946602078,3.3431186307214604,3.996659331356917,3.3513419559791284
augmentent,8.255178681433188,13.14249023392866,2.41476220888026,-3.85303750890837,3.5752139506344847,-13.097185133115405,2.8869919229737158,2.802495136514732,1.687822740093489,-0.28207590102129204
augmenter,14.202682189492423,5.684169274149218,-6.285190455801511,1.0662064811077971,-3.9299178573915103,-6.275290470509654,5.158753021444982,1.620454541872169,0.24658610686646584,1.2577452731887122
augmenté,12.005328448499789,9.895128459553648,3.512189132734854,-2.7401461376870335,-2.0086268700393166,-11.29488746068033,3.63867551231433,0.7480514020471869,2.759059027159565,-1.9644856934642638
aune,-4.811453506004714,-4.156800857611565,-2.4691528025077876,-2.890936337937947,-4.69506259804546,1.5851843082979187,0.3579132590573452,-3.041869742394999,-3.490698106426687,-0.6248877914896318
auprès,-6.776090974610668,4.147357794037669,-2.171400867905712,16.47107342556218,-3.51070271110439,1.9514138517382162,-1.7293378173423557,-1.2732607832869138,-2.0132729391238797,-0.24671697581201782
auteur,-16.519726799207827,-13.567282730836089,-4.615230143471583,-4.576035500772341,0.29001519449274143,-5.837147063753639,3.1465443301556077,-1.0027582959202466,1.0536114864657546,-0.931115765141808
auteurs,-17.630036422401457,-11.910546403723643,-2.9735660102481822,-3.053235130595658,0.8142934934789726,-3.8263645845649195,3.767803231582987,-0.4731521758556119,3.0506166724149404,1.2957326883931146
automatique,7.065879946116259,0.8484737273894769,2.4932128483962983,9.335486707538662,1.1468538127060517,-4.0848787759766845,2.795192975978395,-1.3253242698741923,1.3014732279801837,4.79072142755503
autonome,-4.612273503265794,0.08020839756617718,1.9919619959956636,-3.651832522475352,2.1908500847697936,10.766722557712718,4.6490277982553625,22.051052820136402,-11.601393507416521,6.308602797311056
autonomie,-7.972436783572049,2.2380442903779434,1.180579033269166,-1.238131683290005,-3.0874425143116215,2.6751672361465184,-2.7100422161945676,3.949610308841428,9.063468069100768,-8.006567454680344
autoritaire,-8.192036944416405,8.133285617920034,3.9116586506167326,-4.005842657846312,-1.025600959450998,8.254875749082462,-2.2545109235669427,6.465304398240337,-0.2092541061860482,2.4769715760478292
autorité,-8.406090088404442,5.2315601611096465,2.5790899761870643,-0.746897284683812,-0.262702734495572,2.0397003110746152,-2.2181404300402003,-5.448698889374896,-3.282235830485061,1.3406682408666204
autorités,-8.181091443209525,10.40295622021764,2.691650834529596,-4.151137728668414,-3.1773763848611747,0.38927550292263813,-3.493481171625313,-4.89563717401367,-1.504807674885373,0.9827376006426836
autour,-5.9471736417903145,-1.0186370882454086,-1.2382397205908702,-3.0806561184938803,-3.102458070190913,1.3393241428291665,-2.133706755554148,-3.570759359119219,-2.347806723729453,0.5130173705200719
avancée,-1.2930233629307595,3.6849813879058804,-0.4417884923492083,4.628067238335237,-2.686445969357779,1.4333024674926138,-0.42051822794881716,3.1950042191596992,0.0005223152265720947,-2.0374554600405372
avancées,2.194717201551118,-2.66008839521119,-2.3547507480434415,-2.3410219940085613,-3.27524825624138,-0.6395292626061772,-5.247497120615425,-0.9094136972453496,-1.258666475713693,4.361095206800495
avantage,5.396591006300668,4.614658475022099,-2.0791251830691233,6.942025328349461,-5.170248569486876,-3.760214196601533,-0.07996991281919084,0.4923000060267294,-2.1311376546674157,-0.5017519988185146
avantages,9.704384903651317,4.043502430396769,-3.891713132497516,3.8610003129503303,-7.321787125508944,-3.1940675498093474,3.269940025681841,2.3836194311106036,0.28966963782386435,1.3966564415602392
avenir,-7.184009889444666,6.071618203341719,-0.6187586373058482,-2.5382262896676124,1.4815351428061538,0.7520052791652647,-1.1462354016792167,-1.8295669266471097,-1.96497405393908,0.12300269592494073
avènement,-6.428140135792369,2.978361642265429,-0.18547531805748993,-4.3797385532392825,-5.669929082344299,2.7662793608700245,-2.8640286594958013,-2.3444244559888996,-1.4798327454328482,-1.4814624372659297
avère,-6.603208616617072,-7.074345035255431,-2.6091730204450894,-3.5220065768314197,1.178588220483115,-5.960940858315197,3.622934236101828,0.9954838302654823,1.396227019552656,-0.0417812837862773
axe,3.8100101196491267,-0.9561741414349361,-7.3826256854604715,-3.7210559883035272,-3.3575651473979997,2.7209262482484817,-0.23992477528547582,-2.2930800273503977,-1.5110018807533117,-3.3452541513767278
axes,-5.90990321314808,-2.3272749947613454,-5.175631837652647,-2.384031459236158,-2.2740630119462355,-1.8774774382105077,-2.4162013216350804,-3.879554697383102,-3.659982735710455,-1.399123076771325
bactéries,10.92849104650945,6.990717847422536,-16.47546936761441,-3.0163620404222518,29.201769427528706,-0.6052032236434515,-9.262821261255814,-0.9467677354394249,0.08594982549425637,-3.3040865649151563
baisse,7.527341578403554,12.12936483888705,-5.981241942533794,2.236120099602416,3.2089494437185837,-7.584942390833309,2.755234475162376,3.3660068074908773,-2.4809810420167797,-4.599199822064708
bancaire,6.001512188070627,13.793576806861813,9.903205662123804,-3.531706994871418,0.6771783817580737,-16.518324998328026,8.367748279658649,3.1158679507207037,3.9192507991506806,-0.1835073919755575
bande,12.679166295771408,-7.032779243159545,-13.782906578283793,-2.282603158059311,-10.19594432148014,6.862087267387321,5.899944744723135,0.3834342023957082,0.28791151530048503,-2.2977178541877525
bandes,11.40472815862147,-3.004441746658874,-6.683938006960594,-5.079055735676454,-6.331940904183897,2.1807445891567094,2.764020927009415,1.718502858413222,0.446768539576849,-2.2316508529789734
banque,4.0245858629594,12.475311637462704,7.613573554501588,-3.928479290035391,0.47935898128189464,-13.193257177599127,6.361957520431079,2.712447109324231,2.921181317228965,-3.3138929191079574
banques,4.933056673910987,13.188287048241078,7.979953509264722,-2.9242475772023124,0.37533637679788456,-17.08228653698355,9.522018647662962,4.069119340827295,3.1391134920399972,-0.8482672218148519
basant,7.199061704188904,2.1752082103757626,-1.2454874246862033,2.8388295337556464,-2.925261092748428,2.871607350534966,-0.7698319921817841,-0.96675341835287,-1.7441014653003608,-0.7199537132120919
base,6.2793344385899275,0.38213673691220296,-0.9989842159975328,4.210017972203855,-1.3153100386209102,-0.3997128372110649,1.5971784094516692,-1.6783018922386086,2.1725078719263795,4.067631894990857
bases,5.738243228583895,0.19929152369069641,-5.838954186848286,0.9960052065968524,6.8844977302441555,-2.1302333655140657,-3.5851083628595046,-2.646060278241426,-1.0408675713272224,0.06659549686763566
basse,20.13776618169554,0.10768539609773538,-7.891373218517909,-4.905551708865315,-4.150983650774626,0.15688813889108374,0.8864096693672081,-1.5991030861350142,1.3926101964246635,4.456349625097889
basé,14.923540596466243,-2.6169687611962433,-3.205951319325279,-0.998692286463265,-8.35642279955326,1.7905294107389276,1.408522682125755,0.004712916481671987,-0.5530780987293659,-1.5624617985699374
basée,14.9128852165279,-1.1556257859167847,-1.875757530574058,4.586824154920164,0.1068173000124236,-1.039266863177669,0.41470128077769625,-1.251548244757217,6.3278926157165385,9.693430004530995
basées,15.740263949857477,3.4775988419749804,2.0881308523680246,0.36268291382039475,-4.266861997517563,-6.003795194387243,4.214625654144522,0.3129392790417604,3.6025140070660138,2.9937982286155975
basés,17.57276800367,2.747569076588968,1.1436349460191644,-2.5352274377453683,-2.082118756701569,-1.7533090883494753,2.4619517592120093,0.98365311027892,2.66580913190544,0.7386867869404853
bataille,-8.190149518435652,-3.411266780473344,0.3417425814082202,-1.199437518832121,1.3798226870260428,0.9629724066068757,-0.034634324518431694,-1.0944927474062474,1.5841227734042609,2.122941052125781
batterie,6.382773714983312,3.754181464798419,-1.8818173428245866,1.9959828517052876,-2.7801562255400873,-1.6811013576150078,6.1655998712734,1.8630506291143467,-0.2915310300418231,0.1877967217355637
beauté,-12.34553730769557,-8.824762938213912,-3.6741765618149844,-5.050964976550837,2.8140054947718287,-0.5354165299267907,1.5038610439128437,-1.9623458146479575,2.5939814271925896,0.6431058055652848
beckett,-10.511081324444884,-10.23082488575598,-1.7153734422755025,-1.152372518878884,2.3471415056266927,-0.8437951554918945,7.525769799514911,1.8002517154941824,2.4325572775589364,-1.4296291801353511
belle,-5.163997702294138,-5.275831115116935,-2.21059902106044,-4.98544793411679,0.4396695413682044,-4.779114478553322,5.200642759813443,0.9256757243356996,1.5932410390655813,1.1767405090351066
besoin,0.11830657393943114,-1.5685624402403318,3.677986233605757,-3.421849096714776,-0.3840644191424341,7.894214867696013,1.6367886638297136,10.342636254790236,-5.001522057052992,3.065948376525007
besoins,-1.4876654308619506,7.581978209523319,-5.064846021053226,11.415157024890402,-1.0674314466527135,0.40838302362558343,-2.0599607638535424,1.7742007410768335,-2.6951107592178682,-5.105901270058922
biais,3.6975670732733312,3.372707189199426,1.4470993287080027,-1.510683253312812,-2.415322698242634,-4.916312579149596,3.549740309116325,1.3023008898807418,7.378752024224465,-2.784341088655848
biens,-2.6015825450285184,11.684289189632684,5.504895066959316,-5.36886679025031,-1.9695529659510547,-9.02992889265801,-0.9923284501461491,-0.377691719832988,-2.10065229358853,2.798513988024237
bienêtre,4.769690174691484,12.252503679344043,8.085752378858858,-2.3221109119928633,-0.36004496321493507,-13.982128372654644,4.596118783162089,1.6456252508721927,0.5099906910567321,1.6935878356284
bilan,-2.766453376468382,2.533006401395021,0.22170570606648118,0.24500274915592765,-2.874183788602378,-5.068005529679665,2.6022601213207115,-0.4446409180233539,-1.770274020472404,-0.1396489104774032
bilingue,-2.5234430584794594,2.4931516551275563,-3.133369978937767,23.85154650839865,-2.686527463499982,4.021981338521654,-0.6512339606128373,6.987595185538851,-2.801044891550614,-8.934239815603378
bilingues,-2.079482451762305,2.0728082974475988,-1.6274950800105938,24.304895556025098,-2.609603880300497,4.273921210540999,-0.10667692675952901,6.638342467137479,-0.04642162471923327,-10.068502746791298
biologique,2.403744539158706,-1.5996286968317979,-7.235435625073312,0.04504177158227802,10.876986459072846,-3.2060768185606876,-1.0917603298156484,1.463970401255699,-1.5200349321965558,-2.3609725914530126
biologiques,12.508668836169218,-0.8345081654133101,-7.317123791177793,-3.4692245817232417,11.644145748265474,-1.8130464012307093,-3.3551554675402437,1.9250650577183666,-1.6973556411108137,-2.347298249511288
blocage,9.93797885309696,0.4116548892646926,-3.953390965538578,-0.8930468632654118,-0.8582415727543754,5.663960661250536,0.9441272044697453,-0.555891502008534,1.2114210436837634,-0.9443766439637967
blocs,12.145832765963982,-6.518663253562838,8.839208242763798,-0.08066634769902167,0.458893562730026,1.5406483568669211,-2.548305030621139,0.09090894253547399,-0.06111096554316511,-0.5822188321462254
bois,1.8375660467685955,0.5460478606397745,-3.999591452164379,-1.7383883217717513,-3.234143493014014,-5.188673336661024,0.3267585356893824,-4.146169425034262,-4.096157202479868,5.783380205516565
bonheur,-10.362174786168405,-1.0689175830764683,3.025820879657999,-6.832264380615195,2.005115163422591,9.577055871520711,6.675708411183477,22.821917923188842,-8.419593470661692,12.425577357143457
bonne,8.06055099705522,-2.681687169517692,-9.303992195880285,-4.262724547022729,-5.353909000141056,1.4662646761199216,0.7223940422049923,-1.3068140178823038,-0.033980196969066866,-0.5405160397316967
bonnes,-0.5503399066492247,5.1949508611839725,-3.5550974542442058,-3.141756426230301,-5.126802476567491,1.0561274472864588,-0.5566514065350476,-6.5785217351702405,-5.701916356626189,0.5268299635197206
bord,19.497506689004467,-14.196737597238709,11.705208065840015,-2.4760247069734858,-1.4364394089375978,5.914521324289845,-5.8716918471602,-1.3058887618113506,-4.210605131344804,-0.9134693597666299
bornés,13.274351008193472,-9.253548111736592,12.017978250174004,4.041025350391572,2.5729790451915595,2.7907822662516066,-3.3351619470643343,-0.6505410032016762,-1.1006621218945538,1.8188959517148486
bouleversements,-12.60398282442977,1.7997810367845097,0.3317740744751413,-5.86339694980879,-3.2631384869647104,1.7559724521439,-5.860759828195363,-2.7231340890677216,-0.15048482237338334,2.497382536515839
bruit,18.158669295641523,-3.592755314757129,4.318855592911808,-0.6492756517200262,-3.8437588414142887,-2.974852832764311,3.5558439466844134,0.7525722979222617,0.9973418967921371,-0.7603552063149638
brésil,-3.759730636404257,10.255469017373358,8.213696949694654,-1.5550547846016944,7.12346509303771,9.502767535503553,21.81297523621897,-10.445052056733742,-0.6824959194721983,-1.7153389504088776
budgétaire,2.8854731076370115,14.78550610295182,7.985447104632402,-2.972867389463713,1.1492382634526703,-12.4397243924787,8.47186954429503,4.447286958245145,2.3285693027517134,0.2851752338868984
budgétaires,2.5220793245349826,12.738097603044322,6.675776917314085,-1.8753411231590358,1.4806988701833583,-10.29349960041113,7.866431823482957,3.44894064614311,2.445006254435399,-0.40151585954551516
burkina,-1.8230281506594497,10.008056160876988,4.457013751729761,8.949880625409195,-2.057930591998297,1.3114550248829329,-2.7901974686428574,1.4664924848514558,0.1188561680806241,-9.250816527954973
but,1.4467028617488928,-1.528112723643621,-0.5565409460728221,4.208578409823011,0.8988705404989091,-0.5555068581829361,0.9135383963282605,1.0214175974407096,0.11734500939829959,-1.0384121678916096
bâti,-4.543090254240262,2.288642038530893,-2.6553677328035454,1.8336554594495977,-4.887570938777161,-1.314117235250696,-4.778577025527327,-6.533279473150241,-6.955811376552126,3.991417737105674
bâtiment,4.555183420305451,0.6376523945142596,-4.573130419397161,-0.04681514438882404,-5.445961075068224,-1.5640447722031718,2.3275227834934245,-2.896404104727609,-3.5425958783634313,3.6469594289417357
bâtiments,6.567557202084016,2.4613239427827858,-6.093439592582637,-1.18089243548661,-5.800375758150489,-1.0979616097076403,1.1452297127129973,-3.8309304087813003,-1.1654092580033917,2.61873730999775
bénéfices,-1.0015565372712159,9.032719893403604,3.219489751459829,-2.637408402204023,-0.467982653735046,-5.452881725007531,-1.8880213586090107,-5.662710661536161,-5.003847217426342,2.679559497301639
cadre,-1.2757231688391615,2.4616850510799955,2.6522687320053624,7.600750307931027,0.7393968337597769,0.7719965713730637,0.5050991780033793,-0.9977033061500952,-1.1106516788942475,-0.5071874981561273
cadres,-7.468107460099659,6.840212410357388,5.059828221612866,-5.187964714509849,-0.36753486688345366,10.928338033232981,0.47000484306861107,13.690238442846637,-10.06357450771769,7.237368312792264
calcul,20.902354107268057,-7.497547101458354,6.799586984712504,-2.134531601795778,-6.1357162125874725,0.31130552509696635,0.0500943366078658,-1.728643902943819,0.026433460254987433,-0.05793152596195482
calculer,21.75841956919744,-6.828700724686463,9.52673736529631,-0.15244122149925496,-4.149024370178063,-1.2564528252763327,0.011778120903941806,2.359455903865002,0.99290192586554,-0.3860065283165403
calculs,22.83253607434442,-6.2858589492909935,-3.005779256899892,-2.719898145270105,-8.685580221022956,2.8815972516322788,2.4408764296747414,-0.9457831798055091,1.6423632288091665,-0.06845718774711519
campagne,2.2966432927082843,2.880523187574252,-6.256978750504751,-6.813024112447759,-10.253414485624244,3.32850279688128,-3.8722907429629227,-4.101708112916012,0.23673833060127294,4.133574499588037
campagnes,-1.9859123758530197,6.737615431966357,0.9912375134788771,-4.2190434648898,-5.01342546793345,1.5401492803003454,-2.427617885330958,-5.313608304957722,-1.1180177360504178,1.7237449303785286
canal,6.480444320434078,3.0095055652709712,-1.0960272218942313,-3.3607686589847225,-0.7643291554478927,-6.551535816865385,1.212636630639771,0.30147768826431554,-1.6213032960111735,0.32069756064006805
canaux,9.492225277248878,7.062692538319953,-1.9328870316987055,-3.8418039056443876,-0.7528673209113418,-6.107209865093048,1.5378505928328219,1.0067019854454593,0.1802684058731136,-0.6475200968329115
capable,8.18314267089079,-3.387932537731228,-7.858559118293911,-5.67451772602878,-4.751055017411669,0.26520878589300884,0.4519170774974879,1.1046000121024162,0.3165084410900865,0.3867533316102272
capables,-0.21946117922050276,4.778135055755533,-1.2498930580092171,-4.81167197865355,4.38495812236382,14.594378016669177,-0.8312070422312194,23.459984115721333,-11.792499163180704,9.423344445082437
capacité,6.059156967027173,5.227956790333242,-6.66456238950969,1.1071345711018858,7.196159363159319,-2.7290508737882853,1.7686866800060839,-0.5175208831910726,0.4011702624098677,-2.8489399443752403
capacités,4.754795902658645,5.709018653414869,0.4448733036431932,0.8082206141117676,-1.207227537891538,0.2710596890381313,0.721457862451569,0.8588064883795253,1.9667766617637081,-3.3044477639027257
capital,-2.955470590992115,11.387488491176125,6.077094158297019,-3.120084271642369,0.16138482506505147,1.879080373288519,-0.054403863132270636,11.52610312131622,1.7293098906469138,2.911642080770468
capitale,-11.045884982441983,-3.1314916614621198,-2.845211377738491,-5.373625666689107,-5.608789067129984,2.108896582957373,-7.579995211555812,-2.9521685266633244,-2.9783023477298682,1.8260333737397507
capitalisme,-8.928699333652933,-0.00720610879345822,0.9733914902392334,-3.326920735236708,-1.4413199701082668,-1.5381607762689238,1.7710524595992436,3.615021418517791,-0.6192317779207489,-0.05523228192257957
capitaux,-0.853463618323937,9.973614866990108,5.283474707519774,-2.1008062787882356,0.005154079541021504,-5.627366381386844,0.9478992409421465,1.6860178737208023,0.7421773140844687,-1.6794888837070407
caractère,-4.311696872793839,-4.404249984539235,4.623995352301503,-0.07723948834297825,2.4418865321201064,2.9892012424778636,7.36083904324802,-4.486558660882566,0.132120833918874,0.46662003735017793
caractères,5.555129671874465,-4.871354416703069,3.6103746469850138,1.5996930154537365,10.1070281216405,-1.0232229114321432,-6.896304820777871,-1.6324385054506756,-3.7828570773888752,1.471659888935332
caractérisant,4.4662832806362305,-0.48007125361121783,-0.6100323435452232,2.3697583279855308,1.2449483553991536,1.9323311041729385,-3.357503295592676,2.0491947956481598,-0.7320615034771236,-2.133273174455253
caractérisation,14.806022997970212,-2.3601057382380426,-8.783706083301762,-2.0637941382156173,6.861113143166186,2.450356285292409,-2.0720979134788733,-3.988973868271123,1.870334795354553,2.6014913695130844
caractérise,-9.87617747294593,-5.77612668193795,-1.7712919469009307,2.4475046543172234,2.4048279968404773,0.01955900984317106,3.471657140367483,4.1740586693764685,0.6289124923649145,-2.410900425852617
caractérisent,-7.868145193396693,-2.0419734487123957,3.0110383948703574,-0.7580177787005101,1.7965140928786907,-4.159300092477049,4.0085985641214785,1.533341179086681,1.9212401974716313,1.6611571465188368
caractériser,12.382403074296027,3.673692531998666,-8.222887135883548,-0.9146352496064654,2.7538001330590154,-1.7157495437222945,-2.150196069776598,-1.437556447590387,0.23460500301371068,2.2720754155643132
caractéristique,5.985139678884778,-6.944156945669073,7.218854530195172,-2.9645212940674135,3.878614367924627,2.3945394337863517,-7.110817100358094,1.5956514447189911,-3.5932302586446414,-0.4590403474181798
caractéristiques,5.9044966836435195,2.9274355850753904,1.587552229573487,-1.2382927915601751,1.3195017167132828,-2.2754120866665057,0.25341916941706294,1.586636890627019,-1.2794905118259312,1.2975014718146913
caractérisé,6.658139381567256,-0.9582521471442703,-4.246428980436863,1.6594122219452836,3.4983611159153285,1.710969791830003,-2.852133936631748,0.3989488422837112,-0.48333895355719536,-1.9622478957561784
caractérisée,9.66115654363017,2.9713621780301636,-9.637212817365345,-3.878515569283261,9.01687894410453,0.48527975830289977,-6.089282475780858,0.9878110302313005,1.293131875801084,1.3030339835005427
caractérisés,7.968967302102583,-0.40658810421123076,0.7734953521168476,-0.4520015493871731,-2.3956368170317006,3.6469812446563874,-5.342504421293091,-2.7620934673511446,-0.15794365321476467,-3.5646534319903957
carbone,18.136053160477676,2.403211257274427,-12.925876595435074,-4.039208981599352,2.7030392247510338,1.3724872591263466,0.5127428914613991,1.3915248321803566,0.8582104313721205,0.9043345293091513
carlo,16.891678709738944,-0.025527886588857542,-2.7332347208333165,-4.081948809088535,-3.5970569326359567,-5.078959317284437,5.215007365105498,1.1166147447860126,2.989452433913739,0.8165369813385766
carrière,-18.152227923884933,-11.15671175801069,-3.9571628969409725,-10.458088064236158,-1.6600185422680067,-4.526640462850121,-2.234058606827284,-2.965833911319323,2.3613008382204597,2.6071363095826117
cartes,10.973799568778219,2.50413986190637,-0.08856644135183148,0.20429869775352308,-2.328571176406676,-4.623915801557979,4.423132066303016,0.19216987334186422,1.6468813156509314,1.879951733724417
cartographie,-2.0051349731573946,-4.07320591734423,-4.513255964252759,2.1496237013705066,4.2680732683138585,-4.023537778355861,1.8635303929514493,2.9043304536810934,1.2923364039127776,-3.701447121689234
cas,12.609633243271508,-5.917820841823738,11.65448913094715,0.20788409825382456,2.722072855361964,2.7821128055429494,-2.514936966467631,-2.157261172912043,-1.5893848214885713,-0.9859434217579497
catholique,-11.457265731491136,-0.5514666613689514,1.8250363217705845,-3.10430453108489,-0.37826360354222727,0.5027268905449094,-1.525534461359531,-4.689096276952433,2.8816004837215234,2.758806946649032
catégorie,-1.5158489084169495,-8.553142158589608,8.6753874187451,3.958082097701868,5.353326375600892,1.7988129901574486,-4.086789063877437,-0.9223066095051526,0.49784771156194496,0.902107529940427
catégories,-0.9597379604074517,-8.971328984406645,6.507264207881685,3.1791516708882304,4.430301704051463,-1.2358096147782485,-4.300506418573597,-1.0407077934541626,0.36668990342297214,0.03709951890680439
catégorisation,0.710791632169625,-1.3859630561090648,2.112089375770541,6.251166382156857,1.755262870101092,-0.24928039456765239,2.8604291193827103,-1.980511104539372,-1.0094484052898431,-1.138266047574706
cause,-7.7943146999427295,3.413967386579592,-1.9587095781933015,-2.4762887158045657,3.184499797975004,-0.11288312775022302,-3.0454269984889963,-2.3604651621588135,-0.0619829648208281,-3.521286491920735
causes,-2.3507872807188126,7.139390902378285,-1.128810608605089,0.5566784856832628,-4.127408900037997,2.174546865169202,-0.7655480135435528,3.097919424592477,-1.0256262562757994,-2.8071091497645195
cavité,18.131714496184745,-5.10274267367463,-7.371036005439211,-4.386495987975714,-9.469013019717174,7.084720278430038,2.692751818102867,0.5160176928995145,0.48704917066328723,-1.781945342514781
celleci,-4.72249933245561,-0.9518873892658886,1.817909947382321,-3.718666714014287,-1.1561094032978576,1.065017462721258,-2.5681542987229102,1.8666928115754362,7.5750292360061655,-7.364493597011797
cellesci,0.05821963683176118,-5.129369738246093,-5.340995569757274,-2.278062031881183,-1.0543984169803275,-0.07507249522430158,-0.981306560182955,-1.009822353066549,-1.548369602650142,-2.8019846379678115
cellulaire,16.620170962143778,4.69518880811336,-13.796898193388962,-3.2791367207943356,24.514502038903498,2.447881493790228,-7.293284025969414,1.8946465804718884,0.16646198316404504,-4.224084909509673
cellulaires,13.761104063860792,-0.020724024746122782,-3.509434070971746,0.2841019592491734,17.2650062188071,2.578773421246026,-6.0428855478260965,0.9138273823788077,0.1185005525033938,-2.5065338065231604
cellule,18.185634434293284,2.4676387587072317,-17.69164536201402,-4.084224314852023,13.935516124701559,3.5101449262370497,-3.184968043107841,-0.5710701182258606,1.4568121986000124,-2.1042362170246918
cellules,17.068057636423703,4.900220126883365,-18.33407535622763,-4.3229393424868015,18.503682405329403,3.2528995358027624,-4.107199826775099,0.021684100831777166,0.3361315803206358,-3.881005219995829
celuici,0.25906002238905673,-5.97251442440239,1.9595385189798036,-3.5903014390712955,-1.1912036726913324,0.6107751854192175,-1.2256617494485464,2.336745190170277,-1.309028057044475,-0.5243304166142712
centaines,12.377740502055994,6.242790049306406,-10.961619606495221,-5.779327758696652,0.9575840710676149,-0.13230159366993102,1.2082299577397342,-1.4083734823285647,2.7811781891677674,-0.3589933730967647
central,-5.725136882223493,2.6666371245187874,1.4136384541435902,-5.100121936266287,0.19603519486336285,-0.5197485251185888,0.2628701226141843,-1.7182081670603464,-3.893077657656504,-1.975459145153385
centrale,-3.765919065442641,5.757358070958971,5.381132522885107,2.4908262020767538,2.9221761607125902,0.1617637732117644,9.662958301851003,-4.3092371050605065,-0.533905543443818,-1.4114245281709037
centrales,3.4469214684013267,5.490057433639802,-2.711149696862624,3.2218924870931946,2.687126130433272,-5.191024132685987,2.9210658746782894,1.404369409005015,1.16522652715105,1.1064393370660028
centraux,-1.3019071446284027,3.510148340956527,5.96568844093829,-0.02902244222589308,4.149965084434072,0.8848333017965397,-0.9968884934673499,-1.194798129131019,-3.5879922794343444,-0.12800403840818045
centre,-5.82871134235081,1.464389143267488,-1.3698135356338195,-0.5201844930448417,-6.537786099196325,0.9228210307313804,-7.330641195944608,-3.1733001751439187,-0.2539875829091596,4.202266490448733
centres,-10.303822823708623,3.321442761937101,-1.0638671578340397,0.3334340000100286,-5.201490120199251,-1.2817401771597565,-9.363257552945681,-5.970721888044248,-2.0028095709681284,6.912826681119873
centré,1.8451106067091354,-2.145068828055386,-1.8613305884042093,-1.9223740965174105,-2.8389103911417104,3.7334102927731347,-4.256357657636988,-1.056053160928856,-1.9809844360274604,-2.483030264141914
centrée,-4.399687606316635,1.6490533611593956,-3.73163059945533,-1.6311654504441515,5.070763945113918,0.17835453098501824,-3.349759943102198,-0.4005841815133862,0.9161857234530443,-1.2588772013340472
cercle,0.09465734158146374,-1.3384176344583738,6.335693182024999,1.0779975391046086,1.4490250181031017,-0.3219480793721052,-4.391774019570613,-0.40420408045332734,2.5663224077276063,3.5041950534352235
cerner,-11.162989084024142,-2.2338495776282286,-1.6240235750546739,10.114836073973741,-2.5322070674598502,1.6554866314187617,-0.20477344399585096,0.921562573250079,1.4209487850780107,-1.6744848807003667
cesse,-13.449455503865812,-10.727958817278783,-3.3177405170754017,-5.5762094225054675,1.5036973678459622,-1.4314236354182028,4.07429908283362,0.6636834596921115,2.582026109824848,-3.188838416298318
ceuxci,-1.041548865109433,-1.7541592983973484,2.1820421010101696,2.7351434611179464,-2.646671976425008,-3.0492087167956425,-3.579219417824884,-2.035109111221615,-4.02050293543432,-0.3038950289008168
ch,-1.672069002986633,-3.32457646307381,-1.5399360444746297,3.1891862453896334,8.745123302656658,-1.0927314644661617,2.335843112049349,1.3431452605326841,1.4938268001216635,2.4099657242805894
chaleur,22.05203825736432,-7.12600358292333,1.029443572664098,-5.35688543749776,-4.72366916810717,4.276462008466873,0.5426966360749689,0.8129706672240381,-2.8980622455552845,-0.10890823346037792
chambre,9.07863097276025,-0.20189149618985475,-7.385983889082617,1.4837617870537712,-5.092989649415098,2.4266597151058815,2.9516000982349673,0.8275399556784473,0.7375783607407004,1.0567929534931666
champ,9.385230586279155,-3.044420003933727,-4.092565319987569,-3.883256082304505,-5.14319301657626,7.577393073320251,4.689385070635702,-4.234144644064463,-0.3077357830589738,-1.6967476942470383
champs,4.985399225328955,-6.663272183134803,0.5267722494355932,3.042512791797801,-1.957102811508344,0.9545420035271401,-1.0291930901942137,-2.674012439589487,0.1542837198261286,0.015750877860160335
chane,14.422436337587058,-1.2462668256562417,-2.807226365238459,-4.567610875695721,0.6858277849976679,-2.091477252123774,-1.0965796895152928,0.770811710194429,0.056748785451046536,-0.7996424331976186
chanes,11.61448831636088,0.5985507307847312,5.10480210648844,0.727536589123218,4.287312945827374,-2.99160633083584,-5.248280910211692,-0.20958627391784201,0.4070257278660647,-2.061784441885545
change,4.47385098794505,9.103354866501572,4.389889773631456,-5.911286436615347,-1.231992641484538,-12.304164554378833,7.563326917716407,3.5950512151790983,4.380469078879455,3.010523302241656
changement,2.103283904508678,5.641558217888911,0.8930613083386784,-2.2299142945416697,0.47779934196947793,-0.2982727812965015,-0.06630924008229847,0.5397777750484356,-0.3265068045113752,0.9106332381811895
changements,0.30967145163503196,8.625157648201794,1.1255455472649887,-5.683248871577097,9.335293904522088,4.028021465344803,-5.848167819892015,9.009499722311723,0.7026806644020115,1.8515388997906332
changer,-6.76129265893679,-0.22814415711889355,-1.6159698705574983,0.42622523278116464,-4.099018116137097,-1.368838841125536,-0.44284800810759894,0.23569500374675909,-2.407602903441684,-1.4231631228249286
chantiers,-3.624167769068148,1.3577613973730507,-2.7363228625325484,-1.0688517532288155,-5.0627682003084,-1.4244054043238619,-3.267550487861275,-7.021450381652259,-3.8815757781848603,4.154125347297449
chapitre,9.829221806424496,7.678037800436901,14.562920219009845,-1.6364162365345323,3.2347773662817745,-13.887933174155641,4.253596506981953,2.563538105215592,-0.27342560916194814,-1.3315065528202443
chapitres,4.503508130953628,7.172205525349667,7.810441681986897,-1.8284188267682404,1.082175604066963,-11.154295344733756,3.631688246802696,0.4760782272090314,-0.015588488887160627,-1.2255277261169586
charge,9.144699379866067,0.15042488038019097,-7.118174362915716,-2.4447540246208903,-7.017474796272726,2.140066375998172,4.293233178895269,-0.9966039248377742,-1.4742522363957948,-0.011764604335885984
charges,17.024589758266792,0.7091792347518031,-5.8413604458196575,-3.1193074052984424,-7.89198829391816,0.4888367468779501,3.0951171459469498,0.07034544157656895,1.7459938665097032,-0.8961430796840724
charles,-15.277608543529476,-7.410476940008322,-2.022698216153381,-6.009510387210466,-0.3966297316531802,-2.92164317531529,-0.280357122795328,-4.025125258591614,1.498639532495952,2.409831262728097
chauffage,18.021476342293038,-0.8167033565844912,-11.117664289721331,-4.079774521894716,-7.37108365978542,3.6418790715693645,4.99893007262683,-0.8760931497662756,2.8090569962443546,-0.9096614274338735
chef,-11.05392300588476,-2.7683405156610994,-2.442188601495342,-4.414876223776022,-1.2763093946580595,0.2852686253151687,-4.412702217028986,-2.672812872104892,2.153334923973804,2.587822396657481
chemin,-5.573563835898137,-8.399046454369591,-7.669137982260821,-2.1805553409071368,-2.7612061865004973,-4.0542401827702195,2.299490151867293,-0.6113305603513419,-1.200293551522285,-2.3611555026333693
cheminement,-9.393136902961851,-7.813326176533402,-2.2032113319698463,-2.1722845135584126,-1.5348628659290504,-1.0688040619746941,-0.10762435947212232,0.331261736831546,-0.337620950543103,-2.101510326571629
chemins,5.695090364672374,-7.113712057202953,2.188593816344925,-4.22124520715186,-1.945408732090652,-0.18806725029411409,-1.3608353914136557,-1.4445565782444492,-1.869697367069772,-0.4726138538859435
cherchant,-11.569838325329696,-2.4028731757259454,-0.7682108441429316,-4.793472633895542,-2.0155887747461634,-3.0637021559733006,-2.678499425009759,-2.918669141952454,-0.09308388745802561,2.1725516375924308
cherche,-6.28057189252372,-6.20523545959066,3.0290954173171887,-2.214981455652153,-0.4957361898089074,-3.572761321126121,-0.9859696798165138,-1.4194095923557402,-1.0633063493316093,-1.4669586701475348
chercher,-3.1863757086664766,2.8314859531102607,3.108269726034432,-2.0324973253184972,-1.8643858804268618,1.4450340265393955,-0.4629476186630528,-4.063715220936944,-0.44984612501888543,-3.213966693598217
chercheur,-10.872919071002196,1.3764792063329443,-1.2078607873596934,2.9394744198056615,-2.279028634098732,1.2335454616438968,-1.737540157326903,1.2862269020244295,-4.7247646238528915,-1.6317385829133615
chercheurs,-1.5725488334521116,4.6267447927323975,-0.6334287655267498,2.893241047183921,-3.914962376793091,-2.849949217811513,0.2824011529133251,-1.9363307823390652,1.0947505305830172,-0.09894753928194815
cherchons,-4.098491629446895,0.15329678975989555,0.6132744253571532,6.360027932882652,1.1482388220976434,-2.8408478472901497,-0.24135861231957567,0.6604991817050717,-1.5021167888130253,-1.3510432055713688
cherché,-3.6234650873815015,6.061246197715487,-3.577403893046178,9.671910065523116,4.484045370924629,-0.287500042332947,-2.5368592754607064,2.3267716723604455,0.18743326456796472,-0.08771019635702657
chiffres,3.65160430700162,4.019718487776463,7.287666606399107,2.610205095035836,1.1879659319431461,-2.2307148138557977,-1.2952093934363405,0.007569678995815688,2.344288981818553,0.2585352383049245
chili,-2.7748487073048804,8.109297390712086,2.8916154260043556,-0.22641861317814319,-2.477326276654269,-0.7727814011731856,1.0606650361996584,-1.720954698102138,0.1928477464528486,0.5664700855526054
chimique,20.382992007898874,-0.38586108706944877,-12.831202587033548,-4.611987347268138,-8.523284074218406,3.323435616901356,3.554163503579057,-0.6554675465774417,4.516157669360801,4.804861805275287
chimiques,20.400475447184455,-1.9389183624242947,-12.044654855704259,-3.744581474876708,-5.755312903821722,3.989960996197491,1.3928461912708852,-1.6822712466811598,1.3470768125538046,1.462188774911347
chine,-10.08836524480014,8.544433279608844,2.852276912037193,-2.412579633988968,-4.97521641238832,0.24557421414005853,-6.599215435446363,3.365980697491535,12.995789894277914,-5.21770584588412
chinois,-8.88159089046045,1.5815565341574211,-1.1356084463002387,9.772255434540593,-4.703690338398718,-0.9026508009019741,-2.154826078624375,2.6648892790868994,3.2661238002951496,-6.271945635253124
chinoise,-9.67069696158538,4.395506485994393,1.5644801706082447,0.06538571735441458,-4.176840516358743,-3.8143959427487624,-4.87463118846034,-1.117229794300798,1.5624779039128442,-2.0227169135369643
choc,8.175450144859466,8.18527856012842,1.4713687045727946,-2.3936554180240983,-1.248323518707489,-7.961078774973518,3.150550787596919,1.36096105702963,3.0165424923351742,-0.4317717049392961
chocs,8.087569982523986,12.1814021504443,5.045860967624546,-3.3042596184874724,0.30276860051947,-14.293248904963583,6.908310835560587,4.1155654307242,1.9822271511115537,-0.5296395190967286
choisi,-5.331641365575108,-3.832365557744115,0.7712485891682833,-5.99601633483985,2.4428289622942567,7.185834038576906,-0.41539752603684765,13.818680560351961,-4.25421263443866,6.258658413394689
choisie,0.7060522581259786,-3.201388685060206,-0.36108929930619155,12.190941784775626,-2.5949337573698528,3.13218934459209,-1.58748226776712,3.445615957017893,0.8517770374844644,0.18370397461441407
choisies,3.202632681766864,1.861970332985335,-4.931157374569024,1.7641961641005504,-2.23474632404192,3.9637380838075025,0.08950283900262435,1.034536719659669,5.384182220633734,-0.8161437852297383
choisir,-5.249994665469128,-2.944940987386988,-1.0355332455133903,-0.313006645981963,4.714441379571215,-4.511035888453976,3.388482190084751,-1.5072498672911177,-1.2552131496388024,0.5936526476635556
choix,-1.5811063567521515,3.4735783221843173,1.6092969772141779,3.0936945885625597,-0.7495068865905253,-2.0151796621554436,0.9736685485306726,3.386619336360874,-3.114739516846328,2.8088301404269904
chose,-10.756712802920369,-10.987375635223799,1.5078382219283195,2.801530221799135,3.332902365916987,-1.2259770258510716,8.190386465955918,1.0356668106210571,4.900192100368955,0.3247380262070379
choses,-12.517021250314716,-10.807982009477598,-4.043222735053574,-3.7201945522227593,5.917244846460019,-4.145126827885786,2.682319464786045,2.2426825856970436,0.22680205126847167,-2.740172683981248
chronologique,-9.557646097176535,-4.444393072081712,-3.9971278280865143,0.8163407343092419,-1.9857689153553235,-1.385531606097574,-4.034476458413739,-6.279285766849962,-0.45209358575374137,5.713451602930431
chrétien,-13.8650030253373,-5.946788781152045,-2.533003268998828,-6.670907142924038,-1.5429323378465327,-3.0345117044270453,-2.90283210293628,-3.909948794951719,1.1130930579270677,3.335685536329244
chrétienne,-16.08398628327791,-9.065403619884217,-3.9091918666975087,-7.4659432671588535,-1.1669398869370287,-2.5653977919752116,-2.7801394298470625,-2.518758384657576,-0.7472323731990982,4.020959120317603
chute,-3.272035330746312,6.0443972708591724,2.231608759959949,-5.0605521694432785,-3.3552782926870672,5.505546491566957,-5.067869874387739,1.3743395620226098,4.930150436581128,-1.1835987654262503
chômage,-1.3401420425005244,12.676038115341944,5.689670618928615,-2.8557433175956515,-1.7525635614155117,-5.918768552054968,1.7506508513703023,0.8220794025424627,-2.063077146811691,0.14580066327095173
cible,7.970671387865197,0.9721396914147388,-7.782759654517469,6.745242754497346,5.981437096005753,1.8901647297130777,0.9845279650819744,0.060436264068225935,2.2637669969169156,-2.4927796292553217
cinéma,-9.120065438429592,-7.034242298657875,-1.8002178352329026,-2.2131539142159613,1.1593074726834538,-6.838719115204179,3.4175718564210236,2.164148571957514,2.118301278412058,-3.2241257962655343
cinétique,22.72343147293532,-3.6934889068197974,-8.52407484371778,-3.744942113903325,-0.3217558791627667,3.2887086633898615,0.158664615252593,-0.04111529533369307,1.9748766588165914,0.706151615820374
circonstances,-10.954117643307585,-4.922889963569246,-0.9071159369131564,1.39439059532217,-1.2607901885958661,-1.118628240587239,0.6761350938195668,0.42657834076412443,1.017236216198784,0.6957540361244282
circuit,11.8978934330935,0.4614676002922316,-1.0644097919670366,-2.586597384529876,-8.066230515684696,-0.21430297493619707,3.5183695147018925,0.11746135846582591,0.4181871920945741,0.13123559112142016
circuits,7.809220549608574,0.2466196303982422,-3.317442507582732,-4.013261987010544,-9.264732921644583,0.7893488936943797,0.5038358621773213,-2.56201964479021,0.3905672237650241,1.8049767696683234
circulation,-7.097448373342178,4.935395498167685,0.8097068320184752,-0.5214309980600302,-2.4643958425873067,-1.9728923349751455,-1.4121938541890917,-1.7591115191893576,-0.12934575185940916,1.4490011301316552
cisaillement,16.498411996893388,-0.8042364404573102,-7.797254461031809,-2.5965734366850772,-2.5880270526870888,3.6424894433580817,2.6357894757409497,0.8228310540602791,3.517899018670613,-1.3932484780558632
citoyenneté,-7.41224177566394,7.800642767897167,3.9054725645413653,-0.5943888462074471,-1.0744460539166398,7.482362536197777,-1.0319313226584412,1.3524983454855644,-2.4664947915351405,-1.715218143407144
citoyens,-10.021071729123085,14.024030826107662,8.302039524285487,-5.315972271283541,3.8185317677206325,19.482753193932748,11.740857963945269,4.419676346560606,-10.97559470896033,4.119719100469222
cité,-13.081126294870714,-2.138073872813966,-1.9961507010457606,-1.2030896550569465,-5.252460029578388,-0.06403885888590877,-10.842857707003125,-6.0968696566428,-4.132437646739644,5.3504392153862055
civil,-1.822333650547537,5.745005728358997,2.304354461287206,-7.369852215626018,-5.026602911625528,5.977641433495581,-3.557518484969996,-0.4225602366922922,5.047836607234546,3.505000620235588
civile,-9.274371107411662,11.971271050999963,8.502247648920704,-9.732835167570615,3.1545263454440184,20.87476911863961,8.395476439269771,18.368218700996472,-1.8933510869048085,6.4567495716231225
civilisation,-9.096800883963164,4.666468891413945,2.383128478987289,-5.972395711653425,-2.083937704747388,6.531723576721869,-5.402008578313543,6.328741072830191,6.281433326004109,2.832370840954268
clair,2.1834036701361392,-5.468031006061134,-1.9416180938895677,-0.7147437379278334,7.022877451981109,-3.3735958561037207,1.6487034661022621,0.3176346262014048,0.04214542880915501,0.7348885452914653
claire,-3.0550961252549595,-1.4215024498972268,-5.072850880137763,-1.5454037683746678,1.8127696529757962,-3.0047983266104903,3.1525514379524875,0.9871893451739168,0.39218900612910546,-1.752151669883305
clairement,-3.215676227361431,-2.4947011845993727,-2.601581960913252,-1.4048817337672816,0.6897878197695605,-4.32249651704558,0.7548431721892715,-0.22961463801410484,0.5284902759923349,-0.9397933859882494
classe,1.0273694504797715,-2.7045309979934036,6.697855669531921,16.078526095341534,2.9187282564653865,8.737177373958732,-2.934427822970023,14.766092202898436,-3.363220999962745,2.0868426823772857
classes,5.057607199232936,-5.131451328108341,7.910313019251274,13.375852720794219,1.4571591155920074,3.242310674512387,-7.257473618991685,1.479483081917256,-2.350171127655248,-2.1905040296169505
classification,7.144725985021156,-7.154248311014818,9.930759370914496,4.491200119123168,2.8031304325422783,0.4405883010424209,-7.137218051858087,-2.918071705721569,0.08017870604956173,3.636263686953521
classique,4.212928841477689,-14.00760251497362,7.167226058762483,-4.685321518354102,3.3807990804841204,-1.4740896613941417,-4.9594562369881245,-1.0896609069603105,-1.8652395152340118,0.33240532191898875
classiques,13.175137166930137,-9.39075117535423,10.42767264095561,-0.4764498431096938,-0.5757154923396675,2.435140599941752,-4.672995598564317,-2.8160992734088164,-1.4620527054413959,-3.6257538961234337
climat,1.8697778226486546,7.129638298163071,-2.841647232100713,1.5622139199852103,5.445047430439997,-4.540093396769162,-1.7835187273074748,2.170990177403948,-0.8740495817305793,-1.6693115827795209
climatique,10.764936292501766,11.967601346529088,-6.753897749303283,-4.836521631524928,3.7958570940672085,-5.939129095668117,0.45153707238335267,-1.269678264002712,-1.6461304707568083,-0.5410975820108876
climatiques,6.949238813650714,9.868376961687042,-5.219147847317774,-2.7064761468864145,8.840009413086111,-2.8602348258204837,-0.44968178920460006,0.023377687192273174,-2.0669091512001465,-1.2293259569273838
clinique,4.363349372000725,-0.8821389484832618,-5.2575918884225965,6.712401596456933,1.3486215104192922,-0.22616803090772997,2.2448242789869415,1.0428810734734706,-0.21496510470431995,1.0002480046585942
clé,4.671692921565312,1.098898868819119,-4.697296939576606,-4.927066786144049,5.064447761093661,-7.440116942062977,0.6373167478558472,0.3350464759642831,0.19572003594766674,-0.59209296885605
clés,7.887291246917677,1.7539672241793418,-7.342129507818542,0.49490958870635976,2.097096927122128,-1.227974499337752,-1.986452647886929,-0.31579284824759263,0.7174661224131356,-2.4927160867873255
cm,8.525291105396057,-1.0799009923873428,-8.467418837494062,8.084695347745564,-5.464449800987024,3.859963847685383,3.6000833253502775,1.5319514148641569,2.7887884505173863,1.265829210445498
co,9.473349801654315,6.781549018753211,-6.318617167605603,-0.5541852118129195,6.519008018847713,-2.9230902013561106,1.440471507899817,0.6621420308952085,-2.508595896836333,-0.6607182602107048
code,16.797732806866502,-4.280872895745092,-3.9144876258889756,-5.392153551158882,-8.923101550977988,1.9886385446200772,2.0250868333690124,-0.54141999050564,2.5575963413922027,-0.07793603018987563
codes,-2.4160481868144976,-11.817410214359088,0.4457179452866093,-1.2360583102264984,-4.3359235326586045,-0.9724947036124183,-2.62872634820977,0.8001694013224067,0.5102006486109583,-2.1402541391212138
coefficient,19.45299223110551,-5.925669305128913,-0.3405835889808715,-0.7260710124126654,-3.527024227514,5.2426974281723355,0.6039871504425017,0.16026114186407606,-0.008886521045516958,0.509257817907082
coefficients,22.23741458133014,-12.867098940758808,16.159289987050244,-1.1015417849105453,2.3537096536629334,2.8226644891733135,-4.473585018304973,0.16887322531719556,-1.923511683088384,-1.1743578302508917
