abordant,1.2310364,0.28333133,0.2388929,-0.026613997,2.0034075,-0.471369,0.91685754,0.50945634,-0.8912845,0.017256467
aborde,1.3022027,-0.81942564,-0.3011188,-0.25324842,2.0175674,-0.43182322,0.5028923,-0.25417852,-0.80948174,-0.76603234
aborder,0.8971244,-0.9822934,0.5308824,0.1146313,0.90106523,-0.4641525,0.36661595,0.20339622,-1.2597258,-0.35486698
abordons,1.6970764,-0.21461184,0.32097006,0.36189502,1.0479972,0.78937644,-0.07951631,0.27921423,-1.4350497,-0.97508734
abordé,1.7604445,-0.2335972,0.28626105,-0.0016140856,0.82949495,0.024463326,1.1410371,-0.16555133,-0.7561993,0.03916609
aboutir,0.50047415,-0.4876223,0.4930158,0.5959622,-0.6140082,-0.5423413,0.99647385,0.59379965,-0.6129158,-0.85255116
aboutit,0.12113722,-0.33866662,-0.36801907,0.08146597,-0.19227758,-0.32753757,0.4497949,0.797396,-0.13803422,-1.5437416
absence,0.42596152,0.14697,0.025520021,-0.053346112,0.32902145,-0.6920259,1.150818,1.3177375,0.525736,-0.20979916
absolue,0.51409996,-0.6762231,0.6416935,-0.50991696,0.53290194,-1.1892596,0.3828208,0.7658301,0.23607141,-1.087901
absorption,0.9379702,-1.0801041,0.6123494,-0.4941879,0.14352958,0.14196558,0.34020767,2.1000512,0.48365352,0.65627205
académique,1.0659024,-0.032224067,-0.3272195,-0.64874434,0.710822,-0.979855,1.1610376,0.28310364,-0.027019905,-0.33576685
accent,1.1207747,-0.18171033,-0.6641672,-0.2162045,1.975704,-0.9404458,0.95221776,0.8728727,0.088525556,0.30182514
accompagne,0.09375874,-0.6092113,0.20491283,0.10223611,-0.11226856,-0.028893426,-0.19271106,1.2502482,-1.304321,-1.0142852
accompagnement,0.18025729,0.8557855,0.20278317,-0.32355088,0.16232637,-1.1892786,1.1271983,1.7975968,-1.5820445,-0.34474617
accomplir,0.7591415,-1.6987573,0.8787004,-0.16687626,-0.07787046,-0.8399735,0.08630383,0.26834136,-1.0113822,-1.2582031
accord,1.2642435,0.14835355,0.23882549,-0.29452488,1.0450567,0.42763034,1.396078,0.3754998,0.35833615,0.09450511
accords,1.1495106,1.3180441,0.21558972,0.49135303,1.5967417,0.6166683,1.4643897,0.5025802,-0.47213256,-1.5495442
accordée,1.1587435,-0.15849273,-0.2264972,-0.16465385,0.72976196,-1.1489435,1.2411894,0.7037124,0.25848293,0.079577155
accrue,0.08437514,0.5007075,-0.006314499,-0.026222343,0.2475957,-0.79203,1.2536561,2.064069,0.042975295,-0.08481318
accueil,0.29168344,0.5861109,0.2695298,0.055717163,0.5610377,-0.55380744,0.82856995,1.3038654,-0.76564413,-0.7163783
accumulation,0.70148796,-0.28172016,-0.38520172,0.39499173,-0.6872175,-0.3713282,1.3273929,1.5423661,0.18874237,0.1998964
accès,0.38149095,-0.017787892,0.42306367,0.20188344,0.26197138,-0.48332268,0.4661903,1.5050994,-0.9171231,-0.13603169
accéder,0.12967324,-0.9722859,0.74044853,-0.12643582,-0.43623796,-0.731469,0.55770016,1.0637358,-0.8361701,-0.4496789
accélération,0.12746762,-0.64054054,0.03637243,-0.86394054,-0.4994003,0.21882272,0.7936782,1.5072958,-0.18735923,0.31502163
acoustique,1.3748925,-0.95689315,-0.17479703,-0.18009056,0.19717124,-0.12898315,0.5000965,1.1327274,-0.35399786,1.0034269
acoustiques,0.44218883,-1.4758759,-0.19117929,0.03738803,1.1901652,0.47384602,0.8535166,1.4317719,-0.7519682,1.3313926
acquis,0.16770454,-0.6314838,-0.024102021,-0.32318112,0.013215936,-0.5549611,1.3667806,0.20684512,-1.3192803,-0.1682952
acquisition,1.0291831,-0.42630708,-0.02780944,-0.5085016,0.095234446,-0.35160288,1.074409,0.8746451,-0.8969412,0.9714948
acte,0.6607769,-0.1520281,0.16924566,-1.3564185,-0.2093509,-1.3980263,0.42563614,1.1064068,-1.0331265,-0.56972665
actes,-0.2353858,-0.40865064,0.6038811,-0.37530527,1.2354635,-0.66872984,0.50936306,0.965204,-0.8259204,-0.71179366
acteur,0.91094387,0.24226223,0.11833859,-0.8540646,0.07090573,-1.5384485,0.724081,0.9585235,-0.48640996,-0.89943194
acteurs,-0.034937467,0.5665061,0.11820615,0.5447645,0.97420996,-0.30305693,1.2928762,1.2101941,-1.1968541,-0.68950737
actif,0.90105355,0.31441855,0.29596528,-0.73218423,-0.6786142,-0.37419724,0.589582,1.3399036,-0.5072208,-0.22929932
actifs,0.63014424,0.7262146,0.27080545,-0.107169844,0.49593613,1.2095546,1.4934443,1.919077,-0.51367885,0.521074
action,0.6560484,0.26483628,0.11203473,0.7226861,0.55453604,-0.79041183,0.3340072,1.2428865,-0.46482363,-1.3068014
actions,0.20704667,0.3797617,0.42467192,0.27557352,0.88339335,0.055500932,0.549336,1.3185374,-1.0721196,-0.5160244
activation,0.5863779,-0.7625432,-1.1095935,0.63955104,-2.1215994,0.15581532,1.3195255,1.7652982,-0.9407779,-0.42707488
active,0.9728877,-0.46433255,-0.34416425,-0.61305594,-0.2812544,-0.70168227,0.31497696,1.5677938,0.51733214,-0.10639959
activité,0.532115,-0.189059,0.045080576,-0.15676478,0.11566762,-0.8367512,1.2289274,0.95045835,0.19418685,0.06566463
activités,0.17102928,0.31930208,0.06749451,0.22597325,0.27266407,-0.165522,1.3016313,1.1292868,-1.5746324,0.043723896
actualité,0.6286392,-0.43015352,0.2319375,-0.41547042,0.7773468,-1.7860398,1.0491416,0.45725334,-0.63451076,-0.52931577
actuel,1.1217093,0.45184192,0.09814631,-1.4067749,0.38186383,-0.00022773849,0.91513205,0.4004468,-0.8005389,-0.15158866
actuelle,0.5202071,-0.31353298,-0.10033409,0.38955933,0.7974848,-1.1361669,1.1234372,0.5974453,-0.07944206,-0.38412157
actuellement,0.6406364,-0.17316878,-0.13104832,-1.1027544,0.4109369,-0.7436771,1.6205703,0.48471597,-0.03822569,0.43729278
actuelles,-0.1987729,-0.34118176,-0.20838779,0.20880684,0.8185582,-0.39811707,1.1701877,0.7504541,-0.8960048,-0.29644305
actuels,-0.18765967,-0.28149995,0.70969415,0.03546699,0.41744566,-0.28040326,1.0764536,1.1099783,-0.9989648,-0.07092317
adaptation,0.29822245,-0.088439815,-0.3925156,0.4803674,-0.20230903,-0.5327371,0.9432841,1.8308698,-0.7014308,0.24468909
adapter,0.22567487,-0.102649756,0.48807612,-0.023143481,-0.74694014,-0.18072963,1.0213112,1.2892987,-1.7478338,-0.14373733
adapté,1.1692361,-0.12149883,0.4034855,-0.30804658,-0.61587965,0.14953236,0.66049,0.8839398,-1.3941271,0.19656146
adaptée,1.0858579,-0.58213896,0.29669902,0.99060553,-0.151382,-0.57138973,0.5294281,1.3812926,-0.14673194,-0.10451962
adaptées,0.4498265,-0.56210434,1.3441379,1.4595035,0.07688134,0.3553489,1.4175423,1.5199314,-1.733895,0.092401624
adaptés,0.73547256,-0.24527685,0.91360193,0.025956037,0.3021822,0.3816972,0.6585464,1.4897975,-1.2090172,0.5144736
additive,1.3514875,-1.4870515,1.1537167,-0.726097,0.1984098,-0.32148778,0.20922907,0.9612757,-0.04596149,0.37620398
adhésion,-0.20437993,-0.19252196,-0.08153207,0.2721149,-0.42962343,-0.51783586,1.5362203,1.3669504,-0.15336955,-0.37415105
admet,1.3412184,-0.7165799,1.6760675,0.41574806,0.94632816,0.37764773,-0.39681226,1.2757877,0.30933997,-1.8245188
administratif,0.6524671,1.2484173,0.26634005,-0.5908664,0.18606092,-1.1031575,0.91707206,1.611962,-0.760114,-1.3989677
administration,0.12778059,0.5436545,-0.9680971,0.21725708,0.060976993,-0.50032127,1.570988,0.94746226,-0.60249907,-0.99050957
administratives,0.029900119,-0.21889047,-0.20984602,0.8991802,0.29541388,0.033499982,1.239041,0.6090199,-1.8641703,-0.79270065
adn,0.8586195,0.20550512,-0.399783,-0.4079958,-0.67764485,0.23785175,1.8019074,1.4075731,0.06696582,0.40703443
adoptant,0.6195282,-0.82398844,-0.37635177,0.474307,0.710939,-1.3874655,0.73615205,0.48027256,-0.62930006,-0.5214828
adopte,0.867069,-1.1706856,-0.050456222,-0.1781362,0.6739999,-0.91577387,0.20318781,0.24357,-1.0923995,-0.46855286
adopter,0.38987055,0.18224105,0.44337383,0.26086774,-0.30259067,-1.1634783,1.2615243,0.9906604,-1.040062,-0.516222
adoption,0.6410362,0.7726312,-0.64568615,0.34983027,0.54804313,-0.5814728,0.8052465,1.5467762,-0.66990346,-0.47801617
adopté,1.4745637,-0.13953586,-0.52723837,-0.079445176,0.8015096,-0.89513505,1.1666183,0.09776543,-0.31097922,-0.18983123
adoptée,1.8671349,-0.48193786,-0.64221144,0.60169977,0.60789543,-2.0812895,1.1706954,0.7630947,-0.127743,0.092499025
adulte,-0.51292646,-0.592255,0.1907356,-0.95479244,-0.44770917,-0.5310185,1.7442795,0.890442,-0.31296164,-0.33217797
adultes,0.4406047,-0.034973864,-0.23425245,-0.3737165,-0.11816393,0.1759608,2.21614,0.36749145,-1.8891587,0.29933283
adéquation,1.158209,-0.5635369,0.58274734,0.0069058165,1.0838449,-1.3233055,0.5501348,1.1102375,0.34360874,0.041118253
affaires,-0.21528028,0.31540042,-0.4652209,-0.395995,0.58297074,-0.11285667,1.1925353,0.7658545,-0.70562613,-1.0265585
affecte,0.4211016,0.3261796,1.338276,0.35191447,0.84463525,-0.45945486,1.2868395,1.8079687,0.3189691,-0.20322129
affectent,0.022220258,0.50761175,0.19866708,0.85605294,1.0919579,-0.6757088,1.0389671,2.0071974,-0.54969084,-0.50000095
affecter,0.041605875,0.51874745,1.1519798,0.31480908,-0.4734595,-0.06451494,1.2862573,1.741012,-0.7139914,-0.80762815
affecté,0.66541606,0.11732941,0.28418735,-0.025085554,0.21932146,-0.5830005,1.8982382,0.26130372,0.36470038,-0.7826723
affine,1.9815809,-0.24139303,0.4064881,0.9096994,1.1533688,0.82461065,-0.44014624,1.2673485,0.20525153,-2.0944455
affirmation,0.22709994,0.013500266,-0.08718936,-0.3505553,1.1711978,-0.81606686,-0.21420778,1.3386298,-0.3125279,-1.8117666
affirme,0.33777648,-0.7436968,0.46943635,-0.7079879,0.12565519,-0.409552,-0.14387459,0.8765969,-0.32950932,-1.5241892
affirment,-0.70459867,-0.5320478,0.51701146,-0.3985435,0.66492546,-0.28587744,1.0940043,0.41879,-0.94461936,-1.6287297
affirmer,0.6884014,-0.5690431,1.0113959,-0.23140949,-0.38623127,-0.80993533,0.09430872,1.0282496,-0.49305585,-1.2719487
africain,0.85651124,1.0119888,0.56068826,-0.80147517,0.73196125,-0.6538388,1.6283435,0.07405974,-0.6779085,-1.9667871
africains,0.38220164,1.0071986,0.243422,0.16997111,1.740588,-0.016995523,2.143389,0.5118552,0.022354636,-1.3583416
afrique,0.9333322,1.0626861,-0.38125446,-0.24546055,1.4495373,-0.831636,2.115139,0.5706877,0.06138757,-0.71544033
agent,0.37287232,0.2799644,-0.48798582,-1.3630749,-0.37470537,0.22751476,0.2525426,1.7173363,-0.8178581,-0.29091963
agents,-0.13975674,0.13733056,0.6517301,0.4479761,0.36197552,0.08131063,1.0373564,1.8076266,-0.8003487,-0.11781276
agir,0.640869,-0.19640034,1.0208714,-0.23289526,-0.37175772,-1.1899763,0.36800355,1.2159361,-1.1692748,-1.2036108
agira,1.0650626,-1.1613201,1.1784309,0.21307792,-0.35978243,-0.5646342,0.5193265,0.071219504,-2.0979466,-1.7343812
agissant,0.98792595,0.31635374,-0.45839164,0.71898144,0.4214953,0.8907921,0.42677468,1.4294388,-0.026672296,-0.926323
agissent,-0.27684158,-0.4725314,0.67817533,-0.45566934,0.47115687,0.73468727,0.6110243,1.344194,-0.171303,-0.4670773
agit,1.0704749,-0.7496526,0.79812336,0.060866524,-0.53848416,-0.33805218,0.3113561,0.28308347,-1.4513333,-1.454365
agricole,0.27850738,0.643364,-0.5353367,-0.17924118,-0.12178503,-0.7681735,0.95579165,1.4120051,-0.7414119,-0.73074627
agricoles,-0.12330391,0.06823003,-0.39275578,0.78478426,1.1213609,-0.1254035,1.3153592,1.7445116,-0.36068475,0.09946326
agriculture,0.48398745,1.1962972,-0.33828723,0.15499619,0.7118914,-0.37162462,1.364948,1.3592671,-0.15344216,-1.0451452
agrégats,0.8063411,-1.5827729,0.6688511,-0.29716775,0.15869491,1.2260029,0.50307363,1.5340778,0.0841548,0.41013232
aide,1.2443119,-0.4272566,-0.07032377,0.60635585,-0.2554354,-0.030688448,0.49528125,0.9609378,-0.8629006,0.20285366
aider,0.66477674,-0.4004148,0.52209336,0.35595763,-0.86017936,-0.79787517,1.4613903,1.0421517,-1.6122131,0.31208578
air,1.0483998,-0.28463396,0.066845916,-0.30280867,0.19302623,0.43206787,1.4599185,1.1937245,1.1511548,0.17853329
aires,-0.07848274,0.24965915,0.48526394,0.58933854,1.1048257,0.051330063,1.5030818,1.1900982,-0.5564961,-0.12774426
al,1.4264642,-0.8876396,-0.6457203,1.146014,0.07997341,0.70872104,1.5588597,-0.015874509,0.37237334,-0.565713
algorithme,2.511309,-0.7839372,0.5183582,0.42938775,-0.08402389,0.5300494,0.012582774,1.1408899,-0.92367923,0.2302497
algorithmes,1.4058325,-0.6501323,0.32287118,0.71944577,0.8969069,0.1409863,0.78012365,1.2311409,-0.56591135,0.8679469
algèbre,1.8950946,-0.43786412,1.1681025,0.98445255,1.4799235,0.62979245,-0.44796112,1.4445305,-0.08630948,-1.539751
algèbres,1.5594788,-0.82144576,1.2117106,1.7395258,0.88192505,1.4902318,0.052778177,1.2461032,-0.9036182,-1.8583672
algébrique,1.9771516,-0.6049041,0.71276426,0.5902726,0.93983656,0.9654891,-0.49290025,1.3324445,0.06273694,-1.3027195
algérie,0.83646303,0.33688483,-0.6995685,0.25888404,1.2241373,-0.9606168,1.6689432,0.069927484,-0.033688273,-1.1885039
alimentaire,0.7880149,-0.060843386,-0.04718965,-0.65020037,-0.4542585,-1.4361924,1.729084,1.3716676,-0.024337875,0.4562468
alimentaires,-0.23229675,-0.4965931,-0.10325219,0.7198026,0.52205133,0.12370424,1.5839462,1.916616,-0.7111262,0.7374497
alimenter,0.4269451,-0.1069048,0.74750865,0.10368057,0.26514253,0.037493054,0.66015095,0.6345142,-0.4630499,-0.74801147
allant,0.98060626,0.14779027,-0.5147213,-0.3143543,0.5938866,0.42119825,0.89125156,0.24255706,-0.20695023,-0.55224836
allemagne,0.4988068,0.3640256,-1.0517924,-0.108339086,1.0416709,-0.30725378,1.0663401,0.5771373,-0.19532454,-1.0942515
allemand,0.6102297,-0.35702398,-0.43794742,-1.6640385,0.3869281,0.119159386,0.4122076,0.03554504,-0.94869053,-1.7090414
allemande,0.89750004,-0.4987652,-1.3751575,-0.48382324,0.08628429,-0.76309294,0.23433714,0.4196567,-0.56135434,-1.8754455
allemands,-0.22204967,-0.41256246,-1.2974838,-0.17731172,0.4058552,0.8564858,1.301089,0.060618643,-1.4464622,-2.255139
aller,0.8901781,-0.16252598,1.2307487,-0.15557835,0.55511487,-0.92610943,1.0308287,0.15686078,-0.68907624,-1.030673
alliance,0.63846904,0.20448051,-0.0775894,0.797927,0.8930077,-0.47761858,0.82793355,0.51773286,-0.6339642,-1.2637432
allocation,1.2977601,0.8178836,0.14359158,0.7312225,0.24959286,-0.50868416,1.625443,2.0868862,0.0801026,0.47722748
alternance,-0.012408272,-0.55791605,-1.3863356,0.5719188,1.3467795,-0.6918979,1.0118122,1.0467955,-0.287075,-0.33494905
alternative,0.95373505,-0.88053036,0.21908249,0.3292685,0.055373583,-0.8170685,0.3890499,0.68414086,-0.2826083,-0.3552271
alternatives,0.6664282,-0.2070582,0.65078837,-0.011278536,0.06232738,-0.011219209,0.63055754,0.6866947,-1.6150173,-0.053961024
altérité,0.0996707,-1.1372033,0.37337056,-0.4543163,0.4454002,-1.3569211,0.5066817,0.5549895,-0.5245598,-1.2239959
aléatoire,1.2919034,0.08526443,0.58966804,0.4551533,0.25840297,0.4169017,-0.25473028,2.1176395,-0.3566453,-0.53502315
aléatoires,1.1645334,-0.26559487,0.8290015,0.9014093,0.4939121,1.1139647,1.0047557,1.1264455,-0.379998,-0.09440151
ambigu,0.1875492,-0.12704347,0.49261433,-0.26782823,0.63450557,-0.35498333,0.6983996,0.57006425,0.017675176,-1.4067582
ambition,1.0531504,-0.18951273,0.27828023,0.3701195,-0.2630172,-1.6792785,1.291604,0.23655641,-1.3207479,-1.256898
ambitions,-0.38784403,-0.2703085,-0.080902494,0.27468532,-0.5903414,-0.18834092,0.8968572,0.86268085,-0.9365051,-2.5798426
amené,0.9108152,-0.44015977,0.079749264,0.7710481,-0.30677918,-0.8660302,1.744242,0.110401645,-1.3273764,-0.23450883
amis,-0.98778933,-0.55017555,-0.6427291,-1.3871347,0.50076574,0.48391685,1.1425877,1.0707372,-0.915676,-1.1298652
amour,-0.117950335,-1.1333197,0.54558945,-1.2745469,1.3927742,-0.47559863,0.0359451,0.83979905,0.047459982,-1.9755727
ampleur,0.5003851,0.6395821,0.41178134,-0.4927293,0.24014094,-0.42690957,1.3096325,1.1755089,-0.1521395,-0.25539333
amplitude,1.2054176,-0.57260424,0.18987955,0.67657244,0.18167046,0.35798788,0.4692939,1.6171489,0.57969755,-0.0722147
amène,0.6646863,-0.6801448,0.47528696,-0.1571366,0.31428444,-1.0059154,0.4919545,0.38340226,-1.5650392,-0.4932244
amélioration,0.82703793,-0.34581208,-0.1443701,0.40649396,-0.20371944,-0.6986588,1.0672561,1.3790231,-0.5130008,0.6125922
améliorer,0.8722135,-0.331098,0.24496141,0.6171986,-0.32521468,-1.0822357,1.2648617,1.5020343,-1.1112708,0.6928739
aménagement,0.3740166,0.35987812,-0.920393,-0.7075324,0.64710635,-0.59308964,0.49290144,1.0760851,-1.2301652,-0.71140003
américain,0.6488977,0.71739066,0.015874749,-0.8558482,0.2137641,-0.150271,0.3393041,0.85435545,-0.8781292,-1.6975515
américaine,0.82220745,0.47909668,-0.29155624,0.35056338,0.57278556,-1.54383,1.3203807,1.2543712,0.18282771,-0.55965024
américains,0.13425003,0.15790325,-0.57843626,-0.011522194,0.13858181,0.3738325,1.8661313,0.42024177,-0.477919,-0.2737538
an,0.6444253,-0.9007858,-0.36516544,0.7097361,-0.5027081,0.6167918,0.51201504,0.5153716,0.322585,-2.2352068
analogue,2.0326436,-0.04455706,0.59312946,-0.15900265,0.37987077,0.989764,-0.43147194,1.3073579,-0.17297928,-1.0004703
analysant,0.3344955,0.06409033,-0.13939692,0.24297343,1.4880698,-0.22304185,0.6719112,0.8742681,-0.5765139,-0.4155305
analyse,1.0108954,-0.5732019,-0.56704295,0.5261913,0.8583936,-0.47300118,0.49618915,0.47543404,-1.017371,-0.09832406
analyser,0.93323535,-0.59412986,0.15471263,0.44233617,0.601582,-0.5244894,0.5928052,0.20409223,-1.468763,-0.5171344
analyses,0.592824,-0.8726795,-0.2312148,0.46087188,0.8173546,0.2194621,1.5347294,0.27032778,-1.1398692,0.53198093
analysons,0.9410646,0.20551729,0.03327284,0.1665901,1.0402213,0.32390895,0.46727026,0.97135997,-1.1969602,0.058019757
analysé,1.5208664,-0.21043384,-0.4386404,0.18598403,-0.102631494,0.40482762,1.2557822,0.2510064,-1.0197563,0.16712631
analysée,1.2943393,-0.2438913,-0.19121078,-0.55579805,0.21570876,-0.6586263,0.30370817,0.8317166,-0.21871828,-0.18960223
analysées,0.7638888,-0.8291845,0.4556654,0.6533532,0.66879606,0.3482696,1.7649341,-0.18715277,-0.78042907,-0.20138869
analysés,1.017203,-0.16972348,-0.2919977,0.4442461,0.62185663,-0.113797516,1.9189069,-0.03882858,-0.6221703,-0.03356604
analytique,1.8099672,-1.2820554,0.28100112,0.55636024,0.8737645,-0.15236178,-0.17061329,0.57772785,-0.2125818,-0.3186539
analytiques,1.0576017,-1.2401369,0.7308946,0.47648287,1.5061029,1.1913537,-0.099350855,0.91005164,-1.311713,-0.081800856
ancien,0.8900069,0.329378,-1.0581375,-0.6584438,0.07679341,0.23857254,0.54420453,0.32612255,-1.1039639,-1.6808273
ancienne,0.47671917,-1.0336525,-1.2990042,-0.5860457,1.5719266,-0.80818427,1.0839915,0.08050049,0.596853,-1.0661632
anciennes,-0.88357353,-0.991332,-0.21681471,-0.2564102,0.6599615,-0.49963254,1.3775463,0.7585249,-1.1317945,-0.38197798
anciens,-0.32468644,-0.63801235,-0.10168543,-0.58978295,0.7975337,-0.3148533,1.9705216,-0.15815824,-0.71740454,-0.7472232
ancrage,1.0236435,0.24116103,-0.579182,-1.0543373,0.99838555,-1.1037734,-0.33544436,1.4061922,-1.0572261,-0.86888826
ancrée,0.6774717,-0.16110449,-1.0215199,0.03315652,1.3563089,-0.937396,-0.18758391,0.9850116,-0.9065336,-1.854042
and,1.8463558,-0.5293009,-2.124822,1.0083824,-0.64554036,1.6106416,0.98484755,1.6253383,0.18179934,-1.1977216
andré,1.0076013,-1.7049874,-0.4492034,-0.16358064,0.087740965,0.43188667,-0.57187784,0.4320661,-0.16248196,-1.4462389
anglais,0.4416557,-0.2779832,-0.65362346,-1.0681453,0.6449553,0.7958408,1.1392248,0.59584236,-1.4232887,0.54398334
angle,1.2980901,-0.37763518,-0.2799096,-0.26162744,0.75287837,-0.029439045,-0.25104553,0.9257526,0.24108456,-0.76686734
animal,1.1089575,-0.6772891,0.794094,-0.8515027,1.1486938,-0.8582038,-0.008299374,0.56526476,-0.3793398,-0.84657735
anneau,1.501623,-1.3594005,0.5146518,1.2101604,0.35619175,0.5156691,-0.36042795,1.3179969,0.38522032,-1.5222343
annotation,1.0911626,-0.92650163,-0.2266307,0.39936936,0.09075836,-0.5460943,0.74533784,0.8342589,-1.7481095,0.7704499
année,1.2699642,0.58174235,-1.3155375,-0.95161647,0.44159395,-0.44519815,2.0513775,0.36620295,-0.27334285,-0.10211874
années,0.5581512,0.05640549,-0.7399863,-0.15775973,0.2164227,-0.088811204,1.6560776,-0.115357555,-0.35407695,-1.148283
ans,0.60264707,0.02151534,-0.64870703,-0.6741982,0.58508855,0.5274467,1.9765272,-0.11014729,-0.34797218,-0.39974153
anthropologique,1.4008384,-0.9228929,-0.63731724,0.032825537,1.140481,-1.2401297,0.11306224,0.26081702,-0.39189932,-1.0372282
antique,-0.02142055,-1.2795244,-0.7707687,-1.3565258,1.1240208,-1.1842437,1.0745263,0.2483752,0.2632773,-1.1479962
antiques,-0.28592128,-1.4728833,0.4156111,-1.7829368,0.18822004,0.14126411,1.0340409,0.48847115,-2.183724,-0.045659818
antiquité,0.3347849,-0.44375333,-0.973113,-1.107225,1.0747259,0.009825586,0.95524853,0.1351931,0.0858453,-1.3908199
aot,0.7717526,0.831823,-2.1435823,0.78715104,-0.40917045,0.052534822,1.9819162,1.2254261,-0.43441233,-2.154611
aperçu,2.0312486,0.6323489,-0.4569932,0.106351465,1.6242918,-0.5215362,0.90833914,0.323362,-0.6219957,-0.3829345
apparaissent,0.35596994,0.19286412,0.95605296,0.013070616,1.2702669,0.9816803,1.0691,0.5989684,-0.201426,-0.97694933
apparait,1.0527769,0.47894028,0.7649139,-0.78905255,0.58982575,0.01014984,0.67016375,0.95562845,0.052819196,-0.53712326
apparat,0.8260026,-0.18145789,0.47153053,-0.74662656,0.14555073,-0.5635077,0.65664214,0.33710885,-0.22792996,-1.1115584
apparatre,0.7312417,-0.19346486,1.357395,-0.116152,0.2237331,-0.5185877,1.0032728,0.6651412,-0.87798995,-0.28158036
appareil,0.3042644,0.026117006,-0.09842466,-0.66337657,-0.026272165,-1.5993048,0.63433677,1.5180312,-0.8325391,-0.41866216
apparence,0.97006667,-0.8169154,0.6829849,-0.7046988,0.56412274,-1.4152838,0.58921,0.38825628,-0.21576573,-0.7703971
apparition,0.33344033,-0.4457768,-0.3191503,-0.5830035,-0.018904688,-0.70006835,0.74562335,0.6782917,-0.484607,-0.2747088
appartenance,0.11654789,0.072546385,-0.19348478,-0.41845495,1.0654898,-0.10514436,-0.4474398,1.6917564,-0.99228394,-1.1418446
appartenant,0.35581535,-0.07430548,-0.039141614,-0.49967238,0.9254388,0.6725805,1.2132388,0.3620107,-0.032687854,-0.30533496
apparu,1.6466843,-0.440313,0.6822285,-0.21019019,0.16473095,-0.87662643,0.36987096,0.30300236,-0.44558313,-0.8782298
appel,0.4943579,-0.79131675,0.56411517,0.48344052,0.2960543,-0.3146104,0.543232,0.5794359,-1.7631336,-0.39216548
appelle,1.5694804,-1.0281612,1.0183488,-0.6893777,0.014982883,-0.296384,-0.2772533,0.28737465,-0.42395142,-1.7035536
appelons,1.8923031,-0.28037274,1.0955633,0.15429014,-0.36285892,-0.09675505,0.13653313,1.1609352,-1.9786938,0.07943197
appelé,1.0529617,-0.13740654,0.45128503,-1.1127312,-0.39046434,0.2580517,0.18362334,1.1193602,-0.07064763,-0.418298
appelée,2.0368888,-0.9823636,-0.124944374,0.76028955,0.15273741,-0.3182515,0.24269235,1.2851565,1.0309309,-0.36876315
appelés,0.17105217,-1.0787014,0.48289117,0.09906517,1.0068316,1.2724658,0.61138856,0.38407508,-0.2681345,-0.59112394
application,1.453865,-0.1623587,0.12935247,0.6073121,0.5142494,-0.26465255,0.2240346,1.2308296,-0.43851006,0.024049971
applications,0.9589654,-1.1104525,0.7705817,0.20353591,0.53660244,0.6274623,0.8106739,0.8057202,-0.57244766,0.58181566
applique,1.413803,-0.35135964,0.86647004,0.8978104,0.12872511,0.5029061,-0.16310312,0.853326,-1.4665836,-1.2485373
appliquer,0.84956425,-1.1055379,0.6426082,0.89708203,0.24496967,-0.7035774,0.17623575,1.16829,-1.1113033,-0.09699262
appliquons,2.5193841,-0.7023845,0.2597972,0.8987533,1.0073181,0.78600866,0.035512775,1.2021415,-1.362963,0.30483568
appliqué,1.2323117,-0.25622588,0.14528713,0.17396973,0.13416015,0.30218527,0.5424352,1.3466971,-0.59742635,0.6290844
appliquée,1.5103908,-1.2369305,-0.48640144,1.1270939,0.21119536,-0.7020577,0.5820257,0.7057574,0.07756218,-0.18909498
appliquées,0.81489086,-1.0401589,0.42289543,0.8171632,0.6736874,0.15436749,1.1336049,0.826344,-0.3903099,0.5560534
apport,1.0243416,-0.22119884,-0.19143693,-0.5911732,0.03456035,-0.97756517,0.8029015,0.40549964,-1.2215251,-0.1217908
apporte,0.764846,-1.0819546,-0.4030005,0.4074456,0.27227154,-0.5192101,0.7109721,-0.018111832,-1.3559058,-0.5071689
apporter,0.7819206,-0.7236396,0.35402727,0.40130082,0.29714328,-1.0349371,0.75669163,0.5167077,-1.6598505,-0.24616088
apports,0.5182578,-0.9244276,-0.28366226,0.1485046,0.690069,-0.53121465,0.87874526,0.29353365,-1.7421612,0.07737421
apprenant,0.4402324,0.35734954,-0.4869084,-0.4570799,0.43149868,-1.2924665,1.816186,0.88253605,-1.4904523,0.19143367
apprenants,0.5068508,0.1402733,-0.078352064,-0.5905073,0.013560621,-0.62325424,1.9291275,0.7109747,-2.1963613,0.41701558
apprendre,0.54093105,-0.029654097,1.6766907,-0.16535012,0.14027165,-0.65725064,1.540475,0.45307177,-2.2444143,-0.8233319
apprentissage,1.1722581,0.20788735,0.0064002,-0.49605936,0.673957,-0.46083143,0.9021608,1.0776621,-1.2869463,0.76978904
apprentissages,0.587898,0.095967986,0.22829406,-0.3274804,0.16944717,-0.63777655,1.5574877,0.99853975,-2.2232525,0.5188746
approche,1.322708,-0.80627775,-0.43477884,0.63195884,0.5169385,-1.0115817,0.41477013,0.5906075,-0.572302,-0.11454559
approches,0.5468828,-1.1062409,0.3084781,0.6316712,0.748907,-0.114970125,0.8045187,0.59493494,-1.2949668,0.33630076
approfondie,0.72349846,-1.209057,-0.014184966,0.68220353,0.96886826,-0.53334385,0.74160355,0.36170104,-0.64508903,-0.11051431
approfondir,1.6711826,-0.30945647,-0.019648725,0.33223224,0.6974886,-0.99430114,0.9876502,0.013351929,-1.011191,-0.33367386
appropriation,0.008381745,-0.40635198,-0.03586319,-0.14210086,0.49375385,-1.2885064,0.23890434,1.3302082,-1.408288,-0.6566879
approvisionnement,0.02014693,0.27385154,0.2696074,-0.056847963,0.53311604,-1.0470407,1.4093992,1.8033377,-0.3806457,0.1361435
approximation,2.2361915,-0.8364579,0.6683269,0.5226335,0.43063796,-0.065386094,-0.098180875,1.2945392,-0.5576587,0.10087146
appréhender,0.49559426,-0.47456712,0.4847467,0.038524345,0.005032944,-0.9159087,0.7693893,0.65408045,-1.5571896,-0.45332822
appui,0.96485865,-0.45087448,-0.4638269,-0.43758643,1.0104448,-0.84929013,0.72339,0.003303643,-1.0284798,-0.3050911
appuie,1.4068822,-0.6770511,-0.79711926,0.7238241,0.48256272,0.0026935486,-0.093504585,0.20306848,-1.690921,-1.505144
appuient,0.28483278,-0.53886724,0.17989795,0.719079,0.52227753,0.5524299,0.85582614,0.24125455,-1.173734,-1.0918263
appuyant,0.9667623,-0.895174,-0.5670413,0.7868707,0.74757135,-0.07523712,-0.08396582,0.3901136,-1.7469027,-0.95070624
appuyons,1.5432545,-0.49276236,-0.76080835,0.5526154,0.0070156837,0.43690366,0.6609857,0.21032919,-1.7821143,-0.34810364
aprèsguerre,-0.22851935,-0.22061904,-0.61606807,-0.44837904,0.32201615,-0.9197349,1.2369833,0.5575214,-0.48733792,-1.3047523
arabe,0.8555575,-0.06201964,-0.4391827,-0.5102183,0.9807398,-0.7906181,1.1479099,0.26660237,-0.8946543,-0.033989478
arabidopsis,1.3806738,-0.6921412,-1.0118523,0.27341905,-1.1510959,0.12023868,2.0921001,1.0778345,0.06555157,0.26498306
arbre,1.515497,0.12440154,0.08281657,0.56897676,-0.04759868,1.0405445,0.826578,1.4901408,0.49909255,-0.47661105
arbres,0.6660415,0.1326098,0.41881552,0.086283565,-0.40527353,0.9759607,1.7453302,1.5149534,0.097939074,0.24801786
architecte,0.61805797,-1.3989493,-0.3322019,-1.0127084,0.19467542,-1.0117759,0.092136115,0.3249573,-0.5091203,-1.0480193
architectes,-0.627634,-0.9550164,-0.24999462,-0.5397434,0.35424882,-0.36528432,1.7349012,0.047481164,-0.584003,-1.0052359
architectural,0.27085438,-0.59649634,-0.21155491,-1.6577176,0.5748402,-1.3174767,0.2482649,1.1163157,-1.1442516,-0.52381915
architecturale,0.371404,-1.632793,-0.10905752,-0.39444852,0.5653864,-1.6341566,-0.028470369,1.096016,-0.07371392,-0.7198209
architecture,0.48694247,-1.0602896,-0.4297766,-0.2971903,0.30341253,-1.1633646,0.565323,0.71929467,-0.16548751,-0.07196098
archives,0.27099723,-0.5509067,-1.1686769,0.12036349,0.27613568,0.031172687,1.1890651,0.04173352,-1.7846386,-0.6819665
archéologie,0.43725818,-0.82152474,-1.4408504,-0.49760884,0.24776463,-0.6750442,0.9601299,0.1418179,-1.1404159,-0.47797757
archéologiques,0.109481655,-1.3796196,-0.19103312,-0.15498035,1.2735852,-0.20093036,1.6797291,-0.42016813,-1.3932786,-0.27047446
argent,0.23851295,-1.016826,-0.78777194,0.14751029,-0.44831222,-0.6442708,0.871052,0.772599,0.010878815,-0.42636076
argument,2.0068896,-0.2591046,0.57184273,0.15475942,0.5093154,-0.17708936,0.30087912,0.15917736,-0.75570697,-0.7281291
arguments,1.2667543,-0.47837615,0.990378,0.8367606,0.5716733,0.3003977,0.67345124,0.10987759,-1.3337204,-0.6187297
aristote,0.8594408,-1.735008,-0.20628574,0.085731514,0.26796374,-1.0321417,1.0309855,-0.6264433,-0.547837,-1.4172677
armée,0.23482703,0.14342703,-0.55431384,0.46469182,0.17241563,-0.59590286,1.284248,0.54047155,0.03691388,-1.6974571
arn,0.3036196,-1.0845859,-0.98669124,-0.036800414,-0.92799234,1.5002899,2.2255213,1.5399323,-0.62980413,0.65753615
arrive,-0.17211445,-0.1612067,-0.030886399,-1.3898594,0.06232945,-0.8270364,0.85792756,1.0498635,-0.35417467,-1.0931408
arriver,0.73758894,-0.16744111,0.00090365973,-0.06327769,-0.09306376,-1.2243029,0.7365672,0.6306557,-1.16023,-0.5731355
arrivée,0.6039467,0.038967192,-0.85415244,0.0031641943,0.29890662,-0.22532976,1.6290988,0.2135169,-0.017574495,-0.6157145
arrêt,1.0843368,0.01957668,-0.036881465,-0.24566709,-1.0002277,0.4881685,0.42010558,1.0741253,-0.335532,-0.92778975
art,0.50909954,-0.73943824,-0.024684059,-1.0010914,0.7776023,-0.9621434,0.66797864,0.27478954,-0.5630944,-0.49625382
article,1.9847732,0.20703189,-0.0077519533,-0.6537671,0.3108503,0.5813581,0.8427948,-0.14981245,-0.8531218,-0.31127873
articles,0.91419554,-1.105103,-0.9719404,0.4149897,1.194087,0.86326694,0.8754537,-0.19878018,-0.44468552,-0.7053688
articulation,0.49480957,0.08821871,-0.13532662,0.3165286,0.98313296,-0.70405644,0.4231916,0.72460884,-1.1211652,-1.3588833
articule,1.1738846,-0.90437186,-0.010514027,0.28606758,1.702904,0.23155144,-0.0024198904,-0.14244725,-1.4458514,-1.5906327
articulent,0.46601093,-0.44496915,0.027056882,0.71513265,0.8811204,0.6141206,0.6548077,0.08615554,-1.9898338,-1.524907
artificielle,0.68076056,-1.1124673,0.8369834,0.2710407,0.44940478,-0.785162,-0.3502144,1.0393076,-0.8477816,-0.78361493
artiste,0.49840042,-0.7484847,0.12031644,-1.8147508,0.33861092,-0.93379515,0.37664658,0.6982272,-0.8422068,-0.41302285
artistes,-0.17419486,-0.8788927,0.23933925,-1.1939282,0.8444868,-0.21312392,1.3138547,0.0840423,-0.8156578,-0.30656898
artistique,0.62598515,-0.33070052,-0.4561865,-1.2410764,0.7599883,-1.1329876,0.5830564,0.54832464,-0.8605369,-0.45310283
artistiques,-0.24671066,-0.73849195,-0.0061159255,-0.52309257,1.6776251,-0.51850563,0.87572646,0.5615048,-1.5605454,-0.34338588
arts,0.5739804,-0.77930844,0.08851489,-1.2573292,1.7008055,-0.6800284,0.7766361,0.10239066,-1.0315439,-0.21923852
aspect,1.4477996,-0.13073924,0.16168255,-0.6697439,0.6746785,-0.70304716,0.44487986,0.31927732,-0.1630986,-0.4828252
aspects,0.44977278,-0.6645209,0.4995704,0.041268576,1.452912,-0.32430348,1.035219,0.21644963,-0.53518677,-0.16113421
aspiration,1.3720351,-0.15860838,-0.41838655,0.19677652,1.3035438,-0.07858783,0.6271781,0.5311629,0.6086328,-0.4581055
assiste,0.8883771,0.47499928,0.5046364,-0.12672514,-0.6091905,-0.28100225,0.3216013,1.1816063,-0.7424136,-2.1180754
association,-0.089384675,-0.6764925,-0.53981096,0.31499404,0.17376764,-0.04183725,0.40257338,0.86990005,-0.27808395,-1.0217717
associations,-0.56442755,0.022209194,-0.011994304,0.0056236824,0.5809853,-0.15765238,1.5655938,0.8183649,-0.77742124,-0.8338387
associé,1.8130997,0.09440831,0.7957771,-0.31860095,-0.5163457,0.14012803,0.85236543,0.82446736,-0.2009104,0.03094184
associée,1.1241951,-0.565742,0.115936466,0.51010835,0.258898,-0.43799677,0.48289704,0.8769345,0.3792119,-0.3457532
associées,0.34757414,-0.446766,0.8931179,0.44335237,0.5672683,1.128131,0.64936286,1.7798867,-0.8520875,0.27268544
associés,0.46619397,-0.18091689,0.426422,0.48401064,0.20934708,0.4818033,1.2835579,1.391867,-0.5307872,0.55497676
assurance,0.98248845,0.8935858,-0.5040544,0.7508027,-0.34192133,-0.43561015,1.1856855,1.8398889,-1.101281,-0.21492916
assurer,0.31422862,0.5558705,0.43397185,-0.019448057,-0.2941899,-1.2315787,1.0229707,1.9478438,-0.77902454,-0.5499383
asymptotique,2.3746037,0.13021392,0.6031683,0.5452407,0.45536414,0.63033557,0.23321687,1.3608221,-0.0345001,-0.4386536
asymptotiques,1.7213963,-0.57327616,1.183127,0.91496474,0.6874501,0.55886537,0.79962546,1.0999134,-0.55388844,0.35997143
asymétrique,0.81711465,0.42089367,-0.0032677082,0.26476702,0.9414796,0.72758174,0.7689454,2.1529245,1.136433,-0.6923459
ateliers,-0.30331308,-0.5780364,0.197155,-0.7217306,0.9556995,-0.72785354,1.0479095,0.7790312,-1.4978337,-0.031579446
atil,0.22413345,0.05653835,0.9322421,-1.6228322,-0.51475805,-0.96889955,1.1976336,1.0268084,-0.49533767,-0.93851614
atomes,0.9023009,-1.447185,-0.13231516,-1.25551,0.2862263,0.98254466,-0.20184532,1.8979143,-0.10424543,0.34308073
attache,1.4913206,-1.0295357,0.16181552,0.14506727,-0.1686678,-0.9879359,0.80410373,-0.18230511,-2.4765437,-1.132584
attachement,-0.90810806,-0.68354285,0.08192753,-0.14977959,0.5289295,-1.596661,0.66944057,2.2983155,-0.36883885,-0.75337934
atteindre,0.9755441,-0.91222495,0.7127283,0.27221465,-0.37457052,-0.5950169,0.4255341,1.2606581,-0.5997813,0.24508087
atteint,0.8666569,-0.5884638,0.7770345,-1.2714971,-0.5756618,-0.106126234,0.835161,1.030413,0.27036417,-0.24627632
atteinte,1.2302125,0.09733105,0.30324945,0.115534745,-0.18946671,-0.7480341,0.23017956,1.4515729,-0.41733396,-0.3300147
attentes,0.6794567,0.3157009,-0.036932122,0.13301972,0.7895357,-0.19568667,1.5275202,-0.06672789,-1.4113252,-0.73007613
attention,0.4520494,-0.65424305,-0.22995478,0.55935496,0.9775036,-1.178137,1.4892669,0.16947743,0.10629569,-0.7868811
attitude,0.021431308,-0.07549595,0.4118342,-0.3848347,0.6041285,-1.1161944,1.0680315,0.61235154,-0.38386947,-1.1151783
attitudes,-0.65841407,-0.4220901,0.082775235,-0.17497742,0.84756225,-0.4894172,1.6019827,0.837989,-1.2943481,-0.30609518
audelà,0.25950608,-0.41746143,0.6484414,-0.13631962,0.6949708,-0.8209084,0.27029064,0.94686025,-0.4601448,-0.8375455
augmentation,0.6884355,0.10743103,0.112128265,0.17104621,-0.50100577,-0.39389008,1.5833818,1.8681146,0.5204065,0.17307442
augmente,1.4686611,0.9333683,0.13833037,0.13220459,0.44059256,0.062442683,1.0960019,2.14794,0.7556764,-0.033098187
augmentent,-0.045033764,0.15255338,0.23768535,0.715753,-0.23724738,0.50137895,1.2752289,2.0427392,0.18260142,-0.47534275
augmenter,0.32071766,-0.5093679,0.92677015,-0.016794927,-0.21963145,-0.52507865,1.262906,1.9802407,-0.32172304,0.80785674
augmenté,1.0141553,0.3831233,0.53400856,0.41060704,-0.39388025,-0.003324569,1.8047535,1.103127,0.068771996,-0.111831516
aune,0.2802937,-0.3378478,0.020866103,0.37244788,-0.083312936,-0.24524479,0.00028555497,0.8223052,-1.5906373,-1.3497657
auprès,0.39396867,-0.12961867,-0.9039253,0.35634178,0.2865984,0.14330423,1.5978645,0.152322,-1.7715781,-0.42375144
auteur,0.7647521,-1.0432843,0.1277158,-1.156288,0.045554448,-1.0115706,0.5808769,0.1299889,-0.560899,-0.91765916
auteurs,-0.19235088,-1.0702132,0.47334057,-0.8255896,0.55254203,-0.040932912,1.3580788,-0.18540654,-0.8158652,-0.88474864
automatique,1.4730386,-0.28635526,-0.07815904,0.25601324,0.38117984,-0.070744425,0.73899525,1.1953804,-1.1351386,0.96180403
autonome,1.2879177,-0.58801675,-0.030918572,-0.40299723,0.6683679,-0.92889327,-0.06226252,0.5442482,-0.029234355,-1.1887852
autonomie,0.1802414,0.3511179,0.21087913,-0.19139527,0.29411253,-1.4397304,0.9696899,1.6490468,-0.61169785,-0.4143652
autoritaire,0.6831038,0.85654104,-0.41321167,0.023420665,-0.37728244,-0.39984307,0.8703208,1.1599797,-0.3320492,-2.2772915
autorité,-0.43686575,-0.089933045,0.03074144,-0.017809033,0.73649627,-0.45206362,0.557352,1.0848438,-0.38328767,-2.0211537
autorités,-0.47508857,0.1710502,-0.4030289,0.7253425,0.19801785,-0.34070447,1.6634237,0.90543246,-1.0683727,-1.2775812
autour,0.680196,-0.6511271,-0.11194395,0.061857335,0.98006916,0.15677945,0.0015901568,0.14605553,-0.94611496,-1.2513752
avancée,0.54290456,-0.44760585,0.13477477,0.80235624,0.95670336,-0.96237147,0.7132283,0.8871442,-0.29413378,-0.25360397
avancées,0.24859293,-1.1711291,0.025715208,0.38819936,0.7529654,-0.08833041,1.5127865,-0.27288684,-0.5339731,-0.38129926
avantage,1.0350087,-0.08318605,0.5075487,0.19356288,-0.22472839,-0.38050756,0.9470696,0.886754,-0.1953297,-0.03001148
avantages,0.47931013,-0.9066815,0.7090525,0.37646264,0.811802,-0.15104476,0.610822,1.2145151,-1.0506302,0.51743877
avenir,0.21510476,-0.34568715,-0.11440897,0.19547337,-0.4586536,-0.54297274,0.8880555,0.4745838,-1.0049887,-1.0611436
avènement,-0.24314342,-0.01901625,-0.61872005,-0.26389614,0.10203947,-0.67115396,1.1917601,0.97202134,0.08451052,-1.1991123
avère,0.7686171,-0.9691823,0.7603355,-0.18585484,-0.9651797,-0.8535275,0.77060086,0.44063166,-0.56559384,-1.1887536
axe,1.5200816,-0.30126706,-0.7136967,-0.4647583,0.4738858,-0.21182293,-0.20412982,0.72592765,-0.6256203,-0.44950977
axes,1.0973665,-1.0723536,0.47823513,-0.39505562,1.9017678,0.86866546,0.46157083,-0.43312788,-1.6334999,-0.9368898
bactéries,-0.035143387,-0.6499706,-0.22871806,0.43552274,-0.8819217,0.14818521,2.5183187,1.2366723,0.12904634,-0.044337146
baisse,0.6219234,0.20135944,0.29368502,0.31437778,0.026503751,-0.7230596,1.4883045,1.7862276,0.33669087,0.36603388
bancaire,1.3948846,1.7000724,0.29485506,-0.19377857,0.43105915,0.15710625,1.1352783,2.2403746,-0.28291896,-0.35555398
bande,1.3529942,-1.4293815,0.8102675,-1.0715516,0.16533637,-0.3641046,0.7580702,0.8862787,0.8524187,0.4715364
bandes,0.35992786,-1.4282237,-0.18714647,-0.527415,0.7044798,0.35358283,0.38288388,1.4040735,0.18520091,0.661012
banque,1.1247146,0.5090615,-0.21597904,0.8909494,0.597449,-0.40616357,1.5288699,0.80468714,0.52415943,-0.64630973
banques,0.7326965,0.6357966,0.68292665,0.8703191,0.6263296,0.21610479,1.7424331,1.0891898,-0.5783582,-0.1168487
basant,0.9753467,-1.290714,-0.28986317,0.8256213,1.4410634,0.46759018,0.14426343,0.7739925,-1.4284134,0.07720245
base,0.87422264,-0.60226256,-0.3067699,0.297997,0.5589864,0.08630017,0.15951347,0.9045252,-0.5491734,0.02758818
bases,0.5180812,-1.2923176,-0.14894475,1.431065,-0.14213146,0.048003826,1.204944,0.5596844,-1.0323154,-0.12504117
basse,1.0631641,-1.0096388,-0.15883483,0.15942618,-0.2713907,0.26488248,0.5781213,1.8501934,0.98024076,-0.044883303
basé,1.9818585,-0.26650044,-0.088735364,-0.17883435,0.8532943,0.13169889,-0.21932474,1.183868,-0.67165774,0.33995238
basée,1.7243737,-0.9580221,-0.6228486,1.0660337,0.8457937,-0.42970428,0.3040317,1.1569169,-0.27946594,0.39287165
basées,0.9525743,-0.84531367,0.31171355,1.2893295,0.97464997,0.67068017,0.9781047,1.5240837,-1.0035839,0.85474014
basés,0.92001253,-0.8437195,0.17751461,1.3874598,1.1421927,0.55987966,0.8640662,1.5451027,-0.55617696,0.6531243
bataille,0.104145214,-1.9623559,0.058815017,-0.5704412,0.53724015,-1.0108635,0.47787547,-0.018105203,-0.68767476,-1.2114259
batterie,1.3478144,-0.10356835,0.06474464,-0.052524865,-0.55623543,-0.81564975,0.51785344,2.7606544,-1.1181864,1.0897284
beauté,0.1616305,-1.1709284,0.47525588,-1.1402833,0.632397,-1.2587042,0.54860216,0.82448465,0.39096606,-0.9495029
beckett,-0.04560581,-2.7126698,-0.13918363,-0.89237905,0.6995604,-0.24931672,0.4928541,0.19593267,-0.010253449,-1.1621288
belle,0.48082554,-1.3034121,-0.61941904,-1.1668828,0.82647634,-1.0060658,0.30573225,0.58506393,0.26427168,-0.8418643
besoin,0.5825851,-0.18681961,0.6689619,0.30281568,-0.18777913,-0.6265263,1.0117596,0.5614543,-0.38614455,-0.7693377
besoins,0.50834167,0.32839823,0.39497325,0.28998065,-0.2832932,-0.2807015,1.425162,0.8625905,-1.7981968,-0.2737038
biais,0.9534248,-0.18547527,-0.17490456,-0.1864802,0.7238987,-0.39948756,0.6876521,0.7820476,-0.51988727,0.3808171
biens,-0.15073162,0.81573176,0.29900363,0.23185164,0.3950813,0.029540349,1.0053955,1.769152,-0.6706365,-0.91323614
bienêtre,1.0595744,1.353478,0.5107116,0.2881796,0.7107021,-0.53280145,1.0771774,1.6934333,-0.49466127,-0.48619172
bilan,1.6806853,0.052721597,-0.5605817,-0.7502113,0.93978846,-1.4125698,1.2570363,0.5613274,-0.3120127,0.53089195
bilingue,1.1082729,0.85644764,-1.0465575,-1.2629678,0.4384563,-0.30957913,1.3388629,1.0630149,-1.1576581,0.38157967
bilingues,0.24172889,0.009707429,-0.26830444,-0.3051791,0.4269944,-0.51092744,2.700848,0.41014728,-2.1664915,0.28282234
biologique,1.2155237,-0.23844853,0.48381674,-0.16880348,0.2797347,-1.494585,0.5121105,1.0584428,-0.5357683,-0.23830898
biologiques,0.29963952,-0.7905607,0.405969,0.30755115,1.0457867,0.45780525,1.3462106,1.2490375,0.09216825,0.61728734
blocage,1.5133756,-0.23197679,0.21291417,-0.9006903,-1.1087726,0.09873439,0.18313338,2.0372622,0.116660215,-0.22627741
blocs,1.216656,0.21966502,0.8052836,0.75730443,0.76715463,1.3118873,0.5513982,1.4979112,-0.09437605,-0.6625163
bois,-0.25418192,-0.84974974,-0.710711,-1.144884,0.72100765,-0.01889552,0.6369497,1.1232597,0.037352618,-0.18177524
bonheur,0.89648956,-0.07064515,-0.5286036,-1.1703362,-0.23227772,-0.4085563,0.41108122,0.41085485,-0.92932534,-1.2143301
bonne,0.4493873,-1.0105538,0.48872986,-0.37280464,-0.050943397,-1.246902,0.50069475,1.6041944,0.2610384,0.087370135
bonnes,-0.5468633,-1.0466866,0.517405,-0.7914154,0.41846588,0.48065194,0.46981722,1.6320215,-1.1478139,0.31499636
bord,1.471483,-0.20548108,0.058915753,-0.22027774,0.17566888,1.2559973,-0.31226233,1.4770002,-0.5180624,-0.49555075
bornés,1.354122,-0.37475234,0.29891366,1.7536298,1.9132296,0.6996471,0.9300628,0.6895307,0.41969255,-1.1437788
bouleversements,-0.34829962,0.29799992,-0.35729998,0.10082617,-0.21291083,-0.49675137,1.8589331,0.6126683,-1.0663133,-1.5124536
bruit,1.1061083,-0.47359324,0.6869341,-0.027009452,0.082872026,0.611479,0.0037245993,1.8326157,-0.50291765,0.23028369
brésil,1.4466949,1.2791066,-0.8205125,-0.51725626,0.2769116,-0.24576038,1.2876662,1.0265851,-0.46644616,-0.49809796
budgétaire,1.6726274,1.3642398,0.515017,0.55064166,0.6000063,-0.5965124,1.6649624,1.5407556,0.0005513551,-0.17644651
budgétaires,0.971183,1.1405162,0.88826174,0.764415,0.9142828,-0.28642482,2.219636,1.7467788,-0.51752335,0.30512536
burkina,1.4237807,1.4880525,-0.77384233,-0.09509758,0.43235427,0.015387949,2.1783452,0.90399605,-0.81576073,-0.19698048
but,1.2661065,-0.62589735,0.1547055,0.4187932,-0.10885283,-0.55637056,0.92220044,0.09693361,-0.8101223,-0.32615605
bâti,0.82188654,-0.03480438,-0.3751681,-0.69406724,0.41986224,-0.6643836,0.53533685,0.80479306,-0.63727605,-0.217299
bâtiment,1.4885163,-0.45632187,0.17444885,-0.23455638,0.47567055,-0.55764484,0.774908,0.7949771,0.28818455,0.40685743
bâtiments,0.07132796,-0.5785284,-0.17861442,0.70909554,-0.094436415,-0.49186918,0.84757286,1.5933836,-0.7189561,0.10860915
bénéfices,-0.20447466,0.28711432,0.15881734,0.34589618,-0.068765104,-0.15869172,1.7706412,1.2705698,-1.0858521,-0.11779758
cadre,1.468711,0.32533017,-0.15489107,-0.113233164,0.6442854,-0.11012092,0.4257561,0.4218607,-1.0248413,-0.44520015
cadres,-0.060919713,0.25220624,0.45188412,0.90559524,0.99262494,-0.0767029,1.3327043,0.5502383,-1.1919128,-1.4388676
calcul,1.8163007,-0.30074662,0.93217784,0.01998852,0.45877424,0.20140463,0.51973075,1.2635015,-0.21560146,0.5739464
calculer,2.073619,-0.35047767,1.0420309,0.9249727,-0.42604154,0.5883741,0.16739424,1.7306684,-0.78587115,-0.16156353
calculs,1.4237556,-1.6161158,0.6742427,0.29469863,0.24738498,0.30826154,0.2976759,1.1403233,-0.78428596,0.7483472
campagne,0.48062697,-0.7721204,-0.9981714,0.168765,-0.27310342,-0.33102742,1.1202259,0.28970626,-0.44081032,-0.54109544
campagnes,-0.037948497,0.56050694,-0.9179193,0.24907373,0.88515466,0.20740467,1.7597172,0.8815641,-0.20397015,-0.8412219
canal,1.5881146,0.14758939,-0.7677269,-0.43857223,0.2647799,-0.058025487,0.30790448,0.8810462,0.28516966,-0.39027074
canaux,0.46012592,-0.00053568365,-0.026665796,0.16301335,1.0487864,0.7308202,0.9791233,1.5957197,-0.34192264,0.533033
capable,1.1595588,-0.68121374,0.7754433,-0.45050448,-0.80050546,-0.53936136,0.54921067,0.9658374,-0.35649782,0.037830885
capables,-0.44709453,-0.46084163,0.74450713,0.14119658,-0.6692355,-0.10270275,1.7884849,1.1552684,-0.7489264,-0.29958695
capacité,0.44923776,-0.47122282,0.42514628,-0.01836324,-0.17122844,-0.77006495,0.8498935,1.4362684,-0.4003071,0.4317283
capacités,0.1666701,0.11887345,0.2350679,0.5433816,0.10112126,0.06414718,0.87947166,1.690949,-1.1516491,0.20386562
capital,0.975685,0.87520444,0.59886676,-0.48810965,0.83856326,-0.6713615,0.86787504,1.6218562,0.007066814,-0.17781717
capitale,0.18578231,-0.00820436,-0.5554217,-1.5971178,0.72890663,-0.58644944,1.4424726,0.6370091,0.13075867,-0.4790778
capitalisme,0.9604171,0.524175,-0.5810589,-1.2873471,-0.079482935,-1.0427002,0.65672296,1.016442,-0.5128115,-0.9213583
capitaux,0.18014576,1.1282645,0.65256786,0.069039695,0.2303154,0.0026077318,1.9076606,1.7929738,-0.21171866,-0.41119227
caractère,1.016052,-0.19571264,0.45837262,-0.7778446,0.33732268,-0.386163,0.33584473,0.41378978,-0.35085258,-0.5460003
caractères,0.6853185,-1.0349991,0.0134115275,1.5243452,0.32308835,0.8074078,1.0381199,0.6007094,-0.13925923,-0.6831238
caractérisant,0.38260567,-0.45351443,0.73365235,-0.24949487,-0.80521613,-0.48262185,1.0813037,0.98336816,-0.028465638,-0.39119226
caractérisation,1.0883315,-1.2412487,-0.21604508,0.84892845,-0.044861857,-0.10814148,0.77658814,0.7939891,-0.44200224,0.40747896
caractérise,0.42985067,-0.048948627,-0.06786881,-0.9096021,0.53482246,-0.54444396,0.46157953,0.63189745,-0.27095774,-1.2003764
caractérisent,-0.052172683,-1.0009189,0.563648,-0.38017315,1.0485628,-0.29050183,0.559552,0.28979698,-0.5238431,-0.98091334
caractériser,0.66545546,-1.2025009,0.22552013,0.9153407,-0.42265865,-0.41399777,0.7806705,1.2501358,-0.6368293,0.27504733
caractéristique,0.92587954,-0.5157935,0.7396219,0.40565932,0.5792759,-0.4720588,0.020333502,1.3778486,0.3956177,-0.67960227
caractéristiques,0.060402535,-0.58141536,0.55995065,0.34402853,0.5400905,0.33979303,0.94879055,0.7838405,-0.60205454,-0.14999463
caractérisé,1.5731319,-0.26404464,-0.5403617,-0.28959355,0.52355,0.26782593,1.3018534,0.50956,0.38044608,0.486468
caractérisée,1.1030354,-0.38670385,-0.43754163,0.10472926,0.15877339,-1.2465787,1.2078811,1.519328,1.5735888,-0.49505696
caractérisés,-0.7222089,-0.7525173,0.8428664,0.39725354,0.3173081,-0.06352033,2.039469,1.3801568,0.2368053,-0.34441245
carbone,0.7192739,-0.4791114,-0.15102215,-0.22125515,-0.42870554,1.0430552,0.6733798,2.1670957,0.4110456,0.17283505
carlo,1.6116055,-1.6983672,-0.4534457,-0.11836291,-0.4809903,1.1900536,0.4153422,1.0754039,-1.0232767,0.6783291
carrière,1.0299579,-0.61972183,-0.6428244,-1.5842972,-0.46528384,-0.9971272,0.6159975,0.21699353,-0.7271565,-1.5596138
cartes,0.4923312,-0.53027046,0.8226746,0.22290555,-0.07766293,0.59318846,0.87882173,2.1094403,-0.8031249,0.8826516
cartographie,1.0389897,-1.1187688,-0.13840479,-0.5504759,0.18364666,-0.9263053,0.41057163,0.67892814,-0.68381023,0.47141948
cas,1.2454139,-0.015501365,0.26981944,0.13752851,0.71365166,0.68456966,0.68419313,0.37377563,-0.1594603,-0.5283825
catholique,0.056491017,-0.58935946,-0.6539963,-0.5388185,-0.16375402,-0.88135815,1.0682034,0.14338169,-0.8808892,-2.131379
catégorie,0.9647955,-0.63946587,0.6555035,0.8217565,1.0649258,-0.27299428,0.08543528,0.5919841,0.23278636,-1.5674521
catégories,0.29997766,-0.6653486,0.45838627,0.48457342,1.0183662,0.6861794,0.49523965,0.29459316,-0.93230563,-0.9489531
catégorisation,1.2937204,-0.8871625,0.76969683,0.23534046,0.13259293,-0.01592701,0.3600751,0.5278293,-1.3166602,0.059995573
cause,0.09914303,-0.13898762,0.36152136,-1.1479534,0.9638009,-0.7631385,0.9987342,1.042344,0.15877417,-0.06394732
causes,0.56827766,-0.18697877,0.37926,0.119296946,0.35616532,-0.4047674,1.3785596,0.14538376,-1.4559485,-0.27037883
cavité,1.3527837,-1.5229117,0.38390994,-0.35800114,-0.14654997,-0.18440962,-0.3378364,1.8355923,0.0038786593,0.17238651
celleci,1.0175906,-0.35181546,0.31909066,-0.13255966,0.19292404,-0.3269755,0.013013015,0.68631756,-0.14959536,-1.1144974
cellesci,0.08508716,-0.9583826,0.86679745,0.3371596,0.39226323,0.14813565,1.0900059,0.11346293,-0.46875712,-0.84035987
cellulaire,0.9503783,-0.41872096,-0.96397716,-0.46563888,-0.6658022,0.32645196,1.276678,1.6552875,0.23506781,0.47281712
cellulaires,0.44377849,-0.30405113,0.3009835,-0.14651921,-0.26356727,1.596325,1.1950058,1.5680616,-0.7659055,0.45651653
cellule,1.0624789,-0.8185299,0.06024396,-0.2264295,-0.963384,-0.06933167,1.3718451,0.9630305,0.5552254,0.05669093
cellules,0.29178333,-0.9372093,-0.5173806,0.44332162,-0.8315403,0.6306885,1.626439,1.5917821,0.111315906,0.24319194
celuici,1.3242813,-0.26800817,0.7141331,-0.79978764,0.07542405,-0.5404943,0.23209956,0.6010618,-0.19825989,-0.63734394
centaines,0.54509336,-0.8296061,0.097861744,-0.26651013,-0.5370336,1.0097629,1.8703468,0.6799729,-0.70114875,0.6115902
central,1.2510448,0.54428554,-0.23407593,-0.39135075,0.67101014,-0.47122458,0.74076986,0.4055536,-0.2350605,-1.0578057
centrale,1.1376848,-0.024052365,-0.36216986,0.26991317,1.1061134,-0.9687644,0.860152,0.50678563,0.15563345,-0.5435302
centrales,0.21798155,-0.15893334,0.21319845,0.6686113,0.2989275,0.18358989,1.1007382,0.6257072,-1.1860998,-0.4722704
centraux,0.5153787,0.18992883,0.9641973,-0.26448214,1.6411793,0.74934304,0.4243898,0.6359885,-1.2592235,-1.0700401
centre,0.86446494,0.4758188,-0.23781586,-1.070322,0.86141807,0.17600282,0.5553896,0.6355748,-0.54728866,-0.5484224
centres,-0.72940844,-0.13149223,-0.6806068,-0.9371693,1.4292846,0.12831135,1.4983988,0.6192781,-1.009022,-1.0272093
centré,1.86946,-0.20221819,-0.3870423,-0.058033507,0.033636913,-0.11176023,-0.120948054,0.68557036,-0.24496992,-1.1951491
centrée,1.1153458,-0.7956742,-0.7349786,0.74141616,1.0789306,-0.7108386,0.9494491,0.20480707,0.14969395,-0.48778567
cercle,1.0460154,0.546596,-0.31673324,-1.1669927,0.988722,0.75730795,0.5220938,0.8169216,-0.034861982,-0.5707595
cerner,0.6028848,-0.32214087,0.69737655,-0.05736885,0.21344618,-0.729455,1.0935673,0.28122148,-1.9659029,-0.51162106
cesse,0.3665985,-0.6610185,1.4031289,-1.188758,-0.6310486,-0.7371724,1.3835094,0.37241575,-0.8658024,-1.0221375
ceuxci,0.49864987,-0.2542268,1.3888135,-0.1825241,1.2088593,0.35370564,1.0598258,0.523943,-0.58343655,-0.15432476
ch,0.53632885,-1.7612413,-0.9854319,-0.6363176,0.34743986,0.2365057,0.22491172,-0.007051262,-0.37511057,-1.1809399
chaleur,1.2363278,-0.5774962,0.8108412,-0.06745572,0.043095846,0.6132353,-0.06924879,2.0144002,0.07015026,-0.046426814
chambre,0.9882409,-1.0632739,-0.5559165,-1.0583361,0.7568268,0.3083708,0.4589035,1.1303978,0.5523248,0.6137543
champ,1.1772324,-0.20294918,0.061125286,-0.46916047,0.2772963,-0.08673251,-0.24787861,1.2472788,-0.46298814,-0.22442915
champs,1.0329186,-0.68605983,0.5431554,0.34949532,1.2759924,0.613462,0.20357428,0.4959125,-0.8276335,-0.17804947
chane,1.3255814,-0.37452623,0.042706892,-0.1486914,-0.34268177,0.042729646,0.30948022,1.5588449,-0.21558489,0.43311888
chanes,0.81209266,-0.21795058,0.7927716,0.31981227,-0.38459545,0.778655,0.6446427,1.3139204,-0.93116057,0.002483298
change,0.995951,0.8500102,0.6249609,-0.5648156,0.70513654,-0.0059227105,0.74523103,1.9241695,0.27240515,-0.18633048
changement,0.8426551,0.4154924,-0.020764703,-0.42495906,0.27485743,-0.4523408,0.5877322,1.247909,-0.30051646,-0.16771117
changements,0.08152969,-0.04826212,0.07473131,0.67111576,0.40320662,-0.51093054,1.5603374,1.0527433,-0.39205083,-0.16335042
changer,0.30034554,-0.6554876,0.8083641,-1.0412874,-0.12646201,-1.5173769,1.0119672,0.70608115,-0.1314099,-1.0218298
chantiers,-0.06952413,-0.68704283,-0.81358474,-0.7591483,0.15737581,0.72796166,1.1861254,0.26806068,-1.8853897,-0.3378471
chapitre,2.2652783,0.5652476,0.10591083,0.35392812,1.2795001,0.36689475,0.39313087,0.61630386,-0.75072145,-0.43861273
chapitres,1.1977671,-0.36458498,0.022189558,0.2255542,1.8077327,0.76970315,0.66063595,-0.13236682,-0.7361946,-0.9067284
charge,0.30587158,-0.8658484,0.5916506,-0.6890326,-0.060499985,-0.57859486,0.6285844,1.4909277,-0.117156304,0.54283774
charges,0.43314427,-0.9760372,0.66014224,0.36173573,-0.16908772,0.25287446,0.28881174,2.2422788,-0.60990053,0.5333884
charles,0.122698784,-1.0824363,-0.5716876,-1.4203668,0.3736041,0.45472696,1.4602011,-0.08325778,0.43683872,-1.7452995
chauffage,1.6024202,-0.4976241,0.03128738,0.014361995,-0.36827046,1.1462799,0.9974343,1.8525679,-0.19749068,1.0295638
chef,0.3552845,0.14207707,-0.60158086,-1.4506121,-0.38480547,0.19003959,0.4556839,1.0944986,-0.23230165,-1.4936273
chemin,1.0304288,-1.0578144,0.24927564,-1.3017966,-0.18695454,-0.33817405,0.4026755,0.3463829,-0.7690236,0.053605568
cheminement,0.9794968,-0.11939921,-0.089659415,-1.7584643,-0.13460629,-0.7949656,0.37409502,0.73186785,-1.2044265,-0.5241344
chemins,0.5753365,-0.61666274,0.3182832,-0.017328428,0.36452168,0.85877264,-0.494357,1.3178815,-1.3289846,-0.5171618
cherchant,0.6413066,-0.26818952,0.72741413,0.07518367,0.52273357,-1.294481,0.6137892,0.80789644,-1.0818231,-0.54143625
cherche,1.1255732,-1.0668551,0.4605732,0.1227747,-0.0006272606,-0.7628623,0.06785293,0.22460918,-1.0568739,-1.0320086
chercher,1.3482679,-0.6638971,1.4621798,0.19770437,0.3555964,-0.95497274,0.15803052,0.7630724,-0.8250225,-0.88782984
chercheur,1.0440927,-0.32007715,0.62743384,-1.331875,0.42463753,-0.5982226,0.7836679,-0.04506109,-0.7851985,-0.77317905
chercheurs,0.010581182,-0.24058245,0.33623675,-0.02108065,0.45137942,-0.2756998,1.7872486,0.033782165,-0.8759691,-0.61010855
cherchons,0.97183466,-0.31373325,0.52292037,0.28301117,0.50498605,-0.7577181,0.5329083,0.76999027,-1.9580268,-0.24030173
cherché,1.2053437,-0.49950346,0.7117124,-0.22520386,-0.26900357,-0.15993696,1.6856717,0.100102566,-1.795542,0.40845484
chiffres,1.1803473,0.42133686,0.32202926,-0.28510723,1.8968265,1.9948834,0.92292154,0.88312435,-0.71099085,-0.5089789
chili,1.2634808,1.4765642,-0.39001784,-0.13558266,0.13159248,-1.1009995,1.7006246,0.92354286,-1.2103425,-0.8312381
chimique,1.0475261,-1.4040265,0.10721987,-0.3413148,0.44752932,-0.36308634,0.75830495,2.0895708,0.950562,0.97043395
chimiques,0.11596283,-1.3895687,0.68923926,0.08372828,-0.21299781,0.5210798,1.343391,1.2305815,-0.57332915,0.6195491
chine,0.32113415,0.30842963,-0.6548095,-0.48484534,0.79782385,-0.67367333,1.6053745,0.26074612,-0.19698387,-1.0194854
chinois,0.39831448,0.010873008,-0.73451346,-0.9715114,0.6433743,-0.5474806,1.4465532,0.16105846,-1.3763139,-0.29411447
chinoise,0.34651846,-0.53101814,-0.99994147,-0.4686906,0.6954358,-1.3443251,1.2142991,0.3447982,-0.23493288,-0.59250474
choc,0.8569327,0.697786,0.42123038,-0.7138912,0.19836296,0.50934774,0.58302855,1.9676363,0.23915535,-0.15297332
chocs,0.7003267,0.22746998,0.7818641,1.0031446,0.83285004,0.025301162,0.5610941,2.007308,-0.8840985,-0.07765244
choisi,1.954139,-0.58826804,-0.09293563,-0.6869712,-0.6426961,0.13058376,0.61151916,-0.22562544,-1.0000645,-0.7130623
choisie,1.3132086,-1.2481155,-0.67889804,0.27387956,0.094268695,-0.7536983,0.5085721,0.2817937,-0.79799336,0.104007825
choisies,0.39562127,-1.550491,0.41625553,0.35777354,0.6082638,0.082131326,1.0618236,0.2742106,-0.5115777,0.1255729
choisir,0.5303097,-0.7197675,0.5159252,-0.32702526,-0.30309403,-1.217274,1.1915948,0.6880251,-0.4343934,-0.034113985
choix,0.59403557,-0.09369745,0.41531354,-0.10316896,0.34867188,-0.26166293,0.6309803,0.77446055,-0.9140753,-0.11119831
chose,1.0699259,-1.0231373,1.0567834,-0.23056975,-0.3367951,-1.3631631,1.0008733,0.5066416,0.46589833,-1.435769
choses,0.5130931,-0.599746,0.9202007,-0.4742916,1.2722601,-0.14627579,0.49861312,0.26207283,-0.28259018,-0.88405603
chronologique,1.1494458,-0.50432575,-0.23385124,-0.41048026,0.6686883,-0.6496638,0.6141721,-0.10139865,-0.88331354,-0.65279657
chrétien,0.56349134,-0.60325897,-0.5669113,-2.0790074,0.5295856,-0.26424658,0.5528338,0.4555613,-0.017383987,-1.1322013
chrétienne,-0.1358433,-1.0011753,-0.39569435,-0.81988025,0.96064436,-1.2868066,0.9153258,0.5635193,0.28515825,-1.618621
chute,0.772073,0.6788269,-0.5267109,-0.36667964,-0.09418079,0.09885396,1.4172827,0.59905183,0.05371876,-1.1464063
chômage,1.0172417,1.5002378,0.53378564,-0.031189987,0.6810233,-0.36285698,1.138837,1.3782856,-0.55104864,-0.9861389
cible,0.6817864,-0.8043088,0.451437,-0.07186155,0.9031821,-1.0314673,1.2466409,1.1066723,0.9074141,0.39422747
cinéma,0.689646,-0.77080816,0.23463906,-1.56343,0.94514936,-0.38094667,0.5479822,0.17778717,-0.41016904,-0.48390427
cinétique,1.4692441,-1.0253192,0.2395243,-0.47227117,-0.56381786,0.57858735,0.60999596,1.5546399,-0.13976154,0.82317513
circonstances,-0.07086592,-0.2557053,0.23995757,-0.20654266,0.61045814,0.013429216,0.49679315,0.68532616,-1.6864045,-0.93789893
circuit,1.6344242,-0.72216666,0.52885795,-0.27162534,0.039698124,0.048064597,-0.5340752,1.1844354,-0.66332835,-0.26670974
circuits,-0.09400131,-0.600905,0.33953923,-0.34268147,0.34942883,0.3998424,0.94997096,0.8570781,-0.47928652,0.085136734
circulation,-0.24595296,-0.091300026,-0.15768239,-0.43872285,0.9168712,-0.90364224,0.5452337,1.280887,-1.0763838,-0.60995024
cisaillement,1.673766,-0.5669802,-0.050359067,0.22031097,0.35953972,0.23463431,0.6288429,1.9347421,0.7445478,0.645306
citoyenneté,0.52966446,0.43552393,0.0034171524,0.7614602,-0.06798828,-0.7399634,0.6922683,1.0359323,-0.7504665,-2.055561
citoyens,-0.08388134,0.5580376,0.51321447,0.74184936,0.13758452,-0.807196,1.6752845,1.0127417,-1.253375,-1.4427309
cité,-0.05776055,-0.77714366,-0.77058655,-0.4892744,0.19125345,-0.33203533,0.6090251,0.3637166,-0.3057452,-1.7636467
civil,0.96277344,0.18083972,-0.1659155,-1.1643047,1.0442367,-0.7948955,0.388185,1.068476,0.054858588,-0.22158465
civile,0.3517527,0.43873987,-0.3034274,0.8051386,0.25766423,-1.0028398,1.0374018,1.0961226,-0.16760786,-2.1106944
civilisation,0.318986,-0.6962871,-0.92583716,0.29157156,0.8157583,-1.371438,0.676203,0.33551037,-0.49331746,-1.7673004
clair,1.0480613,-1.3170352,1.220146,-0.86414677,-0.5216418,0.4165271,0.83844924,0.14049152,0.4389042,-1.0759135
claire,0.6477118,-1.6159236,0.36289057,-0.21098512,0.67846817,-0.30347282,0.41577604,0.2480757,0.38998637,-0.5091519
clairement,1.0377727,-0.9430483,0.6381683,0.055919345,0.51912063,-0.6363102,0.9404971,-0.085974015,-0.51945,-0.28895792
classe,0.7924146,0.19482215,-0.10667025,0.26186898,0.75056016,0.1133267,0.81319976,0.79161215,-0.55595237,-0.0141369
classes,0.6674775,-0.01952778,0.0563984,0.5324941,1.278215,0.48756477,1.2775524,0.44904083,-0.4559494,-0.09016438
classification,1.4314679,-0.6139103,0.6411776,1.1813426,0.58738947,0.06523557,0.50815964,0.5172402,-0.66481024,-0.45106626
classique,0.77650976,-0.8058589,-0.075153045,-0.47065037,1.410679,0.01322606,-0.26332548,0.8966914,0.18586992,-0.5203426
classiques,0.6424142,-1.0584077,0.93977517,0.7222119,0.8458329,0.61682194,0.25539547,0.9112566,-0.74018955,-0.26858795
climat,0.44891274,0.44876114,0.5782982,-0.3243658,0.1758553,-0.21863052,1.4500589,0.95228213,-0.5559274,-0.09156888
climatique,0.34447834,0.5866928,-0.056864496,-0.4873439,-0.2892162,-0.65766966,1.3234917,1.9477732,-0.094266586,-0.058513697
climatiques,-0.56821865,-0.37074167,0.6774498,0.7498492,-0.17294991,0.0032460669,2.0518157,1.5858389,-0.82694983,-0.22934346
clinique,1.474984,-0.89863926,-0.9581418,-0.4483769,-0.015756415,-0.73882824,0.50106984,0.4800508,-0.9910299,0.36363268
clé,1.1581461,0.03141565,0.027187662,-0.5441421,-0.089343674,-0.7934253,0.855812,1.0288485,0.16236506,-0.0234601
clés,0.35022268,-0.5385532,-0.28715333,-0.48954633,0.7576947,-0.01266361,0.8855567,0.9267279,-0.6412574,0.7435348
cm,1.2416093,-0.32711,-0.48984072,-1.419359,-0.11574366,1.2034974,0.7541381,0.7155541,-1.3075318,0.55090153
co,0.5869876,-0.24015863,0.65136695,-0.49400613,-0.25569242,0.17542464,1.10593,2.250144,-0.14574774,0.9510088
code,1.9942199,-1.0996253,0.3735962,-0.31101117,0.5755282,0.41704282,0.41124886,0.5558154,-0.3103734,0.63339204
codes,0.027291479,-1.3942516,0.7678502,-0.5986243,1.4529206,-0.37947753,-0.30296215,1.5949184,-0.2393647,-0.06159651
coefficient,1.5001723,0.027884517,0.66004,-0.09678041,0.55323595,1.0553606,0.4116776,1.9939538,0.7112859,-0.18132293
coefficients,1.3329277,-0.52501845,1.1423732,0.6139822,0.41306412,1.083144,0.21719322,1.337565,-0.21093826,-0.6277469
coeur,0.92134583,-0.49321684,0.38749632,-0.7564927,0.33708075,-0.15183154,0.15698016,0.17839219,-1.0667374,-1.0531576
cognitif,1.198063,0.60091585,-1.4487066,-0.8798302,0.86019087,-0.9220514,0.60540223,1.368764,-1.5608774,0.090530336
cognitive,0.91808593,-0.7095661,-0.052257363,0.023081496,0.36594847,-1.5953776,0.09954509,1.3301696,-1.2417071,0.106585674
cohomologie,1.6223682,-0.9987638,0.26076895,1.4594394,0.8977401,0.86112845,-0.5910609,1.6936458,-0.29115626,-1.4098123
cohérence,0.57553977,-1.2657273,0.060186673,-0.109224506,0.6764056,-0.94739354,0.15579337,0.5865107,-0.9731018,-0.25084785
cohérent,1.286508,0.12132943,0.8970232,-0.08347105,-0.55597097,-0.11440308,0.33919156,1.2237518,-1.3292477,-0.40264854
cohérente,1.296481,-1.6791639,0.648537,-0.35873407,0.33367974,-0.4999519,-0.6989339,1.7592462,0.07425613,-0.25058872
cohésion,0.30267957,-0.16953874,-0.19963765,0.26100597,0.61706316,-1.0777651,0.3343459,1.6757915,-0.39948654,-0.29483536
collaboration,1.260541,-0.32111216,-0.8993066,-0.7534777,0.5200533,-0.2705576,0.9285583,0.3229688,-0.04265545,0.03649457
collecte,0.7778617,-0.44670182,-0.82464623,-0.24560665,0.19707997,-0.30471227,0.86787647,0.6115703,-1.0872304,0.38725126
collectif,0.2942911,0.3085674,0.21949308,-1.1048605,0.2172373,-0.24122976,0.16186568,1.4990602,-1.2354027,-0.56054133
collectifs,0.3004063,0.09935861,-0.39725754,0.825009,1.0109583,0.52782476,0.7321086,1.15884,-1.2094201,-0.41388097
collection,0.81362045,-1.4489095,-0.47007477,0.7986735,0.09920221,-0.48244232,0.4593445,-0.09307051,0.0019580782,-1.5444535
collective,0.35065708,-0.22655952,-0.36266944,0.07755008,0.06710102,-0.71242803,0.14590837,1.0301197,-0.5703122,-1.2890033
collectives,-0.4341144,-0.14607173,0.63248503,0.14018543,1.0684074,-0.28013912,0.36358,1.9448956,-1.6813587,-0.45406008
collectivités,0.10544282,0.599135,-0.23200391,1.2022213,0.5433573,-0.09911866,1.7146733,1.2765269,-1.7080308,-0.7537859
collectées,1.0888451,-1.3788078,-1.5323306,0.9610811,0.64873266,0.3506482,1.9543927,0.32433215,-0.9210065,0.65670377
collège,0.25046992,-0.36728737,-1.217013,-0.6635243,-0.28456673,0.19770205,1.4327657,0.024711741,-0.6396769,-1.2551264
colombie,0.5559689,0.88646513,-0.31639755,-0.45842004,0.63243395,-0.8719843,1.8655472,0.5307295,-0.57012,-0.7289775
colonial,0.30745408,0.5035984,0.086007364,-0.9345711,0.5077083,0.26006585,1.3094463,0.2374139,-0.2688135,-1.7587584
coloniale,-0.07510812,-0.08409433,-0.40308532,0.07069931,0.81214994,-1.4526954,1.1160128,1.0347905,0.17157654,-1.4003525
coloniales,-1.0866004,-0.43156615,-0.2162082,0.5974076,0.5305568,-0.028458083,1.9151946,1.0582548,-0.3259857,-1.4617666
colonisation,0.4853476,0.096058995,-0.45237654,-0.074314676,0.23020321,-0.8224813,1.7606522,0.10954419,0.08499028,-1.0195392
combat,-0.10505884,0.056103162,-0.18655172,-0.68050045,0.73086625,-0.8438311,1.2726551,0.33141744,-0.44363207,-1.6599202
combinaison,1.2002966,-0.93999475,0.3530141,0.4096064,0.26594988,-0.2527789,0.6142907,1.421926,0.34610704,0.64429915
combinant,1.3284785,-1.1893657,0.0516686,0.98547333,1.5331017,-0.0014099625,-0.039802976,1.7119637,-0.7623011,0.6562037
combinatoire,1.890437,-1.126748,0.24240443,0.7717307,1.964723,0.44877318,-0.34582233,0.64347017,-0.5744296,-0.3713691
combine,0.79653996,-1.5594264,0.034751143,0.40380657,1.0014596,-0.7085416,0.14644705,0.8543067,-0.93708295,0.2741645
combler,1.3268906,-1.3114944,0.063072495,0.04914418,-0.4028258,-0.6786352,0.8416105,-0.10872285,-1.421081,-0.20103717
commande,0.36921474,-0.47383717,-0.83534455,-0.27676216,-0.17806166,0.08779095,1.1359631,0.19216749,-1.3682206,-0.27102137
commence,1.1760775,-0.61158836,-0.46314,-0.085915364,0.43331012,-0.32817817,0.08144166,-0.064102575,-0.72455454,-1.64486
commencé,0.84935975,-0.5914572,0.05697763,-0.6286921,-0.3321591,-1.1149328,1.7251993,-0.08797294,-0.76357573,-0.24663277
commentaire,1.5151285,-1.057546,-0.7982983,-1.4232736,1.1046882,-0.2961563,0.15978931,-0.22087485,-0.646403,-0.9404627
commerce,1.0256811,1.3249835,-0.3194482,0.17610112,1.1355639,0.096037924,1.2975577,1.2340981,-0.12103726,-0.6436914
commercial,0.93216616,1.0409111,-0.099090025,-1.1752967,0.8977169,-0.77442926,1.4885826,0.87057114,-0.07838135,-0.48974386
commerciale,1.3974724,1.1771871,0.07342173,0.6271192,0.0478009,-0.5208715,1.3934712,1.3365045,-0.25848472,-0.6631293
commerciales,-0.3764543,0.6064523,0.089656405,-0.05773392,0.72839177,-0.13628004,1.5465254,1.4840801,-0.6392822,-0.3687219
commerciaux,0.9009727,1.283477,-0.058392417,0.5335643,1.1507016,0.44334257,1.3008584,1.0520914,-0.86000395,-0.87494886
commun,0.8057963,0.20230603,0.49753764,-0.5608503,0.6172151,-0.16972907,0.41855088,0.6305059,-0.75115055,-0.63391525
communautaire,0.96530014,0.74310535,0.31186876,0.6840095,0.21883807,-0.6605433,0.38742673,1.3330191,-0.5714241,-1.6691904
communauté,0.093946666,0.019990077,-0.91490585,0.112431996,0.6518733,-1.0335674,1.3222142,0.69374,-0.021999992,-1.1389638
communautés,-0.14247695,0.4335293,-0.5228599,0.5398387,0.72103995,0.10600187,1.4283965,1.0802654,-0.8383307,-0.65747017
commune,0.20116296,-0.09101297,0.018816743,-0.36325783,0.23012777,-0.60092443,0.72569394,0.6584937,-0.21178526,-1.3131732
communes,0.053336777,0.1757104,0.20386979,0.11162012,0.53196925,0.27179548,0.82876253,0.6924382,-1.4665992,-0.8255727
communication,0.1849589,-0.49790636,0.05120783,-0.16078195,0.80195767,-0.82416457,0.78747755,0.87416446,-0.73133683,0.053481523
communiste,1.0900776,0.44611096,-1.4532009,-0.898719,-0.38759604,-0.39650142,1.8411382,0.23987491,-0.27585024,-1.8337526
communs,0.41459033,-0.19015141,0.09184272,0.111318335,0.8123615,-0.15210402,0.50593036,1.3361331,-0.7751279,0.34098518
compact,2.2843766,-0.4563767,0.92127043,0.071703784,-0.104572,1.1054883,-0.17367174,1.3936559,0.110501446,-1.0395776
compacte,1.7919058,-0.8309487,0.14836773,0.22804189,-0.1685163,0.53526455,-0.019720845,1.2323583,0.5350427,-0.7569162
compagnie,0.093883,-0.08425779,0.50736886,-0.12950875,-0.4314907,-0.3288469,1.3166653,1.0086561,-0.04009807,-0.36656028
comparaison,0.8115322,-0.5462353,-0.35132533,0.3804838,0.98816025,-0.05280539,0.98104423,0.43285176,-0.38734013,0.23185006
comparaisons,0.039125822,-1.1146238,0.7774638,0.9019878,1.180217,-0.496381,2.225627,0.3774611,-0.5171797,0.05647589
comparant,0.82388645,0.04706348,-0.07972317,-0.34293944,0.19502626,0.36620867,1.0769222,0.6241014,-0.9566852,0.46279922
comparative,0.82889867,-1.1947566,-1.1868495,0.80536723,0.92691976,-0.5502789,1.0447421,0.039265662,-0.9303133,-0.40527552
compare,0.60832816,-0.77627623,0.45225325,0.3000945,1.6645985,0.4721384,0.5324846,0.43022266,-0.5353564,-0.37973657
comparer,0.8432053,-0.83267987,0.6366583,0.6315553,0.30633706,-0.2172898,0.92887634,0.5935587,-1.1214218,0.24337822
comparons,1.5427902,-0.4906196,0.38811806,0.42747837,0.5733893,0.28359714,0.84164894,0.57727593,-1.0859439,0.617983
comparé,1.7266498,0.26711375,-0.45463324,0.4641103,0.74408334,0.4423612,1.4817783,0.53691494,-1.0295691,0.66298926
comparée,0.9566216,-1.03605,-1.4524668,0.7384738,1.1060164,-0.33792037,0.7073371,0.41719657,-1.1601204,-0.06486537
comparés,0.87706506,-1.0137639,0.51579267,0.19341348,1.2448645,1.0950073,1.9585751,0.19394766,-0.50542516,0.4510081
compensation,0.9255815,0.0042283726,0.45948243,0.5307658,-0.22071213,-0.97050524,0.9716402,1.9398733,-0.22374849,0.4085995
complet,1.8953832,-0.32831323,0.6240564,-0.65907526,-0.24005127,0.47310886,0.10245303,0.9709722,-0.21511877,-0.24480037
complexe,1.2325152,-0.4340624,0.48879763,-0.37845734,0.3998015,-0.2556651,0.45597115,0.6107945,-0.034415234,0.005759536
complexes,0.14866944,-0.9231932,0.6751424,0.38928664,0.8404147,0.43214923,0.6226471,0.96928596,-0.19712555,-0.16196871
complexité,0.45428646,-0.5005596,0.67772615,0.12521844,0.4182645,-0.68271,0.7376951,0.75675476,-0.46356398,-0.2454053
complète,1.3768344,-0.6336723,0.12659112,0.21663979,0.050940935,0.033124205,0.23814698,0.5616428,-0.18615733,-0.3763319
complètement,1.0050579,-0.50898993,0.9996165,0.765921,0.3755014,1.0369656,0.6191707,0.4306058,-0.25741228,-1.1048715
complémentaire,0.9989191,-0.15283526,0.11444781,0.09604458,-0.5438004,0.2666011,0.2980298,1.0452939,-0.53303564,-0.47208706
complémentaires,0.4334939,-0.88728815,0.63661927,0.3359285,1.2380844,0.61547846,0.7349152,0.68806535,-0.98777896,0.2325046
complétée,1.276646,-1.7167388,-0.4056631,0.7425351,1.0017155,-0.110451825,1.1736432,-0.4246716,-0.49012557,-0.11269038
comporte,1.364881,-0.65966797,-0.44685125,0.38944876,1.4710256,0.1464289,0.6087154,0.02263191,-1.81791,-0.22649497
comportement,1.1161929,-0.21370573,0.5641927,-0.067870505,0.36157492,0.2794792,0.60263085,1.1086432,-0.08041444,0.30728257
comportements,0.022977112,-0.45824966,0.6124741,0.56069225,0.80580705,-0.0024709073,1.3163172,1.1707364,-0.5859054,0.39983952
composant,0.55331147,-1.4136102,-0.01509095,-0.79184425,1.5017974,0.18973246,-0.11232362,0.91018873,0.48393908,-0.315769
composante,1.5605396,-0.1561445,-0.04403416,0.5476571,0.7380431,-0.5406748,0.5168626,1.126049,1.0017859,-0.44831285
composantes,0.34362996,-0.30341944,0.44966522,0.11381113,0.8351992,0.9094785,0.31320298,0.91577137,-0.5122064,-0.74397695
composants,0.45428512,-0.94445705,0.49610493,-0.19982956,0.154104,0.6100999,0.5611402,1.4911783,0.06293043,0.36692902
compose,1.3447279,-1.6768962,-0.060326375,0.030260894,1.7133203,1.061208,0.14753939,-0.3740292,-1.2268919,-1.092775
composent,-0.07202787,-0.45441112,-0.19205488,-0.32410553,1.6579161,0.2223098,0.29487914,0.90856117,-1.2024931,-0.5110264
composite,1.2675912,-1.7002027,-0.017252482,-0.6596832,0.5579443,-0.13241723,-0.26779544,0.6941109,0.07976864,-0.21566546
composites,0.40240505,-1.8935717,-0.04217288,0.29111034,0.0938063,0.11007254,0.6899458,1.4329492,-0.59580123,0.9162329
composition,0.5058498,-0.8756278,-0.12881438,-0.17301445,1.0287447,-0.36313096,0.3648047,1.9284766,0.44492376,0.67539215
composé,1.3485832,-0.9896852,-0.68971413,-0.8964944,0.6359162,0.60097307,0.051264085,0.17767866,-0.83570737,-0.09911638
composés,0.1134853,-0.7700644,-0.6401641,-0.35147336,1.1065844,1.3430407,1.4273149,1.0968397,-0.48160693,0.75386566
comprenant,1.0873893,-0.3489168,-0.27775303,0.089702204,1.2329843,0.9140801,1.1736661,0.010458354,0.33323306,-0.30321723
comprend,1.1115531,-0.86940795,-0.5117735,0.30812982,0.92237496,-0.40488395,0.99561125,0.16228087,0.07448119,0.03858025
comprendre,0.7136222,-0.57859534,0.45060283,0.3052771,-0.1809577,-0.97278315,0.84251446,0.59599733,-1.4475199,-0.39731207
compression,1.7798165,-1.1406448,-0.16382548,-0.1476078,-0.61240864,-0.27698216,0.16448493,1.8838131,-0.07469652,0.7087988
comprise,0.83428776,-0.52801883,0.7966612,-0.4303345,-0.04668218,-0.5223896,0.9019295,0.22653277,0.21081011,-1.244154
compromis,0.57448184,-0.04285298,0.7162472,-0.76398385,0.40609482,-0.40668988,0.78938395,1.7451901,0.4055055,0.32017803
compréhension,0.5659463,-0.62526464,0.046102393,0.033902634,0.3657241,-1.0371879,0.6245056,0.9256534,-0.61459666,0.05544128
compte,0.68794453,-0.3166244,1.0008692,-0.38970244,1.2525703,-1.1307076,1.1330459,1.0928568,-0.35283807,0.5562924
comptes,-0.3616712,-0.07702541,-0.8659628,-0.56487435,1.1551162,0.24462499,1.2902157,0.60580564,-0.38204843,-0.7992072
compétence,0.79734784,0.3427247,-0.3114667,-0.15336122,-0.22498035,-1.4732836,1.3667842,1.0147985,-1.6825385,-0.12525754
compétences,0.44866377,0.095670976,0.2827127,-0.31925234,0.53709453,-0.51333743,1.5145987,0.5941695,-1.995788,0.22282028
compétition,0.68984133,-0.17821635,0.0014607548,0.3874338,0.7195045,-0.21601394,0.7456847,1.1104532,0.2877742,-0.02570517
compétitivité,0.17569411,0.62560517,-0.14375696,0.23018959,1.2406132,-0.7662642,0.9974356,1.7065829,-0.16549607,-0.42539284
concentration,0.7357016,-0.6420544,0.3994161,0.16226365,0.16017489,0.070245974,0.7129921,1.3439497,0.693211,-0.026582062
concentrations,0.6848723,-0.61486864,0.20761968,0.53025025,-0.031847637,1.3660581,1.2438294,1.7474897,-0.4964568,0.7144222
concentre,1.0498585,-0.61129874,-0.21895252,0.47415885,1.3563523,0.29732138,0.34795257,-0.0828653,-0.9453692,-1.3640419
concentrons,1.8115788,-0.18801609,0.05570056,0.15371484,1.1328348,0.5924405,0.54850066,0.2364407,-1.1254431,-0.11252191
concept,1.3032231,-0.047349323,0.16798767,-0.1315832,0.48664856,-0.67800516,0.0010793076,0.5378724,-0.89711887,-1.0099635
conception,0.93205637,-0.82125694,-0.023963168,-0.29615018,0.49256542,-1.0998944,0.18661256,0.80524945,-0.44547522,-0.109502636
conceptions,0.10201657,-0.7125915,0.102168776,0.20378959,1.5930082,-0.385274,0.79934853,0.2690191,-0.6252205,-0.7404639
concepts,0.31751743,-0.9331345,0.31012148,0.20370845,0.98674375,-0.56365734,0.39216396,0.3617641,-0.9943481,-0.6518484
conceptuel,1.6439044,-0.11064646,0.119604684,-0.29851225,0.50582784,-0.23866148,0.40446755,-0.0388019,-0.8077326,-0.83475614
conceptuelle,1.1502445,-0.99495053,0.08864423,0.13807091,0.5125397,-1.6876642,0.035358287,0.5883782,-0.74480444,-1.3201402
concerne,1.4488243,-0.15570131,-0.027213475,-0.10373541,1.1844816,-0.0992478,0.7321412,0.20498112,-0.5668404,-0.009167891
concernent,0.575418,0.07032072,0.5951279,-0.40003383,0.80624545,0.47873726,1.4278964,0.5483972,-0.9060875,0.28974375
concernés,0.15246294,0.30287787,0.61580664,0.7147887,0.90267706,0.5069879,1.997588,0.5289485,-0.8308869,-0.7356354
concevoir,0.59182376,-0.48978618,1.078347,0.43701965,-0.17884775,-1.0224948,0.53946155,1.2924074,-1.4674932,-0.32866102
conclure,1.407793,-0.061261717,1.0319839,1.0260652,-0.17110775,-0.42300886,0.7100218,1.0476389,-0.9663882,-0.36292732
conclusion,1.3103433,-0.10680911,0.043353286,0.2713506,0.22252268,-0.18569495,1.222945,-0.13159044,-0.48649958,-0.5456687
conclusions,0.5376605,-1.1495874,0.48574987,0.70994467,0.44873536,0.18174535,1.1235082,0.13084833,-1.3160386,-0.123059735
conclut,1.3752955,-0.51970255,0.2955388,0.46939164,0.96671456,-0.7660605,0.529813,0.10302228,-0.6502932,-0.94008905
concret,1.0598481,-0.01849812,-0.41990754,-0.58700836,0.7942897,-0.9411271,-0.28276518,1.0442171,-1.7580167,-0.82032627
concrets,0.18591464,-0.69140905,0.438432,0.28125724,1.8162987,-0.16264038,1.2132299,0.65066814,-1.1452427,0.27614743
concurrence,0.30779302,0.7103653,0.26758507,0.63013047,0.8861412,-0.4005565,0.9714897,1.603649,-0.5991512,-0.6267615
condition,0.89742213,-0.5605232,0.7222013,0.17390758,0.21533503,-0.472365,0.095917165,1.0086313,0.3151489,-0.9144855
conditions,0.43032366,-0.31129268,0.4580257,0.41651896,0.21298736,-0.1838737,0.8366421,1.1661862,-0.6049118,0.1693077
conduire,0.6871334,-0.80516,1.646736,0.23995833,-0.45053685,-0.7158962,0.83341557,1.2123047,-0.7460728,-0.24269412
conduisant,0.86569697,-0.0074160527,-0.41736445,0.22638574,-0.8754191,-0.25475907,0.90468097,1.6604002,-0.5812714,0.3191304
conduisent,-0.055427533,-0.8676774,0.8166231,1.632045,0.039029628,0.13249625,0.7905323,1.1903625,-0.92586017,-0.99036425
conduit,0.8282016,-0.33493146,0.4332273,0.15248029,-0.21732478,-0.61488736,0.7200143,0.72642577,-0.55825245,-0.31891716
conduite,0.9598971,0.10202782,-1.0015604,0.8162355,-0.25856006,-0.5200037,1.0797725,0.54121387,-0.6719395,-0.9846447
confiance,0.807469,0.09658204,0.6793998,-0.41230708,0.47121733,-0.43310362,0.8460686,0.35063034,-0.43829525,-0.7276424
configuration,0.7410526,-0.35150525,0.07761906,-0.0435175,0.6285673,-0.6359269,0.24692154,1.6909533,-0.008020661,0.32998955
configurations,0.4654601,-1.0328213,0.624972,0.5859969,0.54157704,0.35778022,0.69821554,0.84880334,-0.9649601,0.21421567
confinement,0.8833399,-0.50235784,0.25368145,-0.27635,0.46982577,0.6507124,0.07420239,2.0515113,0.1232964,0.29346663
conflit,0.5701277,0.8769236,-0.4240506,0.0228106,0.7149358,-0.61556,0.9096987,1.1796863,-0.039670933,-1.5681661
conflits,-0.28537714,0.5675354,-0.38201445,0.4131176,0.94332236,0.09511925,1.1008263,1.2873353,-0.69411236,-1.3402281
confrontation,0.40901834,-0.950312,-0.15890278,-0.1853773,0.72753996,-0.75405914,0.7590007,0.100353405,-0.8265399,-0.59400463
confronter,0.015542324,-0.76676565,0.31145045,-0.6674851,0.0131247435,-0.696016,0.2793463,0.6236467,-2.0656683,-1.1265491
confronté,0.73535204,0.260317,0.39510202,-0.06420926,0.6216156,-0.29210025,0.9698213,0.38898593,-0.5826596,-0.79596645
confrontés,0.25189337,-0.0424744,0.7924803,-0.36110798,0.08487953,-0.11619386,2.1359875,0.33087897,-1.3597403,-0.10346579
confère,0.31883246,-1.4930894,0.11458964,-1.0732417,-0.32942754,-1.4278533,0.5121283,1.0060514,-0.289306,-0.20914388
conjecture,2.3359914,-0.791757,0.41038808,1.6519003,0.46030787,0.42194107,-0.30299917,1.0208485,-0.06256983,-1.7846224
connaissance,0.9529301,-0.5580373,0.4271841,-0.028667511,0.4806297,-1.1789215,0.27380532,0.5950665,-0.85727537,-0.7098204
connaissances,0.28893858,-0.52267075,0.292305,-0.20090614,0.35414207,-0.4300261,0.98297065,0.90492636,-1.5507156,0.47962838
connat,0.3162963,0.33724487,-0.2427323,-1.2522986,0.14804648,-1.0698706,1.3349847,0.7804237,0.011538386,-1.0188972
connatre,0.184313,-0.40269256,0.53479236,-0.49089745,-0.08170032,-0.79630995,1.0116057,0.3414019,-1.5463884,-0.8013417
connexes,0.8712445,-0.95666933,0.82666236,1.2232443,1.5349897,0.8839094,0.42050222,0.8995425,0.36492446,-1.6795777
connexion,0.48941314,-1.7345647,-0.09132936,1.3799031,2.0750146,-1.1243353,0.43248165,1.4209661,0.3999383,-0.38699272
connu,1.1620395,-0.20953572,0.23116156,-0.042637397,0.18934391,-0.014297853,1.4996966,-0.07430058,0.59973854,-0.9997274
connue,1.4477471,-0.8386411,0.27632543,-0.278019,0.1780112,0.1375541,0.6406982,0.45814952,1.368003,-1.2339596
connues,0.2551471,-0.7980821,0.5249409,-0.16669323,0.4843132,0.67365205,2.2273884,-0.18082526,0.011564914,-0.44155627
connus,0.758152,-0.91588944,1.255375,-0.24404712,-0.1453387,1.1550995,1.6761578,-0.0679981,0.18377808,-0.864387
consacré,2.028396,0.15429105,-0.06663172,0.0062846714,1.1183395,0.16752462,0.34464362,0.17841978,-0.88164777,-0.52236146
consacrée,1.6291366,-0.9943939,-0.7791062,0.65487236,1.7259135,-0.33432156,0.58216137,0.20794527,-0.5842331,-0.19877744
conscience,0.38801098,-0.5124299,0.7801729,-0.7419227,0.27646536,-1.6578188,0.61207354,1.1344749,-0.47791138,-0.61673266
conseil,0.85111064,0.88493425,-1.206012,-0.14747961,0.15581404,0.0019693475,0.8640985,0.83305323,-1.2193656,-1.0641065
consensus,0.8686125,0.31688648,0.32729343,-0.060485955,-0.08709351,-0.4197028,1.0102078,0.20462461,-0.63496786,-1.384136
consentement,0.67900825,-0.019672193,0.37714726,0.4015787,0.43388882,-0.36898482,0.6676832,0.27959028,-0.77118915,-1.8658335
conservation,0.098800875,-0.075339146,-0.09463328,0.41722876,0.43297505,-0.31260124,0.69309074,1.3415622,-0.3861711,-0.37205276
considère,1.6601713,0.0017456869,0.8568023,0.8371296,0.62552214,0.1268016,0.39684314,0.3960705,-0.37478226,-1.3899755
considérable,0.5251346,0.41713002,0.33543795,-0.28793874,0.35008177,-0.13351083,0.97343916,0.8864443,-0.068257846,-0.6060421
considérablement,1.0177512,0.44679642,0.13993497,0.61093277,-0.23436196,0.20312479,1.5161569,1.2088146,-0.018672979,-0.08440829
considérant,1.08132,0.027422782,0.5311093,-0.3670978,1.2995906,-0.18095015,0.5250148,1.1068223,0.24217264,0.17298427
considération,0.47624892,-0.58073664,0.72268873,-0.8957638,1.2412128,-1.1386724,0.8299837,0.9256825,-0.91471946,0.426794
considérations,0.28699356,-1.1237656,0.9532372,-0.08091577,0.89604545,0.018528137,0.689585,0.060091518,-1.6403966,-0.6401511
considérer,1.04651,-0.671702,1.288349,0.3264662,0.649579,-0.47738773,0.07286122,0.6914901,-0.8943248,-0.76201576
considérons,2.3306155,0.033011496,0.5032799,0.005062724,1.305901,0.43355224,-0.07029702,1.098587,-0.8079121,0.12272125
considéré,1.5010357,-0.063858025,0.8674933,-0.80059433,0.100459315,-0.4616382,0.4033626,0.6490553,0.06947061,-0.9416966
considérée,1.2344307,-0.0519654,0.77084833,-0.23576984,0.3666694,-0.9277346,0.8611959,1.1640946,1.2323189,-1.1674895
considérées,0.11809888,-0.4847041,1.3195612,0.22956397,0.41682315,0.42388543,1.3591313,0.8173744,-0.48618394,-0.32816413
considérés,-0.047587544,-0.7686162,0.7771057,-0.39576688,1.0864177,0.6722826,1.2666104,0.5760368,0.005869074,-0.15373571
consistant,1.6290091,0.14333871,1.1330159,0.42168143,-0.06597263,-0.3816733,-0.11550866,1.5348872,-1.2930697,-0.52859443
consiste,1.5362582,-0.8881708,0.25292504,0.29113227,0.44912037,-0.7219043,0.083488315,0.42481545,-0.918985,-0.28113204
consistera,1.1569804,-1.6902032,-0.49995425,0.58386374,0.5279228,-1.149537,1.1059847,0.32307106,-1.3762798,0.58091813
consisté,2.0979688,-1.1341466,0.044088773,0.68422824,0.042888626,-0.51763105,1.1680429,-0.19078475,-0.71615845,0.013136252
consolidation,1.4275241,0.99511784,0.07291438,0.7781774,1.7650846,-1.0826082,1.1544635,1.1168684,0.16173336,-1.45929
consommateurs,0.3105404,0.81264204,1.43625,0.29581872,1.0410591,0.33199558,1.829407,1.6031646,-0.4065558,-0.20863985
consommation,0.43114048,-0.12655652,0.038221918,0.36622506,0.3657067,-0.51428,0.8339262,1.5744656,0.034142677,0.08274206
constant,1.2246758,-0.21261854,0.4271322,-0.9448639,0.13645901,-0.62229204,0.8950983,0.16899943,-0.18872574,-0.39659202
constante,1.2211483,-0.71797913,0.17234294,0.67907166,0.7799216,-0.294208,0.15284197,1.6031985,1.1380017,-0.76064545
constantes,0.21173598,-1.3586018,0.91401595,-0.104443446,0.9697024,0.13762486,1.1561048,0.9357253,-0.64434844,0.85319793
constat,1.7915788,0.33711508,0.089036465,0.557968,0.13204859,-1.0171753,0.9338919,0.12321401,-0.9171335,-1.3889958
constater,0.6181957,0.48350555,0.6987497,0.296513,-0.09202377,-0.21988505,1.2185726,0.58494544,-1.4089632,-0.9718861
constatons,1.1979353,0.53980345,0.22052345,0.055301074,0.4735011,0.21466787,0.8781208,0.71642137,-0.84862983,-0.09002393
constaté,1.3005542,-0.04043734,0.5484493,0.11003932,-0.23711659,0.5522559,2.04787,-0.105457775,-1.4132812,-0.07541324
constituant,0.8244026,0.045238715,0.7559131,-0.69119483,1.3365915,0.45533758,-0.0071340585,0.9187526,-0.21371427,-0.7254691
constitue,1.0415148,-0.263376,-0.105592564,-0.3579889,-0.08198919,-0.7492707,0.4240084,0.5259153,-0.20572677,-0.8965778
constituent,0.29209644,-0.13683107,0.17506428,-0.34893104,0.94522583,0.038607646,0.9791417,0.3335231,-0.48650175,-0.34366387
constituer,0.4906273,-0.676563,0.42327094,-0.14659384,-0.3765657,-0.87855154,1.0011615,0.28061226,-0.6035894,-0.8527637
constitutifs,-0.2084955,-0.92216563,0.24753149,-0.19149178,2.1230316,-0.95739305,0.27707475,1.3105386,-1.1367435,-0.37692472
constitution,0.6630813,0.07456708,-1.225306,0.6682767,0.90916884,-0.33753407,0.42495596,0.7639186,-0.73715186,-1.2029375
constitué,1.1731198,-0.5789392,-0.5715691,-0.16358264,-0.2046326,0.46030053,0.46382958,0.27607223,-1.0148652,-0.3705712
constituée,0.74810153,-1.1273235,0.3946734,0.3121955,1.4124577,0.38703507,-0.03555536,0.3038806,-0.22732916,-1.0447758
constitués,0.7129497,-1.3303329,-0.39806244,0.19761002,0.7729658,1.0374967,0.9374063,0.5965462,-0.56076413,0.53897095
construction,0.82504034,0.06387963,-0.27849504,0.107852645,0.63884455,-0.50739837,0.20035072,0.767484,-0.9251534,-0.77460235
constructions,0.05494058,-1.0272973,0.51688415,0.9636774,0.907786,0.11449136,0.84054035,0.39415127,-0.870954,-0.6716636
construire,0.9501309,-0.7116402,0.85769886,0.042545456,-0.34640792,0.177704,0.03048005,0.9818385,-1.2918708,-0.25747266
construisent,-0.1350953,-0.5350627,1.3068984,-0.99778086,0.57192904,0.19303434,1.1031197,0.40450698,-1.6267534,-0.68855447
construisons,2.199241,0.3060017,0.02208286,0.2924572,0.96090794,0.86732286,-0.11072508,1.2768872,-0.8213349,-0.27336553
construit,1.5007159,-0.13380688,-0.10360275,-0.40291303,0.6502676,0.35269043,0.113875195,0.23936711,-0.82595,-0.68979526
construite,1.717082,-1.4292902,-0.5150883,0.18480603,-0.18366516,-0.47315365,0.29867017,0.032042228,0.1494904,-0.95533764
construits,0.38537407,-0.67765903,-0.08599188,0.18157323,1.6459769,1.0565748,0.46843413,0.9137709,-1.4585128,0.029892199
conséquence,0.8115499,-0.28713253,0.60002005,0.44523403,0.3953544,-0.8812795,0.8455253,0.7465541,0.35869685,-0.74641347
conséquences,0.17257197,-0.0571792,0.57056534,0.80530745,0.4663789,-0.2697664,1.3584689,0.72008556,-0.7141702,-0.5752867
conséquent,0.7347407,-0.16839363,0.32072714,0.19514114,-0.0064658313,-0.52966535,1.1624368,0.7631355,-0.06501023,-0.16367805
contact,0.5148323,-0.3691183,0.4390423,-0.5527678,1.4149567,0.2977516,0.6474666,0.8850881,-0.05825495,0.18329245
contacts,0.7568533,-0.30245268,-0.2487877,-0.13196583,1.572745,1.3146026,1.1595277,0.9045714,0.0804178,0.34467474
contemporain,0.869121,0.052955315,-0.34022123,-1.49328,0.7886561,-0.9152659,0.78607845,0.3251585,-1.0539325,-0.5566259
contemporaine,0.58292294,-0.51976407,-0.5966023,-0.5634563,1.0219172,-1.4572684,0.97165626,0.23705645,-0.36520997,-0.75766385
contemporaines,-0.2255697,-0.861121,-0.5912899,-0.13349026,0.77218586,-0.20157403,1.1361207,0.18460661,-1.4175032,-0.51653594
contemporains,-0.43652767,-1.0863564,0.07080523,-0.67521507,0.8590192,-0.74550086,1.2386492,0.074895576,-1.5338781,-0.9873401
contenant,1.2745578,-0.7608887,-0.48997805,-0.9175867,1.1629905,1.0581439,0.066048495,1.4113888,-0.23437878,0.7309341
contenu,1.3917037,0.011230617,0.12938718,-0.091699496,0.4297659,-0.35124543,0.8520045,0.6308269,0.2018665,-0.019937731
contenus,0.6903019,0.74994814,0.5547666,-0.07261326,0.43891382,0.13869458,1.5058084,0.5072503,-1.7052658,-0.2982468
contestation,-0.2194346,0.47065148,-0.33594924,0.067159906,-0.017235542,-0.65450954,1.237906,0.95676583,-1.0114013,-1.7285691
contexte,0.9531972,0.55729073,-0.110154316,-0.40677854,0.40933368,-0.36674178,0.6421314,0.6623396,-0.9268198,-0.60501724
contextes,-0.077280276,-0.18851979,-0.12352663,0.0661535,1.3798162,-0.10405974,1.4581858,0.40857106,-0.92493725,-0.29356417
contient,1.8075234,-0.5579808,0.3703642,-0.30117974,1.0615909,1.0485706,0.5081706,-0.15082718,-0.1265581,-0.62794596
continent,0.97107184,1.2417033,0.20412889,-0.52844405,0.88895404,0.14589086,1.3336064,0.44268438,-0.9036535,-1.1985052
continu,1.1887498,-0.44991812,0.23994575,-0.92027134,-0.29276732,0.5483686,0.28830692,0.993169,-0.25506982,-0.025651017
continue,1.2042719,-0.18815465,0.15834227,0.26432586,0.19373639,-0.5117652,0.36307693,0.9548176,-0.031957537,-0.29434666
continuité,0.5877392,-0.3915312,-0.0032692314,-0.23401982,0.89952826,-0.45897555,0.6812533,0.1602912,-0.29730567,-0.83029085
contours,-0.0836795,-0.5102183,-0.10928736,-0.10478981,0.1132006,-0.9497805,0.98812366,0.4206963,-0.874899,-1.1021814
contradictoires,0.16227582,-0.53164184,1.4928231,-0.58353686,0.7852571,-0.20877036,1.3633499,0.35948876,-1.1572291,-0.308684
contraint,0.7480128,1.0339305,0.6410026,-0.019401709,0.6333096,-0.6789857,1.7929538,0.9892774,0.37177628,-0.9114448
contrainte,1.202454,-0.64066565,0.4023397,0.77406263,-0.030685624,-0.35881695,-0.029441632,1.9238738,0.44162488,-0.57896394
contraintes,0.34026697,-0.7587689,0.7593272,0.46473062,0.49279445,0.43718895,0.5941745,1.2285126,-0.30182585,0.041858412
contraire,0.7974471,0.45242015,0.55615675,-0.86746377,-0.16786247,-0.27529517,0.5892114,0.78882164,-0.8011153,-0.9851089
contrairement,0.51472443,-0.2829852,0.7674086,-0.6195344,0.21991831,0.47580317,0.47275656,0.6146869,-0.19482245,-0.66287005
contraste,0.65867895,-0.57919526,0.21278423,-0.28836346,0.23110572,0.25348917,0.17872606,1.5617547,0.26536253,-0.040216148
contrat,1.8710204,0.7789814,-0.017376669,-0.4777675,0.15157433,0.34591293,0.54373145,0.40013716,-0.9902924,-0.8529779
contrats,0.5775415,0.7976292,0.5619228,0.053816725,0.24650626,0.22830415,0.6336948,1.9492389,-0.79792666,-0.43754616
contribue,1.0791887,-0.26946872,-0.06326259,0.21647596,-0.2986765,-0.94809127,0.5448311,0.6415422,-0.75940955,-0.7014498
contribuent,-0.0886735,-0.2655148,0.27146223,0.24467583,-0.38489932,-0.45834848,1.3325433,0.98014045,-0.8888905,-0.40596205
contribuer,0.9155322,-0.39974064,-0.22991343,0.40995988,-0.37141615,-1.5808192,0.8901042,0.9400359,-1.6197096,-0.21624504
contribution,1.2512854,-0.30371615,0.06864066,0.3553314,0.52982855,-0.5922878,0.68082035,0.65381074,-0.7263424,0.1041632
contributions,0.89442414,-0.8331275,0.2054904,0.6962187,0.63476884,0.86449313,0.8878554,-0.09490102,-0.87009084,-0.69929224
contribué,0.003604328,-0.3056508,-0.36269274,0.5240504,-0.4627777,-1.6262096,2.375219,0.73379916,-0.38006318,-0.8523846
controverse,0.4372832,0.012936284,-0.051119503,0.30072564,-0.6775507,-0.7273849,0.6605311,0.9716608,-0.8284752,-1.6449713
contrôlabilité,2.0893033,-0.26077342,0.8200668,1.0720812,0.6111554,0.6162221,-0.09132958,1.8107015,-0.82069474,-0.18288615
contrôle,0.83064747,0.14919136,-0.16758831,-0.14253989,0.18070768,-0.11520689,0.72966427,1.4781913,-0.16229631,0.37925747
contrôler,0.38333157,-0.42405465,0.7699974,0.17218843,-0.5631076,-0.24974397,1.0666616,1.5088218,-0.44445288,0.2596486
contrôles,0.5507709,0.3706696,1.2595413,0.36238542,-0.1272911,1.0042505,0.8622948,2.320415,-0.5642428,-0.31952134
contrôlée,0.6047,-1.2953345,-0.84050024,-0.4400748,-0.7183006,-1.29668,1.2806063,1.3315278,-0.38037136,0.75141245
converge,1.9754606,-0.23071438,0.89498746,0.23667766,-0.36009133,0.50085884,-0.29141355,1.7648119,0.50174075,-1.7858415
convergence,1.7501394,-0.089109644,0.83398247,0.58997536,0.5017637,0.11209038,0.10058829,1.4412118,-0.31010556,-0.23109914
convergent,0.34915966,-0.48204312,1.3884412,1.054708,0.5800691,0.8692129,0.13263339,1.9856751,-0.35494375,-1.3694662
conversations,0.6290004,-0.67801976,-0.14484015,-0.22764304,1.1172796,1.0128676,0.82523036,-0.37733853,-1.9640559,-0.91356134
conversion,0.44079432,-0.9751846,-0.14693066,0.25611466,0.73020506,-0.2909515,0.7709446,1.1296871,0.7012351,0.10772569
convient,0.7110102,-0.49209034,1.1059949,0.08529337,-0.44789293,-0.9507689,0.9641727,0.3300078,-1.2454917,-1.3652263
conçu,2.2421834,-0.2781283,0.44166893,-0.9870191,0.4025922,-0.5397313,0.8979429,-0.022822052,-0.11348211,-0.19265759
conçue,1.2498695,-1.3569492,0.041417696,-0.007931773,-1.1902192,-1.5176657,0.54044497,1.0597842,0.07790255,-0.6006523
coopération,0.57298744,1.0527875,-0.6050602,0.25792775,1.4779631,-0.99549854,1.2043774,1.4162139,-0.70049435,-0.73870766
coordination,0.8765439,1.244645,0.433352,0.3347411,0.27602148,0.038455147,1.4706281,0.9464408,-1.097677,-0.86794716
corps,0.59176755,-0.72825444,0.64093375,-0.93432343,1.0188681,0.16164719,-0.14909591,0.75551814,0.069366194,-0.8519766
corpus,1.1551455,-0.9041706,-0.86586225,-0.16009682,0.5131592,0.23349506,0.70649403,-0.2028538,-1.7811577,-0.20647556
correctement,0.40292382,-0.5929536,1.7898107,-0.3184201,-0.6315009,0.055437993,0.9788673,1.5421631,-0.9331442,0.18304712
correction,1.8018928,-0.52872175,0.35597754,0.40004513,0.6660193,0.035564855,0.2980548,0.8765609,-0.35244358,0.2789712
correspond,0.8855732,0.19886777,-0.12055628,-0.4733011,-0.00714154,-0.034475587,0.49518573,0.9267079,0.017706074,-0.7508517
correspondance,0.59191453,-1.1812377,-0.20402128,-0.11099232,1.1895235,-0.16416742,0.28886193,0.14436476,-0.22978899,-0.6008312
correspondances,-0.19776118,-1.3228474,-0.5289775,0.37399453,1.4722096,0.18643634,1.1943294,-0.0037517787,-0.84903324,-0.67152476
correspondant,1.1968002,-0.5026834,0.7836832,0.08135995,0.58216125,0.72453743,-0.32809374,1.234861,-0.5494245,-0.5795359
correspondent,0.59757245,-0.28619152,0.2644815,0.13707832,1.2681081,1.2539213,1.1440676,0.5483837,-0.47216102,-0.035581112
corrélation,0.25586346,-1.067559,0.90130156,0.45696697,1.2936763,-0.48996657,0.66455853,1.4797152,0.39911386,0.12903158
corrélations,1.2815406,-0.27561983,1.544727,0.38600412,1.5993015,0.6510965,1.2317711,0.96161795,-0.5966661,0.5323224
cot,0.9511922,-0.41463697,0.9517891,-0.43281272,-0.20787865,-0.2149491,0.59794325,1.9827195,-0.11112098,0.6670691
cots,0.7637982,0.17198418,0.8728403,0.4809977,0.16248623,-0.23155858,1.1553841,2.3073108,-0.6612262,0.7801156
couche,1.5995766,-1.1018896,-0.24780124,-0.2531039,0.4862035,0.38619882,0.09842556,1.617337,0.90892977,0.16727963
couches,0.80397314,-2.2903774,0.057282012,0.23124138,0.76444477,0.6285241,0.4056023,1.1972061,-0.19490631,0.7114967
couleurs,-0.0238167,-1.2484741,0.21014209,-1.4785873,0.905938,0.12613688,0.8441903,0.4236961,-0.25145176,-0.05421175
couplage,1.7569721,-1.1971439,0.20592564,-0.6167,0.7771776,0.5515857,0.028349683,1.6205679,0.28024462,0.7790593
couple,1.3529553,-0.19927625,0.61041236,-0.17542343,0.33062506,0.6888706,0.12803279,0.26179075,-0.23310547,-1.3929245
couplé,2.71353,-0.6620838,0.6802886,0.10041461,-0.34084338,0.084582895,0.7165395,1.9401375,0.0054079276,1.1256591
cour,-0.30032176,-0.36184806,-1.4002844,-0.5355334,0.3860508,-0.19850586,0.7303436,0.8002867,-1.1310191,-1.1286695
courant,0.9916124,-0.764228,0.17081794,-0.19470978,-0.31952244,0.19371146,0.21372901,0.71680546,-0.061724495,-0.44332495
courants,0.22151168,-0.8867802,-0.047433052,0.14544612,0.92714864,-0.34553924,0.70429987,0.30387253,-0.76329803,-0.45828995
courbe,1.6742742,-0.45541027,1.0621393,0.328193,0.15343338,0.4478751,-0.448977,1.4044892,0.11677923,-1.3105676
courbes,1.3790103,-0.7899999,1.3904684,0.9869023,0.42801464,1.3402756,0.14891022,1.2640542,-0.4099749,-1.0352068
courbure,1.6116298,-0.63273937,-0.004359225,1.5746359,0.74186844,1.0852851,-0.08116174,2.803887,0.46852434,-0.90487003
cours,0.6437491,0.18350275,-0.557705,-0.66045237,-0.026650403,-0.063021734,1.5830972,0.37381768,-0.7507559,-0.063526124
court,1.0921078,0.45925158,0.23405069,-1.089065,-0.18209349,-0.6403513,0.58172727,1.4886839,-0.6236502,-0.004966679
courte,1.0752155,-0.891626,-0.56136125,0.24844924,0.551378,-0.684532,1.0476817,0.859718,1.0982164,0.0110470485
cp,0.6087607,-0.6643544,-0.04799019,1.0585685,0.04271614,-0.5871181,1.3531501,1.286907,-0.6720496,0.63741416
criminelle,0.67951196,-1.3962977,-2.0728865,0.21559286,0.19239993,-2.1103024,1.0738434,0.6648848,-1.7094935,-0.70000714
crise,0.6975008,0.50531155,0.19387558,0.27852714,0.30682793,-0.75915647,1.1072859,0.777194,-0.010201831,-1.1415241
crises,-0.21915011,0.17119515,0.24394181,0.6433793,0.3198373,-0.17144747,1.4472895,1.0731912,-0.07411182,-1.1364387
cristal,1.771213,-0.9351691,0.4255012,-0.7464176,-0.010033524,0.017742537,0.14788018,1.530673,0.8891096,-0.0266761
critique,1.0109851,-0.94192785,-0.21935833,-0.20916133,0.579786,-1.1122767,0.35572287,0.14419606,-0.40654507,-0.9208094
critiques,0.21951583,-0.7105664,0.36696357,-0.023982033,0.69931513,0.026495015,1.02806,0.14570874,-0.46398616,-0.4504948
critère,2.3076644,-0.3967722,0.7485013,0.040927548,0.72120994,-0.19789872,0.25629383,0.52061784,-0.23242643,0.05429525
critères,0.88561046,-0.4438579,0.42435163,0.4487529,1.222227,0.0050598215,0.4335347,1.021229,-0.6136057,0.23014005
croisant,0.57380724,-0.87795085,-1.2957195,0.30358404,1.7890751,-0.52263653,1.0758127,0.28472725,-2.1482024,-0.0921906
croisement,0.32408774,-0.75614107,-0.46414164,-1.1884307,1.4268364,-0.46276638,0.7553481,0.14972316,-1.4329456,-0.30085632
croissance,1.1565038,0.52952224,0.009930962,0.47507632,0.08266111,-0.48220772,1.4629687,1.8501009,0.5049147,0.19269699
croissant,0.77655524,0.8390546,0.7192054,-0.26298064,-0.039884765,-0.64933157,1.9614085,0.7198491,-0.84526086,-0.51515526
croissante,0.17842244,0.41972256,-0.21331477,0.40685815,0.8127919,-0.27725023,1.1155652,1.1868865,-0.27219722,-0.55556804
croisée,0.359763,-1.08962,-0.8470436,0.5584548,0.14090158,-0.76026154,1.1151704,0.20688142,-0.9378124,-0.45605746
croyances,-0.11647201,-0.3360776,0.11457519,0.1538863,1.0642617,-0.062042043,-0.052240096,1.1208129,-0.516168,-1.4754306
crucial,1.8653337,-0.06307829,1.052944,0.27302766,-0.048820145,-0.362179,0.7382562,0.7760635,-0.27360302,-0.17575024
cruciale,1.0460777,-0.12553585,0.07573638,0.6105897,0.786233,-1.0145179,0.795718,1.0605298,0.15318519,-0.31521606
créateur,0.384133,-0.80515873,0.49248984,-1.9630709,0.45838735,-1.2349283,0.39191878,0.88594306,-0.45456725,-0.90677595
création,0.28412014,-0.3932656,-0.4365215,-0.7887499,0.3418898,-0.8022526,0.42713985,0.8203877,-0.8253386,-0.39050576
créativité,0.55104744,-0.10736688,0.8477826,-0.85753727,0.9610892,-1.4949883,0.29838043,1.3429624,-1.6756084,-0.26750475
crédit,1.4152099,0.93188477,0.20725147,0.68784493,-0.1512275,-0.47051856,1.1066773,1.6986451,-0.41562575,-0.19083332
crée,0.11171335,-0.3334659,-0.21381101,-1.3135705,0.34994838,-0.18514174,0.5396382,0.7962737,-0.4197517,-0.61141586
créent,-1.0462568,-0.8991368,0.4043109,0.014487314,0.7292938,-0.49939442,1.1339356,0.9947079,-0.67640954,-1.1010529
créer,0.24885857,-0.6501024,0.3914099,-0.6739935,-0.16929626,-0.605716,0.25725362,0.9995895,-0.994164,-0.40411374
créé,0.70013076,0.3563639,-0.7793469,-0.16839182,-0.48947847,-0.39599276,1.7505527,0.28827056,-0.99355245,-0.54753995
créés,-0.31693172,-0.88084424,-0.72764486,0.9017592,0.7864481,-0.72936106,1.7868483,0.6388196,-0.23977228,-0.36121818
culture,0.2422784,-0.3828354,-0.091624595,-0.24152026,0.5164941,-1.3968462,0.78816324,0.9548555,-0.1345571,-0.5880182
culturel,0.988547,0.8673129,-0.17331053,-1.1026219,0.5480999,-0.90945995,0.39554042,1.0032957,-1.1620725,-1.3738211
culturelle,0.15691863,0.14273869,-0.54289436,0.10909961,1.1869887,-1.6125367,0.9795271,0.96025753,-0.5824114,-1.3286178
culturelles,-0.7042634,-0.07342551,0.37643525,0.12612145,1.2506013,0.10940282,1.5099069,0.7331501,-1.3996482,-1.2010239
culturels,-0.59782076,-0.26871863,0.02185626,-0.11866639,1.6136702,-0.33573133,1.0791734,1.0001493,-0.8299796,-0.58171856
cultures,-0.33227256,-0.3929424,0.2115302,-0.12908755,1.2830468,0.076005965,1.2523232,0.53547746,-1.147376,-0.36501086
cycle,1.2768708,0.0637199,-0.31938183,-0.37306842,-0.55125517,-0.16403766,1.1073257,1.0381027,-0.16146436,0.33814391
cycles,1.1993858,-0.32494557,0.36009148,1.5418668,0.66129863,0.0281591,0.8940065,1.2878937,0.7433446,-0.67385906
cyclique,1.3131584,-0.7193715,0.6275186,-0.281158,0.24891514,-0.0056119985,0.8065194,1.2852726,0.6400763,0.48479488
célèbre,0.56932855,-0.76400506,-0.4727532,-0.3534227,0.27557555,0.7057699,-0.18033946,0.36337364,-0.5319458,-1.658979
céramique,0.48442855,-0.15456225,-0.6539312,-0.6298885,1.1950899,-0.26933053,1.1011468,0.40770677,-0.4436398,-0.031592764
céramiques,0.19264787,-0.87828803,-0.28918672,-0.44788575,1.2627403,1.1524594,1.2676617,0.2916551,-0.65873593,0.08441547
côté,0.46172887,-0.26002675,0.44837764,-0.5575761,0.30045196,-0.5840039,0.62797165,0.5243109,-0.3873453,-0.66004056
cœur,0.62928456,-0.13568264,-0.083912104,-1.1333008,0.74023,-0.47365668,0.5067784,0.35896632,-0.66464156,-0.84643775
date,1.0350863,-0.11727757,-0.78299755,-0.6259113,-0.004306887,-0.44778484,1.37982,-0.066612855,0.18740872,-1.1270328
davantage,0.38875306,0.4563019,0.67700046,0.46479535,-0.216834,-0.6629443,1.5951394,0.7721556,-0.54439247,-1.0132463
dc,0.3908204,-0.9221723,-1.2468435,0.72864366,-2.1215527,1.0047512,1.5576226,1.5688487,-0.7610923,-1.1707625
degré,1.4814895,0.41542593,0.51116836,0.12637244,0.7419569,0.30010837,0.6560356,1.0097291,-0.18712275,-0.018164141
degrés,0.54351974,-0.32885486,0.35504058,0.4203518,1.6343544,0.13816361,0.3760259,1.1862675,0.13960733,-0.25438982
deleuze,1.47898,-2.0660367,0.17602147,-0.67535156,1.2402465,-0.6833336,0.453396,-0.55302894,0.16503838,-1.4228513
demande,0.9978812,0.18915169,0.5416599,0.35034066,-0.086909555,-0.17989226,0.44126308,1.3739882,-1.163613,-0.05207395
demander,1.2084612,-1.4101675,2.0328486,-0.011487282,0.0070844023,-0.3492761,0.74294883,-0.15772188,-1.2126186,-1.6580187
demandes,-0.6129518,0.3696742,-0.16812758,-0.040596627,0.78315926,-0.33251107,1.0692009,1.5658903,-1.8241849,-0.6803835
demeure,0.9137645,0.16684027,0.45006725,-1.3282111,0.53986084,-0.4911902,1.2195379,0.25265124,0.32439688,-1.1403953
demeurent,-0.7117118,-0.31316423,0.93054336,-0.44735456,0.043000665,0.55321306,1.5888915,1.2154124,0.118395984,-0.96433014
dense,0.93613106,-0.6882625,0.38701522,0.22697738,0.1331328,0.013938665,0.45277658,1.0227015,0.97256505,-0.8617259
densité,1.1588807,-1.1237348,0.24505283,0.03739694,0.053183038,0.34226006,0.33643427,1.4899647,0.46703452,0.25451374
densités,0.7835904,-0.99449223,0.57488483,0.82786477,-0.12849823,0.9524308,1.083864,1.2573733,-0.74185073,0.37649116
der,0.4929672,-1.5997955,-1.3271694,-0.22579643,1.110005,1.9493567,0.49142528,1.1952628,0.92634624,-1.680096
derniers,-0.00746114,-0.09601866,0.56747407,0.20149283,0.7541912,0.5401121,1.5944647,0.38878646,-0.6729001,-0.62797534
dernière,1.4042617,-0.60681754,-0.25135863,0.31014088,0.97458017,-0.26642632,0.44211605,0.083857335,-0.14753987,-0.6635764
dernières,0.13730389,-0.09478362,-0.26594594,-0.2053062,0.6178934,0.5312059,2.056187,0.008336467,-0.437139,-0.6969047
descartes,0.89973307,-1.3099641,-0.16255166,-0.76228374,1.2522379,-0.0077148755,-0.090157524,0.04064373,-0.063278206,-1.0613052
description,1.3873843,-0.9509359,0.41887745,0.4573908,1.2685301,-0.6968276,0.36453426,0.5215141,-0.18081982,0.041905917
design,1.3582681,-0.59327954,0.3867202,-0.4527389,-0.18231039,-0.92208564,0.18494268,1.0153022,-1.2056712,0.24777505
dessin,0.85857,0.27142504,-0.6206081,-1.8162131,0.42299703,-0.8928641,1.6940389,0.37587756,-1.1594193,0.19350171
destin,0.28461212,-0.28043687,-0.090352364,-0.8424043,-0.19298846,-0.8170955,0.848048,0.681557,0.16783561,-1.4926277
destination,0.3704084,0.66010785,0.46937582,-0.27362686,0.67532796,-0.53263444,0.69301635,1.069231,-1.0976421,-0.80261725
destiné,0.81401765,-0.6863359,0.628806,-0.8415214,0.1311073,-0.547556,0.3320935,0.48230723,-0.968458,-0.1635986
