aborde,-0.16651386,0.113384426,0.09073735,-0.34480935,-1.2383022,0.11066479,0.61563027,-0.22176412,-0.26067576,-0.20792991,-0.17415814,-0.12033942,-0.21201484,0.14130147,-0.26170307,-0.77204996,0.93229717,-1.274239,0.22165735,-1.3520255,-0.817059,0.9889456,-0.71117675,-0.5119728,0.6391972,-0.0540291,-0.005953204,0.15717809,-0.58436,0.2934204,0.5682159,-0.5451211,-0.04453696,-1.0744104,0.3054505,0.5593259,0.24307945,-0.18749687,-0.18130562,0.42735744,-0.034420248,0.39342004,0.1421977,-0.15827917,-0.27184165,-0.72580343,-0.06529618,0.48291373,0.7271625,0.66715634,0.08531405,-0.6503304,-0.5183259,0.19352771,0.45945597,0.21654068,0.3813235,-0.34947032,-0.17817646,0.4849127,0.76177853,-0.59926754,0.2811759,-0.010171428,-0.13797247,-0.55729866,0.43272159,0.120252304,0.097985215,0.12949072,-0.083292186,0.45286977,1.4835676,0.6168876,-0.19254252,-0.016631547,-0.40977764,-0.0336298,-0.8258298,-0.6301953,-0.100844435,0.041113026,0.034671634,1.0567124,-0.12744853,-0.7543445,-0.32065365,0.017387085,1.4255009,1.021476,0.15942833,-0.0082006715,0.21262912,0.045429993,1.0565008,0.1673924,-0.1962386,0.8532552,-0.0330571,-0.46831825
aborder,-0.4319223,0.8356172,-0.2251318,0.21835652,-0.36689326,-0.35140777,0.5428864,0.68278193,-0.19458538,-0.6033331,-0.016521676,-0.53519833,-0.08261248,0.21814083,0.13071355,-0.3157034,0.42961472,0.07388697,-0.1066626,-0.39222234,-0.81156564,0.2208524,-0.7046541,-0.8300328,-0.15143056,0.15033881,0.18827632,0.07022266,-0.9544164,-0.21306124,0.2759727,0.5219157,-0.23355903,-0.29022646,-0.6361535,-0.27470577,0.4737151,-0.28976142,0.087075755,0.18204315,0.15724412,-0.3306236,1.0130844,0.8649442,-0.5629342,-0.3216801,0.40261957,-0.11772339,0.41827083,0.20589036,-0.03548332,0.26638693,0.37803248,0.6026395,-0.059445795,0.047246207,0.38011298,0.48148054,0.1439497,0.21744552,-0.48323813,-0.3274719,0.599545,-0.21835682,-0.58389723,0.12294563,0.32861146,0.72849655,-1.2086378,0.5025306,-0.010356653,0.28774282,0.8915018,0.46501118,0.24463572,-0.38684407,0.6046635,0.0042961882,-0.82314306,0.40879387,-0.50373626,-0.109205574,0.7394923,0.35711697,-0.346057,-0.15089431,0.37307313,0.33468768,0.20939866,-0.1041348,0.8383342,0.15936251,0.5933753,0.18087259,1.0515211,0.27232692,-0.19481018,0.6047471,0.27389163,-0.06556757
abordons,0.6787117,0.34044084,0.12193388,0.032158587,-0.7527641,-0.26698855,0.24854289,0.34889224,-0.76382256,-0.004516217,-0.29274735,-0.70347595,0.22550501,1.2235932,0.7588758,0.024155924,-0.090447046,0.6400439,-0.20173207,-0.81942993,0.21515912,0.31866843,-0.29117036,0.15956795,0.61790425,0.6243249,-0.32525167,-0.10991434,-0.4461564,0.16766703,0.36904013,-0.45666465,0.20397201,-0.5756968,-0.13961567,0.38923192,0.45289382,0.09203624,0.44690803,-0.32220677,-1.0966748,-0.7344028,-0.14174913,-0.037390452,0.17240196,-0.089097664,0.107997596,0.11572206,-0.0040238746,0.072181426,-0.13343939,-1.0406387,-0.3238256,-0.1850761,-0.101533666,-0.09249751,0.23891254,0.23779161,0.38502955,-0.7622689,0.070633925,0.46654856,1.1692033,0.41183674,-0.7239782,0.09244222,-0.0027825655,0.037744716,-0.025265208,0.045588024,-0.3989766,0.008210864,0.80233157,0.36797237,0.06555208,0.1744503,-0.09057844,0.49242082,-1.3129296,-0.6836605,-0.2052737,0.36940706,-0.18865693,1.6831226,-0.11169138,-0.30064934,-0.3034107,0.17813745,-0.48688895,0.5936529,0.5325715,-0.2296799,0.9112483,0.37525496,0.7711251,0.19931528,-0.04259428,0.048239227,0.18119778,0.3782396
abordé,0.16420631,0.44834286,0.6056274,0.015280988,0.058348015,-0.33027515,-0.12444935,0.3966649,-0.36096993,-0.63183564,-0.06427523,-0.35706678,-0.0666364,1.015283,0.60259974,-0.768433,-0.09759871,-0.097124375,-0.38858762,-0.66677654,0.438098,-0.012611325,-0.49018696,-0.08424943,-0.5637359,-0.081540644,-0.44392228,0.56880546,-0.508346,-0.3008692,0.07254649,-0.4583848,0.37330428,-0.6744833,0.35572013,0.35022697,0.41021627,-0.72180563,0.010751494,0.89035195,-0.10414426,0.09501449,0.1300134,-0.20225945,0.23814128,-0.06370832,-0.12331313,0.2995467,0.61917746,0.22294565,0.19342883,-0.38329953,-0.28374743,-0.19028278,0.47001186,0.06323165,0.23948134,-0.07418355,0.46018088,0.45448285,-0.1380979,0.50694424,1.4787987,0.47133297,-0.30699593,1.4704953,0.06971905,0.13855904,-0.39838153,-0.06330007,-0.43627623,0.10754096,0.13282767,-0.0121484175,0.92368567,-0.008206421,-0.75451726,0.076640494,-0.30939606,-0.7973472,-0.7899628,0.5608429,0.061939385,0.66796476,0.19174905,-0.4465485,0.49336866,0.0654272,0.44108158,0.068095855,0.74563706,-0.23014747,0.26097775,0.5241351,0.48710337,-1.3025513,-0.3727887,0.44555902,-0.23551263,-0.18753086
aboutit,-0.36050224,0.28083104,-0.82230717,0.32020107,-0.7656106,0.71022606,-0.5291497,0.48745134,-0.19238028,0.065094374,-0.31616136,0.117733486,-0.32240888,1.0354972,0.68892163,0.051401705,0.40523043,-0.027307762,-0.21621032,0.670798,-0.5758431,0.7678204,0.8670912,-0.04953463,0.47878635,-0.61052763,-0.3291983,-0.064532526,-0.21497713,-0.45321375,-0.053053185,-0.44939038,0.7467546,-0.05442577,-0.038457107,-0.660196,0.14621128,0.021978151,-0.3137857,-0.35220534,-0.19224828,-0.60616785,-0.35744876,-0.23669705,0.24635124,0.019043379,0.17896628,-0.13453615,-0.053378943,0.35955375,-0.33357435,-0.3336697,-0.53190345,-0.05859658,1.0500051,0.7123323,-0.11523065,0.26815465,-0.21927796,0.10086338,-0.11429221,0.4999286,0.3062772,0.33651596,-1.7780975,-0.9609424,-0.09214385,0.22006904,0.085620694,0.4143369,-0.110970415,-0.0719694,0.17595452,0.631777,0.7959819,-0.12371271,-0.09484489,-0.0046873773,0.254475,0.008469518,0.376002,0.63542587,-0.22516447,0.75987655,-0.20046546,-0.05616283,0.073615566,0.16276878,0.20953524,0.48274916,-0.12510782,0.22907679,-0.17298798,-0.78012544,1.1311007,0.3505552,0.8332569,-0.28864995,0.712339,0.6329658
absolue,-0.11417826,-0.21395084,0.13851982,0.73655623,-0.35329273,-0.4876651,-0.27771387,0.92445636,0.060769677,-0.15117148,-0.27743977,-0.38816887,-1.0048732,0.4135721,-0.4146319,0.3008782,0.31503424,0.35219315,0.19615217,-0.62192607,0.5624194,0.83732766,0.5195632,-0.73667353,-0.47047523,-0.29604363,-0.65888155,-0.70899886,-0.96682185,-0.12328782,0.54509276,1.0384669,-0.07815618,-0.17124084,0.053981762,0.22127278,-0.13970076,0.3065993,0.80002695,0.23375723,0.266908,0.8645092,-0.20694862,-0.0779369,0.80553687,0.443028,0.34503302,-0.23703162,0.6401527,0.32005647,0.97264826,-0.48869696,-0.6379114,0.15428393,0.36673895,0.98269594,0.17743441,-0.12011243,0.49890432,-0.4405813,0.20475551,0.26639128,0.39646587,-0.18889011,-0.38570786,0.9284498,-0.24253222,0.2867181,-0.25727513,0.24934207,0.24303976,0.16320093,-0.2568155,-0.4180503,0.06831964,-0.6446201,1.0521227,0.06337892,-0.3742383,0.33834326,-0.78920996,0.3171336,0.03304313,0.7889939,-0.07852564,0.4575779,-0.6375595,-0.090662315,0.18808854,-0.0946388,-0.18440908,0.4050513,-0.054170687,0.39307636,1.0233524,0.1401052,-0.70976204,-0.36531067,0.21005248,0.10538131
académique,-0.12822199,-0.110013634,-0.7208201,0.06621138,-0.17610966,-0.97752804,-0.26835537,0.6264308,-1.2796252,-0.89182454,0.168105,-0.30297124,-0.528303,0.38799435,-0.30678457,0.046252046,-0.7570551,-0.35422286,-0.5546559,-0.016817281,0.21523903,0.74879,0.8089181,0.4032544,0.38777697,-0.04618414,0.0947978,-0.30185467,-0.09178387,0.3901282,-0.50557554,0.068252854,0.20523718,-0.23110421,-0.40121073,0.35331795,-0.25499403,0.17819434,-0.23099431,0.017500022,0.14105636,0.32818735,0.4065293,-0.25744358,-0.41998735,-0.84421927,0.6421711,0.3172064,0.44000092,0.7469088,0.25248784,0.33073103,-0.7903929,0.25795993,-0.38945866,0.71350104,-0.12900206,-0.2263517,0.45610285,0.012031333,0.49296755,0.28534773,0.43790597,-0.3206314,0.60879153,-0.4499744,-0.5857658,0.58708656,-0.90196925,0.696307,0.2716233,0.7627752,-0.38810587,0.59566474,0.91113067,-0.023940617,-0.087246284,-0.69567996,-0.32828513,-0.38045,0.27686507,0.35432562,0.503975,-0.20842318,-0.44072396,0.5001019,0.3773511,0.12047571,0.59450907,0.5341438,-0.06962305,0.44554308,0.4608483,-0.0033738364,0.5007181,0.1653727,-0.388362,-0.03821785,-0.13089387,-0.037525978
accord,-0.98125285,0.6678624,-1.1949399,-0.20530237,-0.5619654,-0.5871757,0.12990011,-0.10582304,-0.04669578,-0.51817966,-0.059168916,-0.12762813,-0.95063645,0.3345778,-0.351253,-0.6295126,0.7503963,0.080074936,0.084330864,-1.2275403,0.063669786,0.14990124,0.15245299,-0.23910692,-0.936295,0.97273165,-0.32130298,-0.40066108,-0.06681973,-0.053634744,0.44101712,0.29175174,0.15051123,-0.292423,-0.45181212,-0.059711482,-0.38251004,-0.7566491,-0.07820895,-0.99830043,-0.27364194,-0.56239307,-0.13749442,-0.22484942,1.0459944,-0.9487107,-0.84654516,0.037874628,-0.51993734,0.64397985,0.54331416,-0.29166698,-0.05878445,-0.60471416,-0.069864824,-0.13700247,0.52881426,-0.0030774039,0.98720884,-0.00036495354,0.31642964,0.2916138,-0.1038653,-0.8399118,0.06665055,1.7222257,-0.25454086,0.10694748,0.25422636,0.25322145,0.14264698,0.1348778,-0.31182733,0.0014739662,0.21268535,-0.23599371,-0.19949923,-0.097342014,-0.69500345,-0.06887122,0.10378772,0.24806207,0.027252585,-0.045612175,-0.02549498,0.5705698,-0.035076577,-0.06358816,0.45902845,0.5604673,-0.3624802,0.34443367,1.1724842,0.070637405,0.72783524,0.06239324,-0.3804036,0.8392588,-0.17088458,-0.38601992
accords,0.10417135,-0.81973636,-0.6035251,-0.5374305,-0.54265016,-0.7591371,0.43246046,-0.71446574,-0.90869576,-0.7442321,1.0812001,-1.0542766,-0.29928738,0.45276988,0.39806592,-0.29794136,-1.176777,0.36390364,-0.27115515,-1.287527,-0.10006097,0.8979367,1.0330595,0.06816115,-0.25518087,0.08084928,-0.16469498,0.94458264,-0.16578062,0.2162359,0.105753824,0.10912192,-0.09425499,-1.0335147,0.49191463,-0.69967467,-0.08979013,-0.21355778,0.2854006,-0.65116435,0.21190593,-0.10351248,-0.51836044,0.43401334,0.7836457,-0.5877641,-0.5908375,-0.1726495,0.791891,-0.40536037,0.56996894,-0.6207981,0.75046575,0.79324657,0.7616978,0.6430512,-0.1336245,0.6910334,0.3035253,-0.6194315,0.38200012,0.49624103,0.3166334,0.20084135,0.21639726,0.8008114,-0.3280778,0.19077192,-1.3899101,0.4906761,-0.10052485,0.14972784,0.9441414,-0.91531456,0.51270616,0.7438482,-0.63730645,0.05311044,-0.45464715,0.2793872,-0.4935416,-0.5170924,0.39131758,0.071068496,0.15832323,-1.3925375,-0.48310736,0.5554988,0.55479485,-0.05182994,0.5975947,0.077610604,0.94909513,0.65155536,0.122073874,0.437831,-0.12754488,0.64263356,-0.6039796,-0.09723069
accordée,-0.31323287,-0.24322316,-0.58427566,-0.9213863,-0.3932331,0.19377331,0.32933313,0.3103509,-0.36868572,-0.8911178,0.92424625,-1.0197743,-0.3593552,0.51558656,1.2379564,0.25761163,0.83699036,0.17396578,0.39484173,-0.4246419,0.70770687,0.04096309,0.74790037,-0.14663221,0.12395937,-0.12331055,-0.6265247,0.24495049,-0.3722633,0.26455265,0.87032574,0.40232763,0.38031948,-0.3388226,0.11344175,0.25350535,-0.22027177,-0.98357874,-0.6851247,0.18889244,-0.9285403,-0.45071504,-0.1632465,-0.21622695,-0.5739891,-0.40744606,0.26056615,-0.2937457,-0.22642103,-0.9026644,0.5621059,-0.13092871,-0.6081091,-0.08642328,0.09339645,0.77602077,-0.28217268,1.0640321,-0.49616298,-0.6741642,-0.08208727,-0.14781992,0.2859324,-0.21712737,0.15926474,0.16494852,-0.37235343,-0.3237359,0.046943225,-0.59533393,-0.9722017,0.17543001,-0.24018097,0.38002202,-0.0014670615,0.5525433,-0.31443453,0.12939532,-0.26269624,0.20393129,-0.73061085,0.67816156,-0.047678623,0.8270052,-0.2568353,-0.2287424,0.75184643,-0.5417767,1.0656263,0.6455367,1.0466758,-0.16031085,0.13852657,-0.44739497,0.79790485,0.3881822,-1.0610448,0.40746045,0.7250459,0.09503507
accrue,-0.31481937,-0.6571946,-1.5223237,-0.830392,0.59485817,-0.21965745,-0.24368022,-0.04979318,-0.266344,-1.0009749,0.08696941,-0.37367746,-0.42250264,1.0225035,0.30272743,0.70394796,0.2998805,-0.5996953,0.21757765,-0.44339862,-0.7627546,0.28217897,0.4712535,-0.26985192,-0.2701845,0.27762046,-0.57542235,0.3981644,0.14111798,0.4212208,-0.50100064,-0.08687562,-0.2563861,0.006104569,0.026768882,0.42020082,-0.365324,-0.758945,-0.08234335,-0.21060608,-0.47493207,-0.5899031,-0.65215147,0.90754646,0.12317476,-0.038700014,0.011253313,-0.5421818,0.43729362,0.045575116,0.2947644,1.4649363,-0.34272927,-0.63375527,0.9176752,0.39766654,-0.047255803,0.6753448,-0.5940717,0.49726176,0.10251597,0.33702874,0.6418397,0.18740115,-0.23308241,0.3534145,-0.081433944,-0.50792086,0.27079713,-0.88233095,-0.40898776,0.1729625,0.6308797,0.23859335,0.34285226,0.5171204,-0.348022,0.056588363,0.027497912,0.109096274,-0.5519713,0.07115377,0.32237896,-0.13093638,-0.34787303,0.07652661,-0.076557174,0.6106715,-0.091417134,0.4420143,-0.055346143,0.20423171,-0.2049225,-0.71796846,0.53714037,1.2147547,0.11937963,-0.5779605,0.3888872,-0.17871496
accès,-0.63840425,0.07763713,-0.8991594,0.21273485,-0.016730199,0.14482664,-0.238059,-0.118379265,-0.25733,-0.6901932,0.5370109,-0.25193432,0.33201078,-0.07036427,1.3359529,-0.5293194,0.2945066,0.26699746,-0.12622227,-1.1033118,0.10506836,0.6523627,0.48550043,-0.5153838,0.6186192,-0.46518195,-0.4459661,-0.025792707,-0.2513552,-0.44452405,0.19328831,-0.36955464,0.37942478,-0.13852483,0.9742521,0.82832205,0.32919154,-0.8921033,-0.38463637,0.025445769,-0.052098043,-0.9321557,-0.27541214,-0.30572012,-0.38767666,0.9898205,-0.15729369,-0.405684,0.12987997,-0.109120056,-0.032364957,0.43690994,0.31228262,-0.29324967,-0.48577723,-0.38262528,-0.34400186,0.21206158,-0.5499308,0.05559029,-0.061440587,-0.5220598,0.2780333,-0.18092884,0.5387225,1.36788,-0.14629336,-0.55581146,-0.3160116,0.7396462,-0.072249174,0.32730353,0.28987014,0.22651877,0.726751,-0.14214315,0.476109,0.17352563,-0.123010136,0.74107367,0.2688255,-0.007910525,0.49330387,1.0974618,0.029668009,0.26528028,0.9984819,-0.15356876,0.80761904,0.43749988,-0.10414116,0.43982834,0.34284058,-0.6143389,0.43620676,0.3250586,-0.65327084,0.012902288,-0.21333042,-0.19079551
acoustique,-0.14688621,0.051177096,0.29152554,-0.91236097,0.19048886,-0.12195931,-0.17259066,0.3424073,-0.23922838,-0.34862328,0.61984295,0.3557113,0.21812198,-0.02717212,0.4785831,-0.26720804,0.54891837,0.20834798,-0.85194314,-0.13956746,0.50634086,-0.25795218,0.3636791,-0.9319251,0.4557743,0.49283737,-0.6529234,0.033105083,-0.3450165,-0.12632087,0.6145776,-0.53496176,-0.115854554,0.1888075,-0.042636305,0.56480896,-0.7499883,-0.6048979,-0.28575295,-0.38030574,0.4458704,-0.71682423,-0.50257176,0.17673276,-0.25937334,-0.04892655,0.4666024,-0.18489096,-1.1144304,0.023266679,-0.13643269,0.063482806,-0.6836237,0.4164977,-0.36236408,0.16066289,0.037060536,-0.12926354,-0.826608,0.026590886,-0.9012934,0.49049932,0.65429527,1.2092092,-0.0040338975,0.44177267,0.4909944,0.2680628,0.58603996,0.019434204,-0.15944536,0.23716816,-1.0057876,0.59218645,0.3937347,0.51672107,-0.27126265,0.11625455,-0.78982323,-0.487952,-0.019740839,0.5379926,0.5118585,0.8240499,-0.8442746,0.2519987,0.90919226,0.41619262,1.0026459,0.7910737,0.25298476,0.17997526,0.26885635,-0.28120258,0.5114713,-0.17161153,-0.007965418,1.2230809,0.8590527,-0.843454
acoustiques,0.5604756,-0.08621351,0.5700574,-0.79444385,0.78380555,-0.01947211,0.047485374,0.8518442,0.20634383,-0.6237889,0.0445207,0.8422241,-0.25451118,0.2805581,0.7578944,-0.5981117,0.24880782,0.2550927,-0.60685295,-1.0843945,-0.07422396,0.54828966,0.5523409,-0.2205212,0.79746175,0.7659699,-0.299415,-0.44852984,-0.7475085,-0.19925587,-0.08057536,0.054390617,-0.19186185,-0.7275235,0.336173,0.7853136,-0.34111333,-0.71607107,-0.74079823,-1.0782899,0.27637833,-1.1134225,-0.57665473,0.31787008,0.33669993,-0.9185524,0.6279631,0.49862522,-0.62492996,0.18353635,-0.13247558,0.6067377,-0.24491242,0.5398782,-0.7865961,-0.38703677,0.13562804,0.6501585,-0.84295243,0.31136513,-0.24480897,0.13514462,0.62984324,0.77945423,-0.92582726,0.8166488,0.09107941,0.098673195,0.547738,-0.19647141,-0.1612741,-0.52417195,0.324216,0.5045623,0.54358894,1.1344341,0.24154077,-0.108329736,-0.5835176,-0.02603744,-0.53116894,-0.34520465,-0.38465753,0.20670874,0.14243162,-0.6731566,-0.21171726,0.9374965,-0.09008825,0.30130702,-0.037256405,0.27903625,-0.030981787,-1.3369395,-0.018968672,-0.47444347,1.1359903,-0.6805036,-0.087678105,-0.6295954
acquis,0.33316395,-0.009838269,0.16848767,-0.19937612,-1.359252,-0.11014254,0.4252443,1.2617095,-0.2814683,-1.1812404,-0.39465356,-0.53331524,-0.5420541,-0.30385053,-0.1678728,0.18322048,0.785783,-0.6544533,0.15797666,0.19661225,-0.10559287,0.45450628,-0.098859295,-1.140379,-0.2735451,0.46653166,-0.051707834,-0.32408428,-1.3284994,0.029574402,0.40701222,-0.49433166,0.2103429,-0.07408196,-0.74449474,-0.80885816,0.32458478,0.3576684,-0.5050259,0.25576147,0.98905444,-0.25225097,0.09978301,0.0678093,0.21347623,-1.1397128,-0.6033593,-0.18797058,-0.37293243,0.65218323,-0.014184425,-0.2950057,-0.123986766,-0.3368533,-1.1839029,0.5798671,-0.1740744,0.3558057,-0.85540503,0.7815041,0.06718843,-0.23272806,0.19349235,0.504696,-0.4465051,-0.4976314,-0.6568172,0.5871114,-0.35074216,0.6106079,0.12532882,0.7132223,0.6282426,-0.062433966,0.46036148,0.46607676,0.28217134,-0.048851624,0.28325397,-0.20050512,-0.17967974,0.57945794,0.08743804,-0.15658788,-1.0043888,-0.15702575,0.6267593,-0.22446816,0.62451535,0.41868556,-0.21823008,0.07205781,0.25116852,-0.33944157,0.41553748,0.5755433,0.24178219,-0.36896893,-0.6340189,0.267961
acte,-0.7309193,0.36173907,0.030623887,0.7720538,0.7457273,-0.6647398,0.2848609,1.581099,0.42299235,0.081262775,0.67847925,0.5179132,-0.008291786,1.6346418,0.1618096,0.07367328,1.1053103,-0.2585521,-0.41063794,-0.56445843,0.31274897,0.31597257,0.7858942,-0.6241318,0.011628136,0.103344284,-0.6840347,-0.12733203,-0.0806007,-0.6348524,-0.08122041,-0.58274674,-0.11735312,-0.38619688,0.06064983,0.73578405,-0.6049024,0.11563291,-0.8909519,0.4055334,0.14210398,-0.62625676,-0.57385814,0.2101285,0.44896358,0.34928015,-1.002378,-0.17858617,0.40233314,0.4404772,-0.4324609,-0.19485377,0.09694372,-0.64180624,-0.13592808,0.58075625,-0.5342907,-0.15847565,-0.78871804,-0.030677881,-0.039774135,0.36582747,0.483839,-0.5989127,-0.16046242,0.008210012,-0.007601091,-0.09015015,0.44421425,-0.45510525,0.37590998,-0.20078811,0.34381,0.6383066,0.6476886,-0.06344635,-0.36830512,-0.47448954,-0.19830833,-0.24569088,-0.20857292,0.7066909,0.27794576,0.3942381,-0.14833535,-0.37486205,0.1965299,-0.010206235,1.0938733,0.1855563,0.016486676,0.08196302,-0.12540194,-0.38230708,-0.23814413,-0.30130675,-0.10949047,0.212237,0.25972784,-0.13299409
actes,0.05183359,-0.3460307,-0.49304315,-0.3097676,0.0052477987,-0.52230567,-0.18262611,0.44400713,-0.41598365,-0.004969987,0.45848948,-0.50699466,-1.1119576,0.4724448,-0.42056775,-0.13490033,-0.17107078,-0.102159195,-0.40919432,-0.7428179,-0.26377243,0.41344905,0.94087774,-0.92627645,-0.0077056563,0.8527363,-0.41886604,-0.6251963,0.19076307,0.36372206,-0.50840414,0.30698863,-0.26445866,-0.6747066,-0.60366493,-0.48018727,-0.21631077,-0.003915421,-0.26267752,0.16082343,0.2213048,-0.8829238,-0.35227734,0.021212328,0.7145535,-0.93406945,-0.59044486,0.014047784,0.034036953,0.74189746,0.7566093,-0.18067175,-0.1637893,0.18644437,-0.28835586,0.3450438,-0.2851039,0.04391096,-0.28311256,0.37287924,0.20801692,-1.0294278,0.7950601,-0.09319891,-0.28015944,0.20029873,0.48423275,0.36376363,0.10105337,-0.5845953,0.19723943,0.566574,0.15420036,0.23327865,0.5140257,-0.41030586,-0.3794961,0.25891995,0.66086745,-0.35622108,-0.9551982,-0.84868747,-0.31160733,1.2212425,-0.29903385,-0.26657137,-0.4754004,0.27304053,-0.48542523,0.10827033,-0.2228116,0.4576249,0.8336169,0.13513124,-0.10619146,0.5159116,-0.089087665,-0.21241969,0.683456,0.44040948
acteur,-0.77207136,0.33109382,-0.5646204,0.79440606,1.0210687,0.14234522,0.85029405,0.7343398,-0.47017685,-0.15349756,0.8876084,-0.011365432,0.12047106,0.71765244,0.4276027,-1.514314,-0.34942162,-0.049473025,-0.6852711,-0.396004,-0.92398787,-0.1611629,0.8893247,-0.551292,0.58333117,-0.04022087,-0.7628389,-0.10584094,-1.6083462,0.26258114,0.18767694,-1.3340048,-0.41926926,0.84596723,-0.28672662,-0.038340084,0.040054236,-0.05607428,-0.5131012,-0.31099078,0.7251498,0.05207987,-0.2601807,0.10426328,0.08780121,-0.8510574,-0.13982642,-0.44571754,-0.028532665,-0.1419229,-0.34990636,-0.23246232,0.07079938,-0.54826444,0.20306279,0.37604144,0.8980304,0.5363562,-0.6536688,-0.80174583,-0.9730159,-0.31100944,-0.049140524,0.49747032,0.35620287,1.2744037,-0.23748448,0.16775647,0.5577158,0.8925059,-0.25459594,0.9030386,0.92314845,0.3304478,-0.034911424,0.60751766,-0.3496689,0.023418669,-0.09089613,-0.3394688,-0.60212785,0.0044723377,-0.29218864,-0.5552346,0.49344125,-0.1473136,-0.22844245,0.09600308,0.86451817,-0.14721763,0.058789268,0.5053584,0.34902352,-0.43901423,0.5921661,1.0016,-1.1669736,0.37277478,-0.023838341,0.8506443
acteurs,-0.21302402,-0.36873397,-0.63892865,-0.56757,0.5356991,-0.86517745,0.45431742,0.079693645,-0.34412614,-0.30135927,0.3083199,0.21992958,-0.58862233,0.67241645,0.612658,-0.62873626,0.24902771,0.3252221,-0.3739943,0.28319353,-0.20103455,-0.2278698,0.23773898,0.10332412,0.08075735,-0.006527772,-0.4304142,0.6611343,0.082844034,-0.43142417,0.709572,-0.4742925,-0.39503637,-0.34487423,-0.364995,0.49408647,0.048727136,0.06512878,0.18869452,-0.040686592,0.23625638,-0.5009473,0.09341062,0.63570493,0.9089591,-0.78425807,-0.08049405,-0.5223265,0.78858423,0.37245816,0.74282587,-0.14863434,-0.40573844,-0.46160394,0.29754865,0.22683929,0.17547293,0.47382462,-0.7479834,-0.065278955,0.2395712,-0.7445442,0.5224547,0.45053136,-0.4624159,0.5627359,-0.18194652,0.5569546,-0.7107509,-0.49943402,0.20855552,0.44780537,0.6420863,0.47425488,0.15302245,-0.018113673,-0.17930192,0.29550165,-0.0015362197,0.3110146,-0.94626516,-0.50567853,-0.15861055,0.20339398,0.22702016,-0.090470694,-0.15577015,0.0402751,0.35428786,0.29797527,0.030407013,-0.14614373,-0.26947477,-0.054125436,0.3023174,0.3749242,0.17572251,-0.010859062,-0.71458715,0.16841404
actif,0.36979643,0.21108529,-0.39262512,0.13959798,0.8513385,-0.23049133,-0.44385558,0.6684676,0.81646353,-0.16015452,0.06678545,0.29116237,0.09755341,0.8763975,0.036628585,-0.6379184,-0.6409519,0.5118837,0.07697656,-0.38746154,-0.35770592,0.27706283,0.71326804,-0.61157763,-0.10972666,0.63566023,0.35503194,0.13220742,-0.16597322,0.66812944,0.45249167,-0.58666,-0.089406855,-0.28480035,-0.33363754,0.3118509,-0.78629583,0.25830147,-0.20903845,-0.54077756,0.4373732,0.35789308,-0.20608826,-0.48389804,0.7587337,0.47689158,0.103816435,-0.4332358,-0.4965043,-0.40275452,-0.4153801,-0.50532085,0.08004737,0.0819067,0.7968337,0.2918755,0.5636436,0.66867787,-0.7203312,-0.39188147,-0.52715576,-0.10325748,0.1517062,0.21619484,0.0078073232,0.8569974,0.2007363,0.4040331,-0.14206204,-0.18489398,0.21844643,0.47862798,0.58660346,-0.22578906,0.07505858,0.3059551,-0.9182548,0.3991232,0.36397827,0.1915725,-0.54593676,0.10931144,0.60977966,-0.3567106,-0.6073003,0.86858743,0.020456787,0.70120496,0.01884232,-0.43034986,0.05675364,0.19067557,-0.53839564,-0.4545334,1.2964835,0.28357714,-0.30459127,-0.17408043,0.28092238,0.6190865
actifs,0.6733538,0.110758066,0.30925307,-1.7005504,0.21720941,0.091217,-0.30080408,0.24375264,-0.33193162,-0.33138564,-0.54190475,0.19445737,-0.23824187,0.24075031,0.35838044,0.3284256,0.3619865,0.2020754,0.26792148,-0.78900486,-0.4393203,-0.032096084,0.68803823,0.40165693,0.060087685,0.24813291,-0.45857546,-0.12890455,0.25927538,-0.42582703,0.2906278,-0.21363176,0.17347556,-0.45172253,-0.10152951,-0.1283997,-0.4407316,0.432958,0.3279983,-0.101364724,0.17202437,0.099561505,-0.3056171,-0.099175334,1.1460756,-0.11792375,-0.9608252,0.013444298,-0.6736782,0.29803956,0.035224903,0.4378229,-0.37637436,0.40259427,-0.2067637,-0.2158411,0.021940062,-0.16037953,0.4346304,-0.34235445,-0.37085664,0.5477869,0.14791174,0.36436075,-0.24788241,0.9274,0.010542276,0.1179199,0.9671305,0.3956475,1.0421935,0.72134715,-0.22655454,-0.64442986,0.1835541,0.5343167,-0.79667616,-0.2972932,-0.824202,0.24430826,-0.2929072,-0.16947556,0.09995473,0.22738814,0.44985068,0.05619236,0.2765396,1.367874,0.5678032,1.0836842,0.4916357,-0.061824843,-0.11528588,-0.052530214,1.2224374,0.8835499,0.47845775,-0.19394964,0.23352545,-0.24463953
action,0.53869647,-0.62159634,-0.14036138,-0.4009636,0.6614528,0.3204331,0.5174085,0.1902106,0.11002427,-1.0237529,-0.5258394,0.51253074,0.016952757,0.91146123,0.3312792,-0.19886737,-0.40393615,-0.39877155,-0.07086218,-0.57906806,0.6534585,0.5592536,0.33287758,-0.13255033,-0.15233852,-0.24484564,-0.31762302,0.46264064,0.21661367,0.8713416,0.02502709,-0.32197815,-0.32813868,-0.15407221,0.12935087,0.05915246,-0.8598221,-0.10659974,-0.07876606,0.26630536,0.46333167,-0.33318996,-0.9587252,-0.20161141,0.47523353,-0.8274034,-0.8991073,-1.1085641,0.2063047,0.08606493,-0.037474114,-0.46562558,-0.47320876,-0.15289664,0.29564375,0.7207652,-0.18804929,-0.33384806,-0.36111876,0.81133395,-0.08571046,-0.7576548,-1.0010917,-0.04139916,-0.03845913,1.0382314,0.076314986,-0.104056954,-0.21431673,-0.018291967,-0.2126024,0.2765344,-0.100751996,0.367341,0.15705584,-0.4342561,-0.07276751,0.30928233,-0.10617254,0.11211097,-0.33138496,0.4269716,-0.54127324,0.67763346,-1.1898541,-0.5304636,-0.7795541,0.12723118,-0.29456517,0.37039152,0.508852,0.43345994,0.35924155,-0.16533475,1.1776949,1.4269228,-0.95459175,-0.6937354,-0.25216928,0.7560837
actions,1.3332245,0.045354825,0.37655905,-0.30744225,0.3867362,0.16865323,-0.17191225,-0.12705393,-1.1534917,-0.4640669,0.67387086,0.12567163,0.60467064,0.3199181,0.0009731341,0.05959804,0.34095705,0.03726361,0.09022082,-0.56389713,-0.09921672,0.6705926,0.6447027,-0.5439499,0.16432859,0.12279444,-0.053074673,1.2177715,-0.24171767,0.33807933,0.04678168,-0.75862664,-0.3980616,-0.6637938,0.051751178,0.22947687,0.21379806,-0.12989785,-0.12769143,-0.36189982,0.24722552,-0.3003396,-0.66714156,0.47159207,1.4230566,-0.32583883,-1.208535,-0.1731782,-0.021704838,-0.06722653,-0.4227698,0.2591296,-0.91294956,-0.16029787,0.14160635,0.63713115,-0.47550616,-0.6442914,-0.81754184,0.21407075,0.23427169,-0.75804794,0.577337,-0.18946274,0.07754967,0.66413414,0.06033116,0.86652744,0.2760964,0.1833663,0.18366633,-0.72926676,0.71141404,0.27511603,1.314232,0.30578923,-0.47185826,0.22025244,-0.21141183,-0.341882,-0.62780136,-0.11539602,0.5415647,0.91788346,-0.103706315,-0.35271856,0.01107055,0.7418131,0.18058568,0.19225831,0.07357424,0.1484889,0.007949384,0.21284075,0.3504438,0.39811695,0.435114,0.073129274,0.22513066,-0.12094259
active,-0.29607522,0.025576903,-0.09729402,0.19487017,0.00027297967,0.25199777,-0.7490307,-0.08811734,0.27314433,-0.6195486,-0.86086285,0.54546016,0.015863609,0.061881665,-0.36404136,-0.35595226,-0.37115696,0.19789276,0.16595325,-1.4858954,0.7056322,0.4726783,0.72094125,-0.26644462,0.11429232,-0.3979988,-0.052622672,-0.32391623,-0.16418603,0.86722827,0.08084029,0.15712543,-0.055108335,0.045423497,-0.6516955,0.49275607,-1.0554501,-0.6921167,0.9423707,0.044746064,-0.43525854,0.27015287,-1.1683367,0.107582375,0.08254984,0.2893676,-0.19558665,0.16854477,-0.39749363,-0.071359076,1.2486894,-0.38243952,-0.6711697,-0.7728123,1.0656006,0.22515802,0.68683594,-0.49713835,-0.44791895,-0.58718115,0.11151901,0.9511131,-0.35158983,0.24386255,0.10295785,0.77357984,-0.56574225,-0.34498927,-0.28834614,-0.09025052,0.0114810085,0.23220642,0.76485234,-0.054318715,-0.31221673,-0.0192053,0.12013146,-0.37368515,-0.019105833,0.07345585,-0.96458286,0.20337558,0.41226712,-0.037359513,-0.16364005,0.63479215,-0.009539707,0.39818856,0.55816066,0.39574748,0.65680116,0.44317114,-0.8210257,-0.95978147,0.05803233,1.2870176,0.32534108,-0.68921286,0.81424046,-0.7290722
activité,-0.31431708,-0.3357073,-0.6750588,0.31536388,0.42146036,0.057541348,0.19650602,0.117220655,-0.15838048,0.6320294,0.09148522,-0.3868584,-0.52802163,0.32930377,-0.0985473,-0.12413923,0.6901793,-0.9282568,-0.1945443,-0.553894,-0.19281447,0.7253845,0.57046777,-1.5728405,-0.7165186,-0.40918735,-1.0565505,-0.50197417,-0.3703418,0.10818719,-0.047540702,-0.44512278,-0.88083935,-0.077781506,0.44999367,0.677258,-0.15992032,0.88550466,0.18947448,0.5751629,-0.101124816,0.23462297,-0.5861782,0.2635306,0.06403535,-0.714089,0.05042822,-0.11866321,-0.43384778,-0.76894015,0.20877844,0.84161603,0.029100133,-0.0146269025,0.9180452,-0.15082078,0.6800363,0.12730902,-1.141199,0.3686248,-0.14858316,-0.28598386,-0.044832326,-0.20044896,0.715757,0.4003491,0.30386382,-0.045271803,-0.05236267,-0.2417287,0.030349288,0.27263945,-0.53989905,-0.128014,0.990652,-0.62047786,-0.28428757,-0.15503415,0.01266262,0.29496884,-0.064517125,-0.22342885,-0.021772455,0.05012388,-0.39136663,0.01763604,0.741851,0.28529283,0.916276,0.5552928,0.32743418,-0.3564814,-0.5605594,-0.2331407,0.5979296,1.2232525,-1.1738162,-0.76745933,0.21065725,0.06459079
activités,0.32429853,0.06431246,-0.3138992,-0.72582227,-0.025470976,-1.2608607,0.40035194,0.58680904,-0.707101,-0.4949665,0.34370953,-0.45579234,0.55664945,0.8666076,0.53591853,-0.20082946,0.14087482,0.7035105,-0.7534522,0.009015287,0.8897788,0.33081555,0.69024515,-0.11875215,0.4204993,0.51197976,0.3133011,0.099825785,0.056256842,0.5519843,0.1979687,-0.22642955,0.07041135,-0.029919166,0.40798843,0.24319093,0.014433308,-0.1380297,-0.98883146,-0.5941339,0.0971185,-0.09678125,-0.31773484,-0.03858287,0.90894705,-0.002075368,-0.55983,-0.056408722,0.1549133,0.68498075,0.45825967,-0.4093191,-0.19743799,-0.36838424,-0.15151179,-0.06927463,0.2740226,0.6680873,-0.64082533,-0.28814283,0.09388365,-0.23248173,0.31814167,-0.17588435,0.16932236,-0.20698209,-0.190819,0.31823438,-0.12674148,0.48044276,-0.06477365,0.115722656,-0.21862477,1.2075353,0.52426195,0.93845826,-0.3308238,0.5238939,0.27636138,-0.2580501,-0.2887544,-0.6898596,1.017447,-0.23542045,-0.5075076,-0.25463012,1.0813009,0.10793404,-0.28827828,-0.03898685,-0.5337755,0.14862597,0.37173182,0.6299185,1.0785577,0.37224507,0.40841156,-0.8961148,0.68254167,0.526972
actuel,0.27007917,0.16512738,-0.11859541,0.11140632,0.19708455,-0.47260338,-0.38363189,1.484371,-0.45309842,0.6661838,-0.07968273,-0.40532878,0.36315113,0.012040778,-0.15345755,-0.5050107,0.27593067,-0.17850961,-0.6195398,-1.2456526,0.7347465,0.22210787,0.6374754,-0.43023503,0.13574804,0.79739875,0.11584911,0.39059973,-0.2935161,-0.14121382,0.80080026,0.65285385,0.11004265,0.08636876,-0.054093067,0.32339352,-0.29141647,-0.38590384,0.19066775,0.173207,0.4277189,0.6874124,-0.34506494,-0.381329,0.21948461,-0.45532736,0.38615075,0.13470149,-0.45351025,0.086077586,0.22510262,-0.24637087,0.794241,0.89671236,-0.15993229,-1.0286003,0.0239487,0.15507796,-0.8065037,-0.66690993,0.06745632,0.19950278,0.48704863,-0.41721708,0.21649782,0.24490549,0.12504888,-0.21592325,0.58199966,0.05298684,0.63809127,0.94289404,0.52731174,-0.11600476,0.5604401,0.7036838,-0.399862,0.080860876,0.44453198,-0.30658263,-0.5486838,0.062023737,0.5260066,-0.6031467,-0.0008973644,-0.2938451,0.3858514,-0.5452294,-0.2750609,0.8029887,1.1927724,0.7116565,-0.3921317,0.007486448,1.2245958,0.59429616,0.46277702,-0.17853992,-0.41445652,0.03963832
actuelle,0.12678298,-0.75108904,-0.2659622,-0.13637209,-0.49907362,-0.5171125,-0.5229624,0.45522174,-0.10645053,-0.4714611,0.8196978,0.080301434,-0.7847954,0.07662826,0.06606807,-0.06521562,-0.3871912,-0.36127073,-0.93860817,-0.12484137,-0.037771996,-0.9232297,0.71632516,-0.20822898,0.7031348,0.32334203,-0.43589586,-0.40402326,-0.46333495,-0.8298651,0.5731501,0.23853573,0.09173902,0.06482235,0.14695145,0.6709814,0.12366718,0.20538454,-0.3329321,0.31919348,0.32332674,0.27999288,-0.09094498,-0.18383126,0.11230675,-1.5080609,-0.5129552,0.35466874,-0.12852937,0.036903575,-0.11721554,-0.0143025275,0.097828634,0.62820077,-0.3694639,-0.11303529,0.5364782,-0.22142684,0.027872533,-0.65079033,-0.6202795,-0.7952692,-0.1386275,0.4413485,-0.90729344,0.73947954,-0.40476766,-0.021186437,-0.30232406,1.1803702,-0.1909979,1.1520958,0.36201593,0.07836938,0.025632761,-0.31036663,-0.1532147,-0.45396265,0.16130988,-0.4173541,-1.0823468,0.44354737,-0.5473056,0.24761115,-1.051375,-0.48975295,0.73168933,-0.5167774,0.7154314,1.0804284,-0.2771194,0.11628416,0.54479814,0.3557154,0.08413128,0.8009741,-0.4638237,-0.11594078,0.25859946,0.1690213
actuellement,-0.14193888,0.18849559,0.83724654,0.0318594,0.3033001,-0.82021356,0.24537864,0.8418955,-0.6307296,-0.56390643,-0.5363594,-0.043449387,-0.5761128,0.79671204,1.0095974,-0.74728453,-0.6022518,-0.39811414,-0.61274785,-0.6758568,-0.4610096,0.09714758,0.002730212,-0.09604514,-0.34926468,0.23128295,-0.2660981,0.42144477,-0.3072698,0.03924262,0.4500187,-0.08641135,0.28573814,0.36421472,0.56604457,1.2312348,-0.29919422,-0.08043472,-0.6276144,0.7449599,0.4850716,0.3932295,0.14143382,-0.052359253,-0.4137582,0.39125425,0.10784623,0.24167967,0.12102736,0.02133921,-0.26200065,0.7132703,-0.33266932,0.7638801,-1.0173331,0.26829317,-0.11482746,-0.32611105,0.26105618,0.29148987,-0.06909332,-0.2242357,0.018649468,0.67103857,-0.7641569,-0.024232263,-0.18148012,0.17488211,0.0827453,-0.18859741,0.68231803,1.2123507,0.69175583,-0.0441286,0.17841172,0.33594653,-0.2510712,0.54526144,-0.08400262,-0.12900563,-0.45865646,0.32635516,0.67249286,-0.20466806,-0.47513786,-0.0872485,0.23948094,-0.5593281,0.61257064,0.27239034,0.03988037,0.58725214,-0.42875496,-0.3423821,0.64778304,0.373384,-0.091830745,0.62401986,0.5298615,-0.51032376
actuelles,-0.47661945,0.84136736,-0.47058406,-0.70322865,-0.45451403,-0.45446306,-0.12175163,0.543294,-0.5977985,0.22656125,0.43739292,-0.6540772,0.17494549,-0.024082499,-0.01704506,0.13781412,0.14781381,0.3932902,-0.22430973,-1.2542374,0.42895743,0.41372392,-0.04413055,-0.8846944,0.07637804,-0.53348637,-0.28501368,0.23313557,-0.19544798,0.016570028,-0.6047177,0.4211664,-1.0567939,-0.6311967,0.7304171,0.3554333,0.4504278,0.53668416,-0.4500927,-0.30630517,0.80132216,-0.091552466,0.7430436,-0.3372944,0.22163184,-0.32376572,0.28298825,-0.14170256,0.20943052,0.108186506,0.016696032,0.18108302,0.32305124,-0.94988304,-0.5365248,0.15233925,-0.17465909,0.5816783,-0.15324017,-0.5431086,-0.39436305,-0.035938103,-0.23608546,0.048177376,-0.7980593,0.33450294,0.8758157,0.064494655,-0.30264506,0.14904375,0.18935752,0.93861026,1.1607821,-0.44413856,0.44723162,0.81148857,0.018075552,0.6213355,-0.5719206,-0.25034124,-0.39508292,0.71844286,0.5667005,0.8021785,0.26814875,0.009452714,0.36378837,-0.28669748,0.48670194,-0.043712493,-0.18415527,-0.20511372,0.4891732,-0.048497513,0.55918974,0.43292737,0.6596432,-0.1112627,0.0023330331,-0.21803147
actuels,0.47453338,-0.14522973,-0.5128248,0.3052365,0.08617899,-1.1419812,-0.17450897,0.59430087,-0.20453526,0.07948535,0.0041656373,-0.7647941,0.11769653,0.0556465,0.5735953,-0.03306769,-0.59995663,0.56991154,0.42558315,-1.8320347,-0.15346643,-0.06250472,0.3826804,0.12563019,0.16686653,-0.15061973,0.29268897,1.0839263,-0.057004463,-0.5904056,0.8980468,0.24402268,-0.50457513,-0.3791145,-0.4920664,0.55902743,0.24426316,0.6943275,-0.2193818,-0.71288383,0.5842775,1.3260438,0.42045578,0.024954302,-0.40894377,0.23957178,0.47574672,0.11234482,0.42431605,1.2599082,-0.23683555,0.4706619,-0.6360595,0.15508167,0.24456407,0.053064756,0.16171832,0.3411711,-0.57536054,0.4211059,-0.44032115,-0.33329228,0.33963573,0.7185927,-0.44833392,0.24186015,-0.81771135,0.06518691,-0.25493857,-0.056997433,-0.064917564,-0.081802204,0.4820563,0.11812405,0.69215256,0.42211038,-0.039992426,0.24100891,0.47797754,0.08244499,-0.32582277,-0.060139425,0.22141325,0.035889342,-0.32243428,-0.1596221,0.2344615,0.68699175,0.06428643,0.3553201,0.6614145,0.04989552,0.4224631,-0.81687856,0.6669421,0.3126999,-0.76656467,-0.6585154,-0.45645273,0.5054275
adapté,-0.16236591,0.62535036,-0.14422539,0.41955456,-0.3330023,-0.095045626,0.15093105,0.46987274,-0.30486813,0.8984188,0.9113241,0.09404735,-0.45320684,0.90451336,1.0929664,0.22607256,-0.21886517,-0.90969443,0.28025115,-0.45825803,0.6152092,0.0022131794,0.34846097,-0.08009244,-0.14271101,-0.022397477,0.39885885,-0.013187619,-0.12379836,0.13930401,0.27041665,0.23843913,0.1916219,-0.5283427,-0.6367776,1.0682006,-0.16588813,-0.7975657,-0.12747501,-0.4434076,-0.57798326,0.15875864,0.69416964,-0.7497702,-0.42549953,-0.26692614,-0.5499863,0.4851431,0.04090336,-0.53424776,0.7257685,-0.023007683,-0.95450455,0.29363748,-0.12054737,0.13779715,0.100878805,-0.050813884,-0.4927373,0.19675577,-0.11980656,0.036448155,0.2909975,-0.14263363,-0.10861057,0.07850065,-0.5062853,0.49023747,-0.59469384,1.2565691,0.90608525,0.30920145,-0.07856691,0.23614684,0.10668543,0.9043183,-0.74882644,-0.072936505,-0.7246086,-0.6438327,-0.40680334,-0.08492174,-0.0036179859,0.1963188,-0.5559182,0.23478031,1.3178717,-0.25717142,0.08938199,0.5810667,0.77787966,-0.45510972,0.53098243,-0.22011507,0.4406626,0.62718904,-0.56599206,0.5777123,-0.26763067,0.27521077
adaptée,0.15978897,0.12382083,-1.2371929,-0.33036488,-0.2959356,-0.46417257,-0.18220086,0.10808395,0.5430834,0.46839488,0.75984985,0.43572122,-0.5547164,-0.06313668,0.3459401,-0.2410588,0.18141824,-0.3292534,0.028277682,-0.85671645,-0.2361878,0.30612618,0.40477264,-0.39060026,-0.31340536,-0.32603782,0.6192876,-0.4270332,-0.046092093,-0.032020926,0.68261564,-0.3409193,-0.024192119,0.39249966,-0.60841024,1.1476783,1.1275675,0.024825208,-0.23338453,0.09368501,0.054844152,-0.44372427,0.7458856,-0.0161685,-0.3326378,-0.31183845,1.0545735,-0.5511407,0.456814,-0.28927004,-0.27587816,0.09805741,-0.24992386,0.40196446,-0.09119801,0.7528689,0.8837582,0.29770207,-0.6678391,-0.25946993,-0.52511877,0.13713162,0.24216948,0.27514943,0.21939476,0.55024916,-0.16221805,0.6979595,0.4402839,0.29845434,-0.18100789,0.6064714,0.28791487,-0.33479235,-0.37972072,-0.70194334,0.7227514,-0.59290105,-0.6125727,0.09164497,-1.0516568,0.48922938,0.112456284,-0.20785978,0.13468623,0.03751619,0.2829694,0.7453826,0.20821558,0.1852431,1.1494209,0.0026306163,-0.15723367,-0.7923101,1.276816,1.2394669,-0.52639407,0.31303045,0.12262099,-0.09352947
adaptées,-0.51916397,1.1383698,-0.13195749,-0.35098124,-0.014368892,-0.35705617,-0.6498316,-0.071956486,0.32687792,-0.27216202,-0.083565064,-0.9604264,-0.26818702,0.45455325,0.31560838,0.054624032,0.7001121,-0.122678414,-0.19105664,-0.106188536,0.4525649,-0.35705408,0.17769219,-0.1395818,-0.69447756,0.1702884,0.10753103,-0.34349912,-0.0032059618,-0.09748913,0.4944221,0.3694704,0.20604964,-0.7534575,0.14901547,0.43095163,0.6045015,-1.145653,0.1071826,-0.733059,0.48942354,0.21293294,0.7872407,-0.24945404,0.41737273,-0.48270297,-1.1303089,-0.61705494,-0.19518651,-0.8309403,-0.70176035,0.41886586,-0.1900337,-0.63854647,-0.062479977,0.49331808,-0.13347074,0.8137893,-0.20778738,0.36776543,-0.40314412,-0.047912627,0.12209609,0.33369368,-0.6163304,0.7406236,-0.8902827,0.41660857,-0.20037417,0.743261,0.2902331,-0.222861,0.4470851,-0.095915094,0.45196468,-0.51203567,-0.15025024,0.26986983,-0.38977015,0.13464814,-1.3171935,0.21785589,0.254629,-0.5716251,-1.0976882,-0.60994697,0.7877176,0.7108316,0.0035479257,0.43775755,0.47116375,0.109196946,1.0716056,-0.9187978,0.7869537,1.3331174,0.21527652,-0.5249423,-0.067262076,0.30288297
adaptés,-0.20722859,0.504411,0.7940492,-0.5297889,-0.0044059916,0.04160305,-0.34320164,0.9108619,-0.24805476,0.281532,0.20565476,0.10562493,0.07671753,0.7086099,0.14391223,-0.15174586,0.050003864,0.04540359,-0.5581644,-0.32048565,0.017977636,-0.10324245,-0.12624645,0.44054005,-0.30342922,-0.27667707,0.19521067,0.10034902,0.09507162,0.018649688,0.9169021,-0.22937958,0.33540154,-0.005527205,-0.27087888,0.18830784,0.23862574,-0.11526935,-0.1177725,-0.70536536,0.5346523,0.38945675,0.37781328,0.32588768,0.30444717,-0.038314324,-0.43268687,-0.52080375,-0.0027565896,-0.6287697,0.13191971,0.63538694,-0.60695195,-0.32051924,0.035716884,-0.52297753,0.31045765,0.86394995,-0.68470126,0.32833034,0.07584729,0.17196919,0.1996679,0.9467232,-0.264845,0.42845342,0.06492384,0.47614568,-0.2044307,0.86249083,-0.16294353,-0.19811207,0.3153453,0.5042457,0.62778825,-0.6372379,-0.29247922,-0.38947153,-0.60464424,-0.44079462,-0.42362663,0.95527434,0.809767,0.08356695,-0.39672634,-0.1022598,0.6229226,0.27251163,0.78963536,0.49859315,0.94495773,-0.6939772,0.47450557,-0.32098645,0.5139564,0.5821129,0.17697297,-0.80625594,0.08392461,0.12963049
additive,0.37208334,0.34602162,0.7353468,-0.3365751,0.28837416,-0.42649704,0.19099182,1.0878699,0.5190079,0.19301343,-0.39213857,-0.11106993,-0.5822584,0.7257299,0.32865307,-0.110710055,-0.4070391,-0.50479585,-0.17850311,-1.2522799,0.13284479,-0.47875583,0.24828042,-0.5630332,-0.586805,0.20988597,0.07692292,0.78490347,0.2818088,0.9089027,0.3795329,-0.22695366,0.5487182,-0.9260073,-0.22392198,1.1058681,-0.074323654,0.37118945,0.073681906,-0.8703508,0.5494859,-0.5136637,-0.20877548,-0.49672696,-0.6550088,-0.04169731,-0.25990814,0.5793272,0.41395053,0.15548028,-0.34683827,0.30751395,-0.43356895,0.19876833,-0.23560448,0.72852737,0.5680603,-0.65153235,-0.47119206,0.6748534,-0.17099495,-0.4753816,-0.3049061,0.12178856,-0.2649352,0.6874286,0.0077846106,0.6638507,-0.10616233,0.649939,0.82086056,0.4024324,0.34778166,0.04923483,0.42252937,0.17425565,0.07740156,-0.007352521,-0.50663143,-0.11938276,-0.38967016,0.2602764,0.011527296,0.22541466,-0.47055387,0.44933724,0.7966317,-0.06912827,-0.22995336,0.072831266,0.09453925,0.21538657,0.18610883,-0.050293926,-0.3487933,0.82707584,-1.100741,-0.28537452,0.5591731,0.16556068
administratif,-0.45381328,-0.016541611,-0.67649734,0.7266113,0.04325654,-0.041084215,-0.0954309,0.84911215,-0.5315968,-0.34565276,0.34715575,-0.51768535,-0.22354752,0.839057,0.42922923,-0.50452495,-0.41626617,-0.11908856,-0.16255128,-0.19193737,0.9164125,1.472311,1.1086845,-0.34460104,-0.26331398,0.2018454,0.82117504,0.4574954,0.19677699,0.8152572,0.47346142,-0.686345,-0.89278245,-0.16548964,0.03529101,-0.16595669,0.20703927,-1.1512167,-0.61981654,0.21940565,0.5748597,0.41819543,-0.029539887,0.3172494,0.25601834,-0.6014951,0.6609066,-0.09457399,0.24557616,0.4227122,-0.38769248,-0.2591912,-0.1490328,-0.270868,0.0595095,0.11691723,0.20458245,-0.75803846,-0.7353197,-0.075092815,0.82364374,0.44311708,-0.061741404,0.52253103,-0.5313307,0.7583148,0.27161402,0.9242942,0.111811794,-0.31273788,1.1027477,-0.8945379,-0.6320505,0.56862193,0.21858093,0.46014678,-0.67403626,-0.16067246,0.1236362,0.6091856,-0.1353769,0.07014384,-0.43713653,0.10161893,-0.6308557,-0.37703303,0.43066844,0.11461358,0.2846054,0.1068722,0.540051,0.41161186,0.11251348,0.017964045,0.5940341,1.1615398,-0.76454145,-0.10577736,-0.4008036,-0.24422775
administratives,-0.748584,0.98474824,-0.41749528,-0.16156606,0.5621667,-0.59921044,-0.016799346,0.15689479,-0.10935785,0.23846908,0.5693568,-0.88197577,-0.5654624,0.49111152,-0.17507228,-0.72020787,-0.090743944,0.172677,0.66252714,-0.37024775,0.19864748,0.19034004,0.577987,0.02693038,-0.014841369,0.011260401,0.47344708,-0.041115195,-0.7883004,-0.21849889,-0.07483892,0.08439207,-0.5255952,-0.30040896,0.09928057,0.5575744,0.6626655,-0.5093972,0.13434786,-0.5477448,0.35188478,-0.52832013,0.7498031,0.33562323,0.61330307,0.11977019,-0.4329314,-0.5277863,-0.25883785,-0.21416572,0.2555352,-0.73315173,-0.32034653,0.314121,-0.44269785,0.11076013,-0.115790695,0.55528265,0.42828712,-0.53314096,-0.22852987,-0.27258873,0.7317881,0.049819235,-0.14571655,0.5538469,0.31857547,0.71205336,-0.756924,0.06777281,0.9801053,0.07794672,-0.06482043,0.092630595,0.59886116,-0.8793903,-0.18432252,-0.813508,0.3557117,0.47488195,-1.1639558,-0.21815611,0.02321664,0.08397522,0.12318406,0.08449477,0.4988083,0.15873782,0.34672526,0.121633075,0.123881854,-0.22530307,-0.20800754,-0.18785778,0.8002753,0.076665536,0.38158342,-0.115755305,0.035076927,-0.34512222
adoptant,-0.1490792,0.22525884,0.91224486,-0.013305045,0.22864637,-0.53839344,0.28804973,-0.13168034,-1.2900163,-0.19031633,-0.1329627,-0.77136064,0.42961732,-0.3667792,0.25716817,-0.598386,0.026904324,-0.2445897,-0.060819797,-0.5645748,-0.34140542,0.8508595,0.6877253,-0.76050436,-0.739557,-0.3518655,-0.20693685,0.040942077,-1.2703525,-0.4843083,-0.16675821,0.378479,-0.24940194,0.15325855,0.39824912,0.52177966,0.35824186,-0.90765244,-0.7719815,-0.3433698,0.6487002,0.3029747,-0.13888115,0.81581646,-0.05578723,-0.31375024,0.006597556,0.2026179,0.6046725,-0.401247,-0.118724845,0.35751507,-0.10892033,0.1530288,0.44792026,0.39294943,1.2401278,-0.5425331,0.17794886,0.3200762,-0.27518326,-0.40365162,-0.3131913,0.27212805,-0.54236025,0.64323,0.43904975,0.3691459,-0.24667367,0.5277227,-0.04143528,0.44528693,0.010764036,0.3880507,-0.21181129,-0.2616542,-0.056828335,0.11397099,0.34936786,0.31336632,-0.44275457,0.18809615,0.03764089,-0.06743285,-0.62254995,-0.059343018,-0.1698442,-0.3527104,0.24777032,0.63852024,0.5428437,0.3176581,0.06613321,-0.07714579,0.80196786,0.8450435,0.284011,0.98154694,0.18289006,0.50581187
adopte,0.32059208,1.0707154,-0.5244262,0.19660588,-0.26529956,-0.19371738,0.20886922,-0.04849192,0.2946113,0.37172848,0.47413284,-0.50281274,0.5801008,0.093971744,-0.15866569,-0.84166235,-0.23796256,-0.45086563,-0.6406897,-0.3585096,-0.258281,-0.05833738,0.11540502,-0.6400396,-0.37348616,0.6001256,-0.8041338,0.35810968,-0.056612067,0.32678717,-0.3673282,0.32017285,-0.17542405,-0.37559816,-0.3099909,0.21621035,0.38721803,0.046722308,-0.2890594,-0.07603935,-0.016813176,0.32897907,-0.71440417,0.37249583,-0.14444391,-0.16516908,-0.008599111,-0.45723265,0.90707755,-0.0696575,0.6916856,-0.20351231,-0.47908255,-0.1520015,-0.06210305,0.18408106,0.044310745,0.6820099,0.5288665,-0.38857192,-0.16904174,-0.77869713,-0.23496993,0.26840788,-0.23432343,0.81021357,-0.50806284,0.74220693,-0.12432755,0.1388111,0.477514,0.66276395,0.04008543,-0.3639353,0.9453185,-0.40643206,-0.9815002,-0.04293038,-0.38119036,0.31453422,0.4850038,0.5684028,-0.44395944,0.64451075,-0.7448192,0.20114699,-0.25233626,0.57708174,0.1307237,0.43606472,0.35184377,0.50961745,-0.75434285,-0.8139585,0.74996614,0.6285898,-0.29421923,0.39867654,0.77716607,0.053081907
adopter,0.012832385,0.092443496,-1.1616932,0.29782337,0.47370467,0.53845525,-0.16295856,0.086843066,-0.69274396,-0.35433915,0.9094176,0.07832211,0.69533104,0.7420917,0.65274984,0.19097514,-0.18348388,0.1902761,-0.37997097,-0.5813616,-0.3115649,0.5934971,0.1823017,-0.16921334,-0.41992226,-0.2757086,-0.6959019,0.49227145,-0.4219385,-0.76221603,0.02904656,0.5063995,0.4674066,-0.1274069,-0.21868272,0.2699175,0.10660235,-1.050486,-0.32669178,0.013902238,0.8909691,0.40841874,0.28415155,-0.030683096,0.527882,-0.6030519,-0.98947346,-0.36698124,0.8441217,-0.4716433,-0.19415918,0.31733742,0.1868636,0.2640675,0.094491534,0.9272143,-0.36655977,0.20438698,-1.009914,0.49710757,-0.7420089,0.71412504,0.77800775,-0.08718045,-0.74642783,0.85479873,-1.5448544,0.09448741,0.5798612,1.1020998,-0.017154427,1.3231589,0.36778784,0.28235328,0.8073527,0.21243976,-0.31612164,0.89162576,0.19924425,0.71369535,-0.08183279,-0.565477,1.1618345,-0.2968691,-0.54664356,0.08274163,0.55572736,-0.25382626,0.048249096,0.1087251,0.53874534,0.22147615,1.6285938,-0.3746339,0.6520434,0.7633864,-0.16707923,0.17772113,0.77889776,1.3811772
adopté,-0.85346544,-0.33253095,-0.1523767,0.07951537,-0.7355997,0.44054353,-0.27324194,-0.24026154,-0.21969876,-0.49353316,0.07071014,-0.20821999,-0.36545992,-0.13603012,0.3232113,-0.2909936,0.20925283,0.72051007,-0.22672209,-0.9526736,0.54212034,1.0258746,-0.11879491,-1.0150149,-1.0536093,0.031134717,-0.011671457,1.0869672,-0.8801458,-0.37708646,1.0654327,-0.31964085,-0.048451297,0.084634826,1.1672755,0.510827,0.2176276,-1.1365377,0.2984422,-0.9478591,0.09112652,0.23925413,-0.07486804,0.5370083,0.43696505,-0.66055155,0.42300957,0.4597521,0.10315839,-0.31879926,0.7513105,0.5463187,-0.15028727,0.44980463,0.111503825,0.118482076,-0.037274096,-0.092122614,-0.7490325,-0.3376916,0.2848206,0.2815405,0.00046312824,-0.19761927,-0.5577872,0.57523173,-0.3080841,0.5556073,0.0029668363,0.2516662,0.2894721,0.12349693,-0.530427,0.09149892,0.980968,-0.18410033,0.07225922,-0.2876447,-0.7323907,0.30765393,-0.21764107,-0.24288118,-0.107121736,-0.02989892,-0.943912,-0.41648993,0.008873522,-0.34643564,0.5622657,0.8383243,-0.29936314,0.86249113,-0.15637125,-0.09522811,-0.14489543,-0.4727462,-0.21409996,0.0683371,0.5226234,0.39194345
adoptée,-0.6867342,0.5885875,-0.3141649,0.6180225,-0.04919866,-0.7171868,0.092116885,0.34531733,-0.19892158,-0.83759993,0.31347397,-0.3089786,-0.27368036,0.37018257,-0.14914735,-0.06768167,0.58783954,-0.2932181,0.20569806,-0.3168689,0.16570751,0.30492187,0.56218725,-0.6029016,-1.0870329,0.4138099,-0.56266904,0.4408272,0.050359983,0.100442976,-0.025855204,-0.64444065,0.052277654,0.2887826,1.8018385,0.026072215,0.49467525,-0.12852047,0.47770903,-0.39550042,0.5566742,0.088350885,-0.3075355,0.7350348,-0.675236,-0.5684375,0.23140545,0.143948,-0.022145933,-0.24809968,-0.17376165,-0.4626904,-0.8886393,-0.3216157,-0.49826092,0.96657676,0.52519697,0.23948947,-0.15592445,0.168483,-0.92347574,-0.11911652,0.45655015,-0.77492577,0.052201975,1.5953171,-0.2034512,0.83480465,-0.44876006,-0.18361737,-0.39423627,1.681784,-0.4423136,0.4003483,0.5694177,-0.2943949,0.5268681,-0.086310804,-0.08809226,-0.6585694,-0.91841274,1.0328315,0.8023899,0.52188796,-0.6520606,0.07980633,0.37480187,-0.018643126,0.6089785,0.81706303,-0.61166084,0.63113976,-0.5037141,-0.52302915,0.2826237,-0.029160725,-0.91968167,-0.48209226,0.12316614,0.33333924
adultes,0.48243153,0.23138033,-0.5336778,-0.025976896,0.31111637,0.1890271,0.40888676,0.037942283,-0.56468886,0.14901243,-0.68909395,0.1999143,0.5485257,0.26784465,-0.10109401,-0.41003612,-0.2931533,-0.09685579,-0.15881446,-0.63149786,0.7736179,-0.3285683,0.15507738,-0.2083075,-0.3805698,-1.2188812,-0.69598156,-1.0530303,-0.38232714,-1.0665828,0.15954866,-0.33635306,-0.011603185,-1.1492434,-1.2620485,0.73094684,-0.18577915,0.2964449,0.41175342,0.9877746,-0.122936085,-0.9252808,0.54941493,0.1508457,0.30106834,-0.37210244,-0.24200606,-1.0071175,-0.72623026,0.5330829,0.6880582,-0.18117191,-0.38158864,-0.41856226,-0.060954608,0.11049496,0.86807424,0.39586422,-0.60587764,0.2235515,0.3959492,-0.1252827,0.59989595,1.1627219,-0.63453186,0.99079967,-0.4654966,-0.2065346,-0.537472,0.6278217,0.379198,1.2708117,1.2362745,0.30032483,0.42395937,-0.05715835,-0.46682256,-0.22744867,0.4076329,-0.18437582,-0.7824272,-0.9011373,0.1195207,-0.10097664,0.26430055,0.2996685,0.41339207,1.0863585,0.030308293,0.2797678,-0.04190568,0.52936214,-0.3106417,-0.0013717648,0.5550842,-0.43083182,0.49760994,-0.24109414,0.60779464,0.042891696
affaires,-0.2510355,-0.32643947,0.24570243,-0.97043306,0.16836022,-1.2028036,-0.62350315,-0.5904455,0.10961864,-0.12116663,-0.44944504,-0.33790073,-0.90734863,0.4058618,0.07105715,-0.969947,0.15592709,0.14066036,0.5205062,-0.3645283,0.16962607,0.19493555,1.2875762,-0.280281,-0.21445279,0.41812095,-0.16320205,0.15541215,-0.60875887,-0.2554307,0.18512814,-0.4365266,-0.08437387,0.18732688,0.008383685,0.5354596,0.3567928,-0.14884251,0.0030629649,0.79641885,0.06749199,0.56314284,-0.4496572,0.026566612,0.18535297,-0.7720622,-0.11433079,-0.45905292,0.8147663,0.36988172,-0.019402614,-0.7338297,0.19975819,-0.20988539,-0.10178706,-0.25344774,-0.67380464,0.52431,-0.55939037,-0.38264695,0.39195916,-0.559599,0.66075,0.310675,-0.47356716,-0.876757,-0.41511765,0.08397287,-0.33676633,0.12893438,0.34626025,0.2609907,0.03743638,0.4413416,0.039241895,0.8760736,-0.22135143,-0.3172188,0.009225938,-0.35943136,-0.6472224,0.53758967,-0.51577806,0.46092287,-0.14301921,0.31461498,0.3329724,0.5924262,0.95844996,0.40398893,0.21720323,0.7523051,-0.555946,-0.46883595,0.47018224,0.7063116,0.41372353,-0.35976884,-0.67030376,-0.05289867
affecte,-0.10512513,-0.43448532,-0.71818423,-0.28589967,-1.2123051,-0.90849435,0.007534805,1.0758042,-0.33604762,-0.12798537,-0.797271,-0.34582964,0.27899468,1.3305357,0.50870013,-0.41467628,0.56237584,-0.22530645,0.84944814,-0.2782469,0.107128955,0.12650822,-0.2449764,0.061823145,0.50205296,-0.2621937,-0.3921424,0.45234522,0.6988375,-0.575724,0.10438415,-0.16693066,-0.74479365,-0.32605314,0.3717417,0.3975686,0.22517143,0.2922058,0.3929419,-0.020156784,0.19838768,0.18378645,-0.5830244,-0.21208842,-0.059335932,0.31152505,-0.74462867,0.32987124,0.04148515,0.7853804,-0.38488808,-0.15732026,0.65508074,-0.60893977,0.25145915,0.5567401,0.21323948,0.013085858,-0.89550734,-0.22183484,-0.7544189,-0.3187753,-0.11928494,0.22987047,-0.6697505,0.623991,0.7581614,-0.9322823,-0.18139102,0.1107003,0.017656993,0.3717389,1.2187128,-0.04037649,0.33400047,0.44246867,0.4857485,-0.114769146,-0.37358537,-0.35500458,-1.1383889,-0.6307704,0.5884686,-0.9052128,-0.016261686,0.14275588,0.18285932,0.19864751,-0.035233676,0.12761347,0.67300195,0.54495776,-0.003449579,0.1702839,0.334173,0.7311091,0.025032004,-0.335215,-0.020108575,0.49156418
affectent,0.051877532,-0.57021415,-0.16555324,-0.34141076,-0.7356039,-0.32192466,0.3459612,0.1943794,-1.1717889,-0.6720647,-0.26332328,-0.8910545,-0.32250354,0.62441415,0.4408959,-0.25688565,0.282107,-0.5667112,-0.25149956,-0.08264944,-0.29888204,0.10506944,-0.4840695,0.6175799,0.6494079,0.19854839,-0.19998118,0.4437503,0.58833736,-0.28190604,0.11442163,-0.6153712,-1.0640168,0.020958286,0.7413789,0.18035084,-0.5377477,-0.8534004,0.24436872,0.2745258,0.3573727,-0.38974702,0.19517885,1.0887687,0.21013467,-0.25388315,-0.23012438,0.47353444,0.46627137,-0.042228565,1.1947623,-0.018956522,-0.71102285,-0.573582,0.078221284,0.5419348,0.27705857,0.19617847,-0.7732482,0.29472753,-0.6389887,-0.15947182,0.22943322,0.6219729,-1.3042439,-0.102829896,0.60953325,-0.64729524,-0.62175685,0.17642733,0.74239516,-0.00080178044,1.0044893,-0.23412272,1.5204614,-0.12584874,0.3465285,0.15198486,-0.6242657,0.34000507,0.0048349216,0.4384775,0.0666111,-0.1638973,-0.4785818,0.28985286,0.33342373,-0.22030017,0.2549034,0.83168685,-0.3407355,0.24760541,0.24734059,-0.29687652,0.37869042,0.5118048,-0.47189957,-0.3754605,-0.7474136,0.25480002
affecter,-0.39524263,-0.15985695,-0.322633,-0.29380205,0.5598927,0.15816125,-0.27305084,-0.26675552,0.49250856,-0.17800827,0.033642083,-0.7653148,-0.60056853,0.18124177,0.13935928,0.6493188,0.20445971,0.090292156,-0.5123159,0.1372778,-0.39746365,-0.33768272,0.6819773,-0.023227107,0.59790355,-0.25043938,-0.23622034,0.00034668454,-0.09964973,0.0016130854,0.123487525,-0.26446143,0.10213825,-0.27262372,-0.118823715,-0.52736014,0.64748806,0.08979499,-0.2241559,0.11165502,-0.17359427,-0.020083657,0.2810645,0.4354586,0.0345785,-0.77392745,-0.5483379,0.39458907,0.24456729,-0.15454137,0.063013926,0.08368483,-0.22388639,-0.09125478,0.16745304,0.21412273,-0.215524,0.30029178,-0.7342979,0.46858153,-0.3856854,0.58772963,-0.45069838,1.3879652,-0.1208564,0.7294917,-0.13329172,-0.21181518,0.32146564,-0.09707302,0.24333909,0.39788282,0.2997895,0.4570002,0.20993601,0.50477386,-0.4827977,0.45120305,-0.88366324,0.16681555,-0.40237954,-0.81965303,0.32296607,-0.06835877,-0.52438,0.12108696,1.1452613,-0.024321796,0.9672783,-0.1373092,0.7809064,0.74689543,0.26870078,0.25463605,1.3230553,1.4308958,-0.2987182,-0.32127723,0.009168608,1.2131996
affecté,-0.8586156,-0.17179504,-1.2132919,0.15894979,0.18533605,-0.6919638,0.22921632,0.43422094,0.021015828,0.2176686,0.3146283,-1.2731922,-0.57060075,0.2449124,0.42211756,-0.096249595,-0.3374005,-0.031451862,-0.43736863,0.11007223,0.05475941,-0.07418379,0.4409926,-0.7004828,-0.20611444,0.08339218,0.1694213,0.15711649,-1.267903,-0.49558255,0.332928,-0.20803471,-0.13020596,0.9272086,0.38733107,0.33774546,0.20897149,-0.6238944,-0.6814325,0.14129883,-0.21592422,-0.048311774,-0.32740524,-0.48989514,0.45803875,-0.92273253,0.25818327,0.94068575,-0.34441906,0.99139357,0.16716568,0.013332688,0.13773066,0.6280214,0.3900049,0.5444566,-0.5987807,-0.123666234,-0.37786466,0.021881081,0.34358877,0.07276357,0.089267544,0.2400582,-0.5254843,-0.20183793,-0.064354084,0.71671045,-0.84568816,0.704891,0.7921522,-0.018469699,0.1456769,-0.71109444,0.5252585,0.4564432,0.29576725,-0.41519314,-0.9105814,0.15150577,-0.6196588,0.7156797,0.00442615,-0.32154426,-0.7168738,0.4043334,-0.23007633,0.31131974,-0.28726253,0.48073873,0.19659686,0.7288695,-0.15055478,-0.24595463,0.03748251,0.23655298,-0.5382865,0.46993402,0.3119912,0.6352656
affine,0.098378524,-0.043065038,0.3835315,-1.0187865,-0.19120741,0.5492984,-0.1381839,0.46924517,0.7130551,-0.2108638,0.1670424,-0.30611432,0.2389507,0.21853007,-0.22196992,-0.43737683,-0.53843826,-0.60436875,0.37192017,-0.7727858,0.29254958,0.8644523,0.9892081,-0.067103475,-0.35322335,-0.5487728,0.13152397,-0.4002601,-0.4731908,0.19219972,0.46844772,-0.5703528,0.32203877,-0.773496,-0.18289478,0.51818794,-0.39296624,-0.19913684,0.97181493,-0.62759835,-0.22603881,-0.50127393,0.23119937,0.6243844,0.9804598,-0.24366635,-0.026969748,-1.2933201,-0.048035063,-0.6595361,-0.18350098,-0.8827506,-0.82225424,-0.27784923,0.058983065,0.6833145,-0.5539296,-0.18715462,-0.27217725,0.8026984,-0.4019609,-0.65140694,-0.18792036,0.38862044,-0.4391829,0.3992228,0.5213838,0.5323432,-0.7478376,0.3787067,0.5907883,0.002537739,0.4509546,0.7078838,0.6496047,-1.1694242,0.0068055475,-0.12111823,-0.86099094,-0.33524144,0.4594571,1.0647949,0.10202204,0.8823177,0.24725705,0.1713877,-0.77661157,0.19522367,0.048618045,0.22879994,0.43373963,0.051100932,-0.4282874,-0.16720004,0.6654331,0.41442195,-0.6208631,-0.8214736,0.16873161,-0.11662763
affirme,-0.16448961,-0.32771286,-0.51666486,0.31734583,-0.18632479,-0.56929886,-0.460046,0.6283481,-0.8669336,0.6879314,-0.6566723,-0.87258,-0.78064764,0.6378803,0.5115258,-0.94358546,-0.3832547,-0.37840897,0.66674286,-0.2600359,0.40594807,0.62666297,0.30116963,-0.018324357,-0.05499121,0.5837739,-1.2041565,-0.4082748,-1.2975092,0.7556001,-0.049656104,-0.4800288,0.32929853,-0.8528828,-0.24469805,0.7810104,0.25541043,-0.12974575,0.6347033,-0.12549976,0.52108306,0.0703385,-0.30253634,0.2961534,-0.6358917,0.0046658465,-0.18680051,-0.53142667,-0.80598366,-0.3610533,-0.010193685,-1.1305084,-0.6499252,-0.65736586,0.9803228,0.18734294,-0.897709,0.16488089,-1.4389566,-0.28431827,0.6886158,-0.020376256,0.35189044,0.2577876,-1.0336401,-0.52054286,0.36551353,-0.15682039,-0.42519382,0.01303835,-0.36516258,-0.8357688,0.34558144,0.122766554,0.33346045,-0.2963472,0.5111503,0.3932126,0.012486631,-0.16233857,-0.36269403,0.54644495,-0.6887904,0.5628821,-0.37368318,0.004003138,-0.53559774,-0.41230252,-0.74676055,0.17082593,0.3635854,0.29406253,-0.43957734,0.275759,0.35459796,0.78491205,-0.3427241,-0.25100583,0.87168825,0.109710686
africains,0.24613555,-0.42152283,-0.39634636,-0.1898956,0.029182944,-0.99208003,0.28487203,0.546672,-0.04113756,-0.7161983,1.168845,-0.991628,0.09680778,0.7223473,0.5885741,-0.83705646,-0.85490656,0.078064285,-0.1842615,-0.6002351,-0.1909373,0.99906486,1.1510625,-0.23356624,-0.53485894,0.34109563,0.9856125,0.70788735,-0.9334071,-0.6793703,0.6374677,0.1239786,0.5057799,-0.13735731,0.061480403,-0.14123407,0.10164678,-0.47157785,0.32279634,0.25984102,0.60218537,-0.01711394,-0.4257484,0.20592189,0.5862269,-1.1254472,-0.93686384,-0.03343995,0.9896165,-0.32222453,0.4251809,-0.1054042,1.2389963,0.32582122,0.5600521,0.6225474,-0.2504793,0.20085351,-0.16584495,0.13388804,0.83402145,-0.08548117,0.06940314,0.6574501,-0.50476784,0.979449,0.14837201,0.26502445,0.08742398,0.9340942,0.5339473,0.40614706,0.36607587,0.2379476,-0.38579777,0.7622396,0.39630938,0.49318287,0.8414597,-0.3496009,-0.17012033,0.050142407,-0.17136246,0.44524795,-0.41951573,-0.87145567,-0.09906004,0.36511552,0.5473936,-0.09328385,0.090564266,0.71866626,0.40485594,-0.45866403,0.82329917,0.04827919,0.6894412,-0.07727611,-0.4571149,0.5816502
afrique,-0.35044175,-0.16879629,0.1846693,-0.18831848,0.38826418,-1.3363416,0.38070843,0.6613995,-1.2518973,-0.4244251,-0.030218456,-0.19809029,-0.4545447,0.7404533,-0.30157036,-0.35621715,0.11702283,0.14235166,-0.35661608,-0.5393671,0.05757456,0.8615728,0.2192395,0.46783417,-0.9650278,-1.0035408,-0.39735737,0.7140836,-1.5325849,-0.13813198,0.68971807,-0.28716147,-0.4134825,-0.021297012,0.43614796,-0.59460247,-0.11529321,-0.9075768,-0.15575898,0.68669486,0.10122548,0.72789186,0.1603513,0.059923157,-0.117068484,-0.07478591,-0.96293736,-0.61363685,0.6254469,-0.38201115,0.8772388,-0.2919495,-0.14997646,0.19262323,-0.28281355,0.06062343,0.52448976,-0.1279492,0.66299677,-0.035496067,0.1299783,-0.0341015,0.3014478,0.6644101,-0.33845887,1.2076211,-0.41513667,0.5651204,-0.41199607,0.38460037,-0.30633673,0.4707369,0.17506881,-0.27902228,0.40183258,0.23205526,-0.4479488,0.23492774,0.49835056,-0.8830357,-0.62150234,0.77671736,-0.117929496,0.03349106,0.22091688,-0.14236525,1.3886501,-0.22809649,0.5714981,0.7900991,-0.089593664,1.0611484,-0.14583345,-0.074785,0.6900751,-0.22023247,0.32096156,-0.10659039,0.07085237,0.009117737
agent,-0.6598701,0.1965826,-0.67478025,0.39521405,-0.3571502,-0.21917018,-0.2253301,0.94724196,0.1910124,-0.21168953,0.02242313,0.27821195,-0.23294334,0.18036702,-0.02678226,-0.5152725,-0.20722836,-0.5825895,0.21806727,0.24091266,-0.12671845,-0.1304815,1.048413,-1.7390249,-0.48525888,0.6199629,-0.085402876,-0.2388324,0.15013425,0.13960345,-0.14799576,-0.90283257,-0.4303661,0.8548691,-0.8811454,-0.38418624,-0.16064268,-0.18795212,-0.09515311,-0.3851174,-0.15874968,-0.3733396,-0.5353192,-0.28709486,0.8060595,-0.15530078,-0.61583716,0.22844647,0.062626876,-0.66787195,0.45163816,-0.15598226,0.3295211,-0.4022518,-0.18838212,-0.23344935,0.3991755,-0.41364765,-0.15874903,0.01932435,-1.0256099,0.77425516,0.19188944,-0.4025689,-0.59643817,0.46321702,0.33099285,-0.3793543,-0.13523386,0.40776953,0.6694041,0.15969673,-0.37205845,-0.0920491,0.62324303,-0.06295147,-0.60144013,-0.15949677,-0.19480257,-0.19696662,-0.21418548,-0.3528315,0.22215837,0.75825053,-0.15691088,0.5448712,-0.16574998,0.7617205,0.4560892,0.018418428,0.1508137,0.27069098,0.103286244,-0.08099676,0.681012,0.4663228,0.515327,0.20429863,-0.3661435,0.4557389
agents,-0.33410007,0.23062313,0.04652298,0.113798395,-0.19476569,-0.68508595,0.47948918,0.57354534,0.18381141,-0.87785715,0.56135136,-0.01556761,-0.281382,0.49975815,0.7302884,0.46448404,-0.32377815,0.84012717,-0.12613514,-0.080112785,-0.10862601,0.13646793,0.49862713,0.08145836,0.27533823,1.0416552,0.27174503,0.55709964,-0.705477,-0.5788378,0.44510192,-0.42635956,-0.28910553,0.3491055,0.20158233,-0.029471956,0.29244214,-0.5685191,-0.06475858,-0.15354371,-0.7303805,-0.49993744,-0.385796,0.57430345,0.45855364,0.35639927,-0.79818577,0.12477487,0.5832773,0.67012197,-0.09190092,-0.2669098,-0.7507703,0.091642395,0.1818339,-0.10008083,-0.72929686,1.1815789,-0.7900591,0.2876834,-0.32741734,-0.30059832,0.793271,0.7027166,0.25004947,0.6776631,0.46276549,0.17690758,0.43640307,0.544454,1.0478631,0.40765014,0.15451637,0.44237965,0.085685045,0.81677085,0.36871642,-0.41652557,-0.11919997,-0.057423756,-0.046923354,-0.14131697,0.03419081,0.46080938,-0.013066591,0.18335374,0.22798711,1.0770049,-0.08313835,-0.4460401,0.5898164,0.84713805,-0.14398,0.19832541,0.5701286,0.61962223,-0.002831887,-0.41793057,-0.32164082,-0.32647422
agit,-0.14783911,0.15536216,-0.4508149,0.58473444,-0.5696155,0.0639214,-0.5949384,0.5983749,0.68871015,-0.56871253,-0.23717423,0.26095232,-0.11585697,1.0150692,0.3561022,-0.51708,0.010720652,0.02535756,0.016160408,-0.29047567,-0.046947107,-0.35778725,0.5188904,-0.7125298,0.2173911,0.2080534,0.5338364,0.55740803,0.40540224,0.09780469,0.05875117,-0.40922704,0.12734747,-0.054029305,-0.11847265,-0.34828645,-0.45779377,0.27390468,0.19738244,1.2222507,0.13686273,-0.70504224,-0.958858,-0.4537925,0.21922685,-0.26192546,0.15619223,-0.73421454,-0.39809924,0.22799402,0.18493268,-0.0038784577,-0.50215155,-0.05310078,0.4931101,0.661138,0.42428824,-0.50948393,0.5173695,0.06347749,-0.5077818,-0.114549756,0.6434754,0.4976618,-0.20751494,0.12634058,0.8268914,0.34858444,-0.15255086,0.4089656,0.9517619,-0.20508753,0.31744307,-0.2984142,0.50768983,0.15183769,-0.72380865,-0.18116051,-1.3457597,-0.0034938469,-0.66277146,-0.25304282,-0.26543033,0.8330432,-0.7675812,0.64463556,-0.28355497,1.0117967,-0.28129306,0.48969102,1.1502138,0.7952975,-0.33789575,-0.18125264,-0.36152327,0.22295876,-0.565673,-0.004993464,0.16870245,-0.02557827
agricole,-0.6034303,-0.50773406,-0.60822946,-0.26936257,0.8732012,-0.7409518,-0.254505,0.39430332,0.25720918,-0.5578321,0.383694,-0.1759946,-0.37603748,-0.16925538,0.24890876,-0.19976453,0.27038196,0.12584093,0.19400199,-0.0019502215,-0.57450634,0.48088682,0.62003267,-0.12614526,-0.011733362,-0.20571613,0.061682273,0.27296743,-0.4010914,0.63677096,0.5202471,-1.1069465,-0.18799128,0.25673404,0.016587544,0.48772755,0.82351774,-0.08920002,-0.15909337,-0.14368393,0.9781577,-0.5511238,0.0012807978,0.3927765,-0.42170018,-0.2710212,0.09970985,-0.39345634,-0.2766769,-0.73335886,0.23710258,0.7846289,-0.051496744,-0.16585538,0.099408664,-0.01350696,-0.20396754,0.21071549,-0.6454151,-0.031008467,-1.5542661,0.14913382,0.9811718,0.22137111,-0.13878246,-0.29689762,-0.0076472345,0.045594174,0.2322412,-0.13972622,0.42128217,0.95931756,0.77124107,-0.6694119,0.47614428,-0.19565359,-0.10766226,-1.1093835,-0.7702064,-0.26811817,-0.38039142,0.112109825,0.95837027,-4.1499545e-05,-0.5267258,-0.5778889,0.045016754,0.25770062,0.91220134,0.63785845,0.080320016,1.154021,0.062908866,-0.43660572,-0.1384923,0.21720892,-0.1178707,-0.34683967,0.061939362,0.7744828
agricoles,0.054494467,-0.07690604,-0.5260708,-0.89542514,0.26722655,-0.861361,-0.8611997,-0.7297371,0.34552974,-0.22418824,-0.17281339,-0.6360336,0.053263698,-0.07201159,0.095167,-1.1050444,0.042613175,-0.22002088,-0.8870878,-1.1029707,-0.10785861,-0.31114992,-0.16733214,0.84834194,0.0787876,-0.03045982,0.29009318,0.4978993,0.42961907,-0.19279028,0.019684695,-0.27095214,-0.36509782,-0.24811476,-0.011201977,0.05274157,0.44165373,0.059414644,0.2681703,0.18724631,0.31930256,0.30975258,-0.57859546,-0.39015424,0.95929223,-0.058789972,-0.62927717,-0.6318388,-0.5459508,-0.06796694,0.21206294,-0.09236021,-0.45862484,-0.113723174,0.51114386,0.6764862,-0.29333487,0.7026788,-0.2220483,0.2151961,-0.3808988,0.04069535,0.065634996,0.6807926,-0.07336618,0.56227314,-0.012660651,0.2273972,-0.19376822,0.015375764,0.80250907,1.0212941,0.52097416,-0.118626475,0.1785961,0.20523775,-0.44761238,0.29510522,-0.15343316,0.106389694,-0.57798564,-0.02702903,0.07471942,0.09430325,-0.4898967,-0.9988657,0.14627177,0.7737097,0.7731181,0.48701206,0.35778913,0.14403094,-0.03854981,-0.946407,1.0563098,0.4266999,-0.36669716,-0.7630689,-0.4479888,0.30700588
agrégats,0.011994077,0.4162593,0.9159694,-0.36225337,0.046425212,-0.076254904,-0.40334776,1.0097253,0.27078736,-0.55943924,0.37565762,0.29126844,0.22654268,0.13349637,0.7959184,-0.10676912,0.47748336,-0.619623,0.052777603,-0.8701325,-0.20034155,-0.27569473,0.1106067,0.8330563,0.09289292,0.40257743,0.6005354,-0.42319238,-0.012914916,-0.18575634,-0.15524808,0.5416286,0.9219281,-0.12863763,0.27728227,0.22089717,-0.19425449,-0.7185763,0.26186767,-0.15028678,-0.33065465,-0.9292966,-0.03852534,-1.2459142,0.24468264,-0.37906983,-0.65438646,-0.45873994,-0.24940892,-0.22553451,0.25290608,-0.085922554,0.22890319,0.2865707,-0.29317865,0.1526623,0.14328125,0.251667,-1.455959,0.177307,-0.51659644,0.114133395,-0.04656037,0.32119727,-0.3447586,-0.17456512,-0.88719916,0.10757577,-0.62121856,0.6054187,0.02344251,0.830742,-0.25068155,0.71374327,0.99042517,-0.15473661,0.08681249,0.06637464,-0.35637522,-0.5157225,0.31609505,-0.2605614,-0.37198073,0.26435375,0.405389,0.25302863,0.17683242,1.0070422,0.62833416,0.45032516,0.8167135,0.31267706,0.4819689,-0.23193805,0.72565955,0.7877392,-0.32714537,-0.3961965,-0.5357457,-0.18231918
aide,-0.17383394,-0.6196441,-0.61733013,0.71446234,-0.6288808,0.21523714,0.1535121,0.5616008,-0.5569978,0.5632553,-0.28495306,-0.52798027,0.30367476,1.5917226,0.2776026,0.34918052,0.019900786,-0.23828891,-0.08607923,0.47666702,0.3768195,0.8111795,0.23134987,0.080371246,0.26909405,-0.40343454,-0.53609437,0.9379562,-0.43030927,-0.29676676,1.0262557,-0.6911334,-0.0066836565,-0.2113775,0.28362334,0.6066753,0.11394486,-0.039538115,-0.5657412,0.08152113,-0.15839212,-0.42821604,-0.28796083,0.0370884,-0.22928323,-0.079700954,0.2153356,-0.08632845,-0.3946194,-0.9207285,0.4672466,0.070634715,-0.21322751,-0.11971474,-0.46630114,1.0870004,0.67279476,-0.52178335,-0.4235902,-0.6049624,0.49090394,-0.125755,0.40753266,0.34534073,0.0180318,0.8959288,-0.53901327,0.434917,-0.1313267,-0.12055857,0.15654787,1.0653067,0.47818884,-0.19933273,0.28470364,0.007262265,0.83109117,-0.27314922,-0.314864,0.18522008,0.348097,-0.08416384,-0.30087134,-0.1423562,-0.27841613,-0.3040834,1.3110883,0.63319546,0.80210865,0.45185378,0.4291216,0.50690395,-0.08037141,-1.0106823,0.7215841,0.07595477,0.91798633,-0.4710426,0.04220715,1.3082452
aider,-0.17985426,1.2560238,0.103361696,-0.30636597,-0.14633778,0.033801302,0.14066917,1.1132548,0.5470197,-0.48954478,0.6221158,-0.7731061,-0.8658864,0.06653986,0.102078505,0.37810078,0.11202252,-0.28496984,-0.1819717,-0.6945281,0.3826868,-0.050362412,0.8869102,-0.8252923,0.4924707,0.21423998,-0.4922639,0.089129895,-0.19837932,-0.38771287,-0.6673777,-0.75297683,0.32663673,-0.7204162,-0.4095554,0.04629757,0.61216605,-0.22960898,-0.11446018,-0.25240844,0.27889428,-0.58164304,0.18330999,-0.08254315,0.25007376,-0.47277617,-0.40147457,-0.16782269,-0.1369092,-0.0540381,-0.06512746,-0.26713985,0.26552844,0.5642237,-0.3295182,-0.3290883,0.5651411,0.4109569,-0.7869777,-0.160473,0.43509966,-0.98228294,0.6404663,0.7279316,0.20432821,0.7852442,0.14102416,0.7211188,0.24832793,0.63311565,-0.30328095,0.76983505,0.43584815,0.14429995,-0.4885264,0.66768825,0.42254257,0.24293806,-0.43616754,0.8290129,-0.53055626,-0.047980156,-0.192027,-0.7018034,-0.3237108,0.8790541,1.1864549,0.031226274,0.4140652,0.54758495,0.038919915,-0.2920056,-0.18090132,-0.030423518,0.99740946,0.34790155,-0.041602865,-0.80216897,0.019868232,0.48185265
al,-0.78922147,0.18551332,-0.19325621,-0.4165601,-1.0661161,0.030507764,0.8945923,0.19463074,0.19115937,-0.13626748,-0.48509234,-0.35984796,-0.3009952,0.23590812,1.0669659,-0.09535869,0.062174197,-0.64702386,0.8413502,-0.87324417,0.07509168,0.600425,-0.25918627,-0.49338472,-0.34648877,0.63905346,0.33378926,-0.8979645,-0.16418116,-0.77263993,0.5703803,0.4345829,-0.5169922,-0.7615388,0.40326995,1.0159168,-1.1272768,-1.1804308,0.942508,0.8599081,0.5902738,-1.1204451,0.106779985,0.19068798,0.40420803,-0.6771117,-0.49932495,0.13013077,-0.47106487,-0.28529254,0.29353008,-0.013373428,-0.36302638,0.34179714,-0.20548266,0.8955255,1.4708122,-0.5787032,0.15444966,-0.63430256,-0.41429594,-0.3407913,1.054674,0.12940003,0.0230699,0.090108044,-0.26698732,0.24264523,1.2689577,-0.19653498,-0.7694351,0.15906847,0.6223321,-0.64244896,0.5924688,-0.31236595,-1.0635693,-0.32209453,-0.37740028,-0.01806949,-0.33809805,-0.4947778,0.8439321,0.078535005,-0.26966825,-0.14018236,-0.09523731,0.9985498,0.5692495,0.10316569,-0.2895399,-0.2633319,-0.043716796,-0.042092405,-0.07050385,-0.6665606,-0.9285941,-0.6024309,0.35494787,-0.086052924
algorithme,0.85661024,0.6367369,0.54379827,-0.06904216,-1.3120117,-0.3360201,-0.4445385,1.1746721,0.5097568,0.74904853,0.2911288,-0.6661435,-0.3672502,0.9782966,0.23160146,-0.77911353,0.08632833,-0.41691446,-0.021029735,-0.9328427,0.26781523,-0.5749393,0.46754608,-0.7340152,-0.11387731,-0.33937395,-0.8970379,0.15650302,0.7049768,0.6477233,0.14478852,-0.43750912,0.29463956,0.1586077,0.609369,0.23141707,0.7328827,-0.4411044,0.17274997,-0.7406432,0.20653254,-0.22514877,-0.32219154,-0.29454964,-0.26787502,0.0048519047,-0.44975588,-1.0079418,-0.27381483,-0.65025985,0.44377124,-0.81264716,-1.0214487,-0.1470182,-0.21824935,0.62976074,0.20936638,-0.39737514,-0.24229586,0.2799338,-0.13453014,0.33309603,0.5800342,0.43586454,0.11586013,0.94925296,-0.034380443,0.95682365,-1.0623685,-0.010562197,-0.7989543,0.15312938,0.41188407,0.30765235,0.7471679,-0.089376874,-0.27615076,0.10346349,-0.18988924,-0.2708213,-0.649883,-0.07533301,0.040607583,0.8879229,-0.5314043,0.66459954,0.7304348,0.688693,-0.41701466,-0.0010912603,0.63553023,-0.28657478,-0.17346625,0.33694747,0.8276291,0.023941766,-0.55273026,0.08669258,-0.20083733,-1.000016
algorithmes,0.005552376,0.6237751,0.2631976,-0.531185,-0.25826913,-0.08347631,0.08911796,0.81885123,0.09450274,-0.5217571,0.8366347,-0.070393294,-0.73850316,0.57690966,0.21160536,-0.29569477,-0.5637664,0.09691674,-0.12719704,-0.43571156,0.33072066,0.55504036,0.33486634,-0.08882335,-0.22885294,0.6471802,0.03526423,-0.32129043,0.57068473,-0.21829583,0.98785645,-0.65265584,0.77075106,-0.9415233,0.8860257,0.12825803,0.61384517,-0.022697682,0.30883256,-1.2154852,0.82456416,-0.08826508,0.41022456,-0.18180408,-0.6584441,-0.6998928,0.2942599,-0.27292728,-0.43335328,0.16851667,0.0950385,-0.29409245,0.03395884,-0.617577,0.30652002,0.7143886,0.6087841,0.059854496,-0.72466564,1.0257814,-0.67457503,-0.79162115,0.5696521,0.5491356,-0.22750905,0.65080386,-0.23004112,0.57173896,-0.17444181,0.2706176,-0.16141288,0.073601715,-0.10860188,-0.30460003,0.8594111,0.25652763,0.28382042,-0.000760805,0.010604668,-0.44771615,-0.6363009,0.21308146,-0.25611725,0.5353837,-0.10195276,0.005729245,-0.29689535,1.0639328,0.08847803,0.18953156,0.5730141,0.31505737,0.26782343,-0.4250463,0.68655026,-0.05243703,-0.13747625,-0.7381454,-0.14799887,-0.47288984
algèbre,0.4554116,-0.39928192,-0.18491942,-0.028606838,-0.013457164,-0.39696455,-0.43437004,0.9604812,0.12686762,-0.080305226,-0.5870836,0.44319123,0.29888043,0.3247165,0.19536458,-0.24936315,-0.55869734,-0.6497139,-0.20897287,-0.9179366,0.23943354,0.5349921,0.3423183,0.58627254,-0.8524964,-0.8930428,-0.6267849,0.12170771,0.0015753827,0.3706206,0.0636453,0.1525699,0.7950134,0.2652921,-0.25914374,0.51807636,-0.6153453,-0.3467723,0.6378013,-0.025801651,0.10292745,-0.19511394,0.27635953,-0.0020755543,0.091824494,0.1343008,-0.8074527,-0.46943712,0.5976079,-0.48525748,-0.08722618,-0.44710115,0.44194612,-0.3165077,-0.020131135,0.7770814,0.4054719,-0.016611373,-0.13111062,0.541235,-0.077386245,-0.15773359,-0.17285132,0.6321014,-0.3158076,0.71969414,0.9145494,-0.19932586,-0.31255972,0.42024714,-0.3185039,-0.8335925,0.35532165,0.46805677,0.615424,-0.54784137,-1.2535108,-0.83054566,-0.9000568,-0.032576256,-0.47528842,0.11768032,-0.77436465,1.6109358,-0.101096995,-0.17640403,-0.5007139,0.846482,0.77898955,0.70440155,1.2672626,0.0597794,0.29027143,-0.5369729,0.5531376,0.45735598,-0.27155173,-0.26128718,0.59256434,-0.21188718
algèbres,0.14496638,-0.20262474,0.1987223,-0.11379484,0.1063471,-0.25355253,0.4137053,0.5003032,0.33209416,0.071138285,-0.7892073,-0.8604806,0.05194723,-0.12386264,0.9467222,0.58564574,0.23789668,-0.40885934,0.17169379,-0.7416315,0.28202188,0.2586285,-0.28444454,-0.3567813,-0.6732817,-0.040135726,-0.15814163,0.04354156,-1.0221922,-0.098183535,0.3676332,0.014789437,0.7215302,-0.1674677,-0.16099246,0.64564574,-0.52210635,0.104645655,0.7236892,-0.9273936,-0.012267254,-0.08527071,0.6914052,0.038958434,0.66617405,0.36111543,0.036222707,-0.20178092,-0.2870585,-0.24058929,-0.4022444,-0.74747676,0.6611419,0.06893863,0.091925204,0.6750962,0.3993677,0.13576983,-0.39746973,0.46565384,-0.15722622,0.44489777,0.23651618,0.25336525,-0.5365521,0.3398705,0.37791052,0.19540408,-1.0085436,1.7257273,0.14031702,-1.0281122,-0.06211225,0.5303897,0.7275746,-0.21036346,0.89518106,-0.56372905,-1.775005,-0.38667446,-1.1803151,-0.2270344,-0.15206659,1.0992377,-0.1653191,-1.2721334,-0.7228361,1.4806887,-0.09828822,0.43382743,1.3234941,-0.030760441,0.24564108,-0.21440233,0.95472413,0.7042098,-0.5177997,-0.6444204,0.3071447,-0.41083774
algébrique,0.2810017,-0.17890123,0.13394886,-0.2570825,-0.07434148,0.81823844,-0.2918046,0.33765855,0.750359,-0.19410749,0.103780285,-0.07338523,0.0015251776,0.2565368,0.032428466,-0.149763,0.46884075,0.27253366,0.26374352,-1.3965751,0.54660076,0.14045772,0.6122088,-0.028363155,0.28539857,-0.37176508,1.2155983,-0.03339969,0.32676736,0.42960632,0.5033994,-0.2962828,0.783714,-0.6156046,-0.8205986,0.8627642,-0.6192275,-0.1473801,0.62523234,-0.39645985,-0.24089904,-0.79957,-0.18408667,-0.1707607,0.47428393,-0.16696964,0.4998421,-1.2276982,0.09391793,0.36937937,0.33007133,-1.0626968,-0.4858925,-0.15967901,-0.21485002,0.9438443,0.07976666,-0.008138398,-0.2419743,1.219409,0.315301,0.19114701,-0.03435164,0.23678897,-0.7650168,0.32890144,-0.19596924,0.2605953,-0.5088402,0.88496435,0.37705666,-0.28889203,0.25140858,0.5293119,0.23878294,-0.076568656,-0.19117357,-0.2408808,-1.5121316,-0.7430211,-0.54787296,0.08251167,-0.08229298,2.2021346,-0.50208205,-0.22977829,-0.26839665,0.02048615,0.4250977,0.28686023,0.866351,0.22627334,0.7680588,0.23100589,0.2725782,0.59329545,-0.5731417,-0.27144077,0.19336368,0.23187083
algérie,-0.29249573,-0.5937403,-0.25589314,-0.42183018,-0.24183358,-0.3643391,0.11291311,0.47836277,-0.6441545,-0.60772043,-0.6354514,-0.5284202,-0.09817822,0.7740028,0.26965305,-0.22917046,0.1125897,0.07920549,0.3167865,-0.48588863,0.3185446,1.0999142,0.55172473,-0.044191364,-0.44893044,-0.35113174,-0.734177,0.4356525,-0.6366386,0.73567337,1.100032,-0.103972785,-0.028599326,-0.06314501,0.36623862,0.09763466,-0.4156218,-0.32157215,-0.5232215,0.5630359,0.96287054,0.28159615,-0.18966281,-0.41424862,-0.052612286,-0.6257937,0.014894897,-0.036482096,-0.1509627,-0.00458604,-0.2188183,-0.02193003,0.47223487,0.2652071,0.052803747,0.75555307,-0.31911373,0.021953959,-0.033284243,0.18308912,-0.08055263,0.45857483,0.050361462,0.9432796,-0.51221836,0.6066792,-0.61369044,0.79467976,-0.9345428,0.09095375,0.16139767,0.662257,0.021260712,0.2694252,0.2786547,-0.479901,-0.07001443,-0.24595258,-1.0658263,-0.6218796,-0.40377435,0.7152093,-0.3677447,-0.7279939,-0.3152712,-1.0045772,0.6119588,-0.7074934,0.24192293,0.5372467,-0.33504558,-0.10332152,-0.16548604,-0.26683956,0.6555601,0.5629485,0.911877,-0.011063343,0.2972871,-0.18580247
alimentaire,-0.897386,0.55907863,-0.3414542,-0.34220842,-0.5569237,-0.43199322,0.6832758,0.36705363,-0.88409775,-0.7854534,-0.60768545,-1.0834444,-0.10798985,0.34030375,0.9277822,0.22049606,-1.219329,0.22947884,-0.09317767,-0.27948177,0.26377904,0.19894327,-0.3994862,-0.62814784,0.8674313,0.28431952,-0.8266535,0.83855695,-1.2115633,-0.045751188,0.79283875,-0.52867514,0.2883483,-0.16681138,0.50647014,0.42235404,-0.92329633,-0.3402295,-0.54815453,-0.6360386,0.6375959,0.42831957,-0.54771227,-0.18911591,-0.08977926,-0.33748585,0.10687123,-0.009862512,-0.21924406,0.2978207,0.51506996,0.53743476,-0.51183635,-0.15743993,0.92523515,0.64934456,0.59264266,0.3692287,-1.0097035,1.1313629,-0.29487348,0.6400435,-0.32938644,0.1670784,0.33255494,-0.37603632,-0.5586383,-0.37930056,0.1054999,-0.027332062,0.7091034,0.8261172,0.40472272,0.8128785,-0.21157868,0.15215234,0.5925461,-0.41409367,-0.8811671,-0.42332286,-0.9871586,-0.97600096,-0.3391037,0.46839935,0.22307462,0.84677845,-0.0896682,0.39553404,0.3059435,-0.74258345,0.41498673,0.6528307,0.20173042,0.28092006,0.96852696,-0.5985312,-0.37987983,-0.38796297,0.5088392,0.1668429
alimentaires,-0.37006366,0.09835127,-0.87407476,-0.2825956,0.42795238,-0.8703516,0.75775254,0.32293695,-0.9858171,0.34546077,0.005549199,0.45927465,-0.74059904,-0.09916083,-0.23425737,-0.14737372,0.15762156,0.25660464,-0.2437425,-0.7997035,-0.04704653,0.1828443,0.05035279,0.062136706,-0.30208194,-0.50987434,0.18630487,-0.14322004,0.14739293,-0.2972993,-0.6514764,-0.24431679,0.3169162,-0.027055195,0.22342753,0.76376873,0.4725356,-0.60658467,0.30908048,-0.06556685,0.14911754,-0.5560489,-0.41445592,-0.2911238,0.13330135,-0.32751587,-0.032561705,-0.2809349,-0.29204473,0.3294356,0.041468292,-0.23869522,-1.1703095,-0.6284397,0.3664853,0.5701013,0.6896924,1.1098711,-0.13569246,0.3350083,0.42164218,0.31998047,0.38143086,1.0495633,-0.086782075,0.20247518,-0.24633795,0.10498233,0.41098613,-0.26177013,0.61281055,0.33113164,-0.021098142,0.57937205,0.0013911017,0.9084382,-0.2002679,-0.103268884,-0.14102672,1.3960757,-1.2707255,-1.0705423,0.51824576,0.42016092,-0.19059289,-0.082794495,0.5728907,0.5744814,0.5206282,-0.4611735,-0.23824161,0.4284139,-0.22551481,-0.2542031,0.43708396,0.046923142,0.09145778,-0.2543441,-0.2812741,-0.12673955
allant,0.40959093,0.60391873,0.26833588,0.41496703,-0.3518728,-0.6360529,-0.07696855,-0.022987349,-0.40773538,-0.3902723,1.1766348,0.4193206,-0.1195403,-0.23860158,0.7982086,-0.26575527,-0.71885794,-0.4268228,-0.0051239785,-1.4577689,-0.52550834,1.372599,0.7572563,0.58456254,-1.0802455,-0.16091157,-0.9050967,-0.5949592,-0.54777926,-0.69485134,0.8992952,1.0322443,-0.14360225,-0.40484446,-0.08995579,0.7507466,0.1061127,0.19648632,0.6059594,-0.031444337,0.5023685,-0.18930984,0.09917526,0.16046101,0.72455037,-0.9662811,0.16506538,-0.09485927,0.35873324,-0.5762207,-0.13070378,-0.092327885,-0.06507346,0.008697352,0.5453839,-0.7678397,0.15703154,0.059747573,1.180031,0.24763867,-0.71422213,0.38976026,0.5367197,-0.031200234,-0.064359166,0.52592313,0.20920159,0.34060845,-0.064069666,0.46762353,1.015967,0.6064396,0.22099406,0.27308476,0.4998116,0.5693662,-0.017157413,-0.02946559,-0.28347594,-0.17567429,-0.30264774,0.6062011,0.33131403,0.97433144,0.6644206,0.0019924222,-0.020807823,-0.4192255,1.0058408,0.31581888,-0.1520802,0.0694114,0.20013703,0.40815005,0.4005652,-0.53562945,-0.09449387,0.4674619,-0.3696349,-0.37785047
allemagne,-0.41171858,-0.50460017,0.0001713496,0.6750922,0.36092755,-0.5461306,0.48183548,-0.22577395,0.09518755,0.11896016,0.016607698,-0.5578749,-0.12612756,-0.16788803,-0.24835682,-0.16963612,-0.3635777,-0.62721825,-0.4609936,-0.20798948,-0.0279741,0.37610975,0.099417634,0.40276515,-0.2089895,-0.36201012,-0.16748868,0.44275418,-1.0978482,-0.2581372,0.40254557,0.19208504,-0.3967471,-0.93152803,0.18878156,0.46583635,0.24472891,-0.087687716,-0.32174903,0.55802315,-0.13847825,0.005835504,0.12406166,0.89592,0.79084337,-0.67910695,-0.37898225,-0.03626765,0.16218331,-0.54581153,-0.23757334,-0.7217908,-0.16837727,-0.7122797,-0.34609094,1.0519143,-0.50349504,-0.1221551,0.03117326,0.19851415,-0.24913736,-0.26830095,0.14988463,-0.6399818,-0.05381718,1.4479641,-0.43814704,0.34963524,-0.3453344,-0.038215127,-0.4019343,0.7131452,-0.12838124,1.176699,0.20543039,0.043343537,-0.27901995,0.7394503,-0.4057892,0.3191062,-0.32700142,0.8890869,-0.09253641,0.33344907,-0.023711175,0.088061765,0.34668607,1.1503836,1.0860007,-0.15679026,0.41147754,0.25810403,0.21470481,0.17116679,1.1640282,0.37841856,0.3847369,0.093710154,0.22455464,0.76689315
allemand,-0.861621,0.3908165,0.026926868,0.8028637,-0.5351204,-0.50653726,0.35965994,0.7653444,0.349408,-0.49597955,-0.91733545,-1.0846379,-0.4064872,0.31574386,-0.6203251,-0.5625173,0.034310155,-1.5822502,0.36343095,-0.03830002,0.5732985,0.53221935,-0.039556045,-0.22786583,0.07007494,-0.74818265,-0.11611343,0.40565518,-0.42976546,0.99124104,0.8176534,0.24643107,-0.60476965,-0.49170756,-0.20151532,0.6574716,-0.48564434,-0.66398215,0.28818047,-0.38077393,0.65968776,0.8472823,-0.2837061,0.5597696,0.13339202,-0.388482,0.4712922,0.07971423,0.0953508,0.3008715,-0.48089993,-0.3434307,0.8343688,-0.3099276,0.2548511,-1.2431006,-0.13756883,0.19048473,0.39510274,0.19886082,0.40290722,0.8126003,-0.0013681446,-0.015827708,-0.7761814,0.22980691,0.33858448,0.4218173,-0.22224475,0.52463114,0.36297256,0.12022752,0.616854,0.6457615,1.0520777,0.6512315,-0.6333955,-0.09675131,0.081619926,0.7439229,0.81088865,0.5358316,0.2506378,0.3435715,-0.23156446,-0.38223276,0.67171645,0.4455492,0.28173473,0.16549249,0.13565862,0.3553847,-0.4088049,-0.30058473,0.18874408,0.09988825,-0.9455754,0.0054682004,0.2168119,-0.36109403
allemande,-0.5646954,-0.18032351,0.24755251,0.8351446,-0.8212922,0.22681043,0.038648106,-0.6900762,-0.624282,0.74497294,-0.41231936,-0.23749112,0.06340135,0.85345155,0.5064474,-0.6622027,-0.22169842,-0.2368101,-0.25759357,-0.5864715,1.1159332,1.6902404,0.5963505,-0.39394292,-0.22355676,-0.017717924,-0.06862941,-0.06458912,-0.7606279,0.7996756,0.52753156,0.6276927,-0.14605552,-0.4815579,-0.34088975,0.59408015,-0.8907672,-0.068246976,0.26292846,-0.117062286,-0.23322353,-0.15106662,-0.23491831,0.47225302,0.65405744,-1.0330793,-0.112596,0.15115686,-0.042185977,0.3132878,-0.55296355,-0.63226587,-0.32731342,-0.64707214,0.69699234,0.35937428,0.18163772,-0.8916941,0.29134518,-1.4316374,-0.17482586,0.05533993,0.5408935,-0.7599881,-0.082223065,0.25797418,-0.09435605,0.2755727,-0.24767481,0.13582802,0.5397295,0.58855987,-0.0752031,0.14250296,1.2229286,0.14371222,0.25876445,-0.38411993,-0.359201,0.0826791,-0.15785123,0.27020994,0.40443587,-0.076647095,0.7180768,0.57078606,0.31753525,0.088876486,0.9592557,-0.09065097,0.12310671,-0.05985501,-0.68907124,-0.02544049,0.2993464,0.2957246,-0.20605692,0.57242274,0.22674026,-0.5008258
allemands,-0.9905796,-0.16246682,0.39410654,0.34309593,0.83268344,-0.25220266,-0.42746884,-0.6431316,0.2624279,0.14386709,-0.7991782,-1.2897336,-0.2651889,0.4543621,-0.3967009,-1.4024673,-0.7154517,-0.035322443,0.94363254,-0.14315064,-0.019897364,1.3278354,0.024285177,0.3644469,0.2544739,-0.7768121,-0.28320855,0.23957992,-1.0122185,0.9697905,1.0751804,0.14414427,-0.007932001,-0.38281336,0.09531331,0.120497085,-0.81051075,-0.27012223,0.42305225,0.21911903,0.78443235,-0.284681,0.09251062,0.92331564,0.30719584,-0.5710091,-0.23218052,-0.6832587,-0.49437484,0.8819699,0.09668567,0.2543402,0.10994679,-0.20972396,0.74139524,-0.49820462,0.34320068,0.11410106,0.48908696,-0.16695078,-0.078555316,0.24387696,0.8899065,0.22713102,-0.7221818,-0.053822454,0.0857064,0.20910937,-0.26998323,0.66745955,1.0548046,1.2126899,0.55561423,0.34348622,0.76269764,0.070284024,-0.83767915,0.045238573,0.040737312,1.261877,0.7327432,0.08734848,0.453563,0.682044,-0.3939614,-0.28417948,0.1530534,1.0416224,0.31077248,-0.04410347,-0.180749,0.21513009,-0.25237164,-0.022884235,0.41078556,0.17959824,-0.12778097,-0.21456765,-0.49022588,-0.004213318
aller,0.25764284,0.5322512,-0.42460126,0.6186357,0.7516322,-0.43354937,-0.36253077,0.8790803,0.065607965,-0.4838546,0.7157871,0.040845107,-0.14488937,-0.038723405,-0.49134645,0.30005214,0.14813842,0.12664123,0.3098365,-0.7334464,-0.13779147,0.8660332,0.37138933,-0.22366358,-0.62136817,0.15998204,-0.09896472,0.69085515,-0.4442998,0.32599565,0.40714407,-0.04152484,0.44100258,-0.87400526,-0.6197397,0.65553504,0.21549942,0.40968123,0.1065209,-0.5346796,0.9037159,0.5821136,-0.37030444,-0.016547058,-0.03205217,-1.2087067,-0.66037655,0.29027647,0.51171076,-0.019959154,0.50286865,0.1400746,0.1850686,-0.46646228,0.51652855,0.60840994,0.5741096,0.95934534,0.57031745,0.18742411,0.14287211,0.4782306,0.8226386,0.20074531,0.6345291,0.07364164,-0.2102184,0.024263557,-1.148482,0.25100917,0.13135777,0.5045699,0.25620744,0.3509798,0.21120256,-0.64849573,0.8101121,-0.083651915,-0.20640929,-0.39688256,-0.50752383,0.28441027,0.458702,0.35848638,-0.09645671,-0.04351329,0.08072582,0.18625875,0.58136225,-0.5499708,0.86231804,0.44018263,0.48818508,0.12619917,0.14192456,0.30275756,0.31893024,0.07070846,0.07132162,0.4528096
alternative,0.012893128,0.17018001,-0.08726756,0.045339018,-0.9165111,-1.1868818,-0.07138831,-0.047215667,-0.33931267,-0.4381349,0.67452234,0.27965578,0.11873143,-0.38296667,0.6720821,0.33978984,0.07075998,0.06249343,-0.16501129,-0.22929664,0.38662535,-0.592305,0.40120077,-0.7184226,0.14750285,-0.13906863,-0.7631391,-0.12962228,-0.061381828,-0.11806119,0.25793225,0.11203081,-0.27457893,-0.18905978,-0.2090851,0.05871932,0.09457184,-0.32352072,0.39907086,-0.07621501,1.4051915,-0.18052922,-0.33895513,0.08546621,-0.1524352,-0.39280927,0.18548399,0.09358845,0.50598794,0.3176527,0.16868746,-0.039622534,-0.23611851,0.10329776,0.20469567,0.116605684,0.69058436,1.0924443,0.034335807,-0.40636268,-0.031855945,-0.030868702,0.06821103,-0.4401875,0.06472407,0.9918963,0.16174614,0.333289,-0.26991317,0.28491133,-0.28271967,0.1041396,0.44798133,-0.1463621,-0.010430662,-0.6336365,-0.6080286,0.93625903,-0.5495848,-0.19455402,-0.23597999,0.59336424,0.2392531,0.79209524,-0.20098901,-0.1938012,0.14329618,0.0064262836,0.5652517,-0.13860273,0.816241,0.44749168,0.1206499,0.30921352,0.14028417,0.7237954,-0.37219146,0.9430146,0.07128528,0.44529575
alternatives,0.16536646,0.7959681,0.83872247,-0.46815056,-0.20509909,-0.43482405,-0.39982244,0.9896013,0.3328296,-1.0245589,-0.2967139,0.11900863,-0.01953695,-0.52489245,0.65774244,0.41264555,1.3078837,-0.109885134,0.19922961,-0.8777171,-0.33573,0.74927026,-0.21825205,-0.24051525,0.08491528,0.4234156,-0.7187505,-0.3754734,0.0039903396,0.123170145,0.3430107,-0.5666091,-0.28794277,-0.46300557,0.5154916,-0.33571792,0.18805537,-0.3784259,-1.2550741,0.32426038,0.091460474,0.12375183,0.6739891,0.7295238,0.111135654,-0.46899614,-0.51351404,-0.28373477,0.46110338,0.10896189,-1.0368142,-0.055029992,-0.28207234,-0.3981609,-0.27577302,-0.37101123,0.36751783,-0.12145365,-0.34774676,0.43906385,-0.270861,0.046869554,0.87145406,-0.09940654,-0.43252167,0.9757808,-0.078633614,0.27158222,-0.22692609,0.0957096,0.54864323,0.76863337,-0.07598607,-0.052429117,0.57308584,0.6825059,-0.7271513,-0.22830518,0.37465268,-0.09660957,-0.70196664,0.5177977,0.025870273,-0.14731325,-0.3206125,0.674844,0.112675436,0.53817874,0.10792929,-0.20708187,0.048792873,0.34496236,-0.018559076,0.62351424,1.2026012,0.61894816,0.041922174,0.36757487,0.026870161,0.72496235
aléatoire,0.035845116,-0.0926883,0.12561987,0.42163396,0.12182712,-0.74961454,0.4428843,0.794909,0.070215106,-0.8374455,0.7247949,0.2437041,-0.7114019,0.19482845,-0.18110448,0.20341735,-0.6878541,-0.4465085,-0.14797227,-0.47032937,-0.3859226,0.09199699,0.3757649,0.33986422,1.196839,0.6551305,-0.30283666,-1.2160405,0.66788286,0.28603387,0.30155367,-0.5647586,-0.03435337,-0.024294287,0.2828285,0.72341853,0.6206354,-0.19328907,0.32869405,0.3845335,-0.1002105,-1.0761083,-0.41723776,-0.14689611,0.80804837,0.6209239,-0.6630626,-0.62178516,-0.7475299,-0.25038865,0.20951243,-0.74025446,-0.29702455,0.0010906894,0.020068556,1.0587558,-0.009174315,-0.0008851982,-0.56329364,-0.17223229,-0.47707173,-0.27177018,-0.39090183,0.09948763,-0.3667893,0.73900765,0.20148376,0.7886388,-0.24891219,0.31352657,-0.16628087,0.12699354,0.9916548,0.7302591,0.70888436,-0.17374846,-0.2672636,-0.19548981,-0.7367977,-0.3358434,-0.38529477,-0.5523321,0.46126536,0.7502197,-0.4654258,-0.054986697,0.078063264,-0.13205959,0.41426557,0.20620911,0.5028885,0.37118673,0.28023967,0.23766448,0.48919207,0.8425516,-0.4063283,-0.7137071,0.14150204,-0.48738605
aléatoires,-0.33827642,-0.27846313,0.6987776,-0.45138407,-0.054862507,-0.37668616,0.63879114,0.39096835,-0.48110917,0.09182547,0.5275709,0.04422943,-0.6143762,0.23611902,0.6164374,0.04252532,-0.12314751,-0.30369034,0.1312672,-0.97698134,0.030058136,-0.66771245,0.40623578,0.8021303,-0.29598686,0.7446647,-0.4212346,-0.2642917,0.3148913,-0.35686466,0.51827276,-0.2935971,0.35608312,-0.30606124,0.45086148,0.9760664,-0.13281901,-0.07892025,0.5166804,-0.14162244,0.81742764,-1.1099465,0.0059602433,-0.32473895,0.20452271,-0.16694468,-0.0004292844,0.6560332,-0.2994855,-0.5506056,-0.5384302,-0.12790202,-0.41567317,-0.20904768,0.5917235,0.5095406,0.6876297,-0.53177357,0.31426653,0.29535258,-0.17331281,0.3166385,-0.048328303,0.7936014,-0.1679045,0.5955567,0.769885,0.6608927,0.64166623,0.034110587,-0.23002028,-0.10548419,1.1589195,1.0978105,0.82013136,-0.24787071,-0.93936354,-0.044330895,-0.6766299,0.07180379,-0.078379646,0.81211275,0.56678396,0.6330495,-0.101018324,-0.15377867,0.75496095,1.0494435,0.57536465,0.17287134,1.0685192,0.14379478,0.44177774,0.5081514,0.15191753,0.2644913,0.093308695,-0.35570246,-0.4591396,-0.4449453
ambigu,0.15656056,-0.059673544,-0.20616591,-0.77163935,-0.076103084,0.1965528,0.22286895,1.0965658,-1.1536202,-1.3008715,0.25284168,-0.6682865,-0.48030886,0.2970556,0.83815366,-0.45109648,-0.08051114,-0.068067536,0.69874144,-1.4088615,-0.4275697,0.6748909,0.12318953,0.33418834,0.010710968,-0.6231499,-0.444861,-0.22179705,-0.10614765,-0.09069765,0.040005926,0.30515805,-0.23179965,-0.34481093,0.06933209,-0.14689882,-0.6890182,-0.27739322,-0.6043769,-0.21177477,0.105525136,0.28566116,0.38957977,0.95997405,-0.06304127,-0.21949239,0.061105307,-0.446684,1.2886142,0.57410157,0.45873457,0.35972604,0.33155,0.24665444,-0.7187418,0.5719102,-0.42178074,0.13269453,-0.40029237,-0.2039768,-0.2506082,-0.15206258,0.26246747,-0.15917479,-0.65121084,0.6735801,0.49088594,-0.49019936,-0.3656978,-0.23090014,0.5214372,-0.6879618,0.73873645,0.2275533,0.07512917,0.45682293,-0.08387974,-0.068370275,-0.023368213,0.163577,-0.32184535,0.21181545,-0.33670196,0.14427036,0.18426909,-0.76751244,-0.11399268,0.013378722,0.032998763,-0.39742544,-0.17235412,1.0962664,-0.40394792,-1.2629092,0.4187933,-0.11639401,-0.45795876,0.17704959,0.23147283,0.23321824
ambition,-0.3118101,0.37531537,-0.4611214,0.2732942,-0.7118756,-0.6547267,0.03610517,0.22495899,0.66155034,-0.15804982,0.584682,-0.32964176,0.9022548,-0.24344671,-0.19129221,-0.18539448,0.11341277,0.46167713,0.19089016,0.040978406,-0.19858181,0.7514763,0.8476187,-0.6094893,-0.10532256,-0.37922397,-0.26269507,0.28593192,-0.863583,0.3915066,0.2693556,0.32073447,-0.04317109,-0.086756304,-0.0451935,0.15740755,0.43251595,-0.31480297,-0.61833876,0.13964161,0.31373906,0.37894404,-0.54635584,0.27700076,0.028592698,-0.18616407,-0.29193282,-0.18957083,0.51342595,0.44827387,0.38509816,0.3343053,-0.116190664,0.3121902,0.51744014,0.14944942,0.9592136,0.09039727,-0.094777465,-0.61450946,-0.15055414,-0.68621176,1.2255064,-0.08904249,-0.21412857,0.3165145,-0.22552262,0.4058076,-0.824484,-0.077243105,-0.023092402,0.7602493,0.30531102,-0.08196964,0.60339844,-0.19781223,0.4334098,0.09965599,0.044063073,0.03761304,-0.35373303,-0.39662483,0.5361093,0.3643037,0.07596687,-0.47355026,0.61332095,-0.06921178,0.7593944,-0.5405111,0.46599314,0.47429585,-0.12052473,-0.95711607,1.3716601,0.604035,-0.675696,-0.8878983,-0.123728245,0.35709757
amené,0.12873647,0.19396272,-0.6152863,-0.15329315,-0.9699636,-0.3329247,0.039815016,0.01441933,-0.11970165,-0.5070838,-0.18270643,-1.2262282,0.70597005,0.17669329,0.50234014,0.52540034,0.059637636,0.83122444,0.17781585,-0.4450651,0.63303775,0.268114,0.22965789,0.22892022,0.61276716,-0.6322962,-0.45126954,1.2424586,0.040022127,-0.048428915,1.2611072,-0.18817592,1.0352215,-1.0254719,0.3505271,0.22163661,0.96817154,0.28802618,-0.2632946,-0.86631787,0.6127153,-0.13950087,-0.28125226,-0.6943947,0.9389638,-0.45622858,-0.008322771,-0.08341048,0.075538196,-0.2374704,0.38003328,0.607484,-0.9922524,-0.09869372,0.26773906,-0.09367638,0.65864784,-0.34331462,-0.7292848,-0.33251676,-0.20532423,-0.346053,0.5019127,0.52551246,-0.6112883,-0.12275191,-0.19347024,0.41341117,-0.8265423,0.0018819744,0.24402215,0.74195254,-0.20319201,0.13686603,-0.38219324,-0.49091822,0.1887862,-0.45088747,-0.38980785,-0.16035986,-0.022219133,0.00065151596,-0.15611847,-0.46379238,-0.8771355,-0.5739493,0.7323087,0.43602064,0.9001894,0.4471665,1.1763889,-0.08600176,-0.8512544,0.075861834,0.2844623,0.28968987,0.14144939,-0.4953225,0.5467268,0.87714326
amis,-0.2839589,-0.19952445,0.5339801,-0.3730825,0.8274754,-0.057707507,-0.7368394,0.010027627,-0.6365962,1.0648737,0.47927555,-0.6363917,-0.4634705,0.9431208,-0.7303187,-0.5082565,-0.32450706,0.21097162,0.27586132,-0.55232346,0.22522303,-0.33621797,0.6531433,-0.213484,0.45703602,0.09235973,-0.7386076,0.52856237,-0.8199054,-0.09502099,1.0610185,0.6541258,0.34903932,-0.19895281,-0.9736438,-0.21670365,-0.4711757,0.24723817,0.2491833,-0.35871458,0.5412239,0.49213302,-0.98579144,0.18319096,1.2665153,-0.4462953,-0.4872258,-0.15008546,0.9284127,0.5068355,0.055616833,-0.6908335,-0.12645742,0.050947387,-0.29241237,0.15092812,0.67004645,0.47020742,0.03519732,-0.07393896,-0.33063412,-0.058474816,0.37101567,-0.33063388,-0.068574354,1.1248522,-0.8952692,-0.65539163,0.30918732,0.337421,0.30745795,1.8738792,0.21628277,0.06650942,-0.19972162,0.15715352,-0.017783538,-0.07829839,0.26124355,0.5016383,-0.11812033,-0.23626822,-0.2001433,0.04045639,0.10683045,-0.47508034,0.26979756,0.55906546,0.3124225,0.4664689,0.5649896,0.19133331,0.6828779,-0.64831394,0.60883623,0.103049,-0.5779621,-0.07168304,-0.4891982,0.23173325
amène,0.36842084,0.26227877,-0.2645411,0.5883041,-0.119169176,-0.15764104,0.26664168,-0.1057973,-0.38119555,0.90646124,-0.29985607,-0.37504148,0.59329623,1.1322759,0.52173996,-0.45341197,0.28347003,0.1828347,-0.100472726,-0.42607835,0.5479916,0.018933823,0.45691943,-0.7480482,-0.04497452,-0.5313933,-0.95536846,0.32453924,0.6269164,-0.26749507,0.68427896,-0.42340317,-1.2303867,-1.2794952,0.075778425,0.12728222,0.7233699,-0.011771456,-0.46000206,0.13342494,0.110376894,0.29778475,-0.13174978,-0.31920165,-0.12133017,-0.5820264,-0.7667796,0.1959234,-0.44485086,0.053612232,0.15169926,-0.28310862,-0.08590865,-0.45727316,-0.38741624,-0.65351737,0.48123732,-0.12241918,-0.03089068,0.11074454,-0.50192827,0.61279017,0.2554623,-0.012040294,-0.6970254,0.5217516,0.6469316,-0.846316,-1.1325271,0.300315,0.22296767,0.85427123,-0.18020733,0.91640455,1.0242221,-0.16329214,-0.108157665,-0.0017744813,-0.79791623,0.46166307,-0.8028082,0.17250995,0.50481266,0.6883473,0.008671663,0.5417725,0.62846833,-0.21336494,0.31109583,-0.5284434,1.435609,-0.013845558,0.0072113243,-0.6200264,0.47108018,-0.6941218,-0.2306293,0.5442159,0.7071166,1.0815188
amélioration,0.19848102,-0.6393935,-0.9798147,-0.53590083,-1.063478,-0.98201525,0.45212996,0.73355055,-0.039907206,-0.7229919,0.5513109,-0.04555122,-0.37820458,-0.7522755,0.12329881,0.5306576,-0.23040213,-0.49407038,-0.5412045,-0.7693006,-0.08994688,0.14704716,0.5460611,0.31333533,0.0023212547,-0.11505298,-0.68861485,0.54852843,-0.16374406,-0.73329943,0.042497415,0.44975445,0.7168512,-0.26237822,-0.034462918,0.064796776,-0.45854807,0.025812345,-0.8182512,0.17705232,0.54633754,0.11691302,-0.08792364,-0.4429658,-0.1919056,-0.15891682,0.0026339358,0.6326052,0.2898204,-0.2710224,0.33816928,0.47212923,-0.36694905,-0.07162723,0.031062115,0.99448603,0.1498635,0.54067737,0.040617153,0.68905956,0.05478383,0.0029175696,-0.17569903,0.12578176,-0.5367714,0.8791266,-0.18800752,0.46885902,-0.17556246,0.6222217,0.07704118,0.43073872,-0.064563885,-0.37357426,0.5360276,0.4973053,0.13914335,-0.24100196,-0.9356177,0.7641262,-0.92973727,0.76685655,-0.033040524,0.49584603,-0.27218235,0.79051554,-0.16563267,0.14238954,0.34797397,0.626308,-4.1990093e-05,0.17379831,0.2087505,-0.15749954,0.14616017,0.36986163,-0.036714625,-0.43159497,0.034544367,-0.14643349
améliorer,0.22631964,0.35948938,0.012331948,-0.23851438,0.34729877,-0.20586604,-0.47877115,0.73787874,-0.35821715,-0.021393433,0.14938399,-0.28994334,-0.76304686,0.15495162,-0.2251125,-0.9000517,-0.12902819,-0.18515661,0.38526344,-0.511936,-0.0037009697,0.8436613,0.8190174,-0.28368866,0.5561228,0.1689175,-0.28617427,-0.17681716,-0.15256883,-0.50109416,0.30811512,0.17503689,0.36899698,-0.317564,-0.20631234,0.90417176,1.0474657,-0.47193462,-0.5153261,0.016365841,0.8607649,0.35323495,0.5446197,-0.08100508,0.21501105,0.21554568,-0.1024986,-0.39476272,-0.6376843,-0.28936076,-0.3129016,0.2969947,0.091926366,-0.130435,-0.75078005,0.18870726,0.5292745,-0.4125981,-1.5110475,0.63458157,0.04598426,-0.42540985,0.9454993,0.14085579,0.15893301,0.35755157,-0.18310043,0.59262925,0.51164335,0.5814766,0.23534231,1.0436769,0.76173896,-0.18284275,0.17916772,0.2680032,0.7384913,0.39910987,-0.68101865,0.12336535,-1.4033556,-0.04708498,0.093657,-0.39073682,-0.3801702,0.28712723,0.7308773,-0.10125802,0.1300466,0.17443317,0.31231079,-0.24273416,-0.13910526,0.212433,1.1755495,0.24510165,-0.019392535,-0.3734246,-0.13799809,0.27944443
américain,-0.8809348,-0.5042135,-0.78654736,0.011925061,-0.07385611,0.09342243,-0.2822886,1.515094,0.7711094,-0.7170583,0.09329251,-0.067075044,-0.2946384,0.23831679,0.043078538,-0.39278355,0.01901447,0.33560848,0.11399256,-0.48057157,-0.60364366,0.31595284,0.07376355,-0.20090187,-0.26301622,0.24549226,-0.70577407,0.75500244,-0.82938385,-0.084847696,0.23792149,-0.7198911,-0.1613982,0.084436916,-0.80355555,-0.21425833,0.29011855,-0.035005033,-0.0988316,-0.018170528,-0.025211077,0.29423872,0.44418836,0.41247997,0.15523213,-0.2913246,0.518339,-0.65985304,-0.12201219,-0.11727563,0.16745,-0.01791573,-0.5605798,0.05960219,-0.7602986,-0.50348234,-0.68603116,0.12930524,0.41551107,0.44914505,-0.6683514,0.20069216,0.77930003,-0.2763101,-0.7478498,0.0043691974,0.6175905,0.4482175,0.010151445,-0.26701805,0.5244643,1.3354669,0.43180886,-0.039833978,0.048531964,0.75942594,-0.29136392,-0.5841024,-0.23659174,0.09817084,-0.47291324,0.39092788,0.06194676,0.70854056,0.3362458,0.16725618,0.088963956,0.73023164,0.45653492,-0.32311705,0.013176314,0.142201,-0.30944672,1.0099558,0.65001845,0.3523483,-0.7167485,-0.68130255,-0.2729509,0.78769
