aborde,-0.15071383,0.15480824,-0.069072425,0.22184564,-0.1519771,-0.12451831,0.17006826,0.23278296,-0.18619438,-0.23041931,0.029767176,-0.2445587,-0.051112607,0.23153359,0.12412501,-0.1441196,0.14319082,-0.06741628,-0.1653401,-0.5629154,0.060484722,0.10308105,0.09418957,-0.06342351,0.14120694,-0.043495074,-0.29123184,-0.0323942,-0.28044814,0.03700021,0.17063351,0.060769226,0.04108836,-0.35772806,-0.17402849,0.23598081,0.026776321,0.025738137,-0.19533584,-0.019253459,-0.04622922,-0.065446645,-0.14727372,0.16874142,0.0056265965,-0.20798789,0.06969263,-0.034310233,0.22813389,0.22472356,-0.058688436,-0.23389684,-0.19973464,-0.06624581,0.046360657,0.01760829,0.16226655,0.07125234,-0.08150885,0.1598242,-0.020291895,-0.23627715,0.30774242,-0.07697756,-0.20810017,0.14255877,0.044783194,0.24378304,-0.29470962,0.14800908,0.03423957,0.24031499,0.13809288,0.043095075,0.11530148,-0.024889037,0.0896649,0.09740844,-0.12914887,-0.08295461,-0.3641093,-0.09718732,0.0131970905,0.31885627,-0.13033508,-0.122188605,0.21753094,0.031433802,0.24909918,0.24739164,0.09478615,0.22106844,0.17840698,-0.031552244,0.18774383,0.15049472,0.06328808,0.018882703,0.17995892,0.16760927
aborder,-0.1037285,0.062482078,-0.06390625,0.052547745,-0.09808724,-0.07602094,0.043283872,0.142875,-0.10376592,-0.11346987,-0.017099816,-0.07123478,-0.054996252,0.04300262,0.061264653,-0.06984023,0.10583264,0.02876151,-0.045581046,-0.17650785,0.018000327,-0.018517906,0.1507759,-0.053392395,0.021957837,-0.021692345,-0.12375441,-0.027848078,-0.09310506,0.019798653,0.10863728,0.046876874,0.02100707,-0.19628647,0.032931894,0.12436833,0.076694675,-0.009454248,-0.115762316,0.0068101077,0.039482296,-0.06255601,-0.09070971,0.034574073,0.10764176,-0.14164259,0.021288449,-0.024689317,0.120986424,0.104060754,0.03365157,-0.053235088,-0.13085413,0.033865478,-0.0133898435,0.0372096,0.021054704,0.043943133,-0.07912878,-0.0069208327,0.035578378,-0.06994718,0.10298108,-0.0070653753,-0.11954277,0.08714266,-0.0046038018,0.073221885,-0.11307332,0.095090844,-0.009996366,0.14845958,0.082509466,0.07052994,0.11448318,0.07018822,0.039027918,0.09604387,-0.024768902,-0.013907291,-0.1656662,0.041866846,0.073137164,0.08014115,-0.11100094,-0.07476527,0.13406317,0.14175284,0.086542904,0.101276964,0.101681404,0.103172064,0.017412206,-0.03383575,0.20160063,0.07491816,0.018379143,-0.010010138,-0.003243522,0.060705867
abordons,0.026146615,0.13125803,-0.13175678,0.10319978,-0.16855864,-0.11605354,0.08580501,0.17856134,-0.08505353,-0.06995749,-0.011140942,-0.16864645,0.1369224,-0.0024341354,0.03216632,-0.09051036,0.016887244,-0.039809544,-0.0544266,-0.24272823,0.14165142,0.12257109,0.03949154,0.0068370076,0.061486866,0.011672942,-0.11265648,-0.030441387,-0.058605198,-0.010008778,0.10327429,0.026671316,0.13036428,-0.21636693,-0.0014945896,0.14269483,-0.06724257,-0.0063440837,-0.030953787,-0.105390646,-0.044147827,-0.04624202,0.046079848,0.13634336,0.04226195,-0.038994465,0.02858643,-0.038753707,0.012036551,-0.0066545852,0.011336046,-0.20047651,-0.113211066,-0.088537954,0.06664644,0.012948732,0.052253343,-0.0261581,-0.09116176,-0.010029,0.02860339,-0.12387531,0.06556104,0.06411129,-0.1950483,0.15557526,0.025559744,0.18376826,-0.15118909,0.07545025,-0.12238179,0.01910974,0.12565903,0.042537093,0.056241114,0.09225262,0.05347088,0.036719818,-0.13348696,-0.018749028,-0.10610221,0.02881438,0.09383154,0.10846979,-0.114196114,-0.090018325,0.054933432,0.02984724,0.030053781,0.08413285,0.11173195,0.05999144,0.09240687,0.06435494,0.2545322,0.050519627,0.07654668,0.04043815,-0.019580688,-0.038703844
abordé,-0.016417582,0.043842226,-0.10015951,0.02935764,-0.015066007,-0.13427778,0.023115559,0.19337842,-0.088234685,-0.107595615,-0.010030435,-0.08311042,-0.031162554,0.06281168,0.057901103,-0.0652877,0.041134313,-0.006318854,0.01958392,-0.18489465,0.053644504,0.033622812,0.0904077,-0.06271398,0.041190296,-0.06849785,-0.09134089,0.0019245903,-0.093706354,0.019705266,0.12482832,0.023569241,0.009567815,-0.13169646,0.00024252434,0.1057233,-0.016032856,0.0062587373,-0.0625464,-0.07454799,0.039777298,-0.08707646,-0.034785893,0.048299357,0.097481266,-0.09842429,-0.049819097,-0.016321527,0.07582578,0.08388383,0.047172762,-0.06329401,-0.10085369,0.0028604316,-0.0033371593,0.046433263,0.029424606,0.007991707,-0.080031656,0.0007458282,0.0039658956,0.0018098037,0.086747624,0.040516764,-0.12765306,0.13612273,-0.03599974,0.08667966,-0.09300035,0.05737226,-0.0002201397,0.12671869,0.0868317,0.0082960995,0.13137184,0.04475267,0.034228798,0.08228355,-0.102980174,-0.021220403,-0.13033953,0.016835358,0.010844566,0.097266436,-0.058883894,-0.033861388,0.09036778,0.1063685,0.11395095,0.07498538,0.08975865,0.06444681,0.053740148,0.029660383,0.17385402,0.11060979,0.020669846,-0.047783613,0.0013231753,0.023669587
aboutit,-0.10087229,0.07859931,-0.00738456,0.0503821,-0.027073776,-0.09209396,-0.016438978,0.21671617,-0.08557872,-0.13926372,-0.011392145,-0.046122774,-0.034484778,0.0752407,0.048486024,-0.05255147,0.067076236,-0.026154924,0.008916546,-0.20324725,0.004426656,0.044328474,0.12634636,-0.13118275,0.008467384,-0.06653435,-0.12681279,0.011790968,-0.120497376,0.04607147,0.1342212,0.012113405,-0.027747435,-0.14689834,-0.016300615,0.13902162,0.03676166,-0.010590432,-0.0706941,-0.05445902,0.06890226,-0.0832746,-0.11932898,0.0310939,0.114466004,-0.14392959,0.017585704,-0.037472524,0.06395416,0.09838733,0.048413597,-0.048323546,-0.13343641,0.009579834,0.0052966895,0.034333892,0.04845118,0.050036006,-0.12783077,-0.020642072,-0.038403984,-0.00079948717,0.08553471,-0.017592194,-0.1300673,0.044621773,0.029257424,0.022784997,-0.0867,0.09905035,0.017696502,0.17359495,0.085611165,0.06531114,0.14623562,0.05341859,0.024403606,0.080570735,-0.052023828,-0.025145315,-0.103746876,0.028435754,0.019280352,0.112101346,-0.079758786,-0.040052403,0.088045456,0.15616202,0.11697014,0.13616452,0.075377345,0.1200152,0.03387617,-0.034399886,0.1325284,0.13981314,-0.02137849,-0.011736971,0.049961314,0.029934712
absolue,-0.16161704,0.024525391,-0.07044101,0.047736894,-0.008276569,-0.16103347,-0.02782187,0.28238568,-0.13611408,-0.18622075,-0.03910221,-0.12808934,-0.04690635,0.15560062,0.08172037,-0.06761962,0.040098872,-0.03489593,0.013745685,-0.26791072,0.027644824,0.11017788,0.1459264,-0.124393985,0.019104362,-0.085956365,-0.15607397,0.015662275,-0.15811071,0.07141583,0.13298942,0.041736644,-0.0357503,-0.18001275,-0.05357103,0.16690221,-0.03921054,0.013683175,-0.08682723,-0.051468175,0.084795736,-0.10981557,-0.14930138,0.0225792,0.2126221,-0.119908504,-0.017487474,-0.054100785,0.113514155,0.09654579,0.08531111,-0.084823474,-0.1143657,-0.021321567,0.04278691,0.040544253,0.006061791,0.020860514,-0.15527461,-0.06537273,-0.04061793,-0.0048623616,0.06558084,0.02507677,-0.18134445,0.093564264,0.0028001687,0.069185525,-0.11193514,0.13631907,0.03933297,0.16848844,0.110808216,0.019336106,0.16398396,0.053895306,0.03309922,0.10056843,-0.10533218,0.012922502,-0.15673007,-0.016565949,0.042655982,0.14637259,-0.09768965,-0.010363186,0.14534953,0.23047529,0.19367732,0.15084141,0.1264368,0.1971559,0.061130613,-0.04660736,0.23046225,0.21756436,-0.0005477213,-0.0642276,0.01587794,0.10088946
académique,-0.18876034,0.11093749,-0.051100228,0.06181568,-0.009098222,-0.18640698,-0.013593676,0.36353764,-0.14482164,-0.22853138,0.0033924654,-0.1528664,-0.048835404,0.1388332,0.0881936,-0.11664382,0.0102576595,-0.09784359,0.033694744,-0.3507593,0.025576074,0.10789803,0.13330592,-0.16044664,0.02128267,-0.1000367,-0.18174776,0.0064985026,-0.18061079,0.07929435,0.16166005,-0.0062478436,-0.027747808,-0.24631383,-0.07297399,0.2297475,-0.04683686,-0.009152945,-0.103146255,-0.11916137,0.08702817,-0.14424235,-0.23920117,0.04677588,0.20762205,-0.22837186,0.002678822,-0.062937975,0.08577003,0.15347193,0.117081635,-0.12050003,-0.18635313,0.0069355066,0.021918342,0.044156365,0.052632455,0.018508166,-0.21406373,-0.0983916,-0.03925403,-0.03280449,0.079594366,0.024507098,-0.21589877,0.16452229,0.009990064,0.096311495,-0.17578188,0.16314869,-0.007491626,0.27965462,0.1499725,0.031091576,0.21673137,0.11450405,0.016054368,0.1463118,-0.13304855,0.009123619,-0.19556959,-0.014601769,0.056048747,0.19577746,-0.09564259,0.0025282057,0.1705729,0.26692933,0.22410136,0.23108906,0.17511909,0.22364955,0.04354016,-0.044795625,0.26664084,0.22774068,-0.080797926,-0.02475959,0.040235464,0.08996757
accord,-0.2566239,0.06366429,-0.10033341,-0.12163061,0.0960355,-0.20863372,-0.00116671,0.46885493,-0.16610046,-0.28127953,-0.021913856,-0.086429104,-0.075946316,0.10753751,0.07343611,-0.11031769,0.08475584,0.059063934,0.026213545,-0.37684214,-0.040404003,-0.011888876,0.31027144,-0.2812525,-0.09117074,-0.13468982,-0.04400799,0.036902152,-0.23595124,0.12882857,0.32508364,-0.088044025,-0.05651063,-0.3438617,0.02899396,0.23717792,-0.11340223,0.0038504107,-0.10447993,-0.14034577,0.16118377,-0.16385031,-0.23726769,0.029942224,0.42693272,-0.27275974,-0.034753636,-0.120914206,0.14673138,0.18785532,0.1960769,-0.044488057,-0.21276903,-0.059419267,-0.03843275,0.048561223,-0.11008989,0.055956367,-0.16039795,-0.14508559,0.010443651,0.014509345,0.08709463,-0.020153515,-0.26999182,0.24288252,0.058519706,0.11303443,-0.16819322,0.22323391,0.023062553,0.36022305,0.17433853,0.15032424,0.28316912,0.17511652,-0.028168673,0.1376789,-0.115818955,0.019117612,-0.25146928,0.091959864,0.034602143,0.16546498,-0.033487774,-0.1218194,0.2027005,0.4400325,0.24049136,0.19255298,0.20189871,0.2783991,0.020918224,-0.057194605,0.3840052,0.22409031,0.08892959,-0.12773907,0.024741853,0.045796495
accords,-0.22983167,0.05301952,-0.123354234,0.021858389,0.0014466413,-0.25327262,-0.004518558,0.43705752,-0.21115956,-0.2373524,-0.025240507,-0.16660552,-0.12793115,0.16935362,0.15716352,-0.14919664,0.06697875,-0.07549842,-0.01157627,-0.44814634,-0.014721026,0.110413596,0.28288385,-0.1919623,0.012981211,-0.16745597,-0.16066231,0.017889148,-0.24588814,0.11553969,0.27072448,0.0013822647,-0.08746827,-0.34732273,-0.039762046,0.2531519,-0.056004263,0.018987738,-0.13252325,-0.12121769,0.09375234,-0.16459596,-0.23925689,0.07553083,0.35889205,-0.27102202,-0.07859753,-0.049055412,0.18427666,0.21119514,0.15539184,-0.1362375,-0.21168591,-0.050841995,0.0030397072,-0.010135733,-0.057034772,0.056823637,-0.17726713,-0.11764204,-0.00081648026,-0.026379442,0.15809609,-0.010305342,-0.29576123,0.21953964,0.028126316,0.1191605,-0.25979576,0.19794872,0.068982095,0.3854715,0.14712036,0.019337786,0.29943377,0.058735523,0.05979875,0.1261202,-0.14093648,0.03299327,-0.31154782,-0.017264808,0.06396404,0.21832842,-0.115262344,-0.08406525,0.20122865,0.3432659,0.26988217,0.2857872,0.19871432,0.25594282,0.11844788,-0.025198001,0.38417903,0.26848972,0.04731867,-0.08457046,0.02422206,0.12661979
accordée,-0.06676775,0.04134402,-0.02956996,0.0045871614,0.01377183,-0.10260578,-0.037161138,0.21503177,-0.04295423,-0.12957719,0.059365395,-0.07285057,-0.0153897945,0.04045443,0.022544969,-0.06408954,0.0041019972,-0.067908764,0.06907958,-0.18060142,0.059798136,0.03635906,0.08396987,-0.12352226,-0.009515576,-0.095703214,-0.08246897,-0.018740244,-0.12850538,0.05927856,0.1002363,0.0070825065,-0.016744224,-0.07631449,-0.01986504,0.14222386,-0.021596014,-0.04470481,-0.07205518,-0.085795276,0.066963725,-0.10121853,-0.099696085,-0.03847527,0.08883808,-0.1022647,-0.025093347,-0.03808423,0.014907258,0.099158056,0.05097416,-0.008227308,-0.10829917,0.031235795,-0.0326613,0.07398143,0.06012538,0.023457717,-0.15549117,-0.021108247,-0.030794537,0.020880807,0.010080584,-0.007780439,-0.0831568,0.07760909,-0.06668852,0.0066438797,-0.04257628,0.037502673,0.004807073,0.16560408,0.06743623,-0.005412482,0.13140652,0.0814505,0.008303387,0.08032633,-0.08036595,-0.039276745,-0.086800754,0.034806855,-0.037412733,0.10296746,-0.08060348,-0.018880876,0.0760945,0.1623674,0.15424031,0.08601343,0.04691716,0.09293114,-0.005740414,-0.02079872,0.1111901,0.13216053,-0.07662441,-0.048465297,0.01330397,0.027457919
accrue,-0.12437196,0.06743637,-0.059310593,0.011662354,0.057231303,-0.13892232,-0.0206532,0.29070875,-0.06780344,-0.1507488,-0.010701486,-0.116360635,-0.03970506,0.12676337,0.09416898,-0.07036026,0.028079836,-0.09146865,0.03432742,-0.3006536,0.053872023,0.12256465,0.13828693,-0.13031048,0.009984047,-0.10497778,-0.122874886,-0.0062379506,-0.17682186,0.057372835,0.14161322,0.060852066,-0.04613565,-0.14605789,-0.040972378,0.16982648,-0.011939647,-0.038034435,-0.10004862,-0.09761367,0.09672788,-0.1409072,-0.15490396,0.008935661,0.21173383,-0.1653482,-0.049665656,-0.0270324,0.10123849,0.14214928,0.10384573,-0.083578914,-0.10781721,-0.03759075,0.0120622,0.06010562,0.060636852,0.02145695,-0.15267542,-0.016049448,-0.04001284,-0.040960476,0.07901974,0.009801891,-0.17217372,0.08948768,-0.03136429,0.07900612,-0.12801185,0.117483914,0.027058883,0.20288704,0.12829344,-0.00086119294,0.17973466,0.014518854,0.04047278,0.09154182,-0.119564146,0.0051976903,-0.15722221,-0.008961879,-0.035590876,0.20283115,-0.06583679,-0.02737806,0.110194884,0.2183479,0.20745148,0.20114179,0.120191015,0.17428176,0.10473578,-0.016503533,0.21931861,0.21221073,0.022561466,-0.05120881,0.065681905,0.03812071
accès,-0.14228033,0.13812704,-0.1903291,-0.038668647,0.08509165,-0.2892191,-0.020572135,0.4808243,-0.10338059,-0.23837976,0.03894207,-0.16288286,-0.095969275,0.10381325,0.17767064,-0.13124295,0.111306354,-0.00066224835,0.062815696,-0.39624184,0.030457143,0.11809904,0.26101646,-0.22170644,0.06320549,-0.1752005,-0.15013433,-0.019641796,-0.22334917,0.056357402,0.30870438,0.023639211,-0.0145304715,-0.26182762,0.014997843,0.24989738,-0.06939715,-0.04050817,-0.13442829,-0.20468172,0.13903134,-0.20110536,-0.107646905,0.029537832,0.3071259,-0.30387598,-0.10814093,-0.018193055,0.09146824,0.18099801,0.16193406,-0.08053054,-0.22463231,0.011083933,-0.007271552,0.103688,0.12245012,0.08026158,-0.18892813,-0.012043548,-0.0080435015,-0.037185214,0.1516713,0.06713691,-0.2401823,0.27471498,-0.089727394,0.11649867,-0.21277969,0.17396533,0.0028467814,0.32377476,0.18139912,0.0131396605,0.30909565,0.07810783,0.07088351,0.14760575,-0.22987643,-0.09598158,-0.28181776,0.067237265,-0.008561417,0.24776839,-0.10398704,-0.06837035,0.24142613,0.34072888,0.23574816,0.16667262,0.16049999,0.16879584,0.1067046,0.016722964,0.39025676,0.2754857,0.06560075,-0.10690029,0.027524846,0.017191473
acoustique,-0.1413299,0.027742324,-0.060969662,0.028845584,0.02258954,-0.14729522,-0.034658566,0.31301522,-0.12151219,-0.17911306,0.013212035,-0.08160491,-0.08274408,0.10473328,0.06829123,-0.080261074,0.047873203,-0.04497393,0.008705145,-0.29926026,0.0065408945,0.09015464,0.20411442,-0.14298467,0.015419939,-0.1272995,-0.13827674,0.02172964,-0.16639726,0.08832824,0.1604615,0.014682113,-0.04784459,-0.17603618,-0.014124321,0.1609713,-0.015714437,-0.009114521,-0.07036371,-0.07556701,0.09248347,-0.1369346,-0.17243749,0.028000157,0.23400706,-0.15355642,-0.042591162,-0.02824674,0.09684691,0.14067772,0.123099655,-0.06747488,-0.13995542,-0.015064487,0.0110678645,0.03393042,0.030911641,0.033386998,-0.17847712,-0.059477057,-0.038909227,0.018761372,0.08279537,-0.010001768,-0.18902099,0.10827276,-0.011159707,0.07455238,-0.13064407,0.12375783,0.043351024,0.25901458,0.11573564,0.038774833,0.19783838,0.051913988,0.04251105,0.097191565,-0.1084958,-0.0008496446,-0.15873401,0.029056866,0.009910089,0.16909938,-0.09842868,-0.0432641,0.115665324,0.23909023,0.18779315,0.18761015,0.116334006,0.17028898,0.07393434,-0.048273332,0.25680137,0.19687136,-0.0038664883,-0.068083175,0.03495107,0.058049973
acoustiques,-0.2110177,0.03632455,-0.09795853,-0.02675191,0.04958961,-0.18030636,-0.036208086,0.31867218,-0.17513436,-0.17328268,-0.03380439,-0.07121849,-0.10197438,0.14054614,0.1468119,-0.07464296,0.12339239,0.032452747,-0.01820144,-0.31327814,-0.06231632,0.102552846,0.24671818,-0.17296468,-0.0069270306,-0.09915113,-0.080928944,0.024518633,-0.16729154,0.10860837,0.20268205,-0.018094791,-0.10685709,-0.27795494,-0.0059558293,0.23460841,-0.056037176,-0.0037466355,-0.10085388,-0.11556401,0.11655393,-0.101600215,-0.16265833,0.059244897,0.3651515,-0.21047936,-0.08202886,-0.050359152,0.14889695,0.12800807,0.15519676,-0.06720738,-0.17561604,-0.065377586,0.03245355,-0.005160019,-0.09547658,0.08414271,-0.10245767,-0.122324236,-0.030031824,-0.009619957,0.11760913,0.009442257,-0.21954069,0.18967718,0.021266576,0.049963374,-0.1804024,0.22320566,0.07904198,0.28883016,0.10167037,0.029739173,0.224067,0.047412403,0.07241225,0.093494184,-0.093338326,-0.0028288807,-0.26520014,0.0077900523,0.08879595,0.14929557,-0.055519506,-0.06409785,0.16509622,0.32804415,0.1973593,0.19248632,0.15011042,0.204409,0.08510986,-0.03989499,0.3110511,0.18923822,0.10866444,-0.10234136,0.05017805,0.0854234
acquis,-0.13917035,0.08576625,-0.070797436,0.009771403,-0.004981409,-0.12850578,0.030253438,0.23692536,-0.097109646,-0.1377571,-0.045755856,-0.12382405,-0.038352434,0.07121314,0.084549226,-0.053940307,0.09241885,0.02934231,0.00804464,-0.21785198,-0.008144476,0.05539283,0.12203947,-0.114181995,-0.006923825,-0.043495473,-0.08843275,-0.022457782,-0.1544817,0.031470757,0.16563298,0.03332323,-0.0287217,-0.23106864,-0.028881837,0.17224988,-0.00691343,-0.016042752,-0.14380775,-0.061773993,0.07205082,-0.06312693,-0.13672775,0.012795262,0.2242516,-0.1763788,-0.012261881,-0.08218642,0.09669616,0.1053813,0.104324624,-0.04651067,-0.15102194,-0.012624398,-0.0005244151,0.020716835,-0.025329767,0.039042804,-0.106127985,-0.05618455,0.02308837,-0.06905263,0.08119646,0.044003896,-0.1538273,0.11753249,0.0073403446,0.041980945,-0.09891627,0.16528712,0.02013462,0.14665823,0.1190689,0.012262814,0.16085821,0.07587453,0.02009338,0.07625078,-0.080615,0.011980545,-0.17729001,0.012665601,0.027749954,0.082286015,-0.07607893,-0.045733336,0.15085517,0.2324919,0.14910856,0.11103878,0.119593024,0.14564319,0.04087994,-0.008339731,0.18857831,0.16774194,0.035564132,-0.04300472,0.03543668,0.06349048
acte,-0.14767611,0.045916654,-0.023157053,0.025594845,0.093046166,-0.15952908,-0.019931523,0.34662732,-0.027174525,-0.19139376,0.0142481895,-0.11476751,-0.003745958,0.13636146,0.023797944,-0.06674316,0.0009964796,-0.037688244,0.07540255,-0.30246973,0.06286272,0.10014809,0.12028765,-0.20588459,-0.00536534,-0.116214134,-0.10643583,0.021850998,-0.20657581,0.087767646,0.1398422,0.022450982,-0.022459744,-0.105865575,-0.1013047,0.15260449,-0.068511926,-0.03558711,-0.0914596,-0.08041501,0.10763755,-0.15946843,-0.18150361,-0.024988316,0.15189771,-0.10324914,-0.026448285,-0.07343515,0.040023938,0.15155105,0.08772945,-0.036702216,-0.116921365,-0.029457508,-0.0029706338,0.110679366,0.10227892,0.054943915,-0.20955646,-0.010550204,-0.07346432,0.017812239,0.0424601,-0.009256674,-0.14900632,0.064996,-0.039729405,0.0354063,-0.06101972,0.08122775,0.02490887,0.18863161,0.12900229,0.0247196,0.18710877,0.09269036,0.0044905823,0.07796127,-0.1313256,-0.029036138,-0.08212075,0.009110856,-0.10196175,0.18611717,-0.073644266,0.012327693,0.13813755,0.22240348,0.23894681,0.13091248,0.058952462,0.18517682,0.052564047,-0.056463722,0.14106782,0.2580889,-0.0554517,-0.0768726,0.0683912,0.0324878
actes,-0.19373995,0.017598165,-0.1239744,0.049445678,0.04453178,-0.17906405,-0.03906419,0.27393785,-0.2567824,-0.14102697,-0.049495254,-0.15720432,-0.15223384,0.20682152,0.18902256,-0.06295195,0.12087197,-0.011169739,-0.06274067,-0.38339606,-0.033830028,0.11871702,0.27665746,-0.0871217,0.057552584,-0.098563604,-0.18215631,0.03914214,-0.18122911,0.07778578,0.1777761,0.043992497,-0.101730205,-0.3161193,-0.07492487,0.16230714,-0.013655756,0.06491414,-0.1538817,-0.041804496,0.04916243,-0.09238368,-0.19290797,0.049955867,0.3161949,-0.23455022,-0.0882959,-0.043691125,0.18677396,0.1889267,0.12939063,-0.06752796,-0.1525252,-0.060206935,0.07814471,-0.07347115,-0.046348438,0.062355313,-0.11999382,-0.018063609,-0.05278352,-0.024432518,0.20556873,-0.008976641,-0.2346619,0.1516218,0.041443963,0.11306322,-0.19882767,0.20490247,0.14551996,0.30966747,0.09967193,0.0021976042,0.17905775,-0.04264081,0.09632553,0.06849044,-0.08498851,0.0041859807,-0.32208785,-0.07241456,0.06306987,0.15131356,-0.121293046,-0.07281765,0.201281,0.270838,0.24720858,0.25247455,0.14867705,0.21090643,0.1717052,-0.04453094,0.2869754,0.28426287,0.10823052,-0.12998438,0.062222127,0.16425832
acteur,-0.15223849,0.09001711,0.016786419,0.041287854,0.07035427,-0.17090991,-0.020611687,0.4030577,-0.04481605,-0.24600366,0.05429785,-0.14950944,-0.003688642,0.15285033,0.0410831,-0.14443146,-0.040070392,-0.12757461,0.07138942,-0.37142208,0.08885155,0.14321035,0.13123538,-0.20182203,0.010144264,-0.117229596,-0.14643633,0.02549768,-0.2654064,0.109726384,0.15291695,-0.008161135,-0.04102924,-0.109793305,-0.07427519,0.19079779,-0.07598822,-0.026932992,-0.05597157,-0.11026616,0.12005105,-0.21669576,-0.21571675,0.017841477,0.14745145,-0.1419444,0.020594204,-0.056098856,0.059089113,0.17709439,0.07978319,-0.12274103,-0.1400905,-0.039250296,0.009316149,0.07826146,0.14113955,0.020071197,-0.25566328,-0.036709405,-0.08973292,-0.006932111,0.051930565,-0.0331899,-0.21952796,0.11595363,-0.0330611,0.073431246,-0.122968294,0.08990795,-0.014471137,0.2576928,0.1765394,0.038867567,0.23703602,0.1143019,0.0030089028,0.13377176,-0.14933701,-0.015042342,-0.0892007,-0.03169829,-0.06732373,0.26063478,-0.065390155,-0.007996838,0.098034196,0.2335205,0.26983425,0.20559482,0.11666299,0.23218852,0.064156,-0.040573128,0.18832469,0.24000286,-0.093244694,-0.06093729,0.05174414,-0.021247134
acteurs,-1.0005252,0.08842868,-0.62888724,-0.38367802,0.57736546,-0.636319,-0.19525768,0.7520982,-1.0362282,-0.22618715,-0.2664628,-0.47768563,-0.8303651,0.596613,1.1042222,-0.003628902,0.7744417,0.74443483,-0.47447848,-1.2331749,-0.6784679,0.15378459,1.4129841,-0.3282048,0.09029363,-0.24445084,-0.114961356,0.23772398,-0.6844991,0.06123339,1.0763515,-0.16047399,-0.589426,-1.5197524,-0.07472332,0.5948896,-0.019955192,0.36923698,-0.6498303,0.01020025,0.21728596,-0.2305484,-0.68063915,0.13036388,1.7971582,-1.192024,-0.40777507,-0.045023043,0.8646293,0.66266716,0.55695623,-0.03907469,-0.3580464,-0.3807014,0.25959855,-0.6793009,-0.62178093,0.44686133,-0.051889874,0.009499099,-0.0060692537,-0.28683662,1.0295235,-0.053248495,-0.85376257,0.8126211,0.30194467,0.3757068,-0.9318799,1.2850915,0.9354953,1.23545,0.35965025,0.20503832,0.6675731,-0.17616414,0.33136868,0.04011549,-0.19172695,-0.086537756,-1.6807878,-0.27629304,0.14645149,0.33900955,-0.22090325,-0.5216559,0.96318007,1.2797964,0.8138177,0.5469682,0.49658364,0.87467915,0.81689084,-0.27388996,1.2860211,1.0023276,1.105253,-0.9349882,0.2375866,0.34342006
actif,-0.11596492,0.03673564,-0.035003666,0.048850313,0.026099399,-0.13268073,-0.033038322,0.27032048,-0.07627962,-0.12772492,-0.007974058,-0.114881836,-0.041918658,0.11235267,0.07449307,-0.068695016,-0.020079412,-0.09881788,0.029071178,-0.23161548,-0.0020878448,0.12716505,0.071368404,-0.10927036,-0.0068198126,-0.09821935,-0.115081646,0.010725967,-0.11550074,0.06718373,0.09499563,0.009970634,-0.05015177,-0.13586126,-0.06648653,0.12847789,-0.060580038,0.002270739,-0.05289598,-0.108316265,0.06496259,-0.09159509,-0.13756628,0.035474945,0.18769245,-0.118713155,-0.0361214,-0.046396572,0.055409174,0.095501125,0.103247374,-0.099553436,-0.1064674,-0.033353783,0.04234961,0.023988314,0.012105255,0.0052204533,-0.1272443,-0.099345386,-0.032788437,-0.008469904,0.021223824,0.027905822,-0.17739531,0.10038423,0.0020381664,0.05819616,-0.12625244,0.10001813,0.004332616,0.19187638,0.0905507,-0.042566273,0.15365708,0.051079858,0.03633435,0.069522984,-0.10989506,0.03816349,-0.10055195,-0.04398385,0.037946694,0.15394019,-0.034125686,0.03258944,0.0897354,0.19877048,0.16130428,0.19325309,0.123186536,0.14286166,0.04823738,0.0024961957,0.16568296,0.15105787,-0.029124074,-0.004189544,0.028826226,0.08675741
actifs,-0.20455293,0.052458648,-0.07167274,-0.026440928,0.09507831,-0.1693758,-0.053588208,0.35907423,-0.15347145,-0.18273644,-0.0247601,-0.11399994,-0.0949793,0.15365133,0.13848227,-0.07485954,0.07828113,-0.0036337576,0.023061687,-0.3384902,-0.042324323,0.1088822,0.21593496,-0.18001947,-0.012844654,-0.105294526,-0.086232424,0.028962541,-0.17859598,0.07435557,0.21067473,-0.0130963335,-0.112970755,-0.23470871,-0.05041986,0.20208277,-0.057768248,0.010497774,-0.104157165,-0.119513474,0.11174843,-0.12155808,-0.199966,0.03402372,0.33113897,-0.22644615,-0.061047025,-0.068734884,0.13314359,0.15019447,0.16827099,-0.06423336,-0.14274621,-0.06130765,0.02485952,-0.008581565,-0.04234904,0.061035838,-0.14680684,-0.08314057,-0.045950726,0.0012663581,0.10308812,0.000313175,-0.21176551,0.14977677,0.00086013804,0.05777278,-0.1535157,0.21291932,0.09672782,0.29096964,0.11631286,0.029830229,0.22141092,0.05065624,0.030412372,0.08711381,-0.10381667,0.014185175,-0.22870101,-0.012778086,0.013028909,0.16784994,-0.04588064,-0.033203322,0.17767224,0.3071999,0.21983285,0.21327116,0.12766865,0.21085528,0.087458886,-0.039222375,0.28067866,0.23807707,0.058492817,-0.11651686,0.06490262,0.07301798
action,-0.29277298,0.04387862,-0.08525394,0.036412038,0.18796164,-0.3297248,-0.040468607,0.8181339,-0.11529881,-0.33959544,-0.005498006,-0.3742217,-0.12221954,0.33353943,0.04849646,-0.2599924,-0.03568533,-0.23766336,0.24045865,-0.81103885,0.26174036,0.2589432,0.3759026,-0.24139488,0.03670485,-0.21286617,-0.38489774,0.15808927,-0.553606,0.08854015,0.3921929,0.107633606,-0.038251255,-0.2950028,-0.16611744,0.19060886,-0.04005609,-0.010300997,-0.24239175,-0.012591645,0.11725439,-0.5192902,-0.5032793,-0.039084896,0.31717452,-0.31719604,0.018193461,-0.076042436,0.1826334,0.4191043,0.24698627,-0.1455729,-0.14933923,-0.0012899227,-0.016292445,0.13116615,0.18912235,-0.023311678,-0.5343574,0.05733757,-0.115030915,0.026627073,0.18565539,0.011675839,-0.37747398,0.12678179,-0.03846268,0.29195085,-0.21209526,0.20353685,0.11825663,0.52684253,0.30886135,-0.00051454164,0.40096092,0.07334312,-0.05414425,0.25266474,-0.22162455,-0.016770778,-0.28435543,-0.09614881,-0.34078982,0.54044217,-0.22591886,-0.093311526,0.32979628,0.4250717,0.6021465,0.41446698,0.17536612,0.50630164,0.31313166,-0.15779398,0.5143519,0.6476075,-0.03901695,-0.18099393,0.107237995,0.074443676
actions,-0.22646752,0.10446072,-0.18578425,0.006629476,0.046417072,-0.24222137,0.02263204,0.4048,-0.34206295,-0.24392502,-0.052134402,-0.21773218,-0.1795106,0.20399798,0.26277527,-0.096835546,0.21294124,0.041965704,-0.08125639,-0.54080355,-0.07219507,0.12801881,0.39055955,-0.16797894,0.05086327,-0.13280746,-0.15893175,0.033136643,-0.28362,0.09044525,0.33872914,-0.0072547845,-0.10718884,-0.4899436,-0.05319366,0.3258412,-0.021030394,0.054861635,-0.263989,-0.14870712,0.11770277,-0.12879778,-0.25869858,0.09935321,0.47431946,-0.39526218,-0.1599865,-0.08393131,0.25980312,0.2665262,0.19905525,-0.11296858,-0.2502757,-0.07183408,0.0218916,-0.045530397,-0.08571475,0.08879118,-0.16863135,-0.04703458,-0.03537507,-0.09296544,0.25510707,0.015243923,-0.32829407,0.30158654,-0.0006076729,0.1566589,-0.30698535,0.32575598,0.14247355,0.44770733,0.15710743,0.050121196,0.3106272,0.039320625,0.11743908,0.10003161,-0.14611122,-0.028249506,-0.47710922,-0.011849836,0.059088223,0.18994224,-0.14063962,-0.16398923,0.27670416,0.42476216,0.33237118,0.3180565,0.2299109,0.28342688,0.2070053,-0.013124521,0.4432126,0.344762,0.19558541,-0.17344427,0.07453807,0.15942496
active,-0.23295714,0.064947955,-0.13184412,0.06679864,0.0018874406,-0.26674104,-0.0005681096,0.5393188,-0.16989104,-0.31008717,-0.019789493,-0.20683268,-0.103406996,0.20393428,0.08484108,-0.15657765,0.05007309,-0.1099347,0.08117189,-0.5167027,0.11680952,0.13172162,0.24996173,-0.21447773,0.023289429,-0.18582262,-0.24701627,0.020981383,-0.2941291,0.10776555,0.24350901,0.07397812,-0.016401757,-0.2902326,-0.06793013,0.2368844,-0.05076394,-0.012749438,-0.15266597,-0.102508046,0.12546147,-0.23188789,-0.26687038,0.038376518,0.293959,-0.24150431,-0.043483112,-0.082499415,0.15555203,0.22342917,0.15644687,-0.13542412,-0.21739343,-0.004511631,0.02081725,0.11223926,0.062243797,0.028234601,-0.29187524,-0.06820759,-0.039686367,-0.004097436,0.11190004,0.032586366,-0.29229942,0.16030641,-0.008259125,0.17189777,-0.18252663,0.16201806,0.021499388,0.33849385,0.19107495,0.06367416,0.30838954,0.11352146,0.04593028,0.19202325,-0.18964042,0.016623383,-0.22850066,0.022103548,0.009766126,0.29831916,-0.15238696,-0.046023954,0.23437639,0.36678824,0.3206255,0.29446554,0.2251779,0.32067734,0.10294634,-0.06365743,0.3866782,0.34404397,-0.030295076,-0.08697609,0.051179193,0.13863584
activité,-0.24040195,0.076572925,-0.105334684,0.09874527,0.067484975,-0.34252098,-0.02360656,0.6446484,-0.12938868,-0.2880796,-0.029941587,-0.35399148,-0.10164302,0.28950575,0.14322601,-0.19989935,-0.015614346,-0.22559963,0.17541303,-0.6588647,0.20284112,0.27725884,0.24782105,-0.17526725,0.037359744,-0.19118153,-0.37493217,0.055409305,-0.4381305,0.08386898,0.27182814,0.1786285,-0.03625368,-0.3263675,-0.14811446,0.2217552,0.001356229,-0.019984052,-0.2672584,-0.05426545,0.108620115,-0.34697187,-0.3889572,-0.010366774,0.36706468,-0.33607677,-0.052113153,-0.08604296,0.17989679,0.30811536,0.21290694,-0.15807943,-0.15951537,0.0036623923,0.022348806,0.11785564,0.16220358,-0.017142478,-0.4472331,0.005248958,-0.046516337,-0.05580102,0.15349354,0.09871704,-0.335667,0.15805116,-0.08878546,0.1892076,-0.20663555,0.20100737,0.046076953,0.37599245,0.26859283,-0.08810265,0.37761763,0.062042322,0.070900336,0.2371416,-0.2283119,0.04317498,-0.28297904,-0.121559665,-0.13917676,0.41298118,-0.25578958,0.016522713,0.32266226,0.42707723,0.47899672,0.40348533,0.25871268,0.38885003,0.2049466,-0.06730694,0.4395659,0.54011256,-0.09169676,-0.11437202,0.051521536,0.13833949
activités,-0.4456578,0.2391373,-0.40280056,0.028404579,0.002866131,-0.5097476,-0.012298455,0.7099175,-0.57767504,-0.40920076,-0.118921645,-0.3873192,-0.28655773,0.32340428,0.5298099,-0.12096255,0.3564001,0.067675784,-0.15468322,-0.8507245,-0.09293394,0.2576909,0.6422773,-0.29912725,0.08472407,-0.23750465,-0.30360898,-0.05428952,-0.41192868,0.15663642,0.5402852,0.069081254,-0.17652486,-0.867756,-0.07496184,0.6001688,-0.031970773,0.07507436,-0.45932832,-0.2801966,0.22505392,-0.16813447,-0.35961974,0.10958298,0.89458483,-0.66806686,-0.2865679,-0.14886715,0.4475367,0.38744313,0.37227988,-0.16841492,-0.46290925,-0.15001184,0.10076623,-0.08678195,-0.1401232,0.15248199,-0.2913959,-0.13893795,6.916198e-05,-0.17730053,0.41232002,0.083194636,-0.58555496,0.53212374,-0.0030669498,0.21709621,-0.5374259,0.5811124,0.21654473,0.6969292,0.2750523,0.028347544,0.54973793,0.087963305,0.25995395,0.14779705,-0.27260908,-0.041640095,-0.8134334,-0.025112929,0.23654723,0.3031608,-0.27660477,-0.2065906,0.53088933,0.8076753,0.5614163,0.51558554,0.43910143,0.46956325,0.3231991,0.0065903487,0.7885866,0.57561326,0.295988,-0.32021365,0.07351776,0.29968122
actuel,-0.23570049,0.14864665,-0.06993371,0.052168306,-0.020837203,-0.24469052,0.016269162,0.48875746,-0.17367053,-0.3054104,0.0038950148,-0.1733911,-0.0370111,0.12952057,0.11876119,-0.17181252,0.047565807,-0.06552957,-0.029431,-0.46726498,0.01137602,0.10268125,0.2077352,-0.2582151,-0.0046135164,-0.16853061,-0.17685512,0.004550954,-0.29958206,0.091947734,0.30292818,-0.031976193,-0.027493998,-0.35518283,-0.061072502,0.32197624,-0.066469975,0.0070762564,-0.10529539,-0.19835542,0.116208814,-0.17253204,-0.2495373,0.03582473,0.30197892,-0.29887095,-0.009306025,-0.08102292,0.14033519,0.23335184,0.15726787,-0.15106252,-0.23304932,-0.040396225,-0.016774185,0.032403104,0.061412927,0.058195245,-0.28444263,-0.11647857,-0.029842954,-0.04638033,0.14467283,-0.05420009,-0.3353958,0.22912766,0.022850573,0.11769487,-0.24836232,0.1760037,0.034192093,0.3613542,0.2130566,0.105587155,0.3258276,0.1565402,0.03416583,0.17029037,-0.16086635,0.008421463,-0.21834788,-0.0061222967,0.06675353,0.2547113,-0.11670842,-0.07225447,0.2186837,0.3799817,0.28461593,0.30783048,0.23944025,0.30620807,0.09928142,-0.05630289,0.41138104,0.31667805,-0.06198014,-0.0787677,0.052249853,0.038380444
actuelle,-0.27287987,0.15539254,-0.069345325,0.08582255,0.00784557,-0.33788472,0.007846154,0.7195008,-0.11302895,-0.41423753,0.046014696,-0.27973285,-0.10304939,0.23158829,0.07446873,-0.2226245,0.07867697,-0.15764251,0.101300426,-0.7042656,0.1417181,0.13134703,0.24964632,-0.34582147,0.02499985,-0.23271567,-0.36670828,-0.02103432,-0.4677322,0.10788188,0.34364438,0.09794387,0.037806932,-0.38101307,-0.12994462,0.2966271,-0.02643636,-0.066592604,-0.24043402,-0.13583514,0.13689542,-0.31083253,-0.33774072,-0.01752671,0.24349177,-0.36486885,0.01909356,-0.08952859,0.14061806,0.3451143,0.14749369,-0.13935629,-0.28548646,0.07325716,-0.043168854,0.14706963,0.25188604,0.06336601,-0.44197103,0.025652388,-0.046506036,-0.053374972,0.18065229,-0.008004646,-0.34112656,0.17150593,-0.013093091,0.15875918,-0.22499482,0.16188985,0.034404717,0.4229176,0.28582692,0.09254932,0.41939193,0.12994996,0.05140574,0.25833297,-0.24044736,-0.06694575,-0.2526141,0.024594873,-0.08997005,0.44815317,-0.24802299,-0.022361126,0.34893626,0.4051185,0.4451047,0.35856706,0.22529067,0.38642144,0.12893045,-0.10487328,0.4207766,0.48091456,-0.17094041,-0.079899244,0.10245076,0.08458464
actuellement,-0.21006574,0.09728267,-0.07269729,0.022118032,0.063834935,-0.26009426,0.016936619,0.52059305,-0.16287641,-0.28708103,-0.00950132,-0.26169702,-0.050622385,0.20911919,0.1329642,-0.13691665,0.014763958,-0.1445047,0.07103778,-0.51490134,0.08823987,0.20328169,0.16412,-0.19989437,0.0076471735,-0.14826962,-0.1938562,0.022292532,-0.27608177,0.124357946,0.20856772,0.029232627,-0.05440727,-0.2935421,-0.09338084,0.26440966,-0.1400866,0.0019552608,-0.16570155,-0.17170931,0.09850211,-0.21075676,-0.2437535,0.06919262,0.32102078,-0.23621736,-0.05747172,-0.084570065,0.14454567,0.19891846,0.14943455,-0.1504036,-0.19658102,-0.07211157,0.032046154,0.080563545,0.025468932,-0.0060297274,-0.2132811,-0.089221425,-0.04619231,-0.05471459,0.07619777,0.06939514,-0.30819964,0.21416302,-0.015765918,0.1542832,-0.18344106,0.19877349,-0.007826961,0.33140376,0.19135936,-0.00568139,0.27077773,0.124034904,0.043510336,0.128575,-0.18461591,0.010053129,-0.252862,-0.025695287,-0.010821933,0.28885853,-0.08597204,-0.016613767,0.17930241,0.36826736,0.31480598,0.3061789,0.21057807,0.2539874,0.12165791,0.0107943425,0.32487866,0.30015534,0.020422338,-0.036040474,0.07811073,0.115926646
actuelles,-0.2781423,0.042145997,-0.20214021,0.00021207242,0.049087703,-0.27492294,-0.009003924,0.46080345,-0.3213604,-0.232973,-0.0629904,-0.17802984,-0.18112938,0.2305711,0.2249177,-0.100273386,0.1633922,0.009428128,-0.099631935,-0.55016744,-0.027485324,0.14919029,0.38838476,-0.16384374,0.050705332,-0.18487139,-0.1507044,0.01940453,-0.27769125,0.11837018,0.30247724,0.03497187,-0.10755742,-0.46002537,-0.053042397,0.2600173,-0.08658493,0.07355091,-0.18563925,-0.12250869,0.09326365,-0.13197784,-0.21556059,0.09252277,0.52364075,-0.31083408,-0.14640312,-0.06425028,0.28218645,0.23702966,0.19083431,-0.11712547,-0.2211312,-0.15391077,0.06625784,-0.07239197,-0.10855004,0.10422472,-0.16832887,-0.08117939,-0.016303102,-0.06306053,0.24855609,-0.020913608,-0.37690383,0.26609936,0.03883488,0.19298737,-0.31763807,0.29736468,0.15158953,0.42671052,0.1510135,0.028400999,0.31511065,0.0076323412,0.15289727,0.113113165,-0.16888596,0.006015759,-0.4374514,-0.03996823,0.08256327,0.25255975,-0.12836765,-0.12709771,0.2828722,0.44330963,0.34638816,0.3283635,0.22982736,0.3271926,0.22147793,-0.030622879,0.4796133,0.33364487,0.20599958,-0.18108395,0.060641233,0.18108259
actuels,-0.19820316,0.043366104,-0.17529778,-0.033237334,0.09121872,-0.27594468,-0.017731467,0.40591505,-0.17137174,-0.1852216,-0.013986581,-0.1465917,-0.17204076,0.1578907,0.21513963,-0.07425061,0.10077684,-0.0006588835,-0.007528258,-0.4230454,-0.037094492,0.14570688,0.2657199,-0.16565792,0.034179226,-0.17340016,-0.12933521,-0.02093099,-0.20361334,0.081356876,0.24744171,0.026509635,-0.06447111,-0.30491704,-0.032882877,0.17951661,-0.10166588,0.03034713,-0.121898465,-0.1352257,0.10777077,-0.12949044,-0.14562708,0.034844376,0.40600443,-0.2739367,-0.13391066,-0.008716457,0.17068501,0.19228537,0.16397253,-0.07300862,-0.15415893,-0.055519503,0.04584929,0.012909214,-0.008274624,0.07763398,-0.11726061,-0.044671554,-0.008430413,-0.056390405,0.17376713,0.0371196,-0.27294892,0.23447217,-0.039321594,0.122357026,-0.23558946,0.21280906,0.07098345,0.3272291,0.13325022,-0.018852884,0.2852987,0.0061288136,0.13196003,0.11523081,-0.18141474,-0.0020089766,-0.3083787,-0.024078498,0.04182941,0.22746366,-0.113670506,-0.030970123,0.27082455,0.35741848,0.25481448,0.24014887,0.18456522,0.22472934,0.15109797,-0.017203085,0.39974073,0.28885466,0.09280188,-0.13379003,0.047265537,0.12627146
adapté,-0.10208689,0.08478546,-0.07085731,0.04101054,0.039935116,-0.20063335,-0.04730442,0.34603986,-0.06195463,-0.15570113,0.012611579,-0.1454952,-0.014388997,0.11045164,0.08986491,-0.075504445,-0.0037896617,-0.06684938,0.09643141,-0.26272246,0.06810599,0.122242376,0.09005959,-0.141098,0.022405975,-0.10698551,-0.144438,0.01888668,-0.14523886,0.02941926,0.14843094,0.046125114,-0.0064574173,-0.13692312,-0.0707576,0.14897324,-0.010517873,-0.028503982,-0.097890906,-0.12041077,0.074953265,-0.1395065,-0.11553442,-0.029051574,0.15353216,-0.15637715,-0.03577661,-0.04553267,0.034885645,0.099289164,0.09107608,-0.052107852,-0.11923266,0.006295081,0.042054918,0.060200393,0.11312729,0.022668848,-0.19442973,-0.023077307,-0.028877234,0.007856465,0.059370186,0.072051495,-0.15865992,0.09786495,-0.024267115,0.057737093,-0.07336168,0.11508611,0.016771778,0.16117509,0.14081313,-0.01712623,0.1972884,0.055040393,0.018716665,0.10080542,-0.15648602,-0.02783267,-0.10553803,-0.01819717,-0.039733604,0.18551776,-0.090463184,0.04594825,0.15423886,0.24349888,0.19164471,0.13799717,0.11486517,0.13739155,0.071278915,-0.00091097347,0.2070333,0.2632443,-0.062416464,-0.05720015,0.030437477,0.027384976
adaptée,-0.17291337,0.06726523,-0.12786137,0.06362761,-0.01963631,-0.21699472,-0.06581723,0.38951108,-0.17081933,-0.22552542,0.00479769,-0.15335923,-0.099022985,0.14773475,0.12735602,-0.12746783,0.045705736,-0.09824064,0.094021946,-0.355688,0.081526525,0.13588457,0.2421844,-0.13518576,0.040393278,-0.14866619,-0.23167197,0.0032458387,-0.17367715,0.10639839,0.18719803,0.0746919,-0.051500294,-0.1954449,-0.025283532,0.24787281,0.00063417363,-0.045423754,-0.14432546,-0.08633419,0.13057365,-0.18538192,-0.21322295,0.0016258829,0.2472674,-0.2182393,-0.06446115,-0.050184473,0.117361136,0.16446698,0.14747103,-0.082644,-0.19753198,0.027498737,0.05028919,0.08778638,0.054407503,0.03657708,-0.25819507,-0.07227913,-0.052181616,0.030360572,0.09024973,0.047082614,-0.22161947,0.14499252,-0.050063774,0.09480622,-0.1498418,0.1603957,0.032531653,0.30459923,0.14546995,0.0007265458,0.24004482,0.06965724,0.050438885,0.15340102,-0.13674039,-0.028610071,-0.21985501,0.027099857,0.03310862,0.20741789,-0.17680894,-0.028194837,0.17078757,0.30099678,0.25021306,0.21850206,0.16462201,0.21923229,0.054217838,-0.058425054,0.31870165,0.26464602,-0.046777334,-0.07804323,0.013360293,0.12533495
adaptées,-0.076889,0.060309384,-0.07994407,-0.0069808527,0.023428295,-0.15317221,-0.036101107,0.1995051,-0.101957984,-0.07695588,-0.03915336,-0.09430988,-0.05642476,0.066643715,0.12708671,-0.024537032,0.044024806,-0.016500873,0.019113293,-0.15766355,-0.0144242225,0.08592577,0.0967797,-0.06518229,0.020618003,-0.08264066,-0.06878126,-0.015642663,-0.07872096,0.023560913,0.1057098,0.043984674,-0.05164509,-0.16143571,-0.01677826,0.10476666,-0.01884682,0.0031112975,-0.08280406,-0.11273719,0.058409166,-0.045070216,-0.06256738,0.01271768,0.24264415,-0.14823443,-0.08457703,-0.028521618,0.08152525,0.053649575,0.08929486,-0.042469498,-0.09169865,-0.0235413,0.037811235,-0.008803718,-0.018250864,0.026803913,-0.07281449,-0.048661955,0.0046682823,-0.029996593,0.067569844,0.080729574,-0.11950507,0.107533306,-0.02006427,0.018267488,-0.09117178,0.11463948,0.020988923,0.13067439,0.087378316,-0.027058413,0.13799885,0.01048626,0.072134495,0.05111646,-0.09770311,0.015522231,-0.14144836,-0.011182525,0.052208662,0.066251054,-0.05236746,-0.00043739815,0.11777998,0.22301535,0.115421325,0.12189107,0.12363914,0.089154944,0.06312673,0.029281806,0.18050112,0.15326023,0.034660496,-0.0497907,0.01484392,0.0723754
adaptés,-0.09031561,0.034355845,-0.048364304,-0.03731381,0.034002613,-0.11418976,-0.019496445,0.16414253,-0.06428315,-0.075396806,-0.039444968,-0.058945548,-0.04825558,0.0674257,0.10887838,-0.010971639,0.05311628,-0.007142455,0.004167386,-0.1591256,-0.024065645,0.068926066,0.081282586,-0.0943542,-0.017223287,-0.081380256,-0.035560068,-0.012500629,-0.066370934,0.036274537,0.095912546,0.018124651,-0.048642144,-0.14062689,-0.034522686,0.09188428,-0.03180969,0.0033851205,-0.06898405,-0.08461146,0.05059164,-0.02494999,-0.050735436,0.014476699,0.21009886,-0.13791125,-0.08181547,-0.028566603,0.0751904,0.060420334,0.07531646,-0.029936792,-0.059923362,-0.040554397,0.013330007,0.0070204968,-0.03648306,0.03898582,-0.046516653,-0.048344247,0.005259897,-0.030850638,0.037825216,0.05427624,-0.09683526,0.071758695,-0.0013719564,0.008624015,-0.058795445,0.1115108,0.030868486,0.09085573,0.05373472,0.002478772,0.11713706,0.013443862,0.0417072,0.012591115,-0.06351361,0.0022840986,-0.10318736,-0.0130888745,0.023012655,0.064099364,-0.025440276,0.00069359987,0.09421449,0.19718309,0.08880111,0.09966687,0.10450914,0.07262566,0.05404581,-0.0024791309,0.12490216,0.11967671,0.04365294,-0.050944142,0.039073214,0.04479931
additive,-0.12936369,0.06576462,-0.060556237,0.021888632,0.018016731,-0.1666794,-0.01221449,0.27217418,-0.05612587,-0.16191712,-0.0035945638,-0.08406267,-0.037322897,0.09034679,0.072504856,-0.04775037,0.028569259,-0.022674251,0.03584261,-0.21034458,0.0007043635,0.07824205,0.10863417,-0.16341515,-0.017638167,-0.10935078,-0.1175767,-0.008831888,-0.12023299,0.07345075,0.14957204,0.009251261,-0.015893333,-0.14605398,-0.021325657,0.15988903,-0.039919343,-0.01020436,-0.058302533,-0.1029897,0.11481358,-0.07285167,-0.11534342,-0.012330447,0.22229502,-0.1437164,-0.050844595,-0.044656012,0.07300481,0.0938859,0.09101624,-0.077070765,-0.11786943,-0.009543217,0.026795061,0.08083942,0.049745135,0.025733357,-0.1242408,-0.077825524,-0.01983077,-0.015086663,0.035944954,0.040866803,-0.15598333,0.12552382,-0.021004338,0.034573086,-0.10223314,0.09814141,-0.0100805955,0.16379899,0.11849271,0.010095503,0.19062345,0.07749123,0.0535621,0.08545509,-0.11830227,0.024901556,-0.11481245,0.015723938,0.039998677,0.14228036,-0.0650516,0.025656048,0.12676848,0.24488693,0.14656094,0.13816755,0.14314139,0.16197251,0.020371858,-0.027359864,0.2075066,0.19474427,-0.046091482,-0.04077097,0.020306878,0.05163899
administratif,-0.121144086,0.072071575,0.008442657,0.03366462,0.035796024,-0.11034665,-0.009540994,0.23892903,-0.06399654,-0.13560455,-0.0047564697,-0.12975639,-0.008247504,0.12699735,0.08158808,-0.055227723,0.0028532122,-0.070061445,0.003467857,-0.23110834,-0.0043033236,0.123853095,0.03643218,-0.13430941,0.015429727,-0.04523049,-0.0728458,0.010917508,-0.119053036,0.06143147,0.08691411,-0.017225167,-0.05273966,-0.14141822,-0.0807843,0.13948405,-0.11905624,0.001919213,-0.037265126,-0.11626923,0.03683685,-0.06171017,-0.10263015,0.0448104,0.15892953,-0.113070965,-0.009748359,-0.06401428,0.06688096,0.079660185,0.060363844,-0.09817236,-0.091590315,-0.070633754,0.040523127,0.005106988,0.011541942,0.019171283,-0.08013617,-0.06799219,-0.009566331,-0.037567306,0.041630354,0.020376874,-0.16408758,0.104387976,0.0043898514,0.06254964,-0.10784642,0.101406194,0.0071979137,0.14439724,0.08731385,-0.010463408,0.1503915,0.046113923,0.01933544,0.04853093,-0.11190988,0.023604643,-0.10741105,-0.07101694,0.011793557,0.14328718,-0.0039133206,0.0139823435,0.09982312,0.18779387,0.1370855,0.14682874,0.12771213,0.12849025,0.06326692,0.0017086234,0.12556057,0.15820141,0.0013465845,-0.014957169,0.054340784,0.045816127
administratives,-0.09205622,0.05213803,-0.114467226,-0.0034752705,0.008410967,-0.12046584,0.0056687747,0.14812432,-0.13131636,-0.09192686,-0.019409627,-0.092539355,-0.07061212,0.082039066,0.12742563,-0.03992621,0.11091555,0.010991376,-0.02079306,-0.19469324,-0.0037892368,0.07886512,0.1423958,-0.052994315,0.027142018,-0.02839439,-0.086740874,-0.01298435,-0.06866246,0.032865863,0.105667435,0.03975075,-0.036192797,-0.19188246,0.00843187,0.12088261,-0.004838293,6.484394e-05,-0.111201346,-0.061166614,0.046574324,-0.05218716,-0.051260717,0.03988186,0.210162,-0.16385011,-0.08114436,-0.03221324,0.08722343,0.07166243,0.0944722,-0.030594053,-0.12151472,-0.01664271,0.029096588,-0.0010135372,-0.033137005,0.027857749,-0.05393399,-0.02804986,0.014807282,-0.0560867,0.07950181,0.058832362,-0.12090773,0.13034958,-0.026258387,0.07154094,-0.11458313,0.14759195,0.02413281,0.15558852,0.06484585,-0.01522379,0.119950734,-0.0047751,0.0589554,0.04811174,-0.0693696,-0.005569738,-0.21005341,-0.006536196,0.062068637,0.08538158,-0.0662079,-0.034250136,0.1404499,0.17686132,0.11449713,0.13052984,0.10396245,0.07997353,0.067744195,0.011377767,0.18587805,0.11431656,0.09562156,-0.037351076,0.00066426117,0.08860779
adoptant,-0.078187265,0.045272656,-0.029550942,0.0074885855,0.040481433,-0.093112804,0.08300812,0.2468958,-0.081267424,-0.15872109,0.031520706,-0.14864852,-0.0050529223,0.13066362,0.0095571885,-0.0650922,0.046305846,-0.04165232,0.0043705846,-0.2976216,0.058276564,0.056512784,0.10146175,-0.12801035,0.019736122,-0.06583555,-0.10335659,0.012923426,-0.1650051,0.06432902,0.12423032,0.0032349364,0.0122059155,-0.15304188,-0.06828082,0.12627652,-0.08251688,-0.011705193,-0.11711561,-0.07811113,0.035465978,-0.088535264,-0.12879097,0.05005612,0.08372248,-0.07768912,-0.0056571877,-0.055514865,0.08317332,0.13255702,0.049268704,-0.05523244,-0.13407946,-0.034803044,0.0043039294,0.07730977,0.051820733,0.01773925,-0.09441615,0.03030948,-0.039850388,-0.06092916,0.06555363,-0.02094718,-0.13447316,0.112163484,-0.030737393,0.10782623,-0.09761213,0.09534628,0.0023253253,0.1878341,0.09035149,0.02818726,0.09719866,0.030851046,0.010921706,0.06055508,-0.11137944,-0.030184746,-0.14978926,0.04189386,-0.08222498,0.1702101,-0.02011735,-0.057796024,0.0991525,0.11688039,0.19410765,0.124918245,0.055978026,0.14084361,0.058089912,-0.014093336,0.10881848,0.1407966,0.057418443,-0.010056451,0.08005683,0.05851179
adopte,-0.09916333,0.09785722,-0.0296682,0.102838375,-0.04381586,-0.117384724,0.0433549,0.24747051,-0.051997803,-0.15636386,0.0076503763,-0.14672914,-0.008162886,0.12196148,0.030663516,-0.116569854,0.003966844,-0.13548346,0.03980938,-0.28303376,0.09236149,0.10411164,0.048516277,-0.07460977,0.0334675,-0.05074083,-0.17916086,-0.012293443,-0.14977893,0.042649966,0.064940274,0.07128933,0.0022299634,-0.13093643,-0.073926404,0.1422442,-0.0027686304,-0.039840493,-0.12061096,-0.05639973,0.046263166,-0.11875024,-0.15547232,0.040253576,0.065146305,-0.12935497,0.011846917,-0.048358604,0.076239526,0.12351692,0.046734314,-0.116257966,-0.1108455,0.01784838,0.0022070024,0.08558117,0.10726458,-0.023998655,-0.15221499,0.008475341,-0.007194028,-0.07485209,0.06169571,0.02021161,-0.14036945,0.079995014,-0.040741928,0.10811287,-0.121172085,0.055827048,-0.040757168,0.16188288,0.109069854,-0.024118228,0.11881596,0.061143048,0.017533902,0.1147142,-0.10702365,0.008643774,-0.11919238,-0.032928497,-0.017609254,0.19296873,-0.0953309,-0.0069216755,0.112652324,0.112135924,0.15242882,0.17678194,0.10706175,0.13788368,0.052876316,-0.01965626,0.12567136,0.15082043,-0.06612406,0.030798076,0.061312605,0.08416746
adopter,-0.098274454,0.033247583,-0.10161274,0.009452216,0.07114216,-0.15445612,-0.07723486,0.27091438,-0.10597343,-0.12150943,0.0027270454,-0.068181306,-0.08223551,0.09932486,0.11689657,-0.027307643,0.054282326,-0.04047592,0.05988647,-0.2183485,-0.010677863,0.12127273,0.19196911,-0.12615351,0.03354714,-0.11344984,-0.12604676,0.0013952511,-0.1053077,0.08138221,0.13222721,0.05388255,-0.05383152,-0.13328049,-0.005714668,0.13365729,-0.025536703,-0.025906168,-0.09648156,-0.13053435,0.0960688,-0.10346327,-0.10639608,0.021444203,0.27362823,-0.1449775,-0.08555868,-0.023429707,0.06516337,0.0946566,0.1198887,-0.01906346,-0.13465224,-0.015896702,0.047886334,0.02245242,0.009116785,0.049859297,-0.12323944,-0.05034768,-0.043707613,0.043005556,0.068770654,0.058448624,-0.1610455,0.10235045,-0.03711191,0.03857953,-0.09458916,0.14403816,0.021447329,0.22218029,0.10031477,-0.0002347307,0.17242795,0.010574885,0.074120596,0.07740546,-0.12078719,-0.028924476,-0.12231562,0.0074649467,0.027398067,0.119871065,-0.08299229,-0.0056074834,0.104227215,0.2403344,0.16301411,0.16642348,0.10943084,0.13200088,0.075372905,-0.003967162,0.22368072,0.18998067,0.03112841,-0.051721614,0.019673526,0.07200712
adopté,-0.06528365,0.05299157,-0.050459795,-0.008760154,0.0011000065,-0.09783549,0.005068275,0.18580939,-0.038556583,-0.093959376,0.03328922,-0.07781564,0.015908211,0.029407535,0.026952527,-0.07261602,0.010369197,-0.023492895,0.021608183,-0.16439126,0.048320815,0.040764038,0.07867038,-0.085905455,0.01613456,-0.047838293,-0.07101513,0.01210337,-0.097439416,0.019384991,0.11898379,-0.013016911,0.010960794,-0.093764685,-0.008053811,0.09911897,-0.021257222,-0.005624728,-0.034531545,-0.05187324,0.034251727,-0.092947476,-0.08399207,0.015331105,0.057170592,-0.08837448,0.00670221,-0.012574657,0.017517475,0.06479262,0.051086314,-0.054529347,-0.06719955,-0.0029469251,-0.012255881,0.04536836,0.048945695,0.004746613,-0.09514324,-0.01624257,-0.003135923,-0.017765474,0.052056216,0.001282336,-0.11462775,0.11530711,-0.01420246,0.070184045,-0.088962466,0.043208946,-0.013632492,0.105365284,0.070087664,0.03046202,0.09849032,0.06805886,-0.013923564,0.066369824,-0.07500642,-0.034727875,-0.101409785,0.026915256,-0.016849272,0.11328385,-0.052428342,-0.02276437,0.074942134,0.10059212,0.09809765,0.06864307,0.06294495,0.10055672,0.03165044,-0.0067820796,0.1562872,0.09383103,-0.019806562,-0.052269273,0.0018737725,-0.01880135
adoptée,-0.122381836,0.15418854,-0.10266826,0.07292252,-0.17012852,-0.2078523,0.07369821,0.31549957,-0.060211778,-0.2678182,0.03897933,-0.13725866,-0.009824047,0.01667851,-0.005653788,-0.14716813,0.03606449,-0.07699812,0.013282031,-0.2663712,0.13595527,-0.0042049084,0.14136201,-0.16279133,-0.015807696,-0.108000964,-0.17833492,-0.11738431,-0.19707118,0.0817927,0.14623159,0.0322314,0.09112183,-0.23153384,0.006991333,0.24948859,-0.0084313955,-0.06397755,-0.0979431,-0.06999629,0.11728508,-0.10543072,-0.12695082,-0.037118852,0.07870641,-0.16676904,0.00960055,-0.06403988,0.06987223,0.19298199,0.024044128,-0.117903985,-0.23105176,0.07589054,-0.024171175,0.174202,0.17011368,0.0003616956,-0.23185293,-0.02883966,0.003623188,-0.07712563,0.05468344,-0.0067623365,-0.1900557,0.19508158,-0.07485219,0.073006876,-0.14754051,0.02281796,-0.10553997,0.20351003,0.16282374,0.059964012,0.24204248,0.2094853,0.051832505,0.18088774,-0.1296501,0.004284822,-0.15439762,0.11629651,0.08363853,0.17999108,-0.19035861,-0.07214434,0.16187812,0.24481426,0.18943062,0.14100604,0.17434718,0.19863258,-0.067762524,-0.051034916,0.25347608,0.14208226,-0.18158148,-0.029119266,-0.031611156,0.060795408
adultes,-0.21431285,0.09344428,-0.0945753,0.03698391,-0.015551723,-0.20509331,0.003506749,0.39369678,-0.16052039,-0.23201847,-0.023428783,-0.13595004,-0.069122724,0.12935565,0.14158297,-0.11277095,0.12225374,-0.018203015,-0.024753615,-0.37459168,-0.0019029638,0.10035169,0.24039939,-0.19958681,0.0060895416,-0.124403626,-0.17119004,-0.0019086968,-0.24233231,0.079571664,0.2520271,0.015438369,-0.045457132,-0.3155115,-0.016463613,0.26894405,-0.016805552,-0.015707508,-0.1406818,-0.11828013,0.105878904,-0.115156576,-0.17588438,0.057364162,0.32398728,-0.23515156,-0.024199983,-0.06903011,0.15880348,0.17175801,0.11485533,-0.11855082,-0.22067726,-0.052485865,0.025962852,0.04417206,0.02116028,0.085626945,-0.1707792,-0.07310121,-0.021314979,-0.05663141,0.15775259,-0.014624697,-0.26016456,0.18967009,0.006160655,0.09107791,-0.20191623,0.18155245,0.044481765,0.28744057,0.17097346,0.06406777,0.27125266,0.08774057,0.065742835,0.12828289,-0.13891636,-0.007016372,-0.2517484,0.014022123,0.0492248,0.21667974,-0.1130647,-0.0919111,0.20424257,0.32821387,0.22568014,0.1936324,0.17241153,0.22130194,0.08393624,-0.04805126,0.33492568,0.24948257,0.04428566,-0.07583228,0.05277214,0.069667205
affaires,-0.13755126,0.062458202,-0.036753416,0.014396074,0.003211419,-0.113360554,-0.012457715,0.19035488,-0.0849268,-0.1125022,-0.01580783,-0.08055547,-0.054838408,0.07753683,0.08403316,-0.06550185,0.04197776,-0.007656757,-0.018355811,-0.21410464,-0.026767666,0.05294062,0.12249697,-0.11712559,-0.0055385036,-0.060147665,-0.08025254,0.0057063648,-0.12791024,0.046865355,0.13197616,-0.015019397,-0.052202955,-0.16304643,-0.024135953,0.16207981,-0.008083655,0.0004584231,-0.08321001,-0.06493817,0.067569666,-0.0724625,-0.13843212,0.02427744,0.18997933,-0.15315154,-0.018444695,-0.03997679,0.09306012,0.09984663,0.075103275,-0.06091909,-0.10826416,-0.01685673,0.0035315529,8.065428e-06,-0.027879862,0.033759855,-0.08395978,-0.055698413,-0.004124622,-0.015167835,0.08362655,-0.008901643,-0.15197904,0.103467524,0.008299488,0.040681984,-0.1260779,0.12706402,0.03380341,0.17844518,0.080359705,0.0276259,0.13520287,0.05272845,0.022493653,0.055855576,-0.06594563,0.005142477,-0.15496545,-0.01239294,0.025510652,0.10272932,-0.047692798,-0.032065783,0.105098866,0.1824285,0.12853879,0.14444926,0.10515054,0.13330546,0.040305465,-0.03140161,0.16524984,0.13306117,0.019983489,-0.05242706,0.020070152,0.035103086
affecte,-0.13127616,0.0054321773,-0.08298186,0.038513727,0.006574218,-0.13958725,-0.020727409,0.2279694,-0.1410627,-0.11083594,-0.025956925,-0.11927186,-0.09455329,0.16510616,0.10694733,-0.038433477,0.041674096,-0.02808696,0.009344969,-0.27150226,0.009107073,0.10330386,0.16097547,-0.063483596,0.026820889,-0.08850867,-0.14855167,0.03306422,-0.14764836,0.050695557,0.11784575,0.038613588,-0.055348746,-0.18927926,-0.059541706,0.103553586,-0.021358555,0.015323696,-0.11265452,-0.031448532,0.037643127,-0.08474824,-0.15146397,0.040357705,0.21353658,-0.13555123,-0.03901368,-0.02996796,0.116346724,0.12094023,0.08587023,-0.075224124,-0.103510976,-0.022053676,0.053985674,-0.022788826,-0.013818109,0.022755112,-0.108739585,-0.023035027,-0.018443238,-0.0051377644,0.1123096,0.010615426,-0.16019602,0.09193235,0.03886419,0.07835998,-0.12162256,0.1395356,0.07395191,0.20383517,0.075921275,-0.017088728,0.1354369,0.0018358878,0.0590773,0.06603652,-0.07622905,0.0115392795,-0.17355728,-0.045449145,0.022911122,0.13614085,-0.09066846,-0.016792733,0.14017412,0.17054065,0.18249995,0.1720626,0.09988382,0.15865827,0.11180949,-0.040249333,0.20222433,0.18946952,0.049440783,-0.049162515,0.038736712,0.112579376
affectent,-0.17892872,0.056822125,-0.057674617,0.05172314,0.011275123,-0.13686383,-0.028933778,0.2580837,-0.18805946,-0.13738456,-0.041981086,-0.10951042,-0.121272184,0.16228373,0.12643287,-0.06022506,0.0913749,-0.060887784,-0.011760586,-0.29840156,-0.017544761,0.11860186,0.16007417,-0.10191616,0.008167168,-0.074261695,-0.16440447,0.03182119,-0.12595326,0.07762765,0.14271004,0.035872366,-0.07904155,-0.24140392,-0.049916264,0.15682939,-0.00864662,0.015527977,-0.1464373,-0.070852645,0.07086811,-0.105204605,-0.17171109,0.06733591,0.2772153,-0.19402625,-0.05675389,-0.049262173,0.14157432,0.11539879,0.13256432,-0.06914025,-0.15710762,-0.01148144,0.039781835,-0.015794609,-0.047564782,0.032400023,-0.10507946,-0.07493623,-0.020738829,-0.01768418,0.09794556,0.05007389,-0.19369374,0.10783503,0.05233793,0.083401404,-0.14605522,0.19060259,0.047997177,0.24164632,0.0772733,0.019286202,0.16559307,0.019634727,0.05402348,0.093393244,-0.06251923,0.029517679,-0.21889006,-0.042938326,0.070345044,0.15883319,-0.084694,-0.0115515785,0.14057021,0.2424686,0.17432356,0.24617635,0.13667957,0.17370333,0.0898294,-0.04199672,0.22798634,0.17908068,0.05942528,-0.018242247,0.056614775,0.14601213
affecter,-0.14805937,0.018408587,-0.08769026,-0.03669436,0.10409951,-0.17135894,-0.06567293,0.2777297,-0.11447831,-0.13229199,-0.02500893,-0.08410425,-0.096861266,0.13271587,0.13690998,-0.030887786,0.045760717,-0.0075866063,0.044980045,-0.23626857,-0.024995968,0.097091585,0.16116065,-0.13736731,0.01337257,-0.117715605,-0.09333437,0.010785186,-0.10681292,0.08035762,0.13321897,0.02916589,-0.08348452,-0.13225201,-0.04329266,0.10888109,-0.070290215,0.021843376,-0.052503064,-0.076271676,0.09948151,-0.11151571,-0.11780474,0.014289624,0.29139417,-0.14612503,-0.09373771,-0.024492165,0.08747326,0.08070485,0.14308327,-0.014741462,-0.09746577,-0.03993781,0.0440132,0.01895044,-0.020964883,0.03163834,-0.11643124,-0.0646784,-0.0348037,0.03341839,0.034931708,0.049628332,-0.16037062,0.0843363,-0.018823216,0.039919063,-0.08511276,0.13814422,0.055803128,0.18935902,0.066574536,0.006629191,0.17976399,0.0295903,0.05306442,0.07331233,-0.09417777,-0.0028416147,-0.121171735,-0.010400224,0.00879869,0.12691659,-0.04934046,0.02379002,0.13445283,0.2569154,0.15651974,0.16040081,0.1187198,0.14671409,0.09096478,-0.027750606,0.21660088,0.20515768,0.04712004,-0.09063942,0.03390833,0.066849984
affecté,-0.10422848,0.003541561,-0.08397473,-0.053386346,0.07459601,-0.12379779,-0.03212219,0.19445579,0.015890155,-0.091092266,0.025469303,-0.018761616,-0.072442174,0.015806323,0.028364178,-0.025347803,0.01797922,0.013512289,0.026409274,-0.12628353,-0.056368902,0.014919984,0.09669402,-0.13320336,-0.018220924,-0.103421494,-0.037228793,-0.014136746,-0.081844404,0.042143613,0.123939395,-0.03470146,-0.01161266,-0.045146603,-0.011522646,0.054596018,-0.066318214,0.0048219645,5.610377e-05,-0.058452755,0.09460314,-0.06854441,-0.089458086,-0.056795206,0.12835741,-0.088252455,-0.065344825,0.020640325,0.026064176,0.0917039,0.07558367,-0.0061743716,-0.0504926,0.050352488,-0.02982258,0.060581304,0.04879708,0.049643386,-0.07001639,-0.032125905,-0.0018541283,0.022729656,0.016258134,0.005301658,-0.08254091,0.09182827,-0.048943788,0.00863932,-0.08498998,0.026643662,0.0017459941,0.12989801,0.06741991,0.008609511,0.12304266,0.035666246,0.017224997,0.063067004,-0.07530974,0.007078346,-0.08033647,0.04240208,-0.019191978,0.09055618,-0.051899996,0.02200777,0.12187314,0.12591493,0.07779663,0.056398463,0.05151871,0.10004955,-0.018988313,-0.051566333,0.13313758,0.111059286,-0.064498074,-0.07691528,0.006033574,0.027369548
affine,-0.12502055,0.041173,-0.05722603,0.01983182,-0.020549484,-0.11864844,0.0024207206,0.23933114,-0.086473875,-0.16824345,0.013016118,-0.06716512,-0.06027056,0.074799605,0.03525171,-0.06685538,0.06259917,-0.014875098,0.01091667,-0.24538644,0.018229118,0.020600641,0.17409031,-0.12537463,-0.007905099,-0.09261904,-0.115941666,0.010369512,-0.14579685,0.05002946,0.16704631,0.012053478,-0.010015122,-0.18492858,-0.008055576,0.1443967,0.009258314,-0.01111207,-0.089917526,-0.046218477,0.07445369,-0.098086745,-0.14580971,0.0049258824,0.14500915,-0.14290658,-0.005277436,-0.047332983,0.08103988,0.13388488,0.08522235,-0.04457357,-0.13160603,0.008340355,-0.008411831,0.045262583,0.03593686,0.040119756,-0.16576366,-0.033799417,-0.027091244,-0.0013435984,0.08206434,-0.02073267,-0.1424845,0.089857794,0.0056156334,0.055926897,-0.10655172,0.079689376,0.031993404,0.2042356,0.10722244,0.07458193,0.16584043,0.077748194,0.01833583,0.10692872,-0.0695678,-0.01931035,-0.14469936,0.04104368,0.014264707,0.12852813,-0.09976176,-0.055746596,0.12254361,0.18597949,0.1721439,0.13606045,0.103698805,0.16625479,0.043708555,-0.06224785,0.21398449,0.16960984,-0.02997662,-0.052008934,0.014981312,0.053575687
affirme,-0.15996683,0.019801117,-0.05261547,0.052678593,-0.033905722,-0.15591626,0.011546698,0.34677082,-0.08062895,-0.1671944,-0.06926395,-0.12464241,-0.037620604,0.12210874,0.032893255,-0.12280352,0.034255646,-0.02910462,0.06694943,-0.28425366,0.04875097,0.09437775,0.13003932,-0.16110787,-0.016202299,-0.07029661,-0.1489378,-0.0039445153,-0.1888302,0.08477775,0.17308879,0.05929188,-0.007385389,-0.20968436,-0.071642645,0.15638903,-0.06366513,-0.04823346,-0.07876089,-0.07944182,0.08449954,-0.1164307,-0.15637359,0.01444617,0.21010353,-0.13411565,0.008687948,-0.09776698,0.10053244,0.10460265,0.08064917,-0.11370282,-0.15033548,-0.0027511765,-0.01806159,0.05582204,-0.045053024,0.033468008,-0.1753998,-0.1079939,0.050816156,-0.005244646,0.05076398,0.032651145,-0.1905038,0.08377415,0.00818952,0.054743648,-0.11543698,0.10835658,-0.0233093,0.19990747,0.13802361,0.0002680764,0.20137012,0.0830746,0.007991155,0.12906003,-0.11617364,0.05640782,-0.10997066,0.0074371365,0.0133890025,0.13996138,-0.10855544,-0.050146315,0.17557576,0.22661668,0.15915397,0.13251996,0.1542413,0.16246508,0.030819172,-0.038921665,0.21832022,0.2000692,-0.02275698,-0.006120759,0.039077815,0.08538088
africains,-0.1954661,0.10472494,-0.11817748,-0.009276106,0.12475972,-0.24696487,-0.058981564,0.396527,-0.17904617,-0.16818702,-0.0026076965,-0.2524605,-0.11163343,0.18875857,0.21941908,-0.08624265,0.026900373,-0.07559685,0.029811084,-0.44932726,-0.000116711744,0.20559815,0.19980752,-0.106584884,0.06803876,-0.11182404,-0.1593638,0.020746868,-0.2150424,0.039697044,0.20104894,0.034335997,-0.10415946,-0.2951823,-0.06552443,0.19230947,-0.08341098,0.028926102,-0.15758625,-0.11224655,0.048564397,-0.1777743,-0.2017406,0.05250997,0.3882049,-0.28870708,-0.10858726,-0.022066416,0.13016495,0.18218832,0.16190273,-0.10948892,-0.12495279,-0.09527117,0.09105756,-0.051491775,0.02597928,0.024832191,-0.15429726,-0.05223822,-0.03018093,-0.091894455,0.16194497,0.06619223,-0.27994916,0.21058628,-0.022665108,0.16840753,-0.22138847,0.23759295,0.07744108,0.3061019,0.16385712,-0.050839584,0.22395286,0.021975974,0.085785,0.07671895,-0.16283302,-0.0058945892,-0.30524066,-0.09770519,-3.432137e-05,0.26266196,-0.08254225,-0.0060851304,0.21539126,0.3420278,0.2858604,0.2898712,0.1633524,0.22089688,0.21274161,0.0057038865,0.36587524,0.32019377,0.09922867,-0.1222274,0.060241,0.09188714
afrique,-0.32557556,0.080619425,-0.15764396,-0.09326615,0.17562315,-0.28839007,0.08076345,0.6634823,-0.19701608,-0.36307308,0.0053408,-0.28570628,-0.1103318,0.28002125,0.07476434,-0.14199227,0.12915647,0.028042467,0.064802356,-0.69477534,0.023331095,0.08984363,0.30902764,-0.33429617,-0.026316646,-0.17002374,-0.140571,0.038246557,-0.3880115,0.123742886,0.40516528,-0.08040169,-0.01692119,-0.49762535,-0.14109476,0.2948845,-0.22472927,0.012067858,-0.2462455,-0.1713723,0.1284951,-0.21940248,-0.34752217,0.04634549,0.43546405,-0.29874983,-0.06404002,-0.16219507,0.19332737,0.2902309,0.23113701,-0.061208744,-0.30393204,-0.07570514,-0.023988022,0.06727328,-3.5326484e-06,0.07466258,-0.27361792,-0.056543335,-0.03653772,-0.048734635,0.15876971,-0.0030395829,-0.34280315,0.30954653,0.023908041,0.21471937,-0.2288636,0.31082323,0.07885272,0.48662704,0.20386568,0.07593709,0.34733942,0.14961088,-0.03156096,0.16077681,-0.20652394,-0.04724163,-0.4381297,0.05096662,-0.10228829,0.31997526,-0.084794156,-0.11068831,0.38841042,0.4933026,0.46893218,0.30957186,0.18791854,0.38917497,0.12059141,-0.09136726,0.4503113,0.42037517,0.095879026,-0.14276299,0.13476394,0.14681235
agent,-0.083882526,0.09198188,-0.00792045,-0.007268313,0.05262405,-0.10353784,-0.01979808,0.21803874,-0.038530577,-0.11344071,0.009223003,-0.100946024,0.019475799,0.102876455,0.057067513,-0.023193382,-0.02603254,-0.02979162,0.058285255,-0.20016716,0.015369545,0.10879282,0.032089178,-0.10403972,-0.005029191,-0.027574075,-0.06340828,0.0010852522,-0.0943189,0.040977728,0.06920385,-0.016877575,-0.0274577,-0.08587527,-0.053901985,0.11867363,-0.07479128,-0.025836166,-0.042682696,-0.09893093,0.058215953,-0.07185933,-0.10523384,0.014959158,0.12872069,-0.09296023,-0.0171392,-0.04877593,0.0034112087,0.036951028,0.08014366,-0.066114895,-0.078244485,-0.05695375,0.05599572,0.032265387,0.046258844,0.008844109,-0.10880883,-0.046182957,-0.040891133,-0.027436733,0.010467179,0.03915202,-0.11518031,0.07530635,-0.020407282,0.040385246,-0.07228625,0.12008469,-0.008113236,0.102890186,0.09960088,0.0040621613,0.10059416,0.08395146,-0.003045026,0.047669884,-0.09490522,-0.0036601601,-0.06772482,-0.028991628,-0.018107196,0.12904541,-0.020177085,0.040171742,0.09167849,0.14657997,0.12882441,0.103812136,0.059761047,0.1088472,0.040395577,-0.024650482,0.12123476,0.13581051,-0.0023681098,-0.02805463,0.061179273,0.00864578
agents,-0.40390548,0.08247749,-0.28830758,-0.045202278,0.12170436,-0.39640906,-0.08995289,0.6192043,-0.43989012,-0.2931435,-0.09265261,-0.28270847,-0.27790803,0.32030705,0.41794533,-0.08001747,0.26208925,0.10084599,-0.0828439,-0.6880073,-0.11640651,0.21304362,0.5420447,-0.22406185,0.062623635,-0.22317986,-0.2143536,0.022264775,-0.33098635,0.112359196,0.47295055,0.035752438,-0.19257256,-0.64141065,-0.06582995,0.36387107,-0.07552167,0.08935777,-0.28577372,-0.19673125,0.15931225,-0.1631574,-0.31376252,0.08573661,0.78859246,-0.52282274,-0.23259811,-0.08516434,0.34542677,0.30278164,0.31139505,-0.11856539,-0.3124194,-0.14188905,0.12763262,-0.15742342,-0.1543689,0.15664084,-0.25578055,-0.11573156,-0.03727055,-0.04891664,0.36267874,0.039961357,-0.48221108,0.36765912,0.056109935,0.16782339,-0.43039504,0.49162453,0.26404658,0.5708735,0.23383357,0.026289532,0.45018423,-0.004525776,0.1866541,0.13590518,-0.24609515,0.0045030136,-0.629874,-0.082762904,0.13406064,0.27794334,-0.18327567,-0.10299392,0.44635004,0.67700684,0.46630806,0.43756777,0.35884604,0.43320876,0.3337659,-0.042402606,0.67223394,0.54479766,0.25937942,-0.30630988,0.06705175,0.21401364
agit,-0.15580648,0.13107905,-0.03334487,-0.03712279,0.03530144,-0.17627014,0.0055046384,0.32281262,-0.030101059,-0.16647464,-0.06818627,-0.14982384,-0.0413953,0.06255449,0.06180675,-0.07874297,0.018949833,-0.025281778,0.0818455,-0.21349938,-0.017858839,0.03988585,0.09986419,-0.19753328,-0.067249045,-0.072522625,-0.1158658,0.0139151355,-0.16842882,0.020537177,0.20857868,-0.0112482505,-0.009209976,-0.22753832,-0.033862628,0.15558192,0.003066538,-0.012821565,-0.1120858,-0.08520136,0.08413364,-0.11992302,-0.19711378,-0.04092075,0.21225727,-0.2247035,0.012597065,-0.09109497,0.074104145,0.1089361,0.10892572,-0.06908502,-0.11754141,0.051798817,-0.04377989,0.067226194,0.041558832,0.0009728537,-0.14239274,-0.09353723,0.03207878,-0.04897451,0.0147532625,0.10877512,-0.1518323,0.1358286,0.0341781,0.041306645,-0.07356834,0.15813553,-0.031852294,0.15412527,0.18043289,0.050757386,0.21696231,0.13265261,-0.03986731,0.107432716,-0.09699711,0.045819037,-0.12244597,0.021362536,0.01295129,0.13801545,-0.057719156,0.014376451,0.18031947,0.2950427,0.14406194,0.12330807,0.17222983,0.17193942,-0.019180939,-0.043098107,0.19227979,0.20469917,-0.065158665,-0.013651169,0.025094511,0.027959632
agricole,-0.13480094,0.023081165,0.0031787504,-0.014851808,0.060810857,-0.09156449,-0.035980072,0.2193683,-0.09874448,-0.15124664,0.009955265,-0.043593954,-0.036684528,0.10086441,0.046958786,-0.044890326,0.008458758,-0.01858299,-0.0031086174,-0.23095153,-0.029846763,0.069208615,0.12143554,-0.11895202,0.0020924066,-0.06856636,-0.06296492,0.039830316,-0.13723938,0.06796349,0.10809165,-0.032996625,-0.08211919,-0.115770355,-0.04514682,0.13262182,-0.061593696,0.011978923,-0.021801801,-0.08086353,0.067367345,-0.08480293,-0.14807767,0.018742336,0.16914687,-0.11583216,-0.017781973,-0.043529432,0.04789749,0.09075943,0.0872663,-0.04848189,-0.10203486,-0.04223085,0.023593355,-0.013065448,-0.015955253,0.029988822,-0.12145001,-0.066874914,-0.04920941,0.01650269,0.06250381,-0.04213893,-0.13248038,0.062884375,0.03598841,0.031322584,-0.09086062,0.1208729,0.063228555,0.18296096,0.07141118,0.05033354,0.13582128,0.059587568,0.009202443,0.07730482,-0.06894517,0.010369578,-0.081655964,-0.013036375,0.007830291,0.11475916,-0.03320342,0.002216773,0.06914667,0.17210494,0.13644528,0.15458618,0.08010695,0.15216886,0.07023676,-0.051561352,0.16407646,0.14842874,-0.0077771107,-0.06747159,0.047654994,0.041935418
agricoles,-0.111605175,0.0029169645,-0.061721478,-2.4612476e-05,0.014416467,-0.10361536,-0.0029293234,0.18175061,-0.096733674,-0.08284386,-0.018031571,-0.06673812,-0.08680068,0.07781274,0.07302086,-0.07007977,0.043811332,-0.023678344,-0.009040901,-0.19507724,0.016807903,0.052886277,0.13252805,-0.040110126,0.02490956,-0.08342654,-0.083426744,0.020378595,-0.092606455,0.039566115,0.095023185,0.024035418,-0.03954682,-0.13071854,0.0004924278,0.07005141,0.0022859778,0.031680394,-0.060022138,-0.011065338,0.036157936,-0.07690821,-0.097697265,0.029368374,0.1686655,-0.13908324,-0.04036534,-0.00638767,0.09787758,0.09039248,0.07985594,-0.03341985,-0.05947642,-0.01908493,0.0040365187,-0.0066627488,-0.029911442,0.024560675,-0.07470191,-0.027139323,0.01791252,-0.010275166,0.06586147,0.01251426,-0.11606423,0.07488232,0.0073487083,0.06365775,-0.10450761,0.09882643,0.048234295,0.14815482,0.04435158,0.014606975,0.11236512,0.011972181,0.037272427,0.07317553,-0.0481869,-0.0017633729,-0.12487204,-0.02336415,0.028332885,0.10812322,-0.07385138,-0.024336018,0.097483195,0.15626863,0.12613836,0.13765937,0.097990125,0.11002467,0.08197402,-0.025584651,0.17972176,0.13442625,0.038251806,-0.05473321,0.0068623684,0.053864595
agrégats,-0.12167764,0.0487897,-0.11527208,0.00045524645,0.030592771,-0.15239047,-0.018412149,0.24387178,-0.16983534,-0.13879474,-0.01676321,-0.1299907,-0.07539766,0.13141984,0.13721284,-0.04197562,0.097393155,0.023775145,0.0012071548,-0.27879518,-0.0064042243,0.08744586,0.19505055,-0.08440602,0.028136866,-0.0725168,-0.12186043,0.011977183,-0.14259754,0.029467229,0.17305902,0.039671674,-0.05510041,-0.25624534,-0.043723922,0.16493751,-0.005601925,0.0074315933,-0.14970487,-0.070380814,0.064127676,-0.08295698,-0.14478461,0.02680492,0.2522756,-0.20067443,-0.064713895,-0.05836089,0.109323815,0.12155807,0.125809,-0.048713014,-0.12595776,-0.02493167,0.045546222,-0.024661502,-0.017851612,0.029468592,-0.13435291,-0.022174373,-0.03684801,-0.018985437,0.13066937,0.026201764,-0.16396011,0.12765038,-0.0064026997,0.06549482,-0.14566083,0.16709678,0.08075335,0.20026653,0.111420035,0.009500901,0.1645903,0.017267013,0.060334485,0.07577691,-0.08808558,-0.010143939,-0.22839697,-0.019470816,0.01535948,0.10142103,-0.088911965,-0.042854954,0.17145327,0.24068643,0.19667602,0.15492469,0.12547998,0.17230032,0.09731809,-0.004653561,0.23951428,0.22272466,0.071142964,-0.107815646,0.027987832,0.09357673
aide,-0.091495454,0.07640656,-0.068106115,0.029561108,-0.009575385,-0.16847263,-0.0071108188,0.2655045,-0.05384614,-0.124415025,-5.118362e-05,-0.121921934,-0.050103057,0.04279368,0.08247523,-0.121381216,0.006980379,-0.08759982,0.056487247,-0.25560093,0.07709526,0.0763096,0.11376389,-0.063967474,0.04396542,-0.0925591,-0.13315128,-0.0063240677,-0.1632051,0.011220797,0.13410595,0.07936971,0.012411285,-0.14411543,0.0013770701,0.088925764,0.0046129082,0.005207567,-0.07337406,-0.05212129,0.031381235,-0.15311052,-0.08861988,0.0057742926,0.11702173,-0.19085066,-0.028017312,0.0029980508,0.0659814,0.123362005,0.08084802,-0.05480561,-0.08027641,0.029780015,-0.0046628225,0.04100577,0.103925005,-0.005332932,-0.17914633,-0.011822786,0.023760771,-0.020002335,0.07397256,0.04226634,-0.15605624,0.09601726,-0.039394382,0.08469736,-0.115719005,0.050356675,0.008974471,0.14149185,0.1076554,-0.0020555947,0.1791425,0.038587123,0.050550677,0.10875045,-0.09425467,-0.007030299,-0.094962396,-0.029514888,-0.0025645283,0.1667716,-0.119546175,-0.01531524,0.12643743,0.1670754,0.14642952,0.16734372,0.11312763,0.11886957,0.09716907,0.0036478962,0.24132647,0.20401213,-0.050586708,-0.04126141,-0.02191595,0.010914196
aider,-0.08131038,0.09368042,-0.09696706,-0.024385301,0.02097121,-0.13228485,-0.025225105,0.16251032,-0.07655094,-0.087867744,-0.0136660375,-0.092315644,-0.056684293,0.020101128,0.13071373,-0.002200936,0.07710204,0.04189157,0.027914906,-0.11857615,-0.013420562,0.0471549,0.12051323,-0.08759685,0.010955655,-0.05118761,-0.08520584,-0.04967386,-0.09241221,0.009111741,0.124016516,0.024902223,-0.0021366673,-0.18024483,0.0067041973,0.11575046,-0.0023066003,-0.020856839,-0.112280674,-0.08465301,0.07053335,-0.024362942,-0.043810908,-0.033449247,0.21070373,-0.19267444,-0.06646189,-0.021413526,0.05842007,0.08047135,0.09896382,-0.013504475,-0.1166358,0.005142765,0.044222496,0.011735738,0.05057591,0.04935396,-0.09489482,-0.024075793,0.013301689,-0.060452316,0.07090657,0.07191846,-0.106580235,0.14261614,-0.0453402,0.021621058,-0.09387852,0.11762719,0.013709797,0.13086061,0.10082542,-0.011361409,0.13918458,0.04018186,0.081710294,0.06639195,-0.09589486,-0.014814352,-0.17100295,0.004978089,0.063945666,0.08119315,-0.08175809,0.0027056332,0.1644078,0.24409094,0.118330695,0.078290835,0.11390129,0.08303975,0.04436747,0.018882466,0.18700892,0.1494383,0.0019201356,-0.06406365,-0.0084387865,0.043375462
al,-0.31458676,0.14650814,-0.15196383,0.018581806,0.019294968,-0.35527486,-0.038917813,0.5324148,-0.2151983,-0.37167937,-0.01352106,-0.17345192,-0.14992139,0.15824935,0.20660149,-0.19545662,0.06503606,-0.094692856,0.0658045,-0.45245823,-0.0046856627,0.15810308,0.28593343,-0.28738222,-0.019959198,-0.19479267,-0.22823064,-0.038531832,-0.22993879,0.12617706,0.27091232,0.016480595,-0.110351905,-0.34966773,-0.007742302,0.38933632,-0.05099223,-0.020853307,-0.15134597,-0.17777066,0.21846305,-0.21433714,-0.29143736,0.01147826,0.4295952,-0.37239835,-0.10744261,-0.072915606,0.20056093,0.22071187,0.20871745,-0.11844694,-0.28292742,0.04079133,0.002451227,0.12354379,0.039698873,0.03552227,-0.24667156,-0.19215034,-0.00893081,-0.045710865,0.06940284,0.06939214,-0.3144124,0.2813275,-0.09920902,0.10408352,-0.2730209,0.2373197,-0.0012058306,0.44264665,0.18183732,0.05130497,0.38106012,0.15050738,0.06606987,0.22474054,-0.19209656,0.01456167,-0.3324673,0.030912858,0.14259076,0.27043584,-0.14966355,0.0018055383,0.27696967,0.4882573,0.2759635,0.31940958,0.30724072,0.2907786,0.012250647,-0.046341155,0.43189666,0.27899253,-0.06487817,-0.09971886,0.011478702,0.16387448
algorithme,-0.13522694,0.17175098,-0.06307815,0.0152181005,0.03579791,-0.24348183,0.046660885,0.5102066,-0.08736292,-0.25620186,0.056173135,-0.31979397,0.046639908,0.20101976,0.107274726,-0.16518484,-0.023442887,-0.10626689,0.08151628,-0.5031557,0.1353332,0.22068109,0.11750123,-0.14115672,0.047249407,-0.07331587,-0.17561091,0.019178558,-0.27811882,0.05321791,0.21293017,0.0072343834,0.003395973,-0.31281886,-0.08954115,0.25860706,-0.15663162,-0.02775377,-0.13040951,-0.17979003,0.04780079,-0.22177562,-0.1792507,0.089442246,0.22376212,-0.23134841,0.0339956,-0.106675826,0.067677416,0.15038936,0.12531422,-0.24546917,-0.21630754,-0.113749154,0.091282114,0.044272035,0.14457169,-0.002213092,-0.24232537,-0.030209247,-0.06199061,-0.146507,0.124535784,0.077415,-0.30935797,0.2733224,-0.0281785,0.23406126,-0.23840158,0.21659037,-0.061436288,0.26397723,0.26863372,0.017312368,0.24096204,0.1181383,0.0138498545,0.14162993,-0.26642132,-0.043798234,-0.24935623,-0.0736307,-0.036143776,0.36839804,-0.07066296,-0.030092143,0.20074932,0.29474235,0.29177207,0.2413432,0.18913771,0.24143781,0.16934234,0.025684446,0.36101875,0.3014579,0.036089685,-0.025662987,0.08154568,-0.0058033145
algorithmes,-0.14370339,0.06695835,-0.12922092,0.0047647753,-0.008173013,-0.17168443,0.005348044,0.23760971,-0.14027937,-0.15743223,-0.0018487072,-0.06329085,-0.12018788,0.039974038,0.1322964,-0.073752925,0.12267671,0.0076157134,-0.07864967,-0.233393,-0.02526413,0.008563772,0.25579673,-0.12901607,-0.0015935426,-0.12585415,-0.07560021,-0.05944188,-0.15296352,0.067824356,0.19220136,-0.0041417917,-0.032333083,-0.25966552,0.036558423,0.18204215,0.010696288,0.024500236,-0.10363641,-0.08280295,0.11531609,-0.04710187,-0.12434222,-0.012087895,0.2763132,-0.22504295,-0.10957299,-0.01598708,0.14909478,0.18096308,0.09060271,-0.042408787,-0.15268485,0.0031979245,-0.01762538,0.03710216,-0.008297273,0.07590687,-0.10491686,-0.037099846,-0.00088647817,-0.025882307,0.123569824,-0.018180998,-0.18926334,0.20215887,-0.04575493,0.022386767,-0.17797911,0.1100327,0.061369196,0.2743928,0.0874961,0.02412968,0.21211116,0.046190675,0.10965073,0.072581425,-0.083813824,-0.02181572,-0.2643454,0.049576584,0.088005744,0.1000695,-0.108368866,-0.10015529,0.15992106,0.2877828,0.18832196,0.15215538,0.15131794,0.15123889,0.04959927,-0.011632111,0.26856852,0.16285247,0.022303572,-0.13936989,-0.024457686,0.07405074
algèbre,-0.12699652,0.028525658,-0.02175873,0.042754907,0.057738405,-0.09242581,-0.04147918,0.25422177,-0.030008586,-0.09112364,-0.020964509,-0.07692344,-0.03473943,0.13076971,0.025850708,-0.06009781,-0.018102242,-0.08743045,0.07598764,-0.24380699,0.04914001,0.12024792,0.09442167,-0.0958028,-0.004659758,-0.08577165,-0.12780212,0.028682677,-0.1557778,0.039368037,0.10428025,0.05583049,-0.046790864,-0.03196779,-0.07238987,0.11002261,-0.0013943564,-0.026889833,-0.059685644,-0.032131348,0.08742191,-0.14267683,-0.16906616,-0.036900748,0.11258662,-0.088491276,-0.010208096,-0.021519298,0.072035424,0.11811748,0.093127035,-0.03904507,-0.042447954,-0.021448266,0.01608148,0.053465784,0.060537003,0.023088584,-0.1522638,-0.016667942,-0.05270445,0.025110543,0.03367431,-0.0049475003,-0.10502451,-0.001202025,-0.008972121,0.05741284,-0.08025067,0.07323678,0.05559543,0.15344568,0.07448459,-0.021212209,0.13562332,0.0176275,-0.00047295136,0.07921625,-0.07339179,0.0015424525,-0.06378094,-0.041809402,-0.09822709,0.17624192,-0.0596284,-0.009110366,0.087140314,0.15440027,0.19088426,0.13466334,0.041913684,0.16478322,0.08408495,-0.08362805,0.13686952,0.21695605,-0.037014537,-0.05956791,0.076210395,0.045274105
algèbres,-0.23149358,0.1276302,-0.09494366,0.07024073,0.012287463,-0.19747585,-0.028926244,0.3612661,-0.24314646,-0.24639055,-0.050194062,-0.16558026,-0.08841613,0.20197302,0.19790259,-0.0729707,0.15116331,0.040094115,-0.029742109,-0.39461684,-0.025116825,0.101588786,0.27439356,-0.2138545,0.036282107,-0.11120808,-0.22299968,0.045164157,-0.24325787,0.07091502,0.291627,0.026011936,-0.10225914,-0.35205847,-0.046144947,0.31431985,0.060112678,0.00863882,-0.20728433,-0.09887358,0.13921978,-0.12324983,-0.2543373,0.030914156,0.3347344,-0.309487,-0.044087823,-0.103002205,0.18609856,0.19652936,0.16304015,-0.094152056,-0.25071964,-0.011095391,0.049760286,0.006814348,0.034424964,0.091924176,-0.21934313,-0.05827484,-0.081980415,-0.039379388,0.22233161,0.008507511,-0.26615474,0.1850937,0.04500328,0.07864293,-0.20988949,0.28170574,0.11331055,0.33385077,0.20783262,0.081572756,0.26960957,0.07554794,0.06304645,0.14733705,-0.15014322,-0.017706715,-0.33166328,-0.012161971,0.06966546,0.17977422,-0.12729254,-0.07214228,0.23051344,0.37889788,0.30241197,0.23575503,0.21124865,0.27226645,0.11460672,-0.082338005,0.34513918,0.34529248,0.025438722,-0.12505658,0.06753997,0.097253576
algébrique,-0.13561553,0.079121135,-0.036531277,0.058569495,-0.014207518,-0.14202598,0.03725091,0.35635996,-0.104960896,-0.21428187,0.023364142,-0.13574953,-0.033521663,0.12029736,0.030739967,-0.12674598,0.03526096,-0.069083504,-0.0008690437,-0.35556385,0.05786818,0.06552223,0.19095679,-0.17689961,0.009346417,-0.10093037,-0.15607202,0.037442185,-0.24414419,0.08108985,0.2239802,-0.018239649,-0.0049095303,-0.21254513,-0.036055684,0.20731224,-0.0043626404,-0.014473543,-0.08616025,-0.0691767,0.08704663,-0.17187272,-0.21751975,0.034938537,0.1348857,-0.16949883,0.03341404,-0.055245195,0.10312064,0.18736368,0.08388031,-0.11118769,-0.17300113,-0.0094416505,-0.034951393,0.06625012,0.08198835,0.036971953,-0.21387021,-0.022649014,-0.045154836,-0.0035300176,0.120950185,-0.06791127,-0.22135818,0.14591087,0.008634908,0.11796273,-0.16066444,0.11450945,0.013428831,0.28306365,0.15407328,0.08460202,0.20526378,0.091870576,-0.015055807,0.119580895,-0.12204648,-0.039565172,-0.17977808,0.018187836,-0.03361106,0.2146665,-0.09932426,-0.102402486,0.14499104,0.2047826,0.25794843,0.18757671,0.116816066,0.23072304,0.07151887,-0.07587507,0.25697464,0.21614745,-0.040046886,-0.0742049,0.047161333,0.03211515
algérie,-0.0722959,0.05821386,-0.027569951,-0.052877694,0.04322631,-0.073281385,0.05028119,0.16592242,-0.033668444,-0.086411566,-0.019428179,-0.11579638,0.03025554,0.0606194,0.0024041454,-0.018201688,0.0012438658,0.010955712,0.053634975,-0.15020049,0.050449573,0.049402025,0.027210223,-0.08300546,-0.010119775,-0.009905391,-0.014962474,0.003479426,-0.09183248,0.005100777,0.063874826,-0.0045200926,0.02888782,-0.12628654,-0.05202464,0.069554396,-0.07104457,0.0013606481,-0.08331689,-0.045581162,0.015954604,-0.060365405,-0.067175,0.011793198,0.08318466,-0.05072439,-0.009591761,-0.058456555,0.022002053,0.04593637,0.047224246,0.0010414593,-0.074477345,-0.033185307,-0.0055948575,0.042024307,0.0044981902,-0.027358938,-0.082740515,-0.019612394,-0.006262995,-0.029965537,-0.0069864593,0.053187832,-0.06886487,0.042379472,-0.010135778,0.05656453,-0.004925457,0.09121103,-0.017991984,0.046216022,0.04937988,0.007986061,0.06700073,0.07357444,-0.04200758,0.03046534,-0.05976382,-0.003936071,-0.05669314,0.036888544,-0.043200616,0.058012586,-0.0030926636,-0.0054860907,0.09185639,0.114810064,0.10594359,0.038302623,0.040303487,0.07172245,0.013110724,-0.002639855,0.05653251,0.10507039,0.016557554,-0.015430072,0.029316444,0.028814044
alimentaire,-0.20131831,0.010384906,-0.11480773,0.017111933,0.10049701,-0.20061265,-0.008789295,0.35074666,-0.16071214,-0.20239483,0.018971117,-0.14893587,-0.12600145,0.19834048,0.1135019,-0.07282344,0.04945318,-0.027664907,0.034691054,-0.39967045,0.048015952,0.14219123,0.22825055,-0.13476896,0.058118757,-0.1189154,-0.17991565,0.05446956,-0.2117663,0.08505702,0.16099606,0.04538354,-0.06635123,-0.19605732,-0.0660327,0.15162231,-0.08950016,0.018936139,-0.1073042,-0.0484168,0.08707735,-0.17622545,-0.19612391,0.029240996,0.2436852,-0.16868274,-0.08492146,-0.03306653,0.13199727,0.16471875,0.12637399,-0.07188552,-0.12963678,-0.017003208,0.05416815,0.06707956,0.04361659,0.04233,-0.1711744,0.008780758,-0.06291999,0.008735723,0.1068394,0.0090183765,-0.19096315,0.11907542,-0.05076207,0.12818551,-0.14462781,0.18107371,0.079867184,0.2846303,0.12278032,0.020058518,0.18731745,0.031973895,0.061370317,0.11552522,-0.13528584,-0.031915594,-0.23870715,-0.01536847,-0.028474258,0.22722806,-0.113886185,-0.0022885264,0.20326088,0.22743545,0.26309925,0.18511356,0.09116841,0.22743307,0.11516041,-0.077375904,0.25931245,0.2615185,0.06827529,-0.10419902,0.065223366,0.113259025
alimentaires,-0.14013219,0.010198485,-0.1056033,0.0015867173,0.026825605,-0.13848425,-0.006710246,0.21702355,-0.16464035,-0.093861125,-0.043443352,-0.0664799,-0.11501883,0.09853906,0.12450921,-0.04071331,0.11181569,0.023368677,-0.028599467,-0.2166027,-0.031992927,0.05195539,0.22403361,-0.08638749,0.021451633,-0.09235973,-0.07978387,0.015127576,-0.11466713,0.06727479,0.15122889,0.013222033,-0.06849015,-0.21425526,-0.0019917523,0.1487315,0.010994262,0.013247743,-0.1106473,-0.03850201,0.07803479,-0.068694025,-0.12321566,0.036788434,0.27664515,-0.17432366,-0.08506478,-0.029661657,0.15164249,0.10312752,0.10793165,-0.025412578,-0.11622644,-0.029113242,0.007801711,-0.018085433,-0.08397653,0.056669075,-0.090207346,-0.0411177,-0.0047444985,-0.011014121,0.11195879,-0.00470157,-0.16420363,0.121533796,-0.0013728981,0.06984341,-0.14065617,0.15794973,0.07804212,0.2268088,0.073687054,0.0051542046,0.14877537,0.027043864,0.0619364,0.06018203,-0.049312025,0.009326364,-0.23483892,0.0036612048,0.052719753,0.081695534,-0.07480984,-0.080560364,0.1471633,0.22886556,0.15609431,0.14068823,0.112434655,0.1512401,0.077396646,-0.026149055,0.24770157,0.15778387,0.09453682,-0.10480392,0.011619358,0.09984806
allant,-0.24607077,0.099191405,-0.065862894,0.020600319,0.087029114,-0.23539539,-0.054993846,0.5438466,-0.20990975,-0.33021614,0.024315355,-0.18186541,-0.078271315,0.25168085,0.14334626,-0.14478724,0.07840641,-0.0362121,0.043313038,-0.56971365,0.030583296,0.1775584,0.30706644,-0.2688279,0.033537738,-0.14567415,-0.21678762,0.0852344,-0.32032055,0.113878526,0.3046899,-0.026216501,-0.11209525,-0.31133047,-0.051435124,0.32036585,-0.049086984,-0.00043545643,-0.1371537,-0.15171492,0.14179581,-0.26356146,-0.29086375,0.083613485,0.3412194,-0.2967165,-0.011065609,-0.09284052,0.13999332,0.20287849,0.17751776,-0.1568522,-0.25255203,-0.06423038,0.047071565,0.022309355,0.060571134,0.091284625,-0.28066444,-0.061306417,-0.12240659,0.021281885,0.20974883,-0.04002617,-0.33981788,0.2022597,0.02838771,0.14684644,-0.24095945,0.27718115,0.08631184,0.43202427,0.22908694,0.11822327,0.31178188,0.1094936,0.009438482,0.15978487,-0.19426124,-0.06704979,-0.29136026,0.0016859504,-0.038092285,0.31063327,-0.09355292,-0.071530946,0.20737988,0.37501812,0.3653047,0.29751545,0.15733315,0.32220513,0.1656985,-0.064632475,0.4096661,0.34313768,0.07617454,-0.13282105,0.11463346,0.03456954
allemagne,-0.10527606,-0.013700298,-0.028322445,-0.05476067,0.07781931,-0.04188639,0.07964207,0.20063601,-0.10721159,-0.13595374,-0.010090148,-0.08139796,-0.050945763,0.07809082,-0.030224402,-0.040957432,0.09385576,0.04976532,-0.0051737614,-0.22249302,-0.0044800197,-0.036366645,0.15914848,-0.12564556,-0.04302835,-0.026753291,0.007298112,0.033049632,-0.12586457,0.06565033,0.124967225,-0.047335364,0.009567647,-0.21382509,-0.036105245,0.08825314,-0.08488767,0.0034779515,-0.10134604,-0.0030186116,0.043785684,-0.06778566,-0.12728085,0.026725268,0.14068411,-0.07486708,-0.014157416,-0.085461326,0.084698305,0.10713741,0.07898132,0.030935112,-0.112226024,-0.015338558,-0.04960906,0.03663118,-0.08973325,0.029299485,-0.05787269,-0.005620701,-0.014536436,-0.007263173,0.028123055,-0.024564357,-0.08835352,0.08856791,0.01157622,0.054470673,-0.045192327,0.112515055,0.051044855,0.17910385,0.03465972,0.07876968,0.08362982,0.045464706,-0.043136813,0.029880315,-0.009489281,-0.009915485,-0.17750295,0.08444001,-0.0492059,0.049080208,-0.012187706,-0.089180596,0.11569635,0.16715671,0.16402382,0.081477396,0.04292252,0.11445308,0.0007111948,-0.04271656,0.09897358,0.10822093,0.078020155,-0.059069484,0.039061688,0.07960045
allemand,-0.20527148,0.0849345,-0.020624273,0.05367723,0.021809818,-0.17907956,-0.023159932,0.36352175,-0.10006196,-0.22493193,-0.002186295,-0.12040732,-0.039071724,0.13261929,0.105041,-0.11268569,0.013064386,-0.12363508,0.013691657,-0.34252757,0.018226637,0.13028918,0.118769206,-0.20259789,-0.0009332602,-0.13784423,-0.14916687,0.005275059,-0.19802909,0.10905585,0.1661528,0.0022340834,-0.06899011,-0.18573585,-0.056362044,0.22652736,-0.047610734,-0.016464943,-0.08297813,-0.13207217,0.10908214,-0.12333023,-0.19333403,0.032019913,0.23610848,-0.1993783,-0.038801048,-0.046112794,0.11170542,0.14526388,0.09294546,-0.12123287,-0.1452379,-0.016847093,0.00875086,0.05399427,0.044328958,0.029867304,-0.1626321,-0.097730726,-0.024147272,-0.034573305,0.046802435,0.0027056332,-0.21757609,0.13963436,-0.008469913,0.0614445,-0.1531559,0.12501194,-0.0048464197,0.2598416,0.13873559,0.019828944,0.24067698,0.090341285,0.062359925,0.10993124,-0.12170102,0.034212112,-0.14439672,-0.01483282,0.04346376,0.22282876,-0.08081719,0.016904175,0.13604671,0.28166816,0.1932341,0.25904313,0.17836371,0.20994307,0.038015015,-0.03075644,0.24256553,0.2097748,-0.038724344,-0.020421011,0.040537827,0.072837636
allemande,-0.13207032,0.00803731,-0.02109329,0.040505692,0.025448743,-0.09952007,-0.0039664004,0.23124853,-0.090379536,-0.15422036,0.002519887,-0.08125692,-0.020758785,0.13009225,0.023201369,-0.063718185,0.032452192,-0.0023007507,-0.012391692,-0.2604855,0.0067429417,0.06601911,0.12173741,-0.12055876,0.02107682,-0.053933144,-0.10264365,0.036693826,-0.15337124,0.0559003,0.13546443,-0.0023664315,-0.021536632,-0.1537095,-0.0781561,0.11072055,-0.060085833,0.0039695636,-0.03745275,-0.033015944,0.057529397,-0.091455236,-0.1288327,0.04355975,0.11083097,-0.08402284,0.011035877,-0.044669338,0.05891176,0.10013627,0.06413425,-0.07182783,-0.10781083,-0.037267067,0.022453222,0.0063593304,0.039595004,0.04950999,-0.13537256,-0.005232387,-0.048654772,0.011827742,0.0976992,-0.04719561,-0.12948088,0.0635944,0.021635937,0.07643625,-0.100412145,0.08894772,0.058703594,0.17538545,0.08581387,0.06982261,0.11166979,0.053478878,0.0068529677,0.08829173,-0.079567574,-0.032043997,-0.12385306,-0.0022430315,-0.025575785,0.1334896,-0.060229663,-0.025102086,0.11198477,0.11751852,0.1507736,0.11479283,0.05817705,0.16572163,0.07126949,-0.07452263,0.17707679,0.15403269,0.011273349,-0.0607069,0.062672034,0.042810112
allemands,-0.13438289,0.049203925,-0.08425868,0.0073171714,0.03437375,-0.14450835,0.0049585267,0.22804597,-0.13457106,-0.14932281,-0.0032535763,-0.079462916,-0.07694585,0.08496131,0.10616763,-0.07985709,0.07615097,0.012332631,-0.039965075,-0.27013412,-0.020235257,0.060134225,0.2026274,-0.11747068,0.016829252,-0.096418165,-0.092166096,-0.011158192,-0.14981885,0.046899203,0.17379405,-0.0041223606,-0.05219157,-0.22067735,-0.014868065,0.16798119,-0.04030067,0.0066788145,-0.07529637,-0.07852168,0.0652651,-0.08019049,-0.11459162,0.030725334,0.21979901,-0.18263802,-0.045902014,-0.030028261,0.11376308,0.14101058,0.09394157,-0.066817395,-0.12802653,-0.04716199,0.027079524,-0.013318654,0.0042239027,0.053630196,-0.09543113,-0.018508313,-0.028890144,-0.025883693,0.14376812,-0.032232378,-0.17675373,0.1669093,-0.0141461175,0.07851904,-0.17060761,0.124610014,0.05305403,0.2336516,0.10486281,0.037930034,0.16993521,0.013334612,0.06746936,0.08684649,-0.099295214,-0.01634801,-0.22479275,0.0029105088,0.03885389,0.13336056,-0.08033001,-0.07181489,0.15785427,0.2089717,0.16798471,0.1450451,0.116158046,0.16712102,0.0836757,-0.02046741,0.25025785,0.1693349,0.051143974,-0.09043939,0.031601064,0.052779585
aller,-0.074176,0.027051708,-0.031967174,0.030150466,-0.026570873,-0.081076965,-0.021130411,0.13032264,-0.061933495,-0.0835872,-0.018008094,-0.028119568,-0.025777154,0.04263654,0.03578448,-0.025673416,0.037558485,-0.005303221,0.014601382,-0.10924663,0.024012225,0.029584639,0.08804103,-0.0625035,-0.003494341,-0.04918266,-0.061486192,0.007963111,-0.053256497,0.025324296,0.05760746,0.019345708,-0.028569302,-0.07936875,-7.186066e-05,0.11148716,0.00861956,-0.017104566,-0.049887378,-0.022253087,0.074191265,-0.06035091,-0.060130164,-0.009002057,0.102369554,-0.073500015,-0.014226093,-0.031594343,0.04597702,0.056432232,0.047157478,-0.026118292,-0.07935852,0.0050022146,0.01781314,0.053507306,0.014522326,0.023395741,-0.096063375,-0.033483207,-0.020896968,-0.0063688667,0.01914657,0.015343535,-0.08987815,0.02604648,-0.026519055,0.01666894,-0.04483931,0.061608683,0.01710386,0.08678347,0.060570613,0.031545177,0.10212396,0.04845486,0.020753933,0.05141496,-0.049681585,0.006325205,-0.059769,0.033014134,0.024841947,0.058469452,-0.0606374,-0.01268708,0.071055524,0.14224869,0.06683507,0.06430431,0.0689321,0.081682906,0.006608042,-0.030844416,0.11683677,0.10277441,-0.014462981,-0.045248993,0.005944063,0.026885824
alternative,-0.11168574,0.078478456,-0.055266585,0.072425164,-0.032594286,-0.17263356,0.029583026,0.3631259,-0.069307275,-0.19828096,-0.008893905,-0.16951135,-0.048914965,0.110560164,0.05104854,-0.1425462,0.056508355,-0.13376607,0.060275864,-0.37544048,0.12357054,0.06207954,0.17267287,-0.14080824,0.016736085,-0.13265035,-0.21530306,-0.016310014,-0.2596463,0.055378903,0.2092253,0.07451463,0.033381786,-0.2111268,-0.047176756,0.16658431,0.06726909,-0.03765486,-0.18916798,-0.04343021,0.05906159,-0.18370923,-0.19849183,-0.0003763631,0.13440232,-0.20955652,0.0018555017,-0.03908265,0.122951604,0.21563102,0.06983055,-0.09294074,-0.14760382,0.04281116,-0.046032146,0.10915192,0.13089357,0.023474125,-0.24535297,0.04476866,-0.003046217,-0.049354777,0.11392411,0.0015316223,-0.18049686,0.10848152,-0.024157904,0.1013183,-0.12036692,0.057633072,-0.0014954017,0.25133136,0.17173368,0.016873093,0.22237037,0.05785682,0.016689729,0.13222994,-0.115365304,-0.0055063027,-0.17918126,0.00417159,-0.06937038,0.23944987,-0.16178226,-0.08544488,0.16059096,0.22070065,0.25249252,0.18979827,0.13209438,0.18652731,0.07552907,-0.029846538,0.23561381,0.26169273,-0.063767776,-0.028089521,0.020434842,0.049798083
alternatives,-0.09933233,0.052702136,-0.03944353,0.01931789,0.023935273,-0.095630795,-0.021352394,0.18466471,-0.09554929,-0.109548,0.01108172,-0.062233806,-0.05114071,0.0578086,0.09526096,-0.06230543,0.061193027,-0.027629547,-0.029037206,-0.19255397,-0.019769048,0.06653736,0.105769895,-0.08980958,0.012863173,-0.06968078,-0.062038906,-0.0068746926,-0.12583542,0.050323352,0.101175226,-0.014407412,-0.055110365,-0.14726278,-0.0005516911,0.14180255,-0.0066254954,0.0035037787,-0.07221477,-0.0683042,0.05506908,-0.07177484,-0.09662096,0.0349034,0.16215272,-0.14396615,-0.015202819,-0.015523107,0.06874568,0.0988559,0.07317274,-0.052512906,-0.10079124,-0.031863324,0.015835637,-0.0017220329,0.0036237102,0.033276778,-0.06822069,-0.03248522,-0.032999814,-0.03446368,0.07633251,-0.011942647,-0.14116918,0.08909866,-0.015063581,0.03398925,-0.12113165,0.10087584,0.0424102,0.16530183,0.06863402,0.027956458,0.13199894,0.028632442,0.044240244,0.05039819,-0.06375088,-0.014354525,-0.14873296,-0.005370061,0.024285438,0.10988196,-0.045035377,-0.021028163,0.07949565,0.15935922,0.12291089,0.13014956,0.08496924,0.10158297,0.0619783,-0.004694905,0.16573387,0.12031911,0.028088544,-0.05143156,0.017082209,0.028761616
aléatoire,-0.18684947,0.06505553,-0.015814206,0.04286002,0.013569002,-0.14932847,0.014769054,0.35840687,-0.10284149,-0.21515451,-0.001399251,-0.13048026,-0.042861726,0.15147713,0.042782865,-0.12440572,0.022490392,-0.0737668,0.008036263,-0.35731813,0.012575006,0.08342005,0.16264366,-0.17806192,-0.0033911166,-0.10050827,-0.13754311,0.03779147,-0.20997056,0.09479276,0.1911573,-0.022916801,-0.054868758,-0.19355176,-0.06368149,0.20636621,-0.05839304,-0.0076734344,-0.084659405,-0.09274542,0.08164743,-0.16050716,-0.22638462,0.03800626,0.1832082,-0.17013633,0.00482552,-0.06749436,0.10321633,0.16469863,0.10675036,-0.11545269,-0.1604722,-0.029287158,0.0021253214,0.04194894,0.032142285,0.04278498,-0.1991194,-0.068436116,-0.056829173,-0.0026008114,0.0987545,-0.041957792,-0.22406106,0.12585431,0.03421949,0.103761375,-0.16745836,0.14839357,0.028052738,0.27327013,0.12914082,0.063435875,0.21157809,0.08097074,-0.006482303,0.12386513,-0.11838184,0.0050639566,-0.16547158,-0.018763375,-0.011319374,0.2179541,-0.06517838,-0.0402305,0.14109595,0.23714115,0.22797813,0.19803026,0.12419344,0.21976009,0.076055385,-0.054407764,0.255356,0.22235523,-0.010708749,-0.04666903,0.07060567,0.060436867
aléatoires,-0.20557572,0.08382806,-0.12055972,0.014762594,7.3501724e-05,-0.22047481,-0.025891203,0.3735697,-0.190468,-0.22242966,-0.03440887,-0.09434759,-0.106598526,0.1005457,0.14313994,-0.10007471,0.11630881,0.005666405,-0.010922438,-0.34328723,-0.038234908,0.07990728,0.2781095,-0.21519436,-0.011882284,-0.14221087,-0.14381815,-0.0012822802,-0.18601397,0.09585101,0.26339632,-0.008077656,-0.07227712,-0.30324936,0.0051791817,0.26629382,-0.027288318,0.012405083,-0.11689652,-0.14386983,0.13373618,-0.130743,-0.19732475,0.043841206,0.36385942,-0.25926542,-0.08527097,-0.056285605,0.15049152,0.17160751,0.15808994,-0.08150161,-0.21748795,-0.02676175,0.0014111958,0.039552487,-0.0533111,0.07427572,-0.15521275,-0.11653589,-0.010846856,-0.009899275,0.12922488,0.008092968,-0.25214085,0.22000222,0.0021468466,0.07735072,-0.1995066,0.18427351,0.05002243,0.33845493,0.15139239,0.059618067,0.26527092,0.098429255,0.06599622,0.11505943,-0.114909925,-0.0005327088,-0.2782496,0.058595017,0.09255819,0.1505667,-0.109682955,-0.09273205,0.18622993,0.36694264,0.22747327,0.22168794,0.19853681,0.21821536,0.058308233,-0.026951926,0.35818845,0.21042028,0.044246566,-0.106330186,0.019979043,0.089025795
ambigu,-0.13785253,0.02548072,-0.051118422,-0.042750545,0.05491492,-0.15991409,-0.022058755,0.30672994,-0.06394701,-0.14780906,-0.014986982,-0.09762927,-0.07837413,0.070522204,0.071899004,-0.083519325,0.028001819,-0.07028026,0.056249738,-0.23348463,0.0070279646,0.058220092,0.13824052,-0.14900942,-0.040453296,-0.11842681,-0.0837612,-0.014087611,-0.15591525,0.06577442,0.15196314,0.013487585,-0.047173444,-0.15823707,-0.011869487,0.13565338,-0.038715605,-0.020283772,-0.06861915,-0.076574385,0.094671376,-0.1153069,-0.15050097,-0.026465164,0.22507519,-0.17000587,-0.049663,-0.027116762,0.09002116,0.122076295,0.11703168,-0.03301334,-0.08225633,0.00325793,-0.005542142,0.04146941,-0.0113531435,0.020384656,-0.12270503,-0.06757496,0.0012853593,0.0018456402,0.032541666,0.022575647,-0.16014443,0.105311796,-0.0070858547,0.0446584,-0.10408838,0.10022711,0.01032773,0.20134315,0.094024315,0.013891244,0.18642955,0.047246497,0.028761985,0.083586715,-0.09027781,0.026890099,-0.13594095,0.0027128435,0.008017631,0.16168706,-0.058263805,-0.007890488,0.1250597,0.25412476,0.17136672,0.17315845,0.14093299,0.15689324,0.03372527,-0.025579156,0.20176758,0.18172397,-0.018660368,-0.04990848,0.0019330512,0.061021555
ambition,-0.017988287,0.08120674,-0.07325114,0.040675692,-0.045573648,-0.084059164,0.04962945,0.14207447,0.034042,-0.07498321,0.043423474,-0.050532967,-0.021247,-0.026202481,-0.001953875,-0.0758047,0.018407853,-0.05041413,0.026476016,-0.10812033,0.03918947,0.01520255,0.06065425,-0.06485452,0.02812444,-0.060222335,-0.093750894,-0.06835448,-0.07965405,-0.0016926837,0.08727609,0.018393308,0.06253968,-0.059959415,0.039128367,0.08319324,0.030625815,-0.04875448,-0.028002579,-0.037614893,0.057998154,-0.07064134,-0.027023785,-0.020054588,0.0054517044,-0.090972364,-0.011246654,0.020597974,0.018511755,0.095976606,0.01028321,-0.05740513,-0.09387414,0.0657752,-0.044281565,0.11929385,0.15683584,0.008091302,-0.08575798,0.04076714,0.016035546,-0.039338253,0.04571211,0.007262693,-0.056984916,0.12027353,-0.08966354,0.054337498,-0.10585162,-0.013176046,-0.07235254,0.102062345,0.08027375,-0.0068287035,0.09347966,0.051532447,0.035263374,0.093093865,-0.09100276,-0.04224779,-0.10096095,0.04146561,0.0076192766,0.10638294,-0.104595214,-0.03145088,0.10118287,0.05676137,0.060961533,0.03517617,0.04816063,0.062960856,-0.021165987,-0.019521061,0.13964091,0.057634443,-0.07909396,0.0028959059,-0.018399714,0.0013624923
amené,0.0075071235,0.0529149,-0.18875255,-0.1518763,0.08823346,-0.16718258,0.025584452,0.22475404,0.10022141,-0.06761973,0.09163024,0.03847159,-0.086404875,-0.15214373,0.03355605,-0.06340167,0.096701056,0.088264115,0.018788515,-0.052520588,-0.04343025,-0.053113207,0.15895507,-0.18088394,-0.019090595,-0.13696992,0.037598304,-0.10336382,-0.07029745,-0.002729529,0.22377057,-0.054120805,0.08390225,-0.058633275,0.13221985,0.063536145,-0.075746834,-0.054883283,0.042044044,-0.15712795,0.117598064,-0.08092331,0.038697205,-0.103886485,0.111103036,-0.14823966,-0.1274145,0.074080944,-0.030541817,0.12031195,0.074243724,0.07541164,-0.06783272,0.102730334,-0.11817803,0.14292595,0.14327759,0.064628966,-0.027502995,0.036249384,0.06376209,0.020993423,0.03719685,0.013257051,-0.073344745,0.2144425,-0.1586017,0.010547071,-0.13973264,-0.03953211,-0.06553872,0.15854636,0.06065617,0.008117024,0.1815692,0.029804647,0.042618934,0.06837012,-0.14107539,-0.09817024,-0.10511438,0.16805448,-0.028651062,0.08409186,-0.0935834,-0.047965635,0.1452594,0.14438799,0.02952746,-0.059664853,0.025410427,-0.0032175418,-0.03294307,0.0073746834,0.2243432,0.06942859,-0.02466825,-0.1135625,-0.03558887,-0.11844974
amis,-0.110353135,0.037679918,-0.0728191,0.030142304,0.03346775,-0.10483144,-0.0350466,0.14770609,-0.14198132,-0.092531115,-0.012273287,-0.10591849,-0.06518981,0.107720315,0.116199546,-0.042641483,0.04374786,-0.012403501,0.0044345222,-0.17371145,-0.011759373,0.08368396,0.152475,-0.03488052,0.030679129,-0.04067186,-0.10505908,0.035505097,-0.08445015,0.0385263,0.07787919,0.021875773,-0.07784598,-0.16543363,-0.019353848,0.13201182,-0.0034343621,0.0018333868,-0.10901076,-0.02093559,0.04213657,-0.06626087,-0.12626424,0.022470023,0.17878811,-0.12862141,-0.03171838,-0.042134184,0.08440683,0.08402649,0.0740952,-0.04836492,-0.1025015,-0.024522865,0.054875035,-0.03219321,-0.03470343,0.036360033,-0.0834656,-0.04564891,-0.029757418,-0.03178126,0.07923328,0.027197098,-0.11528324,0.11275264,-0.010064014,0.042052593,-0.10576239,0.14872147,0.054400247,0.16953105,0.06779168,-0.0037378522,0.08965609,0.011472732,0.033171915,0.04042564,-0.05071264,0.0019856682,-0.19446641,-0.022780752,0.056048274,0.077298574,-0.05161102,-0.039816942,0.104045466,0.16966607,0.14227568,0.12214003,0.08523148,0.116136126,0.06231475,-0.037209447,0.18674152,0.13518022,0.06574075,-0.06676082,0.009449813,0.08481902
