abordant,-0.30824786,1.010975,-0.6897931,0.15352353,-0.59849846,0.07177206,0.2802575,0.563291,-0.70619214,-0.45043814,0.08882648,-0.8434489,-0.7780579,0.74424994,-0.3823898,-0.29693836,0.16453671,-0.010647736,0.08181779,-0.53503823,0.8302946,0.6458137,0.43170032,0.1720675,0.30927032,-0.036268678,-0.57590324,0.42374662,-0.6737203,0.095927104,-0.16260885,-0.30282605,0.15979879,-0.2888939,-0.92760754,0.06275875,0.65635127,-0.10264286,-0.25420225,0.077489756,-0.31789097,0.74124795,-0.1723621,0.48801085,0.48510242,-0.2038196,-0.199726,-0.15476461,0.19711259,0.71426797,-0.035552897,-0.21405466,0.4869068,-0.027452689,-0.041281935,-0.4597935,0.13507044,0.6203741,-0.42824534,0.39733228,0.007854752,-0.4833808,0.92642796,-0.23114224,0.29786596,1.3650613,-0.39702362,-0.06059667,-0.060859405,0.022457961,-0.35443145,0.219228,0.870618,-0.11533637,0.6437905,0.6143971,-0.26960203,0.50734013,-0.6622013,0.61337906,-0.5371385,-0.48076224,1.1705159,0.46821144,0.32566845,-0.28752548,-0.22160937,0.095308624,0.65801364,0.20299534,0.37156418,-0.44140995,0.18030016,0.21694255,0.46311092,0.5865809,-0.6244543,-0.9286495,-0.36048684,0.35209143
aborde,1.0257391,0.0066170776,0.47478196,0.24036288,-0.09275346,-0.45183414,0.45912042,1.630558,-0.70599777,-0.84758794,0.1298088,0.8824411,-0.38392842,0.5471546,-0.2714708,-0.8480342,0.19434796,0.036322072,-0.2981559,0.26494268,-0.12418178,-0.10883344,0.2809895,-0.17882256,0.41927534,-0.19727768,-0.76736397,0.61764836,0.16150051,0.31355518,-0.23003736,-0.7500617,0.502132,-0.5400823,-0.82260966,-0.19139837,1.0277474,0.116365835,-0.4305911,0.6679428,0.21632147,0.7661423,0.5657855,-0.39918876,0.73173904,0.1818972,-0.18251476,-0.7328422,0.46024752,0.5806371,0.18447402,-0.0072096842,-0.25302345,-0.9539053,-0.27272543,0.77597183,-0.086712435,-0.39041603,-0.81111157,0.31189635,0.8495301,-0.4454143,0.27665833,0.71157336,-0.6134055,-0.35026476,-0.52131987,0.78675044,-0.8376564,-0.1855524,-0.72492856,-0.07242357,0.5990563,-0.5141475,0.51820546,0.47271276,-0.22757706,-0.3105434,-0.6952024,-0.3288667,-0.2489205,-0.11331164,0.045956038,0.8056757,-0.27420673,-0.054500222,0.6107499,-0.15001176,0.45687258,0.25561613,0.5806832,0.12818198,0.28889123,-0.28438675,0.5185086,-0.5547635,-0.6153619,0.079117745,-0.3245942,-0.023546366
aborder,1.2829263,-0.58555746,-0.12883128,-0.030277168,-0.64475167,-0.3365807,-0.32652488,0.44033375,-0.780551,-0.20689411,0.037163764,-0.099094465,-0.05326468,0.112393335,-0.34910172,-0.14369982,0.65927434,0.34639356,0.060912434,0.038838904,0.32480657,-0.1984582,0.27930313,0.38404527,0.13830207,-0.10868385,-0.61854327,0.059555553,-0.6874717,0.5555534,-0.44188625,-0.42088723,0.41660938,-1.0631984,-0.36033347,-0.07182582,0.34073243,-0.13302673,-0.480362,-0.31141856,0.6567412,0.07199102,-0.057569593,0.15200295,0.18549576,-0.037979964,0.4051157,-0.11379564,0.89995193,0.43325135,-0.30632603,0.2589651,-0.07425039,0.11461253,0.14609495,-0.41913435,-0.29509416,0.24676213,-1.2219981,0.62070763,-1.301128,-0.35832065,0.40493175,-0.17051516,-0.7030413,0.21933228,0.17452367,-0.11590828,0.21065319,0.80893177,0.40062693,-0.2959706,0.33432177,0.2618012,0.65017945,0.4941993,-0.2417852,0.14608198,-0.72574544,0.04139375,0.07925686,0.19284675,-0.51606256,0.53575826,0.36991316,-0.10169179,0.063619904,-0.30269453,0.25041816,-0.3938813,0.9169437,0.026894365,-0.09494839,-0.41947487,0.8845528,0.10167625,-0.19106065,-0.016870191,-0.8746438,-0.21449721
abordons,0.7712352,-0.038412996,0.46297726,0.04772094,0.32973638,-0.3614212,0.17152391,0.5227501,-0.15467297,-0.6305725,-0.046507694,-0.5448252,0.067076825,0.6578257,-0.3483863,0.21716301,-0.02681915,0.048098154,-0.074676864,-0.29419675,-0.36424094,0.7215805,-0.39191124,0.40758976,-0.39220116,-0.4561851,-0.33464217,0.35084966,-0.05472223,0.1897974,-0.6455386,-0.43442804,1.1365781,-0.272811,-0.6379607,0.08765396,-0.24492072,0.3588546,-0.4935465,-0.16687107,0.42450628,0.5818333,-0.15548839,1.1400822,0.4964056,-0.50313413,-0.35131595,0.16561043,0.23175175,0.67953616,0.427228,-0.4229139,0.873231,-1.0510393,-1.1014507,1.2239133,0.41342598,0.17556186,-1.2710369,-0.18487993,-0.38000762,-0.4650954,0.21122922,0.16047685,-0.3855874,0.47213987,0.21219274,0.56818026,0.2202312,0.1148553,-0.27237546,0.50783014,0.1496183,-0.26230702,0.2502985,0.023786051,0.061131723,0.68116134,-0.86915785,-0.3216447,-1.1658792,0.21991761,0.976959,0.46458596,-0.15488799,-0.08127094,-0.50302225,0.2239439,0.2665121,0.19142962,-0.15549012,-0.10119629,0.57580566,0.15760048,0.574103,-0.21073194,-0.36053985,0.2238302,0.13156351,0.47006565
abordé,0.49210438,-0.05928552,-0.7120556,0.79991925,-0.6231945,-1.216393,0.30519915,0.52687734,-0.1944476,-0.23108275,-0.30094078,-0.5927785,-0.39278102,0.80525774,-0.09969299,-0.31638086,-0.6752401,-0.057539534,-0.26145765,-0.295109,0.07229246,0.5480319,0.14039415,0.8128722,0.37737712,-0.22750051,-0.6267486,0.2471059,-0.19691221,0.84073365,0.13462271,0.26969296,0.27626178,-0.27460557,-0.18489279,0.19142735,0.16049233,0.008634138,0.062199257,0.14912151,-0.4776775,0.6241075,0.3878501,-0.011879463,0.52183455,0.2197367,-0.013544722,-0.05737338,-0.07163558,1.4249717,0.44230887,-0.67773014,0.4043297,0.084329836,-0.8361493,0.0015613664,-0.2248774,0.15303779,-0.73461753,0.10047646,-0.40985984,0.36926386,0.584089,-0.30620658,-0.15167879,0.30407056,0.47953352,0.65214765,0.4577124,0.40465513,-0.23298255,-0.1373993,0.18895474,0.38628292,0.45798177,-0.08768207,-0.51063925,-0.19929038,-0.63712543,1.0895252,-0.31785214,-0.31616578,0.8167841,0.73281336,0.21540649,0.24563673,0.96193314,0.10888027,0.6703425,0.9642205,0.79065615,0.4962379,0.1461334,0.41928485,0.57893467,0.32669896,-0.5094174,-0.14901057,0.047261022,0.050866738
aboutir,-0.19043596,-0.095987275,-0.2271578,-0.18114485,-0.14207466,-0.5850702,0.59517014,0.012091574,0.3708863,-0.47158507,0.40239063,-0.19594859,0.19518937,0.48266426,-0.53974396,-0.07570529,0.45759824,-0.01760569,-0.60832256,-0.396013,0.53896993,-0.10649691,-0.9482296,-0.014162639,0.20938897,0.03648333,-0.22995183,-0.22839597,-0.048175983,-1.0808512,-0.10061857,0.015696397,0.7312172,-1.1490895,0.038681343,-0.29397893,-0.013017506,0.024339793,-0.52338827,-0.82227653,-0.035996616,-0.51281875,0.09304922,-0.23347567,0.37020418,0.20528227,0.85359097,0.47850528,-0.35179284,-0.10564924,0.46879187,-0.7416101,-0.42805097,-0.5854051,-0.09253133,-0.06587877,0.50616986,1.0905355,-0.35987434,0.09585079,-0.7953505,-0.65710115,-0.7709763,-0.27334094,-0.81501925,0.7506386,-0.12039484,0.25939044,0.01828705,-0.06037083,-0.15141542,-0.20829602,0.5281763,-0.17718369,1.233758,-0.11089737,0.64056236,0.09962377,-0.095564164,-0.7393384,-0.3041431,0.5184665,-0.18661755,0.6414585,-0.6937592,0.0024539044,-0.045029905,-0.010058034,0.2859202,-0.26175517,-0.31711397,0.35247737,0.49923524,0.5049658,0.10103406,0.58379495,-0.18151423,-0.6633435,0.15720855,0.38176325
aboutit,0.85289115,0.2231339,0.53736955,-0.7135967,0.83466023,-0.7134933,-0.2738441,0.52678794,0.5098257,-0.82859445,-0.9408442,-0.47290096,-0.43404925,0.07188464,0.5069627,-0.010682039,0.55686325,0.027720274,-0.27120274,-1.3350005,-0.06438094,0.14411773,0.26825255,-0.4007617,-1.4432993,0.43315044,0.23588467,-0.3950726,-0.11241902,0.20591576,0.060831558,0.09630661,-0.45951915,-0.13691117,-0.15315469,-0.29329452,0.2319255,-0.10407074,-0.36233005,0.55679876,-0.3201164,-0.39271578,-0.15145,0.12816985,0.12640159,0.37517676,-0.3040548,-0.4876951,0.20823273,-0.32512373,0.55416346,-0.5481205,-0.07571306,-0.75924665,-0.083394036,0.9708338,0.2426716,-0.117180966,0.1323093,-0.8134579,0.48707715,-0.4022236,0.055994805,-0.75402784,-0.3589683,0.24466604,-0.1857351,0.29601988,-0.6552285,0.43033287,-0.7505481,0.14724323,0.7794023,0.31009573,0.35403016,-0.607188,0.3587935,0.05688174,-0.39529476,-0.118927695,-0.40672493,-0.15229784,0.3000426,0.1723869,-0.39095676,-0.37823454,-0.108344674,0.28007138,0.73405325,-0.35997728,-0.2042619,0.020828243,0.084294215,0.49848896,-0.66224927,0.1863454,0.44827583,-0.41382393,-0.43402937,0.47580272
absence,0.17658176,-0.4071461,-0.23512208,0.047970086,-0.05706047,-0.594069,0.4135814,0.09433295,-0.22798234,-0.2203019,0.013606401,-0.55289245,-0.5905724,-0.068287596,0.44110242,0.3020122,0.32735243,-0.30598125,-0.76932925,-0.29778472,-0.212857,0.2551682,0.6089689,-0.40584797,0.7817959,-0.68711215,-0.49896234,-0.12603775,-0.7248863,-0.64702463,0.4730277,0.19980302,-0.34367162,0.049094334,0.66199595,-0.2748607,-0.13049226,-0.34388897,0.10900356,-0.6346375,0.07727876,-0.012408384,-0.3625927,-0.5017608,-0.14799859,0.38881063,-0.8758694,0.0030447852,0.34719333,-0.022694536,-0.47253224,-0.44249567,0.04524346,0.4386521,-0.49121654,-0.16719352,1.034066,0.16508025,0.040207554,1.1550214,0.4886048,-0.987503,0.26706824,0.16607152,0.6353014,0.013336571,0.56828994,0.6771441,0.1288181,0.9232794,-0.4143591,0.040139206,0.104551286,0.09019186,0.7432374,-0.4649091,0.3132684,-0.14843732,0.40205935,-0.3699443,0.017372428,-0.47585538,0.26164934,0.40615955,-0.40879828,0.117035784,1.1584476,0.1935835,0.034184396,0.052848298,0.37540546,0.36361316,-0.027329963,0.55480313,1.0399882,0.60266536,-0.2774817,0.15242228,-0.26749605,0.82063425
absolue,0.9925921,0.14413245,0.2171888,0.21017154,0.37161005,-0.55331695,-0.058107447,0.90555215,-0.8384034,-0.54120946,-0.19219902,-0.6177163,0.063740216,0.47902134,-0.43332577,1.2246089,0.24158572,-0.105339125,-0.54379314,-0.8812119,0.50479794,-0.7284035,-0.12752609,-0.026899507,0.3529086,1.0013152,-0.37687546,-1.6557034,0.39577067,0.14340171,-0.33565855,-0.3448586,0.83055663,0.15948649,-0.9242371,0.51010764,0.6306646,0.6770463,0.15047996,0.43411595,-0.5459915,-0.52840465,-1.4323968,0.13449967,0.58280146,-0.08371185,-0.10972016,0.2327202,-0.0021228304,-0.18341325,-0.12935051,-0.66385305,0.00066328194,-0.4820947,-0.39178547,0.030365989,0.5128562,0.3219939,-0.36081976,0.5252264,-0.41941568,0.39941272,0.5015526,-0.98631775,0.16021983,0.14211167,-0.1817001,0.33655968,-0.53546727,0.3327016,-0.1043551,-0.18751736,-0.20579576,0.14506842,0.7653325,-0.0920519,-0.6060837,0.13917562,-0.07247444,-0.05323649,-0.5438036,0.50120586,-0.2009215,0.012858674,-0.5119114,0.39308777,0.23361407,0.16223133,0.369895,0.25838357,-0.2937321,0.47424453,-0.051263172,-0.28127402,0.9774266,0.93637913,0.3698807,-0.04096756,-0.29227066,-0.3069947
absorption,0.7841994,-1.3489999,-0.7054669,-0.7744378,-0.63848376,-0.5002762,-0.5781252,0.65494144,-0.028882643,-0.8043948,-0.14532076,-0.4174027,-0.06433028,-0.24903071,0.1891589,-0.9508346,-0.06725427,1.0221746,-0.61164016,-0.01741682,0.012789629,0.21573496,0.6756196,-1.5376079,0.13582161,-0.8732715,-0.012026972,-0.1569382,0.5376291,-0.071954936,-0.043501753,0.06069926,-0.22108161,-0.7107506,0.090853445,0.24394014,-1.0506339,0.21890873,-0.5348103,-0.67664796,0.34492034,-0.0700245,0.43868408,0.6072847,0.1080174,-0.43256262,-0.3797027,-0.64967036,-0.7453985,0.24629518,0.016019756,0.050951537,-1.0229942,0.3101556,0.33670986,-0.40291557,1.0531385,0.8545453,-0.111408494,0.8511139,-0.29626703,0.3362964,-0.18151939,0.49402323,-0.024715478,0.5380549,0.8417427,0.45692888,0.21248865,-0.345857,-0.3937581,0.27226204,0.63642716,-0.6590027,0.10123499,0.023521971,-0.059095476,0.15860002,-0.65344954,0.29721984,0.28411177,-0.42661184,-0.01276068,0.3331085,0.4432168,0.7038566,0.7809828,-0.28821427,0.37393975,0.9109485,0.5811193,-0.3461984,-0.40999967,-0.2898037,1.1533062,0.41784865,0.0072272425,0.94428056,0.8073346,-0.56991273
académique,-0.19707821,-0.35370442,0.1672855,0.28748253,0.21413414,0.13976415,-0.2449337,0.19525895,-0.4719683,-0.44247583,-0.43220687,-0.5484062,0.031994313,0.16227527,-0.03069509,0.15516894,0.8364775,-0.6264925,-0.6052241,-0.6949697,0.3663785,0.12925439,0.4071052,-0.5261303,0.39204258,-0.06945663,-0.5014668,0.41823646,0.01008464,-0.025176384,-0.043094914,-0.01340163,0.2520635,0.3178026,0.16218781,-0.4207924,0.61658394,-0.5361992,0.024254167,-0.049046915,-0.62894404,-0.25540683,-0.12568879,-0.7382235,0.058537334,-0.7857635,1.0574138,-0.7421015,0.77144647,0.41341904,0.18788972,0.01655622,0.4068682,0.064747214,0.28405958,0.036359653,0.51524395,-0.2898059,-0.12998873,1.0428215,-0.6260682,0.26515508,0.6895809,0.097177826,0.21947472,0.63533884,0.17017601,-0.0073685045,-0.12271874,-0.063730195,-0.8240194,0.19301417,-0.11597201,-0.60909355,0.35851488,-0.1632713,-0.5638077,-0.1670119,-0.029206345,-0.24929163,-0.4653017,0.38913077,0.1262666,0.38325205,-1.3049561,-0.6755,1.0095329,0.5006089,0.6983883,-0.13504227,0.54524237,-0.30739433,0.07805532,-0.04429772,0.6156521,0.3219915,0.4109718,-0.48649842,0.096296445,-0.23720656
accent,0.14963351,-0.42000732,0.13404094,0.70444727,-0.257512,-0.3414561,-0.18731529,-0.06441229,-0.38971257,-0.33004454,-0.23591225,-0.14486836,-0.5668983,-0.18480316,-0.18236585,-0.13889883,-0.27861083,0.27395803,-0.12300341,-1.0599549,0.100178026,0.7305951,0.6803729,-0.52776206,0.3614403,-0.6624605,-0.2391188,0.5241787,-0.26629716,-0.49816442,0.19027066,0.10450246,0.48781744,-0.08765274,-0.52424234,0.89607185,0.7120361,0.42940733,-0.9080096,0.64492005,0.61394376,-0.031303026,-0.37564072,-0.41812086,-0.1663731,0.64505637,0.19495328,-0.35115165,-0.85258925,0.46852654,0.726816,-0.02751339,-0.13887824,0.05344273,-0.122428454,-0.319653,0.32383505,-0.07611581,-1.1951491,0.33086982,0.31504118,0.6619108,-0.13814901,-0.39733508,0.4194116,0.5367947,-0.06253914,0.08037698,-0.24204677,0.0103447065,0.338665,1.2309592,0.2442184,-0.72638243,0.6502858,0.2915048,0.7330998,0.0042795907,-0.2850957,-0.85453653,-0.06604576,-0.6227492,1.0992249,0.42178497,-0.08408346,-0.032109585,0.3045811,0.10918937,0.8721276,-0.15860465,0.45611003,0.7473276,-0.19969076,-0.17738731,1.2098174,-0.0834405,-0.08103946,-0.8331559,-0.10690489,0.47695333
accompagne,0.5529554,-0.45015153,1.0167166,0.026554842,-0.3056961,0.15068544,-0.037338555,0.14801493,0.315047,-0.94832873,0.6969059,-0.051495966,-0.39604554,-0.29513833,-0.0040576695,-0.26137453,0.11104254,-0.6784095,-0.10001254,-0.637622,-0.76725024,-0.0075991903,-0.14058006,-0.91670483,-0.011358068,-0.5342288,-0.29692242,0.75572014,1.0419738,-0.28419003,0.21093142,-0.024339644,0.058287065,-0.94611627,0.7197718,0.28388003,-0.09304135,0.81864226,-0.71867126,-0.11629505,0.66511244,0.20063266,0.4735998,-0.17573361,-0.24972259,0.23455738,-0.3142878,-0.66408587,-0.402963,0.2843727,0.054171994,-0.7213278,-0.9537561,0.26052317,0.05482035,-0.18199061,0.47351044,0.24316084,0.101495385,-0.52690554,-0.07523505,-0.7056571,0.30173662,0.744734,-0.20140254,0.5442451,0.24222374,0.39045125,-0.47787964,-0.0916507,0.78055257,0.7890686,0.5369023,-0.77468675,0.3510955,0.20315032,0.53557074,-0.29201797,0.46659926,0.099420324,0.22965986,-0.59838647,-0.53993195,0.56618965,0.18489477,-0.44022426,-0.28143024,0.22985025,-0.03290148,0.44603205,-0.2999614,-0.25435615,-0.06562,0.055580225,1.1722307,-0.21809785,0.29892913,0.006104545,-0.6212194,0.24631768
accompagnement,0.05740928,-0.178305,0.03353173,0.31331113,-0.8046829,-0.15770605,-0.30985633,0.19917174,-0.45992702,-0.02992993,-0.6551288,-1.5316314,1.1895127,-0.38016027,-0.11567295,0.026741475,0.6515257,0.14175266,-0.8474992,-1.3470755,0.5810513,-0.27947623,0.55317503,-0.1277268,-0.35381725,-0.13455932,-0.9145013,-0.011643378,-0.025880769,-0.14811136,-0.5724368,0.74696815,0.39466354,0.18335629,0.039696857,0.038352653,-0.058213983,-0.2545343,0.3609189,0.3709503,-0.022594733,-0.15076183,-0.13447087,-0.37862167,-0.39935762,-0.30581963,-0.68878543,0.38718322,0.009507169,0.10589523,-0.46971774,-0.2845112,0.44344285,-0.33025357,0.36958957,-0.06404662,0.5790076,0.47157073,0.3490257,-0.5468308,0.13794403,-0.20425156,0.16438894,0.25544408,-0.45824996,0.49538368,-0.14919107,0.92039764,-0.62645113,0.68299633,-0.26219526,0.9681502,0.38758114,0.10651426,-0.5895244,-0.6108768,1.3169723,-0.24593063,-0.011053075,0.24366741,-0.9975444,0.46573612,-0.29220107,-0.1994833,-0.5060221,-0.6002851,0.1830582,-0.69406635,0.3085413,0.16742201,0.2529461,0.13786404,-0.0046689822,-0.06010427,1.1007929,-0.074429184,-0.42564812,-1.0582255,-0.4486134,0.41753256
accomplir,0.5102351,-0.09196398,0.35774544,-0.107598774,-0.009616122,-0.3022228,-0.16649455,-0.20425346,-0.24471892,-0.4413973,-0.05065948,0.079200275,-0.038919125,0.2256425,0.07474491,0.7156905,0.8096068,-0.11776543,0.07000069,-0.027206732,0.3957688,-0.59318227,0.004445789,-0.6814711,-0.6188146,1.0982577,-0.5784189,0.0122958105,0.1233725,0.12599644,0.011296592,-0.28785676,1.002138,-1.1717441,-0.9512659,0.54098266,-0.60937464,-0.6485226,-0.44338465,-0.068089135,0.6207839,-0.5651304,-0.2731304,-0.15100089,-0.32147798,0.043654684,0.12394768,0.055547476,-0.317291,0.2707242,0.31212124,-0.38625747,-0.4756681,-0.009322551,-0.32725763,-0.4865017,0.68569994,-0.14546652,0.28854406,-0.43652737,-0.56466556,-0.09759045,0.42480966,-0.5729125,-0.44620827,0.023866367,0.26892215,0.011861733,-0.7681753,0.31118163,8.221159e-06,0.20645493,0.86742646,-0.3448582,0.41577893,0.0031949126,0.46812993,0.5654954,0.39338952,-0.36591086,-0.022085477,0.08687875,-0.2148108,0.16278575,-0.84112394,0.56204283,0.64605165,0.5813636,-0.25899795,0.4061063,0.9991219,-0.23313011,0.28293335,0.1338867,0.53702444,0.1261281,-0.6335243,0.5490362,0.7425102,-0.15629703
accord,-0.020807369,-0.78817904,0.14544584,0.8671951,0.39996284,-0.46599123,0.11524381,1.4307079,-1.332483,-0.881412,-0.5420898,-0.026023818,0.7540363,0.45749092,0.23577704,-0.44164398,-1.0462434,-0.1358514,-0.17221852,-1.1427469,-0.3494806,-0.25040787,0.62698853,-0.18101484,0.27330643,-0.34602073,-0.45515645,0.39521348,0.57530624,0.018596165,0.69455665,-0.003407746,-0.5194199,-0.046722017,-0.22915208,0.69986075,0.7362726,-0.14493528,0.74272645,-0.12843089,-0.28807348,-0.4095648,-0.24490969,0.8053716,-0.5868183,-0.30645365,-0.45408267,0.07774664,-0.25862598,0.92114675,-0.15595995,-0.8892437,0.2426841,-0.7696804,-0.305001,0.45250532,0.51413983,0.9745573,0.3277245,-0.09949734,-0.36056712,0.37908313,-0.047938,0.44283944,-0.079667985,0.44548815,-0.784807,-0.43101367,-0.958684,0.47981876,0.31143683,0.10788596,0.07925705,-0.436872,-0.032381818,0.60658395,-0.04962934,-0.6332381,0.016308399,0.18832915,0.09478039,0.012365373,-0.3169377,-0.15514061,0.046484385,0.55185735,0.8991385,0.8401751,0.39201596,-0.08342907,0.45496342,0.11258927,0.4265141,-0.053753838,1.077484,0.096323155,0.16107026,-0.27173433,0.24002899,-0.8471581
accords,0.4123884,0.64227015,0.3063563,-0.018271213,0.04385132,-0.17949498,-0.18201752,0.5362062,-0.37942764,0.7682805,0.17888162,-1.2895635,-0.85580987,0.4718997,-0.5809289,-0.48471302,-0.6726527,0.20744602,-0.11642702,-0.90786,0.8953783,-0.45882684,0.5292044,-1.148282,-0.3130376,-0.9778129,0.59985405,0.5007093,-0.60258913,0.026754778,0.17588349,-0.058090404,0.32077095,0.3599112,-0.14217335,-0.9484352,1.5956342,0.5685312,-0.474308,-0.30507272,0.6474208,0.19574097,0.076933526,-0.5707424,0.25990137,-1.3705775,-0.11646685,-0.8586013,-0.0010937841,0.20864706,0.22513922,-0.9855371,1.0090551,0.8054232,0.048769135,0.16734298,0.27724442,1.150896,-0.35100117,0.13497809,0.283021,0.044126883,0.6393136,0.42044666,-0.4712139,0.7305444,-0.8630549,-0.107397124,0.011375013,0.27998307,-0.6449366,0.48307976,0.1770867,-0.4130316,0.8589518,0.5890868,-0.36048478,-0.8108425,-0.51362544,-0.35972384,-0.8000855,1.0321307,-0.5285906,0.42141598,0.16574785,0.16589358,0.11555366,0.95218444,0.027356898,0.30779895,1.2946724,0.13302046,0.7057151,0.7921791,0.36844194,0.40423852,-0.1577471,-0.13406856,0.44313574,-0.036376648
accordée,0.57154346,-0.13185872,0.3814776,0.9061458,-0.4646393,-1.1323632,0.17452493,1.0996888,0.2965754,-1.0506357,-0.10378034,0.009847299,-0.043652244,0.6300935,0.26945993,-1.0826732,-0.12391735,-0.108948044,-0.65114367,-0.07312644,0.7511915,0.12830345,0.035083104,-0.6790975,-0.80433387,-0.68926543,-0.7902216,0.22142996,0.44725513,-0.16406633,-0.51629573,0.09176132,0.60938966,-0.58201003,-0.7969188,0.6104482,0.06607993,-0.08378226,-0.6043153,0.5658259,0.15587081,0.17730674,-0.18953334,-0.16038944,0.43383586,0.47958353,-0.45887274,-0.10914295,0.1108331,-0.5382506,0.33156428,0.4068411,0.31892365,0.90793717,0.27625453,-0.04758909,0.25477907,0.6916233,-0.31017393,-0.32415792,-0.14426136,-0.05145843,-0.9250909,-0.04943505,-0.4386296,1.1364033,-0.049949404,-0.090475835,0.074351214,-0.23845847,0.4339178,0.535061,0.57704645,0.27215734,-0.4418153,-0.2310099,0.6721302,0.9366009,-0.73512685,-0.109127864,-1.1651381,0.114558615,0.09359036,-0.6515802,-0.8912698,0.15400203,0.4423737,1.0728216,0.5845982,0.0016555458,-0.29134697,0.91977125,0.4731621,1.7052838,0.5356802,0.5846898,0.14527212,-0.5821155,0.112389356,-0.044014752
accrue,0.3261395,-0.51820946,0.39646053,-0.029369041,-0.17146571,-1.2499167,0.0562196,0.10449445,0.8881885,-0.14631069,-0.63804007,-0.8289162,-0.5611784,-0.27998474,0.058667954,-0.9102573,0.20254841,0.6472399,-0.16925505,-0.83779866,0.37156266,0.3015405,0.7682213,-0.42131346,0.014692305,-0.5978231,-0.22665921,0.5307878,0.122203626,-0.18322974,-0.51853746,0.11609994,-0.19380729,0.48615748,0.43605438,-0.10747379,0.38829362,-0.3687307,-0.33430004,-0.44546765,-0.14415693,0.4892611,-0.04896067,-0.4064189,0.050446145,-0.2137357,-0.8899665,-0.39703807,-0.5019459,0.1339589,0.11427986,-0.41664046,-0.15795533,0.8372459,0.33577624,-0.11459153,0.57645744,-0.21227077,0.49510357,0.34368,0.022406038,-0.0143110445,0.18895482,-0.5039805,-0.27700788,0.12813483,0.29996037,-0.22895359,0.29261115,-0.029581206,0.24371815,0.054269888,1.0751649,0.91259164,-0.11387075,-0.7996846,0.3268152,0.33566156,-0.512411,-0.27189678,-1.0809,0.072734244,-0.99307394,-0.04731348,-0.19720699,-0.74089646,0.30353075,0.19163017,0.47995028,-0.9940526,0.44039214,0.09281212,0.50785106,1.0273857,0.59700114,0.6036425,0.4972985,-0.35890296,-0.5014315,-0.11123999
accueil,0.24971063,0.17488036,-0.05908669,-0.67572576,-0.18596618,0.00729377,-0.13059245,-0.084841065,0.2525509,-0.18237007,-0.4846441,-1.2118776,-0.049185712,-0.14674005,-0.02276126,0.37173095,0.38233855,-0.09125438,-0.75236315,-0.6423157,0.060106266,0.095663615,0.01831068,0.13663931,-0.086080946,-0.05287443,-0.5330625,0.49871472,-0.02947144,0.039255764,-0.5274409,-0.70910233,1.1761936,0.44571197,0.4952611,-0.07795988,-0.107555605,-0.096777774,0.2861649,-0.2345185,0.47725376,-0.47200808,0.08513067,0.3029732,0.5824012,0.20393147,-0.47358456,0.23373014,1.2121819,-0.31069466,-0.07947703,0.0025196304,0.45908964,-0.029526902,-0.49746102,-0.3932253,1.0947634,0.74187666,0.96985,0.08131477,-0.06345602,-0.09881866,0.579602,0.09173966,-0.38102156,-0.024488576,-0.21278712,1.3378191,-0.1973798,0.055989098,0.057196528,0.5867772,0.96033764,0.21396288,0.06665614,-0.07799747,0.51368546,-0.56581104,-0.7042218,-0.2746852,-0.5783045,-0.1688263,-0.5440631,0.96762323,0.17954737,0.10196624,0.95594776,0.23302265,0.23888029,0.32518736,0.6429544,0.5431811,0.011477752,0.56541455,0.08144252,0.089871675,-0.13450603,-1.0562398,-0.4657354,-0.00955441
accumulation,0.37983608,-0.86492026,0.4019365,0.12987103,-0.031357694,-0.33610013,0.07221541,0.41925856,-0.6497767,-0.36804512,-0.13686351,-0.70717114,-0.41437286,-0.3302744,0.25336927,-0.35602522,-0.8159554,0.5038837,-0.39882368,-0.68984663,-0.09231287,0.427663,-0.089785576,-0.47855023,-0.261869,-0.5143173,-0.49651784,-1.1800401,-0.045429155,0.7906213,0.7463765,-0.49266404,-0.59854835,0.65781707,0.8514757,0.47312707,-0.71522784,-0.4475193,-0.3375936,-0.5355687,0.18061827,0.19512565,0.60048413,-0.24411432,0.8268864,-0.6359436,0.253766,-0.7096913,-0.1629584,0.4447638,-0.09923378,-1.034819,-0.2994817,-0.15885267,0.47571176,0.105576254,0.71709347,-0.1805261,-0.19124854,0.34589747,0.39162198,0.16021864,-0.24021043,0.44203833,-0.10440717,0.3403505,-0.00075874885,-0.2646111,0.17858337,0.50800234,1.0144219,0.74843246,0.49857166,0.4132088,-0.089198165,-0.7467443,0.58999854,-0.18355705,-0.60690767,0.5729662,-0.2692803,0.4200044,0.8524134,0.6744505,0.29581472,-0.43823627,-0.66747475,0.21701165,1.0910635,1.0381525,0.18196161,0.30763462,-0.3630851,0.8277682,0.8700126,0.20837414,-0.11242704,-0.47020942,-0.50232136,-0.37080315
accès,-0.3270647,0.017450131,0.042655062,0.11049796,-0.7180123,-0.6322368,-0.0738275,1.1674232,-0.1031761,0.22566709,0.31566483,-0.64273524,0.49078825,-0.626389,-0.58743024,-0.47536314,-0.44692793,0.38873002,-0.43182632,-0.6278735,-0.047472257,-0.10467195,0.52079576,0.012289804,-0.023395011,-0.19228636,-0.7279224,-0.31288138,0.40309823,0.5099755,-0.31748092,-0.1320044,0.25685996,-0.73319733,-0.09052564,0.81878173,-0.3701756,-0.092829935,-0.77514553,-0.3623076,-0.27501473,-0.6218564,0.27009556,0.40540284,-0.0044706147,0.31470522,0.06606545,0.08729059,-0.45391852,0.33649316,0.023284135,-0.31025696,-0.1222412,-0.36945775,0.04864595,-0.64551723,0.21385643,0.6278199,-0.017717224,0.06657107,0.22053547,-0.988421,-0.07929702,-0.6086319,-0.52265674,0.44812846,0.32659703,0.4054623,0.5666403,0.34789643,0.8945759,0.8218465,0.3227583,0.46300456,0.04304211,-0.13029346,0.33149424,0.9517516,-0.45601416,0.050177526,-0.16126208,0.8426,0.27202696,0.11730021,-0.7498579,0.011561951,0.4899554,-0.42144614,0.16595568,0.5341115,-0.22007866,0.063155934,0.49401608,-0.062201772,0.8340468,0.3129102,-0.72850376,-0.33136082,-0.100685745,-0.01625307
accéder,-0.26230776,-0.5384719,-0.362597,-0.4274594,0.10663546,0.01632471,-0.11600061,0.65946704,0.12832955,0.009183639,-0.4881396,0.043020174,-0.6696667,-0.20414329,0.12213325,-0.06346657,0.37512565,0.06414035,-0.4675228,-0.7207353,0.08732944,-0.73677933,0.32318568,0.3058149,-0.2595957,0.054607037,0.27782843,0.2610601,0.038191203,0.4977735,-0.4075189,-0.03577132,0.45943695,-0.839312,0.08767387,0.6884917,0.29937655,-0.46297297,-0.5529274,0.019663764,-0.17947212,-0.5025137,0.40470788,0.3956013,0.05240295,0.29408178,0.07730227,-0.1780544,0.36713186,0.28378105,-0.41248584,0.0952847,-0.51566476,0.05565659,0.6935455,-0.7134276,0.11977918,0.36782998,0.17533493,0.5806374,-0.2141748,-0.60036516,0.51203835,0.09398226,-1.097696,0.32716125,-0.07871364,0.9603437,-0.9892207,0.5030788,0.37038487,0.007842275,-0.08325527,0.14295849,0.9156021,-0.5806841,0.3531335,0.044968612,-0.65690047,0.297515,-0.1550024,0.2996313,-0.6393817,0.03802696,0.011258466,0.4619364,0.14547856,-0.099801384,0.31990576,0.23584008,0.228725,-0.18799804,-0.15543385,0.05176202,0.6517781,0.14411032,0.203747,-0.21161579,-0.10188582,-0.24823017
accélération,-0.3190748,-0.2429911,0.4038543,0.6242885,-0.7403721,0.02766605,0.017031265,0.86622083,0.058075987,-0.67045546,0.1250314,-0.45025557,0.023076091,-0.44873095,0.17257527,-0.14078009,-0.46458012,-0.613987,-0.52863693,-1.0608706,0.33409923,-0.6139187,0.36299488,-1.0079731,0.29677394,-0.17315584,-0.5635583,-0.51788753,-0.20120466,-0.5321983,0.57411313,-0.0855516,0.10277415,0.26925552,0.41264215,0.07515311,-0.7237294,0.04467271,0.0076068724,-0.58769137,0.017235193,0.14419699,-0.7772724,-0.20428972,0.3601889,-0.1377198,0.17992544,-0.5687989,-0.004642715,0.29666585,0.5343764,-0.082186416,-0.6137991,0.23459485,0.64234537,0.40156698,0.10639287,0.8276641,-0.017830903,-0.15217613,-0.30594265,-0.4319539,0.12506102,0.8464256,0.28266037,0.13680224,1.0165061,0.6679315,-0.2228153,-0.8198683,-0.38077316,0.7370008,-0.09709001,-0.69288665,0.95117724,-0.76299584,-0.46681455,0.28484485,-0.59128165,-0.15801412,1.1387527,0.6083081,-0.4175894,0.4145611,-0.20961766,-0.054398157,0.23635344,-0.3863617,-0.4089045,-0.03443396,-0.14477438,0.093962625,-0.9675151,-0.03017372,0.66496456,-0.10873117,0.3462126,-0.34296095,0.4522968,-0.03362191
acoustique,-0.40060776,-0.5888545,-0.025755135,-0.11822634,-0.025014862,-0.4276249,-0.98619926,1.3012598,-0.2686663,-0.75227547,-0.5947249,-0.08437332,-0.06248397,-0.12844023,0.07640307,-0.9742772,0.09466582,0.35160977,0.7505918,-0.8475071,0.5248549,0.66313076,1.1706022,-0.14213267,-0.47812042,-0.092357986,-0.42110702,0.58801633,1.214589,-0.9532758,0.6479806,-0.044373527,0.14063959,-0.30288035,-0.02891578,0.87509286,-0.6402335,0.1646787,-0.5100224,-0.15564159,-0.29828206,0.1069278,0.08612986,0.13835734,0.31182712,0.7935337,-0.7139872,-0.2907697,-0.44933867,0.31230688,0.7521236,0.10972441,-0.37706605,-0.3275827,0.2193972,0.24080855,0.11589005,-0.32972604,-0.83866936,0.3111881,-0.7357332,-0.17169435,0.11820232,0.00090169464,-0.38623592,0.8352785,0.65276796,-0.20877604,-0.19562307,-0.25985894,0.46397927,0.3516072,0.51204,-0.54856104,-0.33023536,-0.5456045,0.6532034,0.41495633,-0.46341184,0.13068074,-0.9477586,0.38169518,0.11678009,-0.62245476,-0.101724476,0.35961908,0.04049322,-0.18058641,0.7935892,0.10307546,0.1722686,-0.20921469,-0.09450034,-0.37909862,-0.085446045,-0.17611969,0.25611085,0.1977898,1.3286034,-0.045282498
acoustiques,-0.22835457,-0.30793267,-0.6860098,-0.655608,-0.75394696,-1.0580845,-0.5050951,0.42415246,-0.352254,-0.1056458,-0.67822367,-0.64307463,-0.28992465,0.09007489,0.5576502,-0.68826056,0.1860486,0.26790184,-0.13505979,-1.1783056,-0.30126646,-0.58351666,1.8058648,-0.6763328,-0.75960076,-0.713065,-0.53258854,1.0130626,-0.35099462,-0.7146122,-0.1481966,-0.05434302,0.2948902,-0.24101746,-0.3587873,0.7515892,-0.24703994,-0.5603012,-0.35019705,-0.5059403,-0.22781315,0.10883066,-0.4294894,-0.2272009,0.5387834,-0.09701355,0.27378342,0.24419746,-0.2770887,0.5185468,0.26712692,-0.16628554,-0.24093986,-0.29267558,0.20937409,0.7615216,0.37583664,-0.015820868,-0.0738698,-0.2695013,-0.16810025,0.049607657,0.25497022,0.35463157,-0.14338747,-0.8977054,-0.46960574,0.06865795,0.34566388,-0.05007123,0.61932534,0.5318935,1.2147509,-0.669901,0.21679702,-0.30367726,0.68283385,0.5143139,-0.07948174,-0.39926806,-0.21688464,0.062255606,-0.19539064,-0.26980492,0.6089474,0.100073166,0.12481772,-0.788832,0.0137491925,0.11096999,0.87845045,0.0459275,0.47830653,-0.68324226,0.16560826,0.05091786,0.12495823,-0.002404894,0.98204374,0.43564576
acquis,0.23270841,0.041303825,0.43300968,0.5554822,-0.28640246,0.17268634,0.39356962,0.27609286,-0.6209473,-0.95350355,-0.031411204,-0.46233436,0.19540897,0.60691583,-0.22337942,0.4631965,1.2204999,-0.0551765,-0.23469986,-0.6166183,-0.30857223,0.7807382,0.6055521,-0.42501923,0.17053945,-0.47865748,-0.4432825,0.48997417,-0.6078255,0.4289468,0.8713367,-0.87923443,0.25748035,-0.2941509,0.005112777,0.33813286,-0.3563654,-0.9391362,-0.30183432,0.36877018,0.29295167,0.0038181792,0.62478614,-0.3145875,0.14983885,0.4070892,-0.16136092,0.110687405,0.8148047,-0.092153184,1.0532776,-0.00845916,0.5032797,0.5832744,-0.027936783,-0.038370863,0.13707305,0.37509823,-0.52520865,0.18528914,0.17232077,-0.114602566,-0.4012793,-0.019365763,0.66892666,0.22209577,-0.5739225,0.7630111,-1.3305919,-0.38377544,-0.43003598,-0.17585506,1.1703305,-0.16160478,0.6328377,-0.49841183,-0.28270575,-0.5730484,-0.019330066,-0.16655849,0.11894865,0.7001741,-0.3478982,0.36230993,-0.2686389,-0.13751815,-0.45255315,0.3975546,-0.059937075,0.40522313,-0.22419816,0.8546362,0.17950939,-0.26488787,1.0360696,-0.649984,0.43030435,-0.12682566,0.055162337,0.7229897
acquisition,0.8940891,-0.2879733,-0.023123449,0.6286993,-0.32078427,-0.4404036,0.9135712,0.68379855,0.25515917,-0.24253626,0.0844953,-1.3519282,0.90101546,-0.20258962,0.02585387,-0.94586915,0.79577607,0.5366609,0.13489237,-0.2657805,0.09419215,-0.09505318,0.2878544,-0.3645119,0.14185299,0.027633425,-1.6040817,-0.5921123,-0.7514886,-0.2820028,0.1889169,-0.5972878,-0.06903127,0.40785524,0.7181007,0.4600003,-0.5422612,-0.4536149,-0.44742668,-0.1481906,0.15492925,-0.043445546,0.4412223,-0.729181,0.16106737,-0.3567473,-0.05886671,-0.25098228,0.15514229,1.0251955,-0.22088687,-0.39464608,0.1199326,0.23722804,0.25558764,-0.09574133,-0.13472827,0.1560443,-0.49756393,0.6429902,-0.3318553,-0.622996,0.08892674,1.1142938,-0.19842653,-0.27583262,0.31553075,0.6100043,0.1612992,0.02094374,-0.60721403,0.051222414,0.43165338,-0.5659774,-0.67731893,0.31899062,0.60841703,0.5884132,0.16403565,1.1065629,-0.26446018,0.060519528,-0.10921287,0.5443552,-0.21005225,-0.62388444,0.21482895,0.19788237,0.7570206,1.4866519,0.33879238,0.4170131,-0.16592015,-0.15569828,0.71514475,-0.473415,-0.5175774,0.023146324,0.5108108,-0.05523697
acte,0.10642268,0.064350165,-1.4021522,0.5217773,-0.05471621,-0.46918502,0.7442336,0.3117385,0.84976083,-0.6793599,0.010145238,0.20257643,-0.027278747,0.10889466,0.76116943,0.5206894,0.46733183,-0.012705271,-0.10581987,-0.69697726,0.31271255,0.79703295,0.92249405,-0.15512934,0.46033117,0.5128099,-0.9789088,0.10700357,0.28157997,0.28211963,-0.04388654,0.11447864,0.57992053,-0.55335015,0.25099513,0.7028567,-0.3597735,0.032409687,-0.27389556,0.37843195,0.54591155,-0.2789589,0.7506866,-0.8195468,0.932598,-0.54086894,0.08622883,-0.512003,0.1449547,0.78018284,-0.03904285,-1.2054615,-0.8773199,-0.053861223,0.41638267,0.21311721,0.081913486,-0.55767864,-0.0393889,0.26652727,-0.53332126,0.29198745,0.6318865,-0.6336864,-0.65065,0.4031983,0.24493529,-0.00040042837,-0.62547225,0.3973885,0.30098617,0.100922346,0.5639894,1.1623739,-0.31747228,-0.40957955,0.26739419,-0.06369995,-0.26177338,-0.29862714,-0.3500179,0.34005207,0.005783462,0.20363736,-0.56073153,-0.075973906,0.5693755,-0.3338717,0.062193617,-0.557182,-0.29646826,0.42048797,-0.1305773,0.5293598,0.9683024,-0.15299761,0.0857505,-0.7483307,0.47220635,1.0275528
actes,0.43320814,-0.7255651,-0.19728708,0.06104333,0.26627374,-0.20140262,0.5960999,-0.28309357,-0.7762376,-0.19598693,-0.4144182,-0.6095518,0.43698207,-0.18819712,0.28099966,0.26264384,0.9069502,0.27737698,-0.36674914,-1.0035173,0.77089924,-0.22369939,0.50127536,-1.0233264,-0.3221347,1.1838634,-0.5300652,0.78735197,-0.045638263,-0.5074766,0.10201395,0.25899237,0.7085047,-0.61162394,-0.18929215,-0.35668653,-0.23964149,-0.2002606,-0.00044284476,0.5026289,0.18360981,0.13000327,-0.037161652,-0.64003,0.16545784,-0.7378965,-0.5830089,0.21843734,0.153303,-0.45395333,0.04547605,-0.78334504,0.9079968,-0.25879112,-0.25446382,0.023210831,0.32835326,-0.5717762,-0.52534825,-0.32112372,-0.5338324,1.0995744,-0.05329676,0.087317795,-0.33149895,0.7762485,-0.2877652,0.7963377,-0.47304812,0.45524716,-0.24636082,-0.16367112,0.40827456,0.11795878,-0.05189992,-0.6454069,0.4634665,0.49835402,0.9731434,-0.681346,-0.4673515,-0.18030801,-0.7054333,0.5200212,-0.3138103,-0.69782686,-0.6499591,1.0353895,0.9060425,-0.15680496,0.5035993,-0.21985821,0.8205687,-0.31975845,0.3784807,0.62452483,-0.16518715,-0.34417105,0.54379845,0.48287156
acteur,0.23110928,0.34252492,-0.64653176,0.87842625,-0.22873645,0.10230835,0.2477155,0.4995619,-0.64202636,-1.4955765,0.3833675,0.619122,-0.6212497,-0.050854832,0.401236,0.17701943,-0.2675158,0.4433642,-0.1445949,-0.13226533,1.1010251,-0.39193943,1.0729663,-1.0015885,0.7691145,0.023890598,-0.03987111,0.096894726,0.07790639,0.65029633,-0.8024435,0.14877571,0.18871397,-1.1563344,-0.112812154,-0.40423763,-0.2822819,-0.26865256,-0.0234646,-0.0155063905,0.14633515,0.44994187,-0.26931113,0.63073754,0.8800763,-0.07176038,-0.52010846,0.029997846,-0.22796743,-0.26835063,1.1023003,-0.6040169,-0.031364683,-0.23749371,0.25735682,-0.5352787,0.86619127,0.46036175,0.5858848,-0.5923069,0.36635324,0.29052585,0.1018361,1.2676922,-1.1813135,0.42098227,0.25907448,0.28687906,-0.49527392,0.25532678,-0.26982334,0.537228,0.34006482,0.39048436,0.25709236,-0.60845983,1.0755692,-0.4702873,-0.22125766,-0.023825629,-0.5313209,0.2734526,-0.32320395,0.47226843,-0.7417989,-0.08190048,0.4789968,0.058478285,0.5224526,-0.024490505,0.78561556,0.041641157,0.009976705,0.27295727,0.47671556,-0.48165715,0.06825446,0.17199779,0.46538416,0.18957984
acteurs,-0.102078766,-0.058616508,-0.27419147,0.21416049,-0.49843615,-0.44932848,0.12775472,0.13665396,0.47809666,-0.16517417,-0.014033704,0.09357826,-0.38315308,0.3741936,-0.1168959,-0.92226136,-0.52388155,0.13571435,-0.22752386,-0.5157961,0.74279684,0.1466137,0.49200934,-0.44565943,0.0832179,0.10088023,-0.53353447,0.7816872,-0.35462922,0.35421646,0.4241319,0.012493349,-0.41379482,-0.48030818,-0.0914331,-0.17831412,-0.11550173,0.14602278,0.57008624,0.26708466,-0.10218759,-0.31083262,-0.50798726,-0.47857207,0.49127555,-0.6133755,-0.30141672,-0.25116605,-0.09545311,0.3699979,0.5459571,-0.23566338,0.021378085,-0.11551184,0.31697908,-0.2810688,0.5500198,0.6392413,-1.2269409,0.36157644,0.21288608,0.31840777,0.6490254,0.533453,-0.43393835,-0.022493409,0.047336746,0.78137696,-0.6238428,-0.12663531,-0.12784284,0.5548219,0.41392356,0.26462522,-0.2278729,0.046567548,0.5441726,-0.06197813,-0.2989118,-0.0023764537,-0.63280696,0.7439732,-0.079386525,1.042911,-0.3085924,-0.0798471,-0.35418513,-0.19983388,0.095641874,-0.4695009,0.65275276,-0.18347381,0.29106545,0.009580077,0.41045034,0.8443686,-0.13867705,-0.81754214,-0.07184595,-0.42551324
actif,0.42087,0.047199164,0.32058513,-0.12901181,-0.02699961,-0.18818639,-0.40384686,-0.4216917,-0.22716309,0.07643711,-0.065895185,-0.69035035,0.14832196,0.43231532,0.044699695,-0.17592897,0.44187468,0.16762376,0.76379716,-0.9473519,-0.25629723,-0.28964227,0.37488788,-0.27873862,1.3377702,0.547313,0.22158602,0.07092135,0.45580286,-0.35495263,-0.1448532,0.50678366,0.11532973,-1.8260757,0.3475176,0.3443436,-0.23144867,0.15242462,-0.121712364,-0.17631438,0.5886811,-0.36462024,0.11633809,-0.08896624,0.66088283,0.27138802,-0.48249298,0.074213125,1.3315473,0.6577022,0.056332123,-0.36404812,-0.8639457,0.56321913,0.022247918,0.09040883,0.60104686,0.17559572,0.45378324,0.36175284,0.74755806,0.19741264,0.01535588,0.058477424,-0.53038013,-0.36640406,0.3534058,-0.23108701,-1.1739914,-0.46302652,-0.22282015,0.34806752,-0.31817088,0.003223376,-0.19327231,0.009507637,0.75336164,0.3279956,-0.3395238,0.4835115,-0.36972666,-0.09282335,0.10206209,0.5838474,-0.23818783,0.17321664,0.118464,0.15607455,0.5658863,-0.053905446,0.9460808,-0.53240633,-0.47168848,0.68740195,0.21899898,0.32238898,0.0057003144,-0.3076546,-0.09127339,0.47292963
actifs,-0.96471053,-0.9765157,-0.10138543,-0.79107755,-0.19003138,-0.9033545,0.5258938,-0.27903613,-0.4471557,-0.4352251,-0.49207202,-0.8371589,0.27884558,-0.2936837,-0.57065296,0.18521933,-0.9020081,0.22388707,-0.25914997,-1.2404689,-0.66478467,-0.019714918,0.71733874,-0.027846279,0.43669742,-0.23132218,-1.0640498,0.1877074,-0.044681992,-0.5157286,-0.12067768,-0.021195311,-0.6030301,-0.0674026,-0.48068774,0.7929617,-0.26057166,0.1189857,-0.28718415,0.21044292,0.3982654,0.33237585,-1.0811939,0.7791363,-0.035685357,-0.22241217,-1.0755962,-0.10469095,0.48499396,0.6286133,0.1895123,0.27895838,0.11349626,0.13189185,0.2889445,-0.45956755,0.22477792,0.2155884,-0.87163097,0.8751122,-0.06092663,-0.13615632,0.6998125,0.21350276,0.35855797,-0.11893118,0.63146406,0.311944,-0.64001256,-0.10714033,-1.0721428,0.08313353,0.40650862,-0.32964984,0.031307083,0.4650315,0.03081602,-0.5382008,-0.9757815,-0.23064816,-0.8895679,-0.25915822,-0.98125345,-0.17148887,-0.75724316,-0.7024303,-0.7066181,-0.26103708,0.6441236,-0.02215965,1.095099,-1.1694764,0.012754042,0.015648134,0.6479454,-0.2737495,0.8656291,0.028533064,0.15533817,-0.060780738
action,0.035728633,-0.19921523,0.66723526,0.3505238,-0.44042936,-0.47893405,-0.055334844,0.25040606,0.8002347,-0.11982222,-0.21371019,0.16232005,-0.6479169,-0.025562605,-0.18792163,0.22475109,0.333337,-0.2604003,0.5177696,-0.64218134,0.9076059,0.49645817,0.856715,-0.68708974,-0.062462997,0.85876995,0.064966775,0.067050464,0.13099857,0.30543914,-0.0031731057,-0.8563561,-0.19256514,-0.47375193,0.21603644,0.40704352,1.0933529,-0.026886715,0.6157262,-0.5458078,0.010617108,0.15740077,0.076415,0.53812206,0.7360423,0.13746461,-0.5627335,-0.12378667,0.14638561,0.39623228,-0.036499362,-0.0793382,0.20060499,-0.4427122,-0.25819245,-0.5710858,-0.18361452,-0.026737036,-0.24600857,-0.14676295,0.36014268,-0.26546657,0.23123276,0.225412,-0.13858391,-0.089958265,0.41422233,0.31629816,0.8322878,0.43071532,-0.4858855,0.46942684,1.392179,0.3720018,0.2419778,-0.11252225,0.6115614,0.17206727,-0.10245886,-0.89321834,-0.27577516,0.39311448,-0.06351781,0.8845143,-0.25533867,0.2847393,0.6728172,0.37632206,-0.31056523,-0.09697116,0.31728086,0.39941806,-0.24333343,0.28082448,0.8020341,0.7997996,0.5224029,-0.60487723,0.21179141,-0.09355731
actions,0.46893865,0.28484684,-0.055407327,-0.51084524,-0.43397862,0.20030849,0.1488812,-0.24090843,0.01973296,0.55677044,0.80716777,-1.041145,-0.19778104,0.07230815,-0.17538157,-0.35029718,0.37189713,0.15483356,0.6144819,-0.109639205,-0.31575668,-0.16389206,0.7889182,-0.43286437,0.095036104,0.36306232,-0.6766877,1.5531323,-0.9257539,-0.19072875,0.11684152,0.11844213,-0.17658496,-0.34772694,-0.43476212,0.6277442,0.45182154,0.29467002,-0.8073684,-0.41469586,-0.3491529,-0.5976813,0.124028124,0.24628648,0.9206463,-0.5485528,-0.43248668,0.3064117,0.38223347,0.5589915,-0.112597935,-0.12222396,-0.6118825,-0.88366276,0.27548864,0.12897019,0.15306382,0.22418885,-0.6203604,0.08423657,0.21448709,-0.19698031,0.96575624,0.38967708,-0.048144106,0.3331595,-0.003028444,-0.14828956,0.5357779,-0.39705503,-0.8405752,0.5204959,0.54336166,0.9803303,-0.17242937,0.3075571,-0.03036027,-0.652853,-0.019175021,0.09443107,-1.1393582,0.03229213,-0.41062284,0.5027733,-0.6195417,0.004992773,-0.30288228,0.103281416,0.41740447,0.42252618,0.41987038,-0.012795775,0.63717425,0.24815145,1.2245975,0.3269476,0.35916203,-0.2791914,0.38463467,0.045243938
activation,-0.054795463,-0.4549429,0.3450002,0.22802435,-0.9876059,-0.98213285,0.34605625,0.11265763,0.7593501,0.13288783,-0.54062957,-0.19576241,-0.2867706,0.9241833,-0.14711407,0.14003007,-0.5704526,-0.48703957,-0.30773482,0.27650666,0.67672473,-0.13576569,-0.37126273,-0.31705457,-0.6392451,-0.020492246,-0.44898987,-1.24053,-0.86791015,0.0601231,0.20147587,-0.0023035905,-0.01415464,-0.41596594,1.2910604,0.82912445,0.5174404,0.331925,-1.1899829,-0.26928213,0.8611339,0.26593155,-0.052883875,0.11658711,0.2679777,-0.054982953,-0.8127344,-0.10046016,-0.44969687,-0.09235824,0.62031746,-0.2599774,-0.61673677,0.35461318,0.55282503,-0.0031372954,0.36202925,-0.21146601,0.2557096,-0.009039735,0.4392478,0.1669954,-0.5230593,0.79979897,-0.3902361,-0.55023354,0.25486884,-0.06528906,-1.1344439,0.54848695,0.114534415,0.84238696,0.7528459,-0.4051915,0.6676898,-0.69937336,0.5805271,-0.6118267,-0.52865666,0.6830706,0.0033156911,-0.05460565,0.15431331,0.40750557,-0.28172708,0.5875074,-0.1485916,-0.2850139,0.42021522,0.7777046,0.6510561,-0.30541113,-0.2291526,0.2840607,0.46773717,-0.07841337,0.059687305,-0.7969266,0.28181103,-0.022663563
active,0.5974088,-1.8568034,0.7040866,-0.2351237,0.21131334,-1.6324998,-0.6487697,0.9804593,0.10760889,-0.28809473,-0.18377967,0.02825034,-0.4157644,0.37153655,0.028049277,0.23460627,-0.29192463,-0.1356439,-0.4987635,-0.6952414,0.08856378,-0.66144365,0.5923008,-0.36182457,0.06813138,-0.5323071,-0.36585113,0.08070638,0.38193446,0.10105537,-0.5433109,0.24698201,0.53568816,0.18788472,0.9786315,0.8696743,-0.24745288,-0.09064,-0.34686625,-0.13117337,0.30895445,-0.24687593,-0.59820616,0.23552535,0.86296797,0.15913063,-0.13552563,-0.42964378,0.40643808,0.21844444,-0.55103755,-0.47604352,-0.44075176,0.77281934,-0.7649301,0.31019795,0.7611798,-0.36357445,0.93526185,0.5505275,-0.10774836,0.032085106,0.05916499,0.54644835,-0.56808484,-0.43934137,-0.07702348,-0.18781814,-0.39434832,-0.15566148,0.40215808,0.2518589,-0.21667117,-0.5149692,0.27870518,0.20709017,0.77144134,-0.48692852,-0.14840893,0.49643221,0.41632912,0.69084716,-0.6519327,-0.3052356,-0.3089023,0.15643138,0.7385362,-0.005254976,-0.16173379,-0.0057974407,-0.39290515,-0.21206328,0.15476577,-0.3135536,0.8416812,0.82977146,-0.07957333,-0.20671293,-0.84731793,-0.575339
activité,-0.39737242,-0.5585089,0.13791698,0.878613,-0.08749799,-0.75862306,1.0304968,0.77004194,0.18594922,-0.09346514,0.26307946,-0.685072,-0.28897575,-0.32757786,-0.17181093,-0.11608696,-0.061907217,0.20099303,-0.22907323,-0.47138798,0.6951008,0.44478565,0.17903598,-0.7628494,0.4369487,0.27085656,-0.082086,-0.91427225,0.73808724,0.08792008,-0.44330102,-0.17937393,-0.50974494,-0.4169939,-0.3456908,0.39901078,0.1008196,0.1023589,0.249229,-0.26707765,-0.70352006,-0.022920195,0.15623857,-0.4164881,0.1995232,-0.1475894,-1.0384711,-1.0020751,-0.25714725,0.20107257,0.29898596,0.07433312,-0.109082095,0.2991924,0.17978118,0.1337345,0.058798708,0.14840712,0.20736834,0.3923419,-0.55307364,0.284707,0.87770486,0.20128752,0.007338901,1.087596,-0.6919006,-0.53908974,-0.70144206,0.2729072,0.18516722,0.30911505,0.29044127,0.31008446,-0.77518964,-0.33572268,0.47874725,-0.32676575,0.5311605,0.7326162,-0.37842923,-0.15633926,-0.36867964,-0.018071087,0.10453977,-0.758585,-0.58265156,0.16303769,0.3887788,0.9327859,0.93991107,0.4655367,-0.39056036,-0.12494346,0.66798365,0.58346397,-0.5182504,-0.3463709,-0.28970262,0.52124304
activités,0.09444565,0.44886714,0.71638155,0.1590178,0.025696807,0.41354913,0.053507272,1.2360649,-0.14878127,0.17517126,-0.2799464,-0.5480893,0.4739029,-0.4004093,-0.0813422,-0.66530716,0.04583321,-0.46382496,-0.81968975,-0.39486971,0.42064396,-0.54745525,0.56049895,-0.25876546,-0.44818643,0.010960354,-0.7090078,0.6277955,-0.3725233,0.5857523,-0.25197798,-0.4093703,-0.33363655,-0.5933093,0.119671255,-0.03228348,0.13063522,-0.42664543,0.48925158,-0.15470098,0.096679695,-0.12357555,0.0025583266,0.17758127,-0.19334449,-0.49133193,-0.16482522,0.288156,0.04432305,0.79016536,0.51027673,-0.56695986,-0.014060939,0.3079274,0.20029004,-0.04223772,1.0138373,-0.07652246,-0.2095333,-0.87240124,-0.10345273,0.6145379,0.3962125,-0.737173,0.7411893,0.7538591,-0.45063263,0.1574749,-0.13155729,-0.07049268,-0.24595807,0.6078789,-0.0051892893,0.26183793,-0.3764044,-1.0152037,-0.3924839,-0.4001565,-0.12613472,-0.23207071,-0.5130727,0.3075713,-0.28927124,-0.29451582,-1.0425901,0.41116998,-0.31783,-0.70338434,0.893351,0.68019396,0.5048517,-0.37869915,-0.49021864,0.114167444,1.3683922,0.2995388,0.64182293,-0.67891616,-0.22791277,0.45512497
actualité,-0.33893242,-0.014985661,0.45089203,0.839651,-0.39747688,-0.5524274,0.41475487,-0.16210435,0.35430264,-0.9160472,0.14161518,0.117214575,0.34060913,-0.13369693,0.26814735,-0.13982973,0.28388885,0.21193172,-0.8063549,-0.47702187,0.607537,0.15000008,0.5373451,-0.7515705,-0.115357526,-0.48413074,-1.2606449,0.21058123,0.33982065,-0.07081667,0.5355973,0.34628373,1.5789222,-0.098507516,-0.17382462,0.6575333,0.30238253,0.52368176,0.3648195,-0.30094987,0.1314388,-0.2595572,-0.40603736,0.112108305,0.30672532,0.25438616,0.4318167,-0.8345433,-0.0005997826,0.54678285,0.20285493,-0.3922392,-0.052030914,0.3997462,-0.1364096,-0.35706866,0.09277192,-0.021690836,-0.78615415,-0.085329205,0.30660075,0.119237274,0.31370184,1.1027219,-0.036725566,0.8633132,0.33594814,0.67522544,-0.36694193,-0.4723739,0.20066136,-0.30387452,-0.0350023,0.238823,-0.19703805,-0.33599415,-0.26822442,0.3887639,-0.14633814,-0.26867843,-0.9720594,0.46854565,-0.2115713,0.35732633,-0.22422712,-0.18257982,0.6151442,0.54023844,0.3626944,0.44307724,0.0706856,0.74071926,0.28978977,-0.30434147,0.7704121,0.93081886,-0.0586919,0.03325849,-0.06915928,0.07847452
actuel,-0.1555281,-0.33212668,1.0667688,-0.3071019,-0.76754296,-0.4972499,0.10682997,0.87417424,0.7681116,-0.59895533,-0.44585344,0.13581799,0.57792807,-0.343267,0.76620567,-0.082442924,0.575135,-0.81705785,-0.47853664,-0.36846393,0.07147002,-0.4310538,0.37914228,-0.35036865,1.3411528,-0.19778188,-0.6086122,-0.25481388,-0.27735376,-0.30032197,0.36616343,0.53704286,-0.3116809,-1.068547,-0.10586528,0.47291434,0.15721379,0.09787235,0.17981185,0.15645513,0.5451792,0.56176054,-0.48896086,0.4771104,-0.49025357,-0.17032652,0.4248607,-0.49429813,0.1276749,-0.11831505,0.45395538,-0.08666611,0.706576,-0.2213319,-0.35257223,0.5554166,0.63785166,0.7768431,0.00671781,0.86051595,-0.32798186,-0.91431504,0.90472144,0.8110346,-0.116263494,0.09433624,0.6586225,0.44559664,0.030403262,-0.10773697,0.12988402,0.21268746,-0.11586779,-0.421861,-0.011737933,0.32625902,0.34242886,0.21529514,-0.24130529,0.008145986,-0.95081556,0.29250962,-0.25469026,-0.2786053,-0.2679827,-0.02543765,0.98847663,-0.07080412,0.36244014,0.4783955,0.2941663,-0.14838052,-0.5109304,-0.29575652,0.46365055,-0.23017737,-0.18243799,-0.022436757,0.02953031,0.5491106
actuelle,-0.5873533,-0.71160924,0.09325173,0.5785069,0.13326652,-1.1710441,-0.31509286,0.1840555,-1.5212634,-0.32192168,0.28407943,-0.12142479,0.24457946,-0.45909527,-0.059076317,0.18235601,-0.08928413,-0.102215044,-0.81630534,-0.86696,0.14378795,0.32539052,0.03226737,-0.53059053,0.24374232,0.009681631,-0.46469972,0.14454542,-0.050985623,-0.26314586,0.8037547,-0.41378996,0.3026984,-0.63381785,0.1745363,-0.74031186,-0.07075029,0.5987333,-0.11729583,0.26302877,0.33427235,-0.5272255,0.2714546,0.61776525,-1.0887291,0.55370116,-0.3402522,-0.4232461,0.15526132,0.102679975,0.32332745,0.43931037,-0.20549552,-0.41595542,-0.1810445,-0.21347265,0.053085685,-0.75211865,-0.8921458,0.63406026,-0.46673203,-0.81528974,-0.57070184,0.7309373,0.31626695,1.0087914,-0.106485695,0.3915615,-0.22549856,0.52985287,-0.4720473,0.12873256,1.1059762,-0.70999825,-0.32124484,-0.34567374,0.12681866,0.7200446,0.032264534,-0.19005617,-0.8832969,0.9790064,-0.09354925,0.034686048,-0.3953286,0.38287902,-0.13383919,-0.0006987877,0.67241436,-0.32033023,0.6277504,0.07947072,-0.44242898,0.06805228,0.77745706,0.07917716,0.19307038,-0.4094205,0.8858075,0.29522327
actuellement,1.0497097,-0.35839474,0.05348598,0.09341687,-0.7484317,-0.22658841,-0.90848184,0.18782637,-0.42208228,-0.59618616,0.29063866,0.2093618,0.3862021,-0.06363959,-0.37648934,-0.0049421913,0.11313809,0.05518899,-0.3667889,-0.72599906,0.493136,-0.790292,0.2551333,-0.24030125,0.3805254,0.3262388,-1.1914065,-0.21216913,0.2764772,-0.04949495,-0.19662683,0.679217,0.45500556,-0.76114815,-0.048017565,-0.2550354,-0.13887353,-0.24537621,-0.21435614,0.13807836,0.7604922,-0.2374884,-0.86208576,-0.22271942,-0.25458345,0.07885237,0.45443988,0.3015664,0.02092126,0.9352714,1.182288,0.7796504,-0.19309466,-0.13855913,0.4863418,-0.28852758,-0.18059385,0.36331394,-0.29313052,1.0966059,0.017522957,-0.20125398,0.5826859,0.05726193,0.37672293,0.5008466,0.16608652,0.1762524,0.858277,0.12450159,-0.33040556,0.3132414,0.10918526,-0.32172891,-0.04523003,-0.24387084,0.681551,-0.6925799,-0.1278881,-0.25947705,-0.4439311,-1.1286334,0.026397401,0.6520684,-0.15700158,-0.06905226,0.4132986,-0.23129512,0.5880383,0.21672888,-0.39406806,0.18254983,-1.1849288,0.5118341,0.945407,-0.53409237,-0.5393979,-0.5301637,0.46089393,0.17748949
actuelles,0.02152728,-0.17672369,0.22283478,0.38293123,0.35923022,-0.037273925,-0.021955766,0.3664618,-0.3605139,-0.59136045,0.8125719,-0.29487124,0.7803578,-0.93019253,-0.33944425,-0.7214367,0.3207861,0.13859324,-0.75826514,-0.82817006,0.15258807,-0.46663892,-0.04994666,-0.2464966,-0.67866397,-0.09668897,-0.1532747,0.9680719,-0.86903703,0.673826,1.0025605,-0.5503905,0.29093772,-0.36165524,0.09744894,0.60309356,0.52916485,1.0902491,0.4550421,-0.9444113,0.697523,-0.028850954,-0.7995024,0.9140731,0.030692078,-0.46142012,0.7228218,-0.08478389,-0.26964316,-0.035181347,-0.53130513,-0.7744295,-0.46630302,0.2879911,-0.29469192,0.069931366,0.38082206,0.44575384,0.10638742,1.0045279,0.09120425,-0.45458665,-0.16279423,-0.6063548,-0.27082115,0.048075564,0.34149086,-0.24282736,-0.5768924,0.6866828,-0.4018702,0.14162399,0.64984155,-0.541729,0.44313866,0.06855926,-0.5139306,0.38346425,0.38806468,0.25239077,-0.8523057,0.08141577,-0.2049273,0.23691773,0.048741918,-0.2140591,0.24507685,-0.02889923,0.45796567,0.32853216,0.4751747,-0.56618094,0.12043174,-0.5062441,0.95512074,-0.2447696,0.056028884,-0.17180377,-0.34672907,0.38582703
actuels,0.13538596,-0.55395573,0.4913397,-0.76115644,-0.016760556,0.22808924,-0.47767174,-0.5759353,-0.55055726,-0.054803476,-0.26462713,-0.3127666,-0.091392405,0.17970842,-0.2938959,-0.024065878,0.3592887,-0.29693645,-0.7529284,-0.65614635,0.26842126,0.5877145,0.9610606,-0.38882732,0.12831827,0.1357568,0.015573414,0.030409327,-0.75521076,0.52622,-0.019881368,-0.06301479,0.23246601,-0.6755034,-0.79425,0.24744171,0.124076605,-0.06505412,0.43113822,0.24477397,0.4678057,-0.47649586,0.25606006,0.033874042,-0.46687895,0.5597282,0.49229035,-0.6105457,0.5610604,0.7950521,0.21759574,-1.0069044,-1.1808594,0.38881776,-0.15868178,-0.09246267,0.2195105,1.4769919,0.48808888,0.122308776,-0.5727521,-0.40539852,0.92681897,0.0025819736,-0.11285094,-0.42556977,-0.41916174,1.0659943,-0.2481211,-0.19657595,-0.166398,0.01574043,0.3435455,-0.62268996,-0.029900974,-0.35201558,0.33010414,-0.90752476,-0.96334344,0.3540086,-0.025891565,-0.1682309,0.20260483,0.40131956,-0.34313294,0.084933884,-0.19886637,0.12022434,0.45463288,0.91638577,0.26430878,0.09223704,0.1926184,0.7479673,1.1792427,0.6402389,-0.5897497,-0.13090383,0.028947609,0.9102292
adaptation,-0.12248409,-0.31693155,0.47914204,-0.29978138,-0.63339895,-0.71785665,-0.31781417,0.5805042,0.1947006,-0.9442054,-0.28988945,-0.05562405,0.25702766,0.72069675,-0.41629523,-0.56251967,0.106888324,0.28275004,-0.7304848,-0.53929716,0.0068875505,-0.6281129,1.6175007,-0.52869874,0.8137902,-0.46407995,-0.2072857,-0.5927044,-0.4798784,0.26115838,-0.4285692,-0.28715292,-0.5474842,-0.3690484,0.28331795,1.0018289,0.13887823,0.1463608,0.011876614,-0.36676538,0.051089287,-0.20300232,-0.57420516,0.4094578,0.14907117,0.32661343,0.32708567,0.09968436,0.4722704,-0.41621238,0.57174623,-0.49667773,-0.3509181,-0.17258506,0.21354303,0.038006164,0.62537074,0.8327901,0.3946285,0.18713422,0.13290888,0.2711649,-0.63531804,0.16676342,-0.5237732,0.22505467,1.0611401,0.5453053,0.45418885,0.66942245,-0.43446505,-0.23322436,0.6714704,-0.19925348,-0.13602334,0.0332303,-0.59159666,0.6841495,-0.6048575,0.20312801,-0.07176768,-0.08291153,-0.048864465,1.3463957,-0.39028582,0.0030949663,0.5046471,-0.45860565,-0.6419161,0.38248152,-0.60723096,-0.30980024,-0.066579476,0.3078518,0.8801387,0.69254464,0.4539473,0.20778316,-0.4001241,-0.28918457
adapter,-0.24901047,0.2205446,0.068248585,-0.06688554,-0.51283616,-0.3900047,0.09586546,0.5131921,-0.33101887,0.16336262,-0.08228114,-0.312644,0.3610661,0.81737876,-0.72928405,-0.33673877,-0.005785618,0.38422832,-1.5063313,-0.40582126,-0.16327228,-0.4475909,0.1465117,-0.56843024,0.5486631,-0.4347691,-0.5112398,0.36773127,-0.27851382,-0.11770637,0.7518755,1.1817127,0.018701293,-0.84722704,0.47755995,-0.20029888,0.17677239,-0.65268826,0.19848822,-0.09297209,0.5259692,-0.1136965,0.5941078,-0.3296179,0.24615017,-0.37711048,-0.7227253,-0.061660312,0.60209805,0.43951827,-0.36132035,-0.837877,-0.72025466,-0.30278745,0.3545283,-0.5160976,-0.16940571,0.34945992,0.51063794,-0.2094281,0.0012522013,-0.7967697,1.1723197,0.51471543,-0.67812866,0.18721908,0.71366197,0.58289397,-0.6742789,1.3993906,-0.44301456,-0.04809074,0.5360839,0.17868057,0.2267327,-0.81813437,-0.3355581,-0.353731,-0.9014005,0.625757,0.14437355,0.6879165,-0.47113296,0.87826496,-0.16683292,0.5078554,0.27699906,-0.47102666,0.027735902,1.1520776,0.10144994,0.6521174,0.37625727,0.38158393,0.48064524,0.29041186,0.37173516,0.13281424,0.32091853,0.4352428
adapté,-0.28405192,0.050088953,0.70216465,0.34995452,-0.31645763,-0.28163534,-0.1576605,0.8596618,0.19356984,0.20602557,0.1283387,-0.26516834,-0.49155214,-0.19384287,-0.24805358,-0.58814806,-0.17119557,-0.20800129,-0.1598257,-0.16080679,0.4748591,0.03126674,-0.17368372,0.12018576,0.42794916,0.41274697,-0.6653785,0.30151555,-0.30256873,-0.60748154,0.027546741,0.0999991,0.5531529,-0.8129299,-0.5636716,0.5812504,0.22701234,-0.39820006,-0.043657105,-0.17782585,-0.012780443,0.119193114,-0.041477714,-0.12158469,0.47174162,-0.5550868,-0.30459055,-0.2304783,0.18137722,0.5298616,0.43412146,0.33216485,0.36840585,-0.44649407,0.57803124,0.10814143,0.9950695,0.8820841,0.06830305,-0.37518206,-0.8657322,-0.32700944,-0.14989215,0.43875062,-0.43809587,0.20871864,1.1204152,0.28967962,-0.20500441,1.0803066,-0.7292188,-0.4833182,0.048720516,-0.15366298,0.34730637,0.20476031,0.85173404,-0.4256078,-1.1627762,0.92256325,-0.64380455,0.30036923,0.23974705,-0.4405701,-0.3292795,-0.46375427,0.48635572,0.3528752,-0.17619683,0.47117996,-0.34987152,-0.45138118,-0.87022203,0.1186758,1.141037,0.005212577,-0.3024257,-0.45002806,0.58678263,0.2812661
adaptée,-0.27692246,0.28518173,0.3338026,0.2027465,-1.0616579,0.04548006,-0.3878119,0.77646804,-0.3037982,-0.37349546,-0.5561122,0.14680979,-0.46971002,0.48629904,0.050272316,-0.53360486,0.77449113,0.20251015,-0.08744439,-0.38935164,0.000524336,0.87511647,0.4560134,-0.17289762,0.8243202,-0.4326633,-0.39220414,-0.9113573,0.6713812,0.21454252,-0.53486115,0.2511652,0.26062435,-1.0887873,-0.30041915,-0.5189739,-0.20620179,0.06789028,0.7240831,0.07532941,-0.08585333,-0.69998515,-0.4530067,0.32570127,0.034993295,0.32717466,-0.3780663,0.50133026,-0.038146317,-0.27773494,0.010912903,0.2386386,-0.5178139,-0.39657167,0.5410905,-0.57333213,0.39247885,0.477457,-0.37583435,0.24981074,-0.8601011,-0.048943195,-0.7351006,-0.29309317,-1.0403594,0.44856235,0.49514928,0.112140015,-0.39415368,-0.4494005,0.022396043,0.0139868185,0.23990329,-0.033922154,0.8863689,0.02330258,1.2142352,-0.57101667,-0.54288715,0.19336824,-0.7606461,-0.25201553,-0.2592702,0.5015242,-0.058678843,-0.7626009,0.20254785,0.23445162,0.17003916,0.4249392,0.2886232,-0.8591614,-0.23847637,0.40105385,1.0622189,-0.2665339,-0.21109788,0.34620216,-0.122540034,-0.10270245
adaptées,0.38945082,-0.83021927,0.31344634,0.24008016,-0.43861824,0.5015429,0.57998997,0.046228267,-0.7023657,-0.34990677,0.34581953,-0.5497931,0.52426636,0.5978629,-0.21709536,-1.1845728,0.26143047,-1.0975969,-0.02047566,-0.42481336,-0.024818588,-0.08220714,0.7835848,-0.07551822,-0.9639366,0.29755306,-0.9317159,0.38109723,0.08571655,-0.331842,0.35043162,0.5542881,0.5102938,-0.69186527,-0.05849929,0.45415938,0.71835077,-0.14858621,0.31327266,-0.7167135,0.44720447,-0.32157317,0.0022100103,-0.32724434,-0.40919554,0.4970113,-0.87325406,0.08756659,0.44287542,0.59987944,0.09513823,-0.37096274,-0.20843972,0.021398004,0.023538116,-0.020713042,0.47475183,0.7778267,0.06332549,-0.6987489,-0.16806406,-0.38410306,-0.48420134,-0.3124218,-0.67444694,0.38629788,-0.43492782,0.705581,-0.032017518,0.8327991,-0.05291176,-0.4502072,1.2721374,0.207772,0.2345626,-0.45444965,0.5294555,-0.22058424,-0.9920375,0.6196886,-1.1185781,0.41456074,-0.7862414,-0.1102931,0.26619238,-0.2438318,-1.0133132,0.16110243,-0.75307757,0.29013553,0.041386392,0.14204586,-1.0646266,0.26335296,0.7955976,-0.30119896,-0.7223146,-0.44442832,0.29092863,-0.9373468
adaptés,-0.04298794,-0.6619883,-0.08447407,-0.056897126,-0.87746316,-0.605725,0.0994631,0.43364468,-0.81338704,-0.6596299,0.4307831,-0.091363885,0.22282076,-0.6398445,0.31734514,-0.49313143,0.43379253,-1.1085738,-0.7109696,-0.3686146,-0.32137024,0.29268342,0.26322258,0.09675584,-0.18507914,-0.18270619,-0.08168541,-0.075774714,-0.04940409,0.58290356,-0.5441991,-0.15970325,-0.45067263,-0.44521037,-0.13550949,1.1506703,-0.57408047,0.45598686,0.36408153,-0.3301325,-0.14686659,-0.28001186,0.37003744,0.74602157,0.6309131,-0.45335457,-0.607152,-0.36832812,0.4398547,0.5794988,-0.23795003,0.1578128,-0.14875205,-0.08579991,0.071615964,0.31850561,0.29784328,0.71019113,0.30446434,-0.5339278,-0.17466776,-0.74377424,0.22414725,-0.08977945,0.19255242,-0.2825901,0.34990713,0.7423487,0.120153636,-0.10033829,-0.5156388,0.48935366,0.59506565,-0.11003435,0.10966271,0.09419286,0.14433113,-0.32376236,-0.9774159,0.8034052,-1.0076706,-0.13113363,0.1430109,0.69988173,-0.38057977,-0.30379623,-0.12817632,-0.19902751,-0.38555983,0.3743247,0.97223026,0.50803745,-0.9868034,0.36439297,0.6095561,0.23560205,0.39822975,-0.39011618,0.18340401,-0.27366564
additive,0.45124912,-1.0103725,-0.10954843,0.6222673,-0.42791697,-0.67270076,-0.66652745,0.04157524,-0.06855056,0.122814804,1.1786028,-0.14673217,0.14467357,0.20461072,-0.4629119,0.011417415,0.9689954,-0.22644462,-0.40456355,-1.1084123,-0.1587986,-0.6237033,0.6325117,-0.7453415,0.4140345,0.43449184,-0.94807327,0.101427786,0.4462572,-0.12644517,0.14992392,0.45577088,0.8232073,-0.7543972,-0.70635134,0.08042609,0.09288404,0.2495865,-0.68139374,-0.02880207,0.76953405,0.099594384,0.13556615,-0.013270231,0.0013899549,-0.2678448,0.061707467,-0.34914556,0.17956579,1.3420795,0.1257308,0.22807036,0.27584293,0.34285587,0.56163245,-0.8351714,0.42089608,0.22410516,0.23592706,0.016673315,-0.5542278,-0.116580166,-0.28908306,0.1664656,0.13303886,0.20728624,-0.06988179,0.5763489,0.27406657,0.12686108,-0.42327827,0.015048195,-0.15309861,-0.6354983,0.19900602,0.035882875,1.0330344,-0.6084935,-0.49270862,0.32891664,0.41623318,-0.39968947,-0.3067758,0.20616214,-0.17211284,0.26934397,0.10815463,0.10077252,0.032760218,0.8056432,-0.67135084,0.013723643,-0.65456957,-0.08680519,0.6347525,0.09671467,-0.22004503,0.4931749,0.32184345,-0.14012946
adhésion,0.16640174,-1.1038344,-0.5098291,-0.2903381,-0.7097691,0.48074582,-0.04514863,0.5300503,0.8257496,0.06551148,0.45283723,-0.43518725,-0.5328104,0.18879391,0.013423594,-0.24030228,0.15699498,0.18706107,-0.031800687,-0.013429404,0.3540081,-0.24559411,0.5170939,-0.5103799,-0.19187574,0.5499195,-0.45092282,-0.6703265,0.011684674,0.13979952,0.91492075,0.8483268,0.026075507,-0.65464574,0.6892719,0.5534697,0.66262305,-0.2855068,-0.048430067,0.54583263,-0.5470891,-0.2671551,-0.7557206,-0.38104096,0.0751879,-0.8338499,0.22170128,-0.34317115,0.37279654,-0.30974272,0.38403502,-0.10160832,-0.7828665,-0.038753293,0.24296208,-0.16188243,0.7489237,0.27553073,-0.105445184,0.45335656,-0.54002726,-0.037379272,0.8962744,0.13527806,-0.026016837,0.46967202,0.67062694,0.6514335,-0.32477382,-0.57986695,0.3604028,0.6137483,0.0028211577,-0.17107345,0.017366704,-0.033785783,0.14465927,0.51431733,-0.6187716,0.13195124,-0.35453063,0.56471145,-0.44510794,0.58288455,-0.52089757,-0.42974156,-0.24279979,-0.25314137,0.8121936,-0.07950596,0.45160386,-0.3290014,0.28198814,1.0132416,1.2421081,-0.078993246,-0.49083817,-0.37364113,-0.13550991,-0.71059895
admet,0.55966383,-0.3436146,0.043462235,-1.0930802,0.41154563,-0.34698755,0.031633634,0.69235224,0.28183103,0.14046176,0.014609672,-1.0792522,-0.5655534,0.6404181,0.2303125,0.14491604,0.41939032,0.007827769,-0.4214803,-1.1830324,0.8188498,0.25470942,-0.5025285,-0.36013642,0.30074754,0.6962898,-0.15521976,-0.84904474,-0.0712259,0.5701363,-0.4863355,0.26790655,0.3784894,-0.4586488,-0.6642819,-0.22271413,0.111107394,0.14945306,-0.3703803,-0.38124233,-0.36752158,-0.11206973,-0.24440128,0.58465135,-0.27346534,-0.36525032,-0.18055208,-0.3443347,0.21748318,0.3055479,-0.8065977,-0.12506142,0.42580578,-1.0067093,-0.19193567,-0.2777819,-0.18917765,-0.16725089,-0.41537964,-0.19601053,-0.6383791,-0.4727899,-0.09973694,-1.2282089,-1.1279577,0.49776897,-0.28953028,0.42238733,0.3542484,0.25778842,-0.10274649,0.63598204,-0.13786303,-0.428572,0.69623286,-0.48749813,0.7413436,-0.16291742,-0.46842954,0.26286352,0.25319645,-0.43517444,-0.42257935,0.13093056,0.73116237,0.52131087,0.59916997,0.49257132,0.12306384,0.37815621,0.55239654,0.23812167,-0.0664435,0.038911566,0.35966378,0.5271026,-0.36101073,-0.090419285,-0.7614497,-0.7292088
administratif,0.43558654,0.9653383,-0.29606816,0.24076544,-0.055461746,0.33972427,-0.052368242,0.7048919,0.8202916,-0.8910475,-0.7740954,-0.8993283,-0.83509517,-0.09525434,0.8652312,-0.6924854,0.6603641,0.051713612,-0.43043524,-1.6483788,0.74650127,0.15022245,0.6542243,-0.93140316,0.4296744,0.5751286,0.3825698,0.21049018,-0.6284717,-0.1807816,-0.48867986,0.6074106,0.25102884,-0.18916477,-0.49230757,0.1423374,-0.040471807,-1.0792506,0.6058079,-0.37269303,-0.02110903,0.21932305,-0.46517548,-0.39901692,-0.39727867,0.0612451,-0.2969963,-0.6366191,0.5724712,0.41876584,1.3231977,-0.6769917,-0.65706193,0.33396307,-0.30037427,0.0704324,-0.022081144,0.31722584,0.0035296304,0.054707903,0.82772833,0.30832365,0.29574358,0.021303406,0.028892208,0.7093454,0.29657483,0.59430134,-0.37607002,-0.28671932,-0.7552935,-0.001493897,0.11928288,0.48494816,0.26638648,0.587856,0.91494316,-0.4968555,-0.12922361,0.25041658,-0.9402698,-0.6671133,-0.07905831,0.74481463,0.016724685,0.08433125,0.38459665,0.6273954,-0.38463265,0.2043521,-0.68036157,0.04846671,-0.091928706,-0.15260871,0.81994015,0.57707375,-0.3192055,-0.8605806,-0.53126884,0.42130455
administration,0.1358614,-0.4459416,-0.5049635,1.0294068,-0.43612018,-0.10977566,-0.25893724,0.6613497,0.19476028,-0.17231724,-0.43734065,-0.60110396,-0.05811607,0.01579932,0.138653,-0.33592328,-0.3655829,0.49039525,-0.123986095,-0.18668658,-0.030354701,0.07061938,0.5247815,-0.5564475,0.3556618,-0.09156368,-0.48619667,-0.5302893,0.16374686,0.6475099,-0.32310945,0.8813044,-0.34407324,0.20763826,0.15744743,0.39776385,0.34132802,-0.052265782,0.2762184,-0.47310692,0.19212182,0.019925645,-0.48189995,1.1190895,0.49084076,0.10305804,-0.16394861,0.25765216,0.118331924,0.5418759,0.23366208,-0.81399053,0.6677741,-0.03459529,-0.59912103,0.12418637,-0.36687505,-0.35512638,0.22870077,0.43084878,0.019379115,0.3537741,-0.042437147,0.20603114,-0.9700266,-0.113044985,0.70188475,0.75155777,-0.75938505,1.0105922,-0.60389245,0.64626753,1.2247769,1.2818663,-0.21422832,-0.027417636,0.2189584,-0.38860226,-0.56674284,0.361269,-0.14277206,0.1342623,-0.23810442,0.5436512,-0.07970854,0.02718858,0.28404567,-0.43346503,0.3126033,0.54865646,0.0760366,0.5738842,-0.03845823,0.44896147,0.21736962,-0.69441533,-0.19439134,-0.8377485,0.27983117,0.2165153
administratives,-0.11311134,0.6168687,-0.52762777,-0.23952095,-0.19062379,-0.21315402,-0.2798925,0.54392624,-0.31491384,0.1709958,-0.16675085,0.09185383,0.6556256,0.052489243,-0.07750003,-1.1064624,-0.4122403,-0.37344706,-0.57712466,-0.7213485,-0.23742631,-0.11677585,-0.0556684,-0.4260511,-0.19944498,0.05983545,-0.6694714,-0.3927045,-0.16518779,-0.16315515,-0.019179348,0.6800828,-0.10612466,-0.9958906,0.047302738,0.7620985,-0.28621277,0.0034334927,-0.22568321,0.0520846,1.1995857,-0.54763854,-0.56069785,-0.4611832,-0.06481475,-0.12562165,0.070141986,0.72688794,-0.0502263,-0.3091188,-0.106593154,-1.3766179,0.005888802,0.3493196,-0.2918132,-0.45675325,0.58827066,0.36697778,-0.94510007,0.032528788,0.10888095,0.97732097,0.41080117,0.13035175,-0.6660942,0.4492322,0.4688823,-0.2353354,-0.44041836,0.6027218,-0.48262185,0.089207664,0.88657236,0.45538372,0.34989578,0.46943194,-0.10726684,0.0050877845,-0.14613025,0.52618843,-1.0124391,-0.51052356,-0.64674217,0.48767644,0.39457166,-0.13056064,-0.06304924,0.17677946,-0.1347465,0.93111646,-0.21407093,0.62583447,0.4856781,-0.097500965,0.359277,0.6383086,0.17955242,-0.4950026,-0.71108013,-0.29180402
adn,0.21105726,-0.18205264,-0.71474755,0.03402435,-0.65663815,-0.4548795,0.15086065,-0.049158417,0.45457873,-0.49171978,-0.4989461,-0.911668,-0.31201813,-0.15392148,-0.22544344,0.061385702,0.08120597,0.26816162,0.20878561,-0.4564667,-0.59778684,-0.44875544,0.68177253,-0.41484857,0.17737778,0.10216384,-0.6525634,-0.7791561,-0.37693095,0.16374019,-0.1341699,0.4051207,-0.14930877,-0.24693182,0.9046701,1.4945,-0.73432326,-0.30720383,0.0014854599,-0.07538258,-0.15951039,0.48476434,-0.17149602,0.016424602,0.091363445,0.19349705,-0.62319916,-0.14544703,0.21132597,0.23198387,-0.082330346,-0.24971302,-0.70438033,0.87567943,0.28323305,0.8224094,1.3186111,0.8717353,0.037479978,0.52971643,0.50992185,0.11111723,0.07920292,0.032697342,0.3332674,0.0114189405,0.8631791,-0.43858895,0.4020475,0.77761257,-0.6559118,0.6604242,0.78335357,-0.5440501,-0.058250923,-0.13850705,0.3880455,-0.19118789,0.56143165,0.46301565,-0.44472992,0.1822228,-0.1770023,0.8470245,0.4627025,-0.3246933,-0.54089665,1.1205637,0.58810496,0.8226203,1.211814,-0.27492568,-0.43909144,0.54287976,0.6616902,0.32412326,0.39833906,-0.47372913,-0.64995563,-0.17250314
adoptant,0.63735616,0.070450574,0.38989258,0.076990694,-0.45272705,-0.034914643,-0.11519919,-0.066253684,-0.95169544,-0.9222472,-0.57619566,-0.14205858,-0.8818016,0.03476146,0.12845199,-0.1717043,0.92066544,0.032657605,-0.15601772,-0.11082324,0.030750087,-0.2917187,0.38154605,-0.04656252,-0.46531498,0.16461271,-0.54036695,0.20347336,0.34553987,-0.6491412,-0.08833379,-0.14809817,-0.024216278,0.5380368,-0.7558846,0.812804,0.7981932,0.31397346,-0.16622841,-0.08141399,0.56646216,0.409091,-0.36111173,-0.054547533,-0.046181265,0.3373082,0.5293269,-0.05449396,-0.15910268,-0.15787418,0.50349885,-0.36853492,-0.4855121,-0.7553889,0.55201256,-1.2197384,-0.4223394,0.07255552,-0.29364213,-0.32847476,0.14898492,-0.3386248,0.44365987,0.21512666,-0.8113944,0.24011713,-0.4501856,0.7903694,-0.33375913,-0.33342275,-0.5809942,-0.1170187,0.75071526,0.21302572,0.4673879,-0.58874035,-0.03582289,-0.17696245,-0.43852147,0.5043052,-0.721061,0.10218313,-0.082809746,-0.027003324,0.8560881,-0.20250052,0.32003242,0.34458846,1.2451552,0.5872289,0.50812465,0.066465884,0.0034060476,-0.13165805,0.14435467,-0.0637402,0.32338396,-0.7933351,-0.42073116,-0.53330374
adopte,0.59581363,0.015028012,-0.38426125,0.047254495,-0.22977416,-0.11558884,-0.6180141,0.40850428,-0.09468903,-0.40982112,0.32648137,0.052796554,-0.4526337,0.74973345,-0.03383429,-0.18517324,0.8792897,-0.06559804,0.6246861,-0.32676286,0.0006416064,0.4915915,0.06272168,0.08516077,-0.33584383,0.472309,-0.16918434,0.83680284,-0.18957052,-0.28761414,-0.30968842,0.16828744,0.2508897,-0.8253947,-0.1380167,0.46352518,0.71419346,-0.20184399,-0.1803031,0.52979994,-0.21683134,-0.43825346,-0.9615847,-0.0008504091,-0.18342857,-0.6730812,-0.099380106,-0.98116744,0.94497156,-0.011776496,0.32698783,-0.21612425,-0.41187277,-0.53177404,-0.22536102,-1.3949025,-0.16105442,0.05749615,0.15660454,-0.32790822,-0.54297584,-0.6011412,0.41552663,0.6328648,-0.95656484,0.6381238,-0.3503161,-0.26594946,-0.59711134,0.5586583,-0.056163307,0.32747555,0.29483765,0.22644831,0.17663428,0.00211489,0.19216521,0.52185416,0.18504222,0.13892938,-0.9604319,0.92090726,0.09271905,0.5731282,0.041446973,-0.91996986,-0.43130633,0.9358597,0.2717857,-0.06663748,0.80438155,-0.38586295,-0.114358686,-0.20765564,0.644792,-0.3323097,0.14831494,0.063517846,-0.36662078,0.20888862
adopter,0.41482604,-0.1391578,0.07995906,0.43217945,0.11544375,-0.21573588,-0.3284525,0.4114204,-0.52037245,-0.93594,0.22583757,-0.5875737,0.11061801,-0.087679565,-0.1357058,0.2571421,0.7606097,0.24241489,-0.38287473,-0.21918339,0.9415713,0.12685466,0.29494768,-0.06714645,0.0937873,-0.22003214,-0.4792466,0.7988532,-0.80715954,-0.053083226,0.5466712,-0.35060036,-0.7326791,-0.2706969,0.5596476,-0.41621834,0.8499594,0.33210033,0.22270562,-0.44828498,0.40286374,-0.3094212,-0.42525357,-0.099546805,-1.1874256,-0.088430665,-0.03519968,0.7729272,-0.22242308,0.07291839,0.13937323,-0.24128494,-0.82643133,0.26587343,0.27257213,-0.81269777,-0.19251752,0.7318926,0.4625189,0.16230825,-0.25978342,-0.9563902,-0.034496747,-0.71148527,-0.9305283,0.8582872,0.65722233,-0.3724223,-0.97274005,0.5898157,0.10180232,0.23850988,0.33200184,0.5110972,0.95059407,-0.91422,0.21964985,0.573251,-1.7532309,0.6174618,-0.55169237,0.55015576,-0.12138263,0.3301079,-0.5521979,-0.62188464,0.4188811,0.79525447,-0.44643703,0.28526622,0.5031957,-0.07277694,-0.45448312,0.52745044,0.9067979,0.5067343,-0.64243376,-0.42461494,-0.23619938,-0.7785119
adoption,0.06410221,-0.046380013,0.07241366,-0.36114722,-0.58169484,-0.87504447,0.15757363,0.98208016,0.037858456,-1.2579224,-0.43836194,-0.33318618,-0.30937213,-0.47525465,-0.0559674,-0.129988,-0.24666293,-0.20698231,0.11109678,-0.67214197,0.28392735,0.17604968,1.2384253,0.6468442,0.2715116,-0.4625682,-0.74441016,0.5060313,0.42038202,-0.36744532,-0.57849365,-0.16623597,-0.15266754,0.2079779,0.16582553,-0.18625575,-0.22074638,1.2956936,-0.060749743,0.07163151,0.5362695,-0.5369101,-0.69033056,-0.64969283,-0.3857523,-0.30602163,-0.45774907,-0.32223928,0.023517044,-0.55981094,0.5244918,-0.1357069,0.40970343,-0.69223726,0.18766747,0.11924572,-0.4588384,0.2114989,-0.036083102,0.4803251,0.46619502,0.007785836,0.457603,-0.32204095,-0.5121645,0.17803735,0.46260977,-0.009148396,0.02115388,0.7189931,0.33725363,0.790001,0.5494221,0.60439473,0.24850078,0.20558745,0.008212704,-0.45235294,-0.4198429,0.52963406,-0.28608635,0.6814733,-0.6747272,0.25239286,-0.49187207,-0.067999855,0.23618093,-0.26789913,0.008365598,-0.22991033,0.55055046,0.7204087,0.28076857,0.4395051,1.2141924,1.0935957,-0.32408518,-0.50358444,0.07399801,-0.15437998
adopté,0.30673078,0.04304665,0.0799177,0.6526405,-0.5466978,-0.4255869,-0.3614611,0.8272316,-0.19539602,-0.74161726,-0.044455886,-0.079569615,-0.84062904,0.069145374,0.09231829,-0.7325728,0.7083763,-0.14328659,0.73541975,-0.40042418,0.057129495,-0.09970579,-0.114651844,-0.5242765,0.41229817,-0.40153173,-1.331704,-1.0088378,-0.4331469,0.12480774,-0.38315627,0.66800123,0.1161224,0.2542502,-0.57264024,-0.064937554,0.7246644,-0.24441613,-0.24123299,-0.42312333,0.61664,-0.23346083,-0.82754207,-0.20522934,0.0044056936,0.21785723,0.5733236,-0.38803783,-0.0868807,0.24618757,-0.36281797,0.03215201,-0.5272246,-0.39943403,-0.8478662,-0.11606987,-0.458902,0.61181265,-0.031439364,-0.10957536,-0.039967686,-0.4678037,0.8548788,-0.36505958,-0.36957943,1.4510615,-0.118437454,-0.48153466,-0.62139726,0.42274192,-0.28181997,-0.14090489,0.838659,-0.46077237,0.506085,-0.07444871,0.19736493,-0.25807375,-0.5493545,-0.16194887,-0.4821574,-0.48481396,0.19523841,0.43215603,-0.106160186,0.21598652,0.1892879,-0.27317888,0.6471109,-0.7006397,0.019529695,0.823061,-0.8916024,-0.17770046,-0.2907396,0.831926,-0.092052035,0.026879976,0.28160617,-0.7095126
adoptée,-0.23851533,-0.0782045,0.66594017,0.46972233,-0.20467936,-0.26384568,-0.040125065,0.7970991,-0.13296516,-1.0884548,0.035662983,0.32299525,-0.20120905,-0.21172938,-0.057619873,-0.50458497,0.6536723,-0.540571,0.2887755,-0.4795077,-0.6617188,-0.525098,0.52363753,-0.33580834,0.2188246,-0.27480903,-1.0246618,-0.4296235,0.35484648,-0.4332715,0.042692605,0.261528,0.5109975,0.029022396,0.7273999,-0.50987005,-0.015981177,-0.24186492,-0.1499688,0.50155604,0.49440318,-1.1038138,-0.7000015,0.039853647,0.48136607,0.31840494,-0.47465235,-0.85960656,-0.37082645,0.8080264,-0.5298926,-0.1048801,-0.6857933,-0.11181937,0.0007281413,-1.1569407,0.52756405,0.6977078,-0.51343614,0.1407901,-0.8782174,0.08013902,0.35196835,0.36230132,-0.2097459,1.4904145,-0.37143254,-0.34641588,-0.5519766,0.14881524,0.014317198,-1.046549,0.76723456,0.27267417,0.23676112,0.061582375,-0.2643689,0.08128296,0.15516159,0.26867768,-0.90300614,-0.14583518,0.016778396,0.45942068,-0.3151152,0.15832841,0.67120266,-0.083474845,0.3668148,-0.14820568,0.77310973,0.55190873,-1.0957059,0.6615694,1.0152016,0.707418,0.45858002,-0.5627291,-0.4826498,0.03547314
adulte,0.74064964,-0.717253,0.7306203,0.1626334,-0.2428071,-0.36748397,0.71876657,0.64147544,0.3062904,-0.77984244,-0.6531103,-0.8061402,-1.0287639,0.08358323,-0.33870283,0.056149106,-0.307767,0.01610083,-0.13891305,0.07493463,0.36259797,0.4226255,1.2631499,0.054700963,-0.19473909,-0.1522801,0.023873955,-0.15415329,0.42102668,0.25373325,-0.06357626,0.23257132,0.022300508,-0.72664154,-0.21885656,0.95746326,-0.727281,-0.76050127,-1.206322,-0.32282498,0.037993476,0.39354867,0.50608116,-0.606672,0.6554253,0.46723586,0.02147807,0.22089718,-0.036045086,0.1480648,-0.5877943,-0.56979793,0.19994374,0.5406601,0.60170615,-0.017763877,-0.059989102,0.16307881,0.2171132,0.6135775,0.09047308,-0.6147645,-0.04683049,-0.34969088,-0.90706867,0.6767842,-0.23550858,0.8009003,0.13975239,0.02914621,-0.5348082,0.35191062,0.7176137,1.1084051,-0.3315747,-1.06159,0.5525612,-0.87824774,0.698887,-0.24850258,0.058872584,0.023034249,-0.54519016,0.72590303,0.20338315,-0.418346,-0.6369666,-0.19398563,0.7548513,0.3334088,-0.1170843,0.3526489,-0.5146728,-0.03846416,0.6474898,-0.30236417,0.7193218,-0.10271012,0.18713191,-0.8053852
adultes,0.056178138,-0.8512028,0.410778,-0.4874667,-0.77211285,-0.6602065,0.11022206,-0.5386323,-0.12717335,-0.6163622,-0.6581133,-1.2701163,-0.5243739,0.38670433,-0.7001037,-0.14077158,0.109409526,0.10746055,0.37029323,0.3347204,1.0629234,-0.07962698,0.53767216,-0.15311545,0.23496033,-0.09920794,-1.0472907,0.42514324,0.3981637,1.1039681,0.41694236,-0.5526754,-0.3836446,-1.1223364,0.56925243,1.1772438,-0.21612391,0.14330593,-0.29839277,-0.07550362,0.6750896,-0.5369675,-0.024392623,-0.9340826,0.5741212,0.18288752,-0.2137498,1.4027244,-0.21807477,0.7659539,0.36247027,-0.66856384,1.0186421,0.082106166,-0.97853816,0.06550562,0.083895594,0.40259516,-0.18471819,0.019344157,0.021523058,0.37293267,-0.021544594,0.38958737,-0.7542881,-0.08764042,0.1829095,-0.30137655,-1.1189702,-0.080357954,0.4141332,1.0121068,0.57797503,-0.33897367,0.3281131,-0.6536285,0.25524074,-0.30452576,0.03058739,0.40791214,0.35173586,-0.5276749,-0.19031918,1.182152,-0.4787184,-0.40842465,-0.29838747,-0.6434045,0.87327725,1.4208246,-0.29501104,-0.33235964,0.40040183,-0.25748795,0.97250986,-0.34107152,-0.55282515,-0.20724846,-0.26121235,-0.13858914
adéquation,0.5598329,0.23850888,-0.9610759,0.51016873,-0.6220861,-0.36569172,-0.08123977,0.32479966,-1.0683333,-0.623712,0.02739763,-0.99799734,0.6523248,0.022590885,-0.4463061,0.12664331,0.4251842,-0.49732178,-0.39237478,-0.69706404,0.14900857,0.5318531,0.07341355,-0.41218212,0.76327133,0.3025702,-0.8675557,0.4665784,0.8804898,0.22380753,0.30934167,-0.510032,0.47538903,-0.4996206,0.021836884,-0.42763215,0.15062492,0.46506274,0.5673245,-0.073648095,-0.028279586,-0.2917007,0.23598032,0.43550485,0.55743814,-0.5691838,-0.46629313,-0.14352967,-0.7044286,-0.6746444,0.30662817,0.30379817,0.037885226,-0.17819524,0.25642702,-0.94482464,1.4732717,0.14995061,-0.41698384,0.38717034,-0.028349437,0.0777642,0.15792008,-0.053395692,0.20516095,-0.06383233,-0.014357186,0.11855068,-0.48990086,0.66728014,0.12182496,0.043236703,-0.28594422,0.40502056,0.5041552,-0.20545483,1.3029338,0.6530927,0.21883036,-0.023042696,-0.26475456,-0.12364231,0.6260356,-0.33623493,-0.3585038,0.24538927,1.1408565,0.5339105,0.5310782,0.796822,0.7087307,0.46555442,0.13418967,-0.190558,0.6482048,0.25458312,-0.13560346,-1.0531915,-0.6826446,-0.5777561
affaires,0.0028416577,-0.27096066,-0.27924913,-0.32988417,-0.30458555,0.15338485,-0.029635007,0.27485803,0.6142404,-0.23967783,-0.20258893,-0.4140503,0.096355796,0.25874066,-0.6822841,-0.24544796,-0.1799067,-0.13141493,-0.78765976,-0.5338434,0.33985704,0.21183337,0.273263,-0.48846614,0.7827499,-0.53693235,-1.772979,-0.15020372,0.086155824,0.08401904,0.13940111,0.8436744,0.51398706,-0.5522503,0.07048422,-0.15931256,-1.0523456,-0.41248074,-0.16621867,0.4503133,-0.4219564,-1.0480129,-0.009303721,0.24365784,0.09555357,0.768973,-0.32496202,0.17700829,0.6837866,-0.40613645,0.6512806,-0.29734287,-0.010637523,-0.21185905,-0.27187216,0.63290954,0.6569222,-0.2213411,-0.5217441,0.30666462,0.63806206,0.10007206,0.26605287,0.3590511,0.5331558,0.6905412,0.24957526,0.87132514,-0.9999172,0.17232311,-0.36541805,0.71889716,0.56727284,0.3621166,-0.10824045,0.43691462,-0.348967,0.5345559,0.11061256,0.07216145,-1.0590477,0.16004676,-0.36266398,0.9261307,-0.5077262,-0.719106,0.20949343,0.22447865,-0.13744429,-0.6737736,-0.1055399,-0.33560094,0.26027447,-0.056416523,0.48662958,-0.5438322,-0.17093839,-0.59118897,-0.2890808,0.2368522
affecte,1.0417506,-0.8179239,0.7382148,-0.65342623,0.006943636,0.14655061,0.274549,0.26510042,-0.28123364,-1.063377,-0.049091317,-0.5467013,0.22899671,0.18154591,-0.4774107,-0.34069845,0.34472337,0.09557894,-0.060157336,-0.8544569,-0.13932616,-0.3579628,-0.3571613,-0.047288626,0.5003347,-0.6630648,-0.6860591,-0.5711439,-1.1227342,0.035054423,-0.42928007,0.36373976,-0.6747636,-0.30737606,-0.65061164,0.10020118,-0.43222138,0.8807016,0.41075787,0.34832487,0.7796863,-0.44965225,0.1840303,0.17131257,0.5450202,0.5755832,0.005818878,-0.21646965,-0.87031686,0.97742724,-0.014212512,-0.220414,-0.6844258,0.18064375,-0.4665535,-0.03673684,1.1877259,-0.0031160333,-0.06123997,0.8381357,-0.032515004,0.19182366,-0.022907998,-0.6622127,-0.89894664,0.5411261,-0.4287256,1.0326892,-0.19512871,0.114622824,0.004797051,0.14157338,0.28579295,-0.44456467,-0.31344292,-0.64720094,1.5075009,0.06119077,-0.52522075,0.4820284,0.2493417,-0.3199759,-0.49475154,-0.11088358,0.4257062,0.37277263,0.034720708,-0.015971078,0.27910513,0.18712759,-0.1460939,-0.4732291,-0.068696976,0.87134296,0.7646908,0.81378174,-0.08336356,-0.7001976,-0.41904432,-0.36094514
affectent,0.19520721,-0.28330553,0.49115515,-0.096601345,-0.3699745,-0.7596857,0.6082422,0.6732043,-0.3651274,-0.5816092,0.22130623,-0.6496924,-0.9251811,0.051032677,0.039510246,-0.45599166,0.37062272,-0.14326146,0.040074114,-0.20324244,0.12347426,-0.083216585,0.29886898,-0.8667548,0.22177349,-0.91601753,0.24846789,0.22977859,-0.54012936,-0.677258,0.7340406,-0.231672,-0.55186385,0.17265636,-0.9863508,0.18801643,0.48142993,0.66084975,-0.007873825,-0.39695597,0.5727486,-0.71946627,0.38641593,0.720947,0.158569,-0.105817355,0.02076682,-1.270433,-0.36660787,0.22845028,-0.15233117,0.018864593,0.114145085,-0.6519198,0.0662752,-0.32311785,0.8264828,-0.2550462,-0.17834537,0.86977065,0.7718719,-0.11495126,0.17364538,0.3544261,-0.38056308,0.1112805,0.62980926,0.8698412,0.5160745,-0.6410266,-0.4831685,0.39820448,1.896297,0.04537559,-0.16830777,-0.533806,0.08698567,0.3903632,-0.7585145,0.2943564,0.28683382,0.16133676,-0.22597636,0.43132982,-0.27728218,-0.21547656,-0.35845897,-0.8126852,-0.102032736,-0.09766595,-0.29504788,-0.23670028,-0.53070164,0.42763525,0.75517094,0.9985952,0.5624273,-0.90638244,-0.37763512,0.23129733
affecter,0.054671507,-0.10044976,0.28411028,0.35968825,-0.35667485,-0.2375406,0.18743488,0.7756219,0.07659928,-0.051976126,-0.42116174,-0.6956111,-0.2757986,-0.114904925,-1.4833493,-0.0754031,-0.012545124,-0.204169,0.14641696,-1.0185549,0.02843025,0.6561895,-0.11930379,-0.98067313,-0.2523202,0.042385314,0.53306836,0.68249184,0.13809909,-0.6376364,-0.8041841,-0.14676718,-0.11962674,-0.44034088,-0.8851655,0.33624944,0.27161437,0.12812595,0.21336226,-0.7147507,0.005569826,-0.47205615,0.15825939,-0.03254631,0.24755491,-0.033063993,-1.1641545,0.030216299,0.052026276,0.4015454,0.8568146,0.19380596,-0.28756598,0.81001854,0.5826026,-0.22552715,0.63955647,0.45952705,-0.18349643,0.24437252,0.040617656,-0.60870206,0.18262033,-0.06472728,-0.9348429,0.44228697,0.91915697,0.58237576,-0.19022648,0.48679328,-0.22225863,0.7013151,1.1303278,0.7228826,-0.11074035,-0.5114969,0.64112353,-0.3425955,-0.07104269,-0.16645038,-0.018270949,0.6587788,-0.9607182,-0.28675038,-0.4489592,-0.5514191,-0.23736209,-0.5827749,0.105902,-0.15691431,-0.1785463,-0.5178273,-0.2778166,0.3303254,0.45775118,0.08382839,0.15401174,0.2822275,-0.055649426,0.16492899
affecté,0.50046766,-0.75259346,-0.29927126,0.5452533,0.39760897,-0.008365441,-0.6650609,0.73387194,-0.35776109,-0.3258869,-0.41588354,-1.0107375,-0.8647402,0.33021402,-0.45633352,0.17345543,0.49735755,-0.2791171,-0.23325142,-1.0358963,1.0086313,-0.62395215,-0.2625493,-0.44643283,0.40560743,0.10401967,-0.38612568,-1.0159384,-0.7133641,-0.46081617,0.2102138,-0.32771355,-0.51074916,-0.011334945,-0.72124535,0.12125183,0.83219004,1.0595903,0.2660538,-0.94793814,-0.06975521,0.24905457,0.28621173,-0.056224585,0.6932519,0.17194417,0.47083348,-0.61733377,0.3187752,-0.5985412,0.43566954,-0.57871646,0.414827,0.21984331,-0.40413046,-0.14750509,0.83231765,0.1444827,-0.8042733,0.30998468,-0.8220028,-0.17251685,-0.56320727,-0.12069494,0.150725,0.52511275,0.09564233,-0.060695063,-0.23061036,0.64353734,-0.19032896,-0.1649982,0.80217695,0.2779105,-0.6685955,0.6075989,0.6830751,0.039226566,-0.10122778,-0.2559822,0.39542684,0.1526721,-0.358615,0.32478425,-0.058832783,-0.65424556,0.21508987,0.6199134,-0.04018351,0.24356987,-0.5289456,-0.5192965,-1.000028,0.2589573,0.44370964,-0.028432438,0.052689534,-0.60281765,0.24798729,-0.41260886
affine,0.057271563,-0.063999295,-0.055437878,0.13830614,0.3623493,-0.43523636,0.17637973,0.8421346,0.25174168,-0.3643921,0.29123148,-0.39397725,0.07493799,0.5291246,-0.5767027,-0.29257292,0.35790953,-0.6678251,0.20087084,-0.29033938,-0.16266528,0.11034413,0.88212806,-0.9898465,0.37409732,0.99555355,-0.51032126,-0.038191658,0.8883547,0.5533466,-0.15626529,-0.19437636,0.17102072,-0.16429421,-0.24133274,0.18189237,-0.5027854,0.17863062,-1.1065588,-0.9658761,-0.052271362,0.011289174,-0.52681416,0.74869335,0.21984558,-0.5383142,-0.86602783,0.12372947,0.053539217,0.24550748,-0.09578407,0.4017539,0.84922075,-0.8227348,-0.41453147,-0.20231572,0.63809705,0.095494926,-0.076232575,-0.40434384,-0.3313498,-0.09239093,0.56600595,-0.26477605,-1.0767556,-0.39422566,0.11794358,-0.21425293,-0.09142088,-0.18881284,-0.27254012,0.27578074,0.7223131,0.88385624,1.1151755,0.72456706,0.20113672,-0.43653816,-0.12648861,-1.0424641,-0.16446991,-0.12076927,-0.26219797,0.64348286,-0.41668043,0.9190628,-0.16781591,0.4872586,-0.3776704,0.48832652,0.8860516,0.3792585,-0.12559174,0.6476813,-0.38477224,0.07394065,0.2702362,-0.32423756,-0.5417041,-0.2071002
affirmation,0.81161934,-0.3456401,0.26077607,0.22625674,0.2629751,-0.23047002,0.064434096,0.3396648,0.28681153,-0.46513897,0.07506579,-0.15107211,0.24546817,0.6725508,0.6974419,0.40567103,0.6008385,-0.54049855,-0.48030007,0.2806196,0.7976146,0.49449754,0.9073016,-0.3653673,-0.10813087,0.18754405,-0.84976023,0.12159317,0.06116501,-0.13494979,-0.3970279,-0.29631618,-0.1422755,0.55069405,0.20725857,0.19447176,0.23624761,0.7020779,-0.27334595,-0.56771713,0.108319245,0.41198528,-0.6539776,0.47495788,-0.381964,0.48503086,-0.4042233,0.40336254,0.40133846,0.22111516,-0.32642567,-0.16420129,-0.0183941,-0.7648994,-0.41615295,0.14188243,0.68812764,-0.93039244,-0.34545282,0.31782788,0.5051141,0.2091425,0.8315118,-0.13643317,-0.81677645,0.7027587,0.29223925,0.11620962,-0.6776913,-0.3351082,-0.6819737,0.85592735,-0.0071627875,0.9434225,0.28900146,-0.21072106,-0.29013032,-0.013218352,-0.26864696,-0.006796024,0.30332997,-0.11704934,-0.6135276,0.59439284,0.13554677,-0.218699,0.5845796,0.6601251,-0.42528078,-0.7805086,0.8565595,0.2917846,-0.0008353365,-0.083785795,1.3166157,0.5465983,0.3292545,-0.7205491,-0.2561169,0.40700787
affirme,0.64338607,-0.30350238,0.31989405,-0.4442821,0.50592905,-0.86696756,0.21015832,0.65565735,0.345749,-0.8841206,-0.62924623,-0.33399287,-0.21347325,0.3907578,-0.27068588,0.09457366,-0.13293386,-0.18735702,-0.4671632,-0.506918,0.00865891,0.039225202,-0.34347895,-0.9410764,0.7544766,0.11428131,0.46292922,-0.21293648,1.5428613,0.031190934,0.14237568,-0.12366336,0.4693382,-0.52637,-0.64072335,1.1645921,0.16985844,0.5916714,-1.0160965,-0.3347116,0.72643316,-0.5143157,1.2726991,-0.8309119,0.5305916,0.037972257,-0.16400465,0.10592441,-0.31788534,0.43628538,0.12685588,-1.3331416,0.11336907,-0.9533832,0.41266924,0.5105208,0.26438054,-0.47293165,0.14757328,-0.7271509,-0.4110118,0.50796074,-0.1629387,0.2463624,-0.6777422,-0.18210848,-0.06801525,0.16455911,0.6258906,-0.29427925,-0.47856015,0.5850016,0.6347312,1.1706742,0.060166948,-0.3566875,0.48469028,-0.27174875,-0.011777204,0.12314333,-0.9707621,0.43135267,-0.16534781,1.1945256,-0.15569948,0.090879746,0.46646225,0.3213095,-0.07336576,-0.71024895,-0.29139948,0.49467742,0.6968639,-0.1237656,0.12237046,-0.3064883,-0.13150124,-0.30179462,-0.029081855,-0.3526924
affirment,0.9296167,0.13883615,0.5025046,-0.4263012,0.13792053,-0.34364682,0.5478811,0.19831936,1.0363168,-0.4450776,0.29136956,-0.11759352,-0.20958869,-0.7651469,-0.9001637,0.17317928,0.14937711,-0.31274724,-0.83349895,-1.0088798,0.62482005,0.75576794,0.9617052,-0.05016617,0.45779645,0.14681394,0.008485406,-0.06706333,-0.81652206,-0.45644927,0.13216385,-0.33658436,-0.053607788,-0.94785124,-0.66289824,-0.254169,-0.5625969,-0.92295784,-0.66371155,-0.9168931,-0.030334778,-0.16235413,0.012421645,-0.83484614,-0.64295614,-0.1898276,0.4553631,-0.33294338,-0.3727149,0.32407087,0.1437981,-0.2547957,0.768588,0.2829258,0.14385507,-0.1930496,-0.00017815964,0.009902782,-0.47287163,0.30716613,0.5736473,-0.57983345,0.49410012,0.6220158,-0.4763955,0.62033963,-0.31395763,0.7549984,-0.5849532,0.46402976,0.21987173,0.21960956,0.50941443,0.7051235,0.5401277,-0.52491045,-0.01488134,-0.0013267047,-0.38764966,-1.0920116,-0.44598562,0.012621864,-0.8881638,0.7173219,-0.18273675,0.47130936,-0.231168,0.34567636,1.0039614,-0.38552517,-0.055162393,0.41305003,0.582309,-0.30437744,-0.0050620246,0.28346664,0.057241093,0.040955827,-0.18761022,-0.15475696
affirmer,0.23716132,0.13707982,0.36148667,-0.33062136,0.0722172,-0.31164646,-0.20685388,0.21232149,0.6927763,-0.4306804,0.81927913,-0.5390593,0.29673722,-0.15458703,0.3001565,-0.0011031454,0.54929614,1.0160644,0.13538525,-0.9542012,-0.15464444,0.15561263,0.3116955,-0.2285539,-0.41070598,-0.08598579,-1.1427202,0.17385367,-0.06310666,0.29144707,0.29105037,0.43552312,0.5620799,-1.5193714,0.16062427,-0.3183497,-0.41781232,0.6162898,-0.6905295,-0.32341978,0.5792564,0.3119574,0.0924032,0.4773028,-0.015505693,0.033026148,0.34305018,-0.12548183,-0.06383033,0.56178135,-0.51968724,-0.23780404,-0.70903844,-0.44069818,-0.115433194,-0.2271315,0.6401304,-0.076132424,-0.5897626,-0.10831757,0.43885654,-1.0232,-0.27732405,-0.14881055,-0.2763568,-0.18568759,1.1076602,0.067203,-0.6927853,0.63293207,0.3346843,-0.12262395,0.38865927,-0.09829261,1.0294077,-0.3134711,0.13463764,-0.47249144,0.1237544,-0.013452483,0.85513777,1.0681697,-0.11484819,0.33955553,-1.08825,0.36143494,0.92763096,0.52030104,0.04061845,-0.15491012,0.13294195,-0.7302305,0.23270638,0.07600106,0.3690619,1.5479407,-0.21877989,-0.18875216,-0.4171172,-0.2716572
africain,-0.3124047,0.9438728,0.31633547,0.38551912,-0.02302854,0.7145056,-0.12101921,0.8407419,-0.20616049,-0.38219526,-0.12668401,-0.63897395,-0.25600407,0.5494487,-0.28160036,0.25366426,-0.5076976,-0.37503895,-0.3563915,-1.0545456,0.7963412,0.27196708,0.073031716,-0.31743473,0.59204686,-0.28573504,-0.61452883,-0.1229936,0.18875548,0.47577286,0.30632314,0.31097367,-0.43671727,-0.7040825,-0.6651021,-0.10054564,0.19638802,-0.21711566,-0.24250676,0.4968579,0.48751563,-0.1918531,0.060201157,0.5017535,-0.003828842,-0.1814732,1.0332553,-0.9506857,0.42576537,1.0494119,-0.70295006,-0.728606,0.47871047,0.5745676,0.016111769,-0.06611266,0.997161,0.4358085,-0.029499462,1.2877824,0.29682204,-0.07361044,0.42124647,0.8132275,0.3090524,0.58422077,-0.028969143,0.76384354,-0.021897253,0.5693049,-0.3903552,0.5255989,0.6059583,0.3007631,0.13760185,0.053081606,0.4051931,0.111398734,-0.19771008,-0.43824527,-0.43897375,1.6471614,-1.1672993,0.39225465,-0.6128093,-0.004912555,0.71826506,0.23264796,0.42985746,-0.4885169,1.2687529,-0.4234714,-0.8396247,0.49408373,-0.22378208,0.1911775,0.13704303,-0.5347616,-0.15011245,-0.2680574
africains,-0.33051386,1.5368431,-0.8388421,-0.06850949,0.5768242,0.20405017,-0.20861666,0.058356762,-1.1264056,0.00839048,-0.23140983,-0.9476977,-0.85262924,-0.0732088,0.1242823,-0.080153406,-0.012552877,-0.15458184,-0.31659943,-0.998882,0.6483994,-0.3049803,0.735481,-0.73708314,0.044120774,0.056486048,-0.2557013,0.14670871,-0.5790965,-0.17614023,1.0434235,-0.049716715,0.09815441,0.0072995997,-0.024940977,0.3894678,-0.05070189,0.12612014,-0.43209308,-0.2830654,0.36788264,-0.91803616,-0.66659516,0.19510935,0.050261196,-0.28444323,0.13565806,0.17906573,0.6777782,-0.33786145,0.74189055,-0.2422973,0.8514862,0.107804485,-0.36285618,-0.4449537,0.09312121,0.1327537,-0.4916684,0.11971451,0.41388994,-0.91250175,0.5595917,-0.0371708,0.28138784,0.33660054,-1.0051395,0.8286709,-0.14264335,-0.14406705,0.072903804,0.5325874,1.2509432,-0.3089311,0.14135814,0.3854222,0.25200805,0.21921849,-0.51763666,-0.3356214,-0.5750386,1.1829364,-0.3723486,0.59536487,0.47060344,-0.059856467,0.37791365,0.9972837,0.78054094,-0.32594275,0.8316851,-0.6247954,-0.46755293,0.98434496,0.8426976,-0.09599848,-0.4067239,-0.44459915,-0.19163643,-0.6424455
afrique,-0.20283179,0.37209198,0.15986803,0.15513587,-0.51156485,-0.15586273,-0.6217771,0.15508384,-1.1877319,-0.6888599,-0.29104778,-1.2285421,-0.26644978,-0.14524058,0.39605606,0.19446896,-0.2478955,-0.2325247,-0.48231593,-0.77146393,0.14557691,-0.27301592,0.5816692,-0.6083104,0.6140552,-0.66810465,-0.25138247,0.06393812,-0.25843373,0.32248417,0.8261224,-0.44131067,0.10260382,0.54503113,-0.8385206,-0.06336182,0.13627408,-0.15320207,0.1629432,0.7461755,1.0434508,-0.60234493,-0.04390801,0.25253254,0.052902758,0.105779834,-0.12529609,0.45500323,0.16272178,0.304212,0.5622597,-0.6742176,0.24500932,0.3521083,-0.55032855,-0.340489,0.59899396,0.8607217,-0.26018927,0.867257,0.31812698,-0.048922636,0.25816262,0.19619955,0.18680301,-0.09409259,0.18520631,0.23150028,-0.57647735,0.2795454,0.053851455,0.6191097,1.2276058,0.17004608,-0.18944788,0.5605053,-0.01757518,0.03346627,0.21828447,0.44106805,-0.5055359,0.86824304,0.09813995,0.22945674,-0.0548506,0.035222784,1.2081094,0.8703327,0.55023116,0.3882653,0.5093438,-0.15138084,-0.48360068,0.92323816,0.950589,-0.58760697,-0.37836722,-0.94129556,-0.65558517,-0.24332578
agent,0.5103606,0.124847695,0.19669616,0.016726421,-0.10045078,-0.04618228,-0.038265962,1.0806756,-0.23536725,-0.060216147,0.3129388,-0.33264396,-0.11919447,0.26146576,0.2821981,0.28383178,-0.0395269,-0.034336977,0.90062225,-1.2778329,0.4050973,-0.11764046,-0.13915445,-0.83824825,0.44156834,0.772391,-0.93300354,0.2161792,-0.21058989,-0.47479168,-0.44024804,-0.58363473,-0.02238159,-0.48146048,0.58289456,0.4621615,0.29042834,-0.32433936,0.6156886,-0.33057183,-0.3087823,-0.6133445,0.027632948,0.59097964,1.0981969,-0.35819733,-0.9806405,1.143662,0.15692784,0.0074228584,-0.013600059,-0.66163516,-0.21733859,0.14697906,0.22869812,0.0003347188,0.19804627,-0.6378034,0.55057317,-0.28818184,0.35348815,-0.1260059,-0.13526621,0.39967018,-0.4699591,0.750882,0.513237,-0.05277128,-0.61945355,-0.10028305,-0.29943326,0.27872902,-0.22136234,0.22795607,0.14129286,-0.08272255,0.40040857,0.31573322,0.013876518,0.5059684,0.41227096,0.5112793,-0.18368825,1.1075988,0.2848557,-0.34040454,0.751838,1.1589856,0.27747276,0.024811069,-0.66492766,-0.22331458,-0.7024873,-0.25908878,0.26091298,0.48150998,1.6292186,-1.2753737,0.7454822,0.23239015
agents,0.27677613,0.25779682,0.3421828,-0.3503147,-1.482567,0.11470418,0.060816113,0.29351142,-0.06189824,0.25892726,-0.41990995,-0.90282553,-0.14050275,0.16665934,-1.0843699,-0.29165488,-0.19141254,-0.047252815,-0.03719992,-1.2021097,-0.073166974,-0.20222406,0.54615253,-0.23541188,0.40217808,0.40454945,-0.4012196,-0.302313,-0.32491854,-0.36366898,0.18900976,0.005845567,0.5738442,0.0028721849,0.39518416,-0.059076946,0.050089374,0.0052333823,-0.01766241,0.105101064,-0.24298623,-0.20159023,-0.07646252,0.6576254,0.61645204,-0.08505337,-0.14316972,0.21809135,0.5443208,0.52068603,1.0126522,-0.44205365,-0.33406147,0.45320088,-0.31418687,-0.6372646,0.45402908,0.48723352,-0.34214905,0.11944929,-0.5248862,0.1834166,0.51234514,-0.13074099,-0.95433456,0.6428524,0.13359872,0.7075898,0.09237409,-0.19837973,0.044355556,1.1787182,0.04479442,0.6213873,-0.3202563,-0.20530032,0.5553787,0.10027745,-0.5913934,-0.9267396,0.08119499,-0.10923446,-0.35657167,0.2590154,-0.096760295,-0.444306,-0.89133936,0.1606087,-0.9279837,0.077886514,-0.016686125,0.1919469,0.08118424,0.32610825,0.69618833,0.100021094,0.8060245,-0.13754408,-0.09091934,0.05856544
agir,0.3875409,-0.6359279,-0.15884162,0.26220486,-0.06662365,-0.06489684,-0.11523287,-0.2017766,-0.6815754,-0.25384134,-0.6878448,-0.77612275,-0.5480816,0.35048363,-0.5792535,0.3714791,0.43301937,1.0015479,-0.17292818,-0.9015391,1.0170296,-0.17933969,0.07986373,-0.20956577,-0.08785711,0.02739432,-0.713808,-0.09633302,0.39336163,0.58929646,-0.27009407,-0.11916695,0.40639856,-1.0960326,0.11898933,0.15678775,0.4337538,-0.87150323,-0.105014965,-0.21781236,1.0456206,0.07403777,0.69081783,0.38120607,0.19765908,-0.27541858,-0.82881874,0.048288256,-0.13250563,-0.16814482,0.08490265,-0.45415342,-0.44828045,0.05504733,0.086463094,-0.8403854,0.7174479,-0.16245918,-0.31000844,-0.04206605,-0.53836393,0.35371557,0.3196228,-0.05883338,-0.7997312,0.41099587,0.43970022,0.28949383,-0.29650956,-0.02755944,-0.47801057,0.12289359,0.39485678,1.1401066,0.83218753,-0.40904716,0.8258745,0.12391247,-0.10761326,-0.46265513,-0.47065708,0.964704,-1.0266546,0.27784044,0.20490138,0.045514483,0.40469283,-0.6718798,0.08196742,-0.082947254,0.2425136,0.47661415,-0.78636473,-0.39094186,0.678132,-0.11456802,-0.12421478,-0.016813435,-0.4078559,-0.6890073
agira,1.020561,-0.29228267,-0.1696491,0.299864,0.47282445,-0.6903019,0.3227727,0.07260971,-0.5588037,-0.26936522,0.3862725,0.83534974,-0.94156384,-0.83371174,-0.37774232,0.6697881,0.46960375,0.20793568,-0.33771038,-1.366779,0.15906477,-0.011255412,0.451915,-0.10234416,0.42209265,0.040327404,0.5565922,0.19465521,-0.030095683,0.39905763,-0.13845724,-0.07502269,0.74052185,-0.9754634,-0.30630645,0.42637497,0.4208199,-0.37157983,0.47162703,-0.77842474,0.33758968,-0.53396,-0.09109809,-0.76820856,0.6065935,-1.4681273,-0.2143298,-0.39561394,-0.21023816,0.8316091,0.0500377,-1.0603338,-0.28205052,-0.31634662,-0.1307033,-0.13401194,0.45865363,0.09421169,-1.2304918,-0.4868048,-0.43141943,-0.041931096,0.47781906,0.32179838,-0.044223603,0.28261125,0.47538742,0.9455312,-0.5379485,0.7031619,-0.273238,0.028091453,1.0517366,0.7020718,0.6082514,0.06191512,-0.15703017,-0.3108076,-0.106581226,0.48619136,0.041000567,0.0014336678,0.20222281,0.56112427,0.5706191,0.23724678,0.14152035,0.41206387,-0.43400776,0.9478847,0.2997595,-0.09214663,0.39841473,-0.38253134,0.76600325,-0.502182,-0.10751348,0.1929323,0.47660223,0.111598015
agissant,-0.316629,-0.5420656,0.4329782,0.74067557,0.61825496,-0.6982964,0.02993796,0.17071643,0.20381378,0.010746461,0.321718,-0.3094934,-0.029836118,1.362919,-0.16770999,-0.5282291,-0.743686,-0.6556392,0.1636751,-0.08393834,-0.08721073,0.9382082,0.89256674,-0.7069693,0.13085984,-0.014863724,0.03966277,-0.62967074,-0.5301788,0.05401477,0.24207774,0.308669,0.16189721,-0.49697122,-0.37587732,-0.02795499,0.31123707,0.07799506,-0.093783334,-0.6927627,-0.45629698,-0.22259414,0.19099514,-0.15175405,0.1092475,-0.06544878,-0.5094982,0.12602729,-0.013989458,0.3336342,0.002561553,-0.27002755,0.3457287,0.1308958,0.063803166,0.34778857,0.24146065,-0.58747977,0.37748456,0.6250599,0.8606636,0.35657778,0.11212751,-0.36612967,-0.6653599,0.050866347,0.17407678,0.12971136,0.36731812,0.22833808,0.28372183,1.0219966,-0.25303194,-0.7688909,1.6675301,-0.1829066,0.0011561147,-0.014765863,-0.69001514,0.5716962,0.41959283,0.20499296,-1.0018716,1.322015,0.27086315,-0.22273275,0.90919673,-0.026048003,0.18941513,0.36658224,-0.22119609,-0.7924522,-0.3953614,-0.08751919,0.64800817,-0.03618761,0.65927356,-0.9813141,-0.4652101,0.7816718
agissent,0.7746499,0.029947273,-0.42920303,0.04729695,-0.1530553,-0.40630993,0.20544207,-0.5386229,-0.35259375,-0.20811988,0.5780184,0.17694177,-0.41770524,-0.27467403,-0.8680608,-0.2076711,-0.013224077,-0.046218675,-0.10893308,-1.4704549,0.09511,-0.113847256,0.49340126,-0.4242733,-0.4310633,0.16353382,-0.1881923,-0.3746975,-0.060349707,-0.052263252,0.32504436,0.5680162,-0.3140428,-0.65548253,-0.57440007,-0.15779495,-1.3778535,0.14193735,-0.47811782,-0.16960986,-0.13304842,-0.29615748,0.37630397,-0.17037399,1.1277225,-0.5671994,-0.2715843,-0.01111359,-0.033081118,0.26415077,-0.21081628,0.38454854,-0.2941628,0.76466346,-0.8412463,0.6878861,0.40005362,-0.282658,-0.11512809,0.023263823,-0.08340057,0.6126896,0.61200523,-0.35235322,-0.5457049,0.38140956,-0.39762917,-0.17969415,-0.23338412,0.010910789,-0.22470829,0.1852735,0.46683148,-0.8601923,0.12216234,-0.52136034,0.0923981,-0.006129745,-1.0265373,-0.14067668,0.02903977,0.0413677,-0.95525944,0.36375502,-0.5818405,-0.24382977,-0.35248145,-0.1799251,-0.05172466,-0.07870213,-0.34757233,-0.527095,0.16940205,-0.35933092,0.36352023,0.32368523,0.23864077,-0.24808031,0.24578877,0.5562979
agit,0.58788913,-0.4287164,-0.14459857,-0.14718628,0.819787,0.0017792056,0.66947126,0.22675301,-0.23280357,-0.41273466,0.45303112,1.0151937,-0.7798381,0.08804117,-0.3980417,0.5005894,0.39070755,0.51437247,-0.09802772,-1.1875064,0.2940879,-0.021968834,0.46635592,-0.6362182,0.28769115,-0.06882103,0.15756531,0.35449722,-0.2469776,0.41235268,0.048919193,-0.02311229,0.56025845,-0.41705087,0.050669704,0.5254836,0.055324852,-0.5775298,0.52482605,-0.5152228,0.20803517,-0.5249169,0.27849072,-0.313522,0.16112716,-1.2583675,-0.21210608,-0.6427854,0.6978318,0.12434627,0.03945931,-0.824348,-0.0715185,0.21867381,-0.28928423,-0.22200899,0.73733056,-0.3818621,-0.5418232,-0.22035782,-0.76521176,-0.16707234,-0.16106357,0.27903047,0.33725154,0.47501507,0.52859485,0.67932475,-0.52921516,0.5120245,-0.06920665,0.37880975,0.9413075,-0.15860593,0.40264776,-0.08702295,0.2330187,-0.08450811,-0.46341807,0.6427026,0.2915603,-0.2299743,-0.11546546,0.8472884,0.9558715,-0.09813509,1.2805927,0.68099135,-0.66331536,0.6832308,-0.18081766,-0.12845007,0.2989664,-0.24403366,0.66340226,-0.13368139,0.1045854,-0.22029118,0.06944598,0.40785867
